2304,
-0.016666433
-0.390864
-0.14189036
-0.09550854
0.028818266
-0.035643652
0.39664602
-0.10033355
-0.121537775
0.25413287
-0.25467512
0.2728674
-0.1481877
0.034640644
-0.018819924
-0.116727054
0.26542342
-0.31608355
-0.060166236
-0.32036856
0.10017025
0.124848574
-0.18118615
-0.22473325
-0.24746864
-0.50059366
-0.12817381
-0.061652783
0.17893228
-0.42163113
0.123465836
-0.13489437
-0.055434316
-0.4028395
-0.10889302
-0.047339592
-0.10844825
0.2595897
0.2819218
0.08972687
0.11551541
0.25675443
0.0874827
-0.06973885
-0.13846523
-0.07767189
0.11351468
0.22621721
0.27652144
0.25876856
-0.27853706
-0.4464382
-0.12217694
-0.029697144
-0.09196572
0.0923143
0.15281093
-0.0019076981
-0.14776286
-0.14567442
0.05640884
0.008052835
-0.3443082
0.08829138
-0.21495005
0.087887764
0.1185749
-0.23954116
-0.04636249
-0.038006
0.1612527
-0.23205677
0.18261008
0.023430793
0.1342961
0.2018015
0.10811406
-0.053933058
0.3877398
-0.23944773
-0.34803241
0.09759668
-0.30183706
-0.18508434
-0.14048427
-0.63938606
-0.13778971
-0.2053334
-0.15103012
0.025286837
-0.27849028
0.0077970033
-0.13775694
-0.4182812
0.8143465
0.3460418
-0.10548823
0.032061208
-0.08609154
-0.12176846
0.28996953
0.15959737
-0.50725204
-0.24782509
0.03621086
0.25700215
-0.04896556
0.8369526
-0.20845088
0.026691647
0.14160591
0.25817546
-0.6351547
0.24177289
-0.13846655
-0.04372454
0.1277884
0.15985571
-0.118402965
0.11994822
0.006492351
0.20685941
-0.34460545
-0.28220683
-0.23300928
-0.18255143
0.28653708
0.4469037
-0.3250238
0.006859554
-0.0017316503
0.03390324
0.05749095
-0.06616026
-0.013115394
0.014468263
-0.25708184
-0.41449043
-0.0058510196
0.046238072
0.105316386
-0.017466037
-0.031430263
0.017930195
-0.49203962
0.06483834
0.06356351
-0.06440695
-0.04669188
0.0094922865
0.051908325
0.04800634
0.024782458
0.05561823
-0.23218685
-0.03452559
-0.065462954
-0.08444154
0.24898118
-0.0333737
-0.03895435
0.014931296
-0.385996
-0.015115497
0.07048044
0.105769485
-0.012042592
-0.07397248
-0.0021231342
0.0144621
0.0072976598
-0.058721546
0.050243855
0.01612073
-0.039928626
0.44730446
0.040885232
-0.022295611
0.5184207
0.00020124634
-0.077638425
0.13618706
-0.04367333
-0.075802915
-0.11732223
0.0014728324
0.08233526
-0.004686127
-0.17160426
0.06615996
-0.0910576
0.057051294
-0.09227489
-0.12012709
-0.14744695
0.08539575
-0.059455227
-0.11998832
0.017593311
-0.16282606
0.25223243
0.06161604
-0.08909401
-0.10393791
-0.18479462
-0.269265
-0.063448556
0.30643213
0.046572484
-0.0048480756
-0.09353054
-0.03495045
-0.16959624
0.26912153
0.018174985
0.13398255
0.2939614
0.23424017
0.053022973
-0.39048415
0.09981158
-0.10019733
0.019273872
0.06940706
0.20248048
0.13703161
0.13919662
0.09594957
-0.13740072
-0.03293864
0.3553884
0.16853975
-0.001200834
0.037522364
-0.22314161
0.47987062
0.10605578
0.007688663
0.0764944
-0.12132079
-0.009429538
0.023540098
0.2411278
-0.06675105
0.18197875
-0.13873358
0.5669808
0.07380697
-0.084214896
0.027660219
-0.16400747
-0.06963794
0.24339542
-0.12934104
0.16591305
0.044972435
0.006988347
0.10090657
-0.54043335
0.25572416
-0.2803624
0.15594207
0.14742063
-0.09357848
0.027325464
-0.3652966
-0.05289764
0.10006186
0.3049527
-0.21875753
0.0058853673
-0.13065773
-0.033677474
-0.0072118407
-0.096281774
0.0017461657
-0.17897083
-0.4064891
0.29158658
0.12319849
-0.17574947
-0.32025662
-0.026328737
-0.2083565
0.64256436
0.09929702
-0.30923614
0.08250993
-0.008932134
-0.017199554
0.3317452
-0.31339368
-0.12461193
-0.23530503
0.04520207
-0.16275167
-0.091084205
-0.036534555
-0.1421419
-0.068299055
-0.38878945
0.21084467
-0.10351186
0.434672
0.086650915
0.017478203
0.08168022
-0.06026223
0.21840325
0.020879352
0.061376214
-0.17552485
-0.09015418
0.6688237
-0.055444498
-0.015210591
0.19508883
-0.12479618
0.21175013
-0.6233996
0.055390663
-0.08714969
0.21637557
-0.26295212
0.08581434
-0.22886392
0.43078247
0.037573766
-0.08694201
-0.039743237
-0.039784834
-0.2686024
-0.09251104
0.1703457
-0.10437629
0.10108098
0.028791819
-0.11008774
0.03307629
-0.4526173
0.11852295
0.016449157
-0.103288606
0.0542829
-0.1433852
0.15425168
0.13603936
0.12547655
0.006022843
0.09285295
-0.124864966
0.054848142
0.05732515
-0.0366214
-0.0015655893
0.20520985
-0.18032357
0.03753398
-0.02080021
0.06349484
-0.016763978
-0.05618264
0.35217166
0.007005871
0.08058413
0.090823
0.14386354
0.26448166
-0.14403406
0.4810097
-0.106748454
0.10927594
0.12324613
0.08958994
-0.16493179
0.17048867
0.126141
-0.23236354
-0.45609635
0.19319743
-0.19087672
-0.32239816
-0.109602146
-0.10757718
-0.30096835
0.045524903
0.16933595
0.329585
0.14686398
0.19797495
-0.06821814
0.07391983
-0.19232208
-0.08430231
-0.13508676
-0.06007619
-0.08117282
-0.2424497
-0.07687444
-0.00568819
0.108017854
-0.025856007
0.004489603
0.103309385
-0.26384494
-0.056298684
-0.017762488
0.2645252
0.024672797
-0.051999472
0.021769462
-0.18926491
-0.08559033
-0.059132587
-0.22449327
-0.3085308
-0.040950924
-0.19678105
-0.13716258
-0.22253723
0.12106667
-0.07835823
-0.02492274
0.22475432
0.0407083
0.44649407
-0.53218937
-0.02151008
-0.07142496
-0.15605025
0.04940171
0.104686126
-0.045724846
0.42848068
-0.14544973
-0.36188054
0.29570997
-0.08232452
-0.27890173
0.19062814
0.04322011
0.4011491
-0.40355465
-0.0124414
-0.0500993
-0.09883997
0.01582582
-0.06730617
-0.059496198
-0.065511465
-0.03277923
-0.102025375
-0.118766755
0.70901877
0.4787561
0.185514
-0.5233669
-0.095858105
0.16898859
0.10507368
-0.19438295
-0.08261748
-0.07714194
0.24884544
-0.037661042
-0.27831173
0.4055155
0.009131507
-0.74317193
0.07487331
-0.015682034
0.042315427
0.1955341
0.33200744
-0.010776726
-0.022256123
0.015353238
-0.06064073
-0.18318513
0.04164753
-0.07901554
0.15460801
-0.061714273
-0.08367736
-0.14525394
0.054722354
-0.12457989
0.0772565
0.2947813
-0.19811061
-0.20524724
-0.22453032
-0.25417486
0.18502793
-0.14597897
0.01983094
0.22038415
0.07434717
-0.05080134
-0.20710067
-0.02726744
0.06379988
0.008848395
-0.17689852
0.14982243
-0.08260906
-0.0737551
-0.014907374
-0.3953167
0.03563497
-0.1564627
-0.2081656
-0.16722342
0.25762674
0.002182645
-0.25072435
-0.08060743
0.05344315
0.12321103
0.053512935
0.6169236
0.12514298
-0.017190559
-0.04576454
-0.044083267
0.14977857
0.25022003
0.113472864
0.1258832
0.038232278
-0.040566016
-0.17709292
-0.15424438
0.1380404
0.16923758
-0.17058302
-0.19317101
-0.3073093
-0.050438344
0.07183672
-0.0032308192
0.12085507
-0.03186193
-0.08755048
0.061498493
-0.012609239
-0.13978167
-0.03328742
0.011775963
0.11209913
0.07625951
0.02904525
-0.12556991
-0.15863484
-0.035311338
0.4405269
-0.15548189
-0.16179633
0.087571
0.022649817
0.013969412
-0.13040757
-0.049356
-0.2410639
-0.107691206
0.068964586
-0.05943789
0.09670823
-0.032518577
-0.00079778896
0.14488247
0.07653509
-0.055554762
0.18685347
-0.049694207
-0.04973267
-0.013599126
0.03664463
0.11153375
-0.01082262
-0.096475184
-0.17951988
0.165876
-0.07258437
0.26748267
-0.15387017
0.15832457
-0.047604326
-0.14249839
-0.38214073
0.059238855
0.0101373615
-0.0028027424
-0.034444273
-0.006837999
0.07125551
-0.00068652496
-0.045862198
0.0121926
0.046305362
0.0802955
-0.047732867
0.041203324
0.109631084
-0.054103386
-0.08281307
-0.0021573505
0.048411403
0.07675941
-0.08214269
0.09809933
0.07616684
-0.005925934
-0.21284848
-0.05068893
-0.018280115
-0.090371475
0.010512982
0.05810625
-0.049744766
-0.11243341
0.0001449449
0.072161004
-0.14915475
-0.15417525
0.06571589
-0.019021787
-0.027796844
-0.16816294
-0.069800615
0.5367522
-0.035004146
0.06396841
0.012330523
-0.004341113
-0.07442636
-0.14994292
0.086303815
0.6355093
-0.6509266
0.065524735
-0.09244364
0.08182182
0.6831391
-0.02882262
0.0672791
0.31382695
-0.0628139
-0.004679327
0.012352861
0.15844572
0.07120117
-0.06279079
-0.041483793
-0.04582481
0.27615032
-0.042084817
-0.066915564
0.028281108
0.012190611
-0.105676174
0.00058187125
-0.081581935
-0.10320221
0.12423465
0.037401877
-0.013845591
0.12529342
-0.066117056
-0.43509248
0.07075741
0.35863698
-0.017456729
0.021939639
-0.11247513
0.33100772
-0.07734483
-0.051896535
0.045637995
0.031708505
-0.011577957
0.06609686
-0.15455402
-0.5866805
0.049117137
0.009046989
-0.5384748
-0.021207089
0.0916434
-0.11884188
-0.12497809
-0.05686697
0.044203207
0.08672925
-0.026479656
-0.06622773
0.13379464
-0.0050045466
-0.124215335
-0.03608325
0.052477293
-0.03555788
-0.15570292
0.07204492
0.13256906
0.110972516
0.30726945
-0.001895394
0.029412156
-0.53527784
0.1026938
-0.3059457
0.69722253
-0.26322198
-0.079612955
0.03150528
-0.08370525
0.075565554
0.04564996
-0.2577101
0.05817086
0.30245996
-0.14369357
0.068140805
-0.13083866
0.2717375
-0.05630687
-0.38703558
-0.29770777
0.04331255
0.08158117
0.118360884
0.14987569
-0.14937776
-0.28794447
-0.09504124
-0.051786564
-0.12647836
-0.21596158
-0.3513511
-0.37118992
-0.14519088
0.1305948
-0.25345993
-0.290816
-0.4535865
-0.34535563
-0.12423078
-0.20428114
0.098910615
0.090467036
-0.17421415
0.1314839
-0.22722381
0.10700526
0.13174199
-0.86903745
0.057228405
0.12718086
0.036888946
0.06495173
-0.07029915
0.02480218
0.08626235
0.037876625
0.3346719
0.17981285
-0.3344281
-0.10222999
0.13550861
0.040884327
-0.023823354
-0.0857858
0.0068314206
0.01780312
0.0706033
0.19971436
-0.0015140465
-0.09039373
0.046559412
-0.09561761
-0.06641445
-0.019596314
0.10235611
0.004835077
-0.03215356
-0.04372553
-0.2697428
-0.13746107
-0.17100593
-0.064744316
-0.07292314
-0.1744814
-0.036750015
0.022504685
0.018970508
0.047197524
-0.009053236
0.095253445
-0.03314587
-0.086958915
0.060352795
0.11419342
0.088073455
0.24876702
0.12082966
-0.094962314
0.040916126
-0.030110423
0.13664134
-0.12353494
-0.03390785
0.0396824
-0.03956115
-0.00989514
-0.011934431
-0.026387764
0.022523362
0.028011436
0.039703574
0.07336106
0.07360349
-0.103407584
0.03331147
0.08412707
-0.054098103
-0.07257754
0.03672651
-0.014621922
-0.027666368
-0.08556483
0.04321376
-0.096029826
0.012747728
0.13687694
-0.018239101
-0.098178394
-0.1202278
-0.004061389
-0.25234854
-0.019489001
0.124907695
-0.00084451947
0.045327142
0.10697402
0.16522461
0.09077118
-0.13803071
-0.16585255
-0.12661724
-0.014957981
0.088081725
-0.055717185
-0.08966381
0.11661999
-0.10397886
-0.13713622
0.09933463
0.017626617
0.018940663
-0.085591786
-0.1288478
0.13667566
0.022488168
-0.10846492
0.039924428
-0.13736811
-0.12944175
-0.06943144
-0.06989628
-0.050768405
0.008396914
0.09261133
0.057344373
0.010084026
0.1322679
-0.045001358
0.058472265
-0.0078679
0.28252304
-0.12540932
-0.089853816
-0.02033208
-0.098447174
-0.030504374
-0.14708157
0.017201886
0.07331516
0.035188314
-0.07485077
-0.13170187
-0.10115005
0.1922765
-0.008885591
0.062414933
-0.016043555
-0.086170785
0.00020543151
0.0033190814
-0.09449121
-0.11750425
-0.07229813
-0.1691123
0.04463861
-0.04159652
0.08115384
-0.048889037
0.04826268
0.06322468
0.03850646
-0.12672898
0.0060718255
-0.15337607
0.078601085
-0.050675828
-0.081431955
0.076762415
-0.1398846
-0.0020802668
-0.09818964
0.061577246
0.08672957
-0.090401456
-0.0292277
-0.14891112
0.0025679339
0.12062444
0.0025027678
-0.010102819
-0.07295715
-0.2216084
-0.0933363
0.10910049
-0.13156271
0.036275417
0.033345334
-0.058986656
0.07991421
-0.061204392
0.06976236
-0.043098673
-0.007891187
0.010143325
0.08018175
-0.022478474
0.05146811
0.014909161
-0.0045318245
0.06347689
0.07969574
0.017261624
-0.034212478
0.08824123
0.027553655
0.023107093
-0.043297954
-0.049576204
-0.1399753
-0.07159193
-0.11385811
-0.14748462
-0.09498206
-0.01651575
0.07171607
0.047183745
0.0090344045
0.13470843
0.18088904
0.25703073
-0.082924254
-0.046296693
-0.10803216
0.0036763018
0.14049193
0.12601298
0.05873536
-0.046785735
0.03226203
-0.12931228
0.010073725
-0.20093116
0.0032355923
0.06336833
-0.13923328
-0.048688337
0.06752189
-0.001894092
-0.083352
0.15490793
-0.059127785
-0.015190293
0.020397905
0.050289057
0.06060865
-0.04700169
0.123239376
0.029863615
0.08862964
0.06991072
0.23898478
0.032324392
-0.080566995
-0.10069886
0.103025906
-0.015808553
0.086471826
-0.051465582
0.0054109087
-0.10257153
0.03305079
0.10087888
-0.05976629
0.026937341
-0.04158898
0.037679575
-0.028821416
-0.07049673
-0.066438295
-0.07976076
-0.052232545
-0.12344814
0.1349356
0.0926568
-0.010533421
-0.06308788
0.012633332
0.10252114
-0.07223031
0.00041082816
-0.09377124
-0.100567035
0.033616908
0.16473173
-0.056068268
0.022299465
0.06817947
-0.08762438
-0.028762247
0.03340538
0.006257919
0.08871702
0.013786777
-0.11133433
-0.08719728
0.10738295
0.022573212
-0.08375023
0.017417666
-0.0074383924
-0.12019436
-0.13539055
0.029009765
-0.06108932
-0.07714337
-0.075458534
-0.0027559495
-0.021238768
-0.13173065
-0.049516346
-0.17961341
0.07642619
-0.06720893
0.17783415
-0.028334856
0.070170656
-0.07533977
-0.07561712
-0.012072659
-0.044805646
-0.006735603
0.012291685
0.1184671
0.053331766
-0.09747105
-0.030271254
0.03680476
0.120968625
0.10301258
-0.06677641
-0.05852351
-0.036231197
-0.10571721
-0.05299291
0.060351394
0.015160482
-0.18708946
0.039543025
-0.030980391
-0.013393415
-0.05954054
0.16929999
-0.103199124
0.079424515
-0.17707834
0.18838263
-0.08645225
0.034790583
-0.073379904
0.13933833
-0.074140884
-0.06960162
0.00196572
-0.049761053
0.08438997
0.0812899
-0.0787859
0.068493605
-0.13529634
-0.08024488
-0.026900414
-0.009773255
0.21556593
0.023462838
0.13170907
-0.04412574
0.18367717
0.027865883
0.15621567
-0.0090790745
-0.192201
0.058357254
0.010008141
-0.14681654
-0.01721854
-0.1586095
-0.1489417
0.12630914
-0.008934666
0.01778195
-0.0055055097
0.005111098
0.00068424473
0.1066832
-0.090043575
-0.10456834
0.015416331
-0.08379067
0.0846386
0.014968951
0.071834445
-0.12423603
0.088402465
-0.19283657
0.11088185
-0.01614608
0.2593236
0.0036491328
-0.104172036
-0.034638796
-0.043061048
0.031172877
-0.20447573
-0.011353128
0.06981272
0.042666126
0.0005472033
-0.06091758
0.03551012
0.09347928
0.0007576714
0.06544005
0.17908224
-0.0059046475
0.0251981
-0.079101734
0.012680833
-0.097410284
0.010955686
0.096542016
-0.01863171
-0.092920214
0.2177395
-0.14717513
0.023892844
0.21196032
-0.11268858
0.062339693
0.035132434
-0.15424547
0.20612204
0.13082293
-0.035099067
-0.047199048
-0.074708335
0.012986816
-0.07242446
0.021794466
0.012685018
-0.06466652
-0.030077655
0.006202706
0.043832563
-0.13751611
-0.008048437
-0.016765779
0.023361648
-0.046702255
0.03825623
-0.10688548
0.0061672116
0.08994803
0.03228265
-0.08557642
0.11002487
0.07783876
-0.121013105
-0.1299233
-0.15659876
-0.009752062
-0.2796563
0.07556796
0.009757143
-0.016645823
0.048393685
0.0006732953
0.0064954725
-0.015771339
0.16468509
-0.062116116
0.020441554
-0.14991021
0.12695514
0.070565246
0.114427775
-0.06544587
0.20999534
-0.055565804
-0.35149685
0.018035706
-0.2348242
0.06983364
0.006404394
-0.19526434
0.23888324
-0.19056202
-0.021119295
0.038504608
0.23277186
0.15377875
0.072869696
0.07213168
0.17797317
-0.021219878
0.07570915
-0.0752279
0.13468994
-0.08421496
0.15230906
-0.19217427
0.012749505
0.07488264
0.1341446
-0.191316
-0.03944589
0.33230025
0.06139324
0.0203147
-0.02284387
-0.19926254
0.0030178363
-0.17751762
-0.0099418415
-0.17070521
-0.05959923
-0.22043012
-0.00838541
0.16460924
0.06601201
0.09921225
0.08925733
-0.013989776
-0.013360011
0.0948604
0.036600336
-0.06614342
0.14016409
0.06994796
0.08120916
-0.047168348
0.024128776
0.052230347
-0.103794225
-0.074756406
-0.09684715
-0.044949032
-0.09121527
-0.12220197
-0.0036544292
-0.021665877
-0.06412656
0.03371434
-0.076386526
-0.17880876
-0.21389031
0.090744406
0.0715568
-0.13840684
-0.02121136
-0.081247635
0.022822868
-0.05258722
0.26030615
-0.10334861
0.07051747
-0.105554156
-0.07689513
-0.12414855
0.14070544
-0.045115195
0.086829446
-0.0018331339
-0.049368907
0.13860129
-0.117700964
-0.074790575
0.08391266
-0.19823752
-0.08621423
-0.05012394
0.048871424
-0.15866537
-0.06734435
0.17815165
0.016577857
-0.13324282
-0.064717315
-0.008459955
-0.031086536
-0.01613427
-0.0637498
-0.068863556
-0.0217719
0.007567659
0.10501132
-0.123981334
0.2221767
0.015951008
0.07127721
-0.006155006
0.019305026
0.15786585
-0.06579936
0.05968439
-0.120880365
0.040756483
-0.19382496
-0.042866386
0.037494
-0.016229868
-0.16080205
-0.064395115
0.024986902
0.22783825
0.09331734
0.0010366227
-0.049245454
-0.14899214
-0.06161524
0.050555922
-0.016845305
-0.011907811
0.078361586
0.05923882
-0.018220838
0.045840282
-0.005645405
0.14018266
0.012799765
0.12424715
-0.08455092
0.028326932
0.0721317
-0.19698818
-0.028487489
0.014648114
0.095521726
-0.16541576
0.15805386
-0.06993604
-0.030190857
0.05102219
-0.0030965076
-0.039479855
-0.19984536
-0.07061653
0.045373373
-0.074371204
0.025018197
-0.010340181
0.1995919
-0.2315613
0.21017046
-0.037919078
-0.13344742
-0.005185658
0.20587152
-0.052824695
0.025610372
0.07374085
-0.14661668
0.02072522
0.070683464
0.09351287
0.041853104
-0.20905702
0.08720495
0.08548552
-0.06987973
0.012036039
0.06758089
0.11727174
0.11202636
-0.07025762
0.060133316
0.13349946
-0.07031779
0.12832154
-0.013536366
0.02235982
0.002570182
0.06767561
-0.024411066
-0.15723787
0.15085712
-0.013563147
-0.09599164
0.025552502
0.019625328
-0.03144956
0.09514639
0.21478069
-0.015908431
0.042694587
0.015390264
0.06657084
0.035033673
0.01553839
0.18621568
-0.03039723
0.06478248
-0.1357706
0.084248126
0.035940472
0.10833
-0.05934901
0.0807878
0.053910565
-0.057571046
0.17421637
0.0018424246
-0.13159615
0.018067025
0.03682265
0.017618228
-0.115255624
-0.019439802
-0.13938515
-0.10412681
-0.014835854
-0.10446496
0.10898882
-0.031098
0.122846276
-0.043499462
0.09603612
0.087673314
-0.052588824
-0.012883656
0.09870815
-0.04455613
0.15902478
-0.16047482
0.10701408
0.022666035
0.052785013
-0.015955437
-0.16504997
-0.056244835
0.020795247
0.026818158
0.043985516
-0.10622037
0.08982829
-0.0029885955
0.090550244
-0.01987108
0.15701425
-0.04335301
0.0353109
0.13137496
-0.0088374065
-0.07914603
-0.033846222
-0.09201656
0.017068425
-0.096807316
-0.028362954
-0.05209957
-0.16993216
-0.04698505
0.01726138
0.12924157
0.07890209
0.17410675
-0.08885534
-0.044012282
-0.07418162
-0.04894552
0.0042006583
-0.049899917
0.15272367
0.027818238
0.23725949
-0.090605356
-0.018270802
0.1691617
0.029149825
0.10232543
0.18240646
0.039657492
0.041857935
0.023839599
-0.13188736
-0.04492697
-0.026617162
0.15656766
0.11691279
-0.0818411
0.16037312
0.12809482
0.024403546
-0.14411345
0.022733176
-0.1256176
-0.18220168
0.07583724
-0.00944725
-0.0026832041
0.032216422
0.012611283
-0.037985902
-0.1127999
-0.00803155
0.014466564
-0.013924538
-0.010591887
0.008656623
0.029394893
-0.027913598
-0.013896987
-0.012413084
-0.026997166
-0.003005542
0.009454732
-0.012029534
0.018188564
0.0038707017
-0.001517922
0.01897658
-0.0069728144
0.012040539
0.0034003756
-0.0012749736
-0.011897366
-0.0063251546
0.035187155
0.0037590899
-0.034808263
0.006093445
0.014131027
-0.018458297
0.016147822
-0.0070793284
-0.011229148
-0.00644276
0.0006507244
0.012188009
0.0056853355
-0.032534953
0.002039005
-0.023286674
-0.016760712
0.031681653
0.00485984
0.004301056
0.003957266
0.02703569
-0.03539555
-0.0019753533
-0.0036322272
0.009156647
0.01393404
0.004325938
-0.016766611
-0.007477881
0.0074641434
-0.0004448058
-0.01094362
-0.0015686125
0.0066795168
-0.0031337007
0.03566279
0.0034002669
-0.008598841
0.0008982944
-0.008064908
0.25500298
0.008833582
0.010891801
0.0067936815
-0.0032979827
-0.0071888664
0.16805297
-0.0138454605
-0.027589364
-0.019046804
-0.0034655677
0.18815339
-0.023957442
0.001744855
0.0002555315
-0.0065198704
-0.013346531
-0.009080948
-0.012757975
-0.013780624
0.010712613
0.01897901
-0.035642322
0.026056284
0.01720614
-0.0012623644
0.011036505
-0.037970036
0.0008751397
0.00273711
-0.019396314
0.0065943226
-1.0650866e-05
0.0021742284
0.028260732
0.024911216
-0.0056250733
-0.003950086
0.00040935987
0.042310618
0.00043406294
0.037118237
-0.009566743
-0.00786351
-0.041788965
-0.013600223
-0.012527547
0.019235238
-0.058220863
-0.06755701
-0.011940877
0.003267397
0.03185593
0.0054759257
-0.0019393507
0.0022375488
0.0019613432
-0.024101397
0.012556277
-0.02171899
0.025326677
0.020595606
-0.0018180358
0.006052346
-0.0051453565
-0.00043622605
0.009983664
-0.013396545
0.021460772
0.00065914425
-0.0006285926
0.009106979
0.01609524
0.005499816
0.00041322238
-0.011271516
-0.022310821
0.016486982
-0.03900493
0.0003431186
0.0002600509
-0.024103422
-0.007605449
-0.014781273
-0.008365416
0.0127838
0.007079814
-0.014935185
-0.025284223
-9.970818e-06
-0.021337237
0.0097115915
0.019233687
0.007214089
-0.016095007
0.016828787
-0.005609307
0.010820853
0.009664613
-0.013542093
0.011385352
0.025841745
-0.012667699
-0.0031434007
0.009284211
0.0049136747
0.020772966
-8.879739e-05
0.02170222
-0.0005081632
0.017255383
-0.0077576614
0.032977186
0.028685158
-0.013835507
-0.0020196352
0.002725085
0.014432711
0.011651606
0.028387675
-0.010767641
-0.016770532
-0.030599218
-0.0023711154
-0.107367896
0.006348751
0.029456545
0.017056158
0.03355969
0.007347795
-0.011856166
-0.04316164
0.026332894
-0.03393337
0.017206231
-0.0011823742
-0.008915884
0.0019314573
-0.024864534
0.06489463
-0.0042309305
-0.016956644
-0.003712917
-0.026466824
-0.10270943
-0.07073871
0.022879422
0.001221958
-0.09277076
-0.021613337
0.006915823
-0.011658422
-0.006104028
0.00948329
-0.016609708
0.0027011104
0.068732634
-0.005912851
0.006990668
0.05199803
0.0034437103
-0.039081678
-0.010689056
0.022810964
-0.013186836
-0.009275726
0.0009963887
-0.012235855
-0.018484693
0.14504579
-0.005401731
0.011447643
0.04365321
0.002130665
0.022554744
-0.08402941
-0.0019794882
0.006365333
-0.018636895
0.015021539
0.050475955
0.010404929
0.005276509
0.021893213
-0.003514062
0.029483294
0.0022853715
-0.022678979
0.030841587
0.00023817159
-0.030086424
0.057413876
-0.011208601
-0.08045988
-0.019977398
-0.0001423753
0.02259313
-0.03737583
-0.3343406
0.010853719
0.007879094
0.029868715
0.009998206
-0.010443905
0.0011646177
0.0067280075
-0.10577229
0.1068157
0.021326544
-0.013421412
0.004171101
-0.011874804
-0.025240242
0.017731229
0.028509643
-0.008125942
0.014942861
0.01619917
-0.0055309115
-0.00066917733
0.015746752
0.003220602
0.024897812
0.017203901
-0.029736409
-0.038505357
0.012499625
0.09823744
0.0032722335
-0.03503788
-0.007899031
-0.01887927
0.15103693
-0.056365304
-0.016393332
0.010438791
-0.014157374
-0.014535827
0.007432605
0.0009639598
0.02585357
-0.022330279
-0.040190358
0.02255199
-0.017310267
-0.0026597013
-0.0128768515
0.0059407153
-0.026145697
0.0023898508
0.037258748
0.026289348
0.009841548
-0.012383882
0.030955154
-0.03604799
-0.004508703
0.018183155
-0.0021826965
-0.021555362
0.00010762606
0.01747196
-0.18469791
-0.005352254
0.00014282255
-0.04323366
0.067247055
-0.07816475
-0.018397728
0.020666076
-0.0009773226
0.015749313
-0.0217917
-0.009187045
-0.007062713
-0.019750627
0.0076241894
0.002405406
0.0038788582
-0.022316368
0.02012192
0.039625138
-0.03378839
0.021741575
-0.053368434
0.049178235
-0.0013875315
-0.0022253306
-0.016618958
-0.011722018
-0.01065079
0.027211465
-0.0037917995
0.019976424
0.054032434
-0.0021889599
0.014484182
0.0009821343
0.00882074
0.030275928
0.0014620764
-7.945787e-05
0.014243156
0.007705104
-0.002858138
-0.037806865
0.056406803
-0.06951159
-0.019233087
0.006506211
-0.023075368
-0.0026129826
-0.003927305
0.022808952
-0.0001294204
0.016150665
-0.018009953
-0.012198912
-0.009396103
0.0007122951
0.0332181
0.0024442803
-0.022878824
0.1309414
-0.049426317
-0.04895484
-0.011251803
-0.03255688
-0.0062764836
-0.018070133
-0.010951644
0.058954954
0.0126236
0.034551658
0.022919219
0.01481801
0.042280298
0.07487601
0.027219813
-0.014858452
0.017692765
0.007557648
-0.0236459
-0.002338006
-0.015709959
-0.1149845
0.0050933864
-0.04384615
-0.010934535
-0.12046441
-0.015306062
0.008825706
-0.017095257
0.0006303945
-0.008565675
-0.027045926
-0.016423715
0.010198542
0.061460495
0.035116617
0.0064740954
-0.028741414
-0.00075833383
-0.013180638
0.014368527
0.073158845
0.01596485
0.025035903
-0.014089734
0.017076781
-0.03360183
-0.0067317355
-0.0023381682
0.00071702705
-0.02431004
-0.0113159865
-0.02464143
0.03664106
-0.022228131
0.11779381
0.021959106
0.003073741
0.0056867055
-0.003489314
-0.06469659
0.017968211
-0.029793624
-0.010046639
-0.03608392
0.033391707
-0.03427828
0.020068027
-0.0016602573
0.0082766
0.03524261
-0.006073741
0.016247489
0.0080665145
-0.018496662
0.0008776439
0.02435876
0.0067493794
0.05576756
-0.016597593
-0.047658425
-0.0037786106
-0.016792784
0.024065007
0.0018802946
0.05950186
-0.05804924
-0.025615096
0.006504929
-0.026268832
0.025545128
-0.07241946
0.0694238
-0.04022435
-0.016800156
0.0053543523
0.006631345
0.018522803
-0.02796055
0.041139886
0.030236235
0.039169602
0.01378282
-0.022476722
-0.10978821
0.09557448
-0.036838587
-0.017413268
0.035949714
-0.020422945
-0.015673311
0.022493461
-0.07796131
-0.004594508
0.031573664
0.0063091773
0.10553193
-0.079624005
0.031559683
0.00094821485
-0.013670772
-0.0042731655
0.012998296
-0.05230781
0.0024035303
0.020961547
-0.0008309496
-0.0059763463
-0.0018261116
0.002449107
0.01959417
-0.00670843
-0.004788626
-0.0043362044
-0.0048609916
-0.013399567
-0.006412998
-0.0043145255
-0.15908858
0.011409529
-0.009623167
0.0025351057
-0.02786964
0.002103932
0.012709002
0.00023095995
0.0024330209
-0.02530299
-0.02629415
-0.002560629
-0.016741756
-0.0010110959
0.007879472
0.041380405
0.011849326
0.012846628
0.0064497264
-0.024224816
-0.005484588
-0.0026474406
0.012800545
0.013684754
0.004742105
0.011524849
0.015151307
0.011317529
0.032829788
-0.0002929683
-0.056157146
0.005085759
-0.025327368
0.01303029
-0.12524897
-0.0070962883
-0.029269023
-0.018402109
0.011501989
0.0036135633
-0.002073183
-0.014410526
-0.022279495
0.00093632477
0.01438032
-0.009642092
-0.020621413
-0.0023051815
-0.02082182
-0.009107156
-0.0038644623
0.024371473
-0.010464052
0.00028530508
-0.013611217
0.007746862
0.026487023
-0.031347122
-0.032989733
-0.026742583
-0.008962609
-0.008712193
0.019679189
0.0015348935
0.00682958
-0.053728618
0.011073551
0.0038152898
-0.010024156
0.011158362
0.015788352
-0.010648536
0.005146154
-0.038477805
0.019281736
0.0024990146
0.008322784
-0.02421285
-0.025005193
0.006143825
-0.029276881
-0.021205485
-0.012965767
-0.01779494
-0.013647239
-0.007130222
-0.017092992
-0.001981964
-0.019534366
-0.005629803
-0.039206263
0.0065390524
0.0057145203
0.024559896
0.024578074
-0.008528473
0.011950867
-0.00035032412
0.014912038
-0.0037020713
0.0070605623
-0.00077831716
-0.046460584
-0.023828285
0.06331589
-0.029228562
0.022529695
0.003312881
-0.0014450648
0.00016742635
0.018577904
-0.0031526282
-0.031377282
0.01088813
-0.10470058
-0.013926908
-0.043135334
-0.021792425
-0.02167949
-0.020750606
0.028125554
0.0062005497
0.04688057
0.019291101
-0.016592974
-0.019463386
-0.00801637
0.03791072
0.043863658
-0.012230968
-0.0032691003
0.034950066
-0.0055606905
-0.0036328272
-0.018054299
-0.0057341726
-0.026318468
0.036844287
0.021727435
-0.057073805
0.0038065675
0.26250055
-0.013835996
0.042196788
-0.0065063313
-0.04557857
0.006578781
-0.055833757
0.010973836
-0.01226288
0.013366353
0.0036630982
0.006847222
-0.010616417
-0.010295403
-0.0065099713
0.016925205
-0.039036687
-0.013070799
-0.021515802
-0.016799835
-0.023269514
0.017905775
0.0056258077
0.013190993
-0.024111953
0.012497825
0.003970988
0.028686814
0.01354183
0.020581402
0.020218978
-0.037003744
0.02014776
0.01899511
0.003206629
-0.03167004
0.013176529
0.011849385
-0.006214729
-0.021679694
-0.027287481
0.031496596
-0.007971031
-0.01366387
-0.005473298
-0.05106294
-0.0007712171
0.01198042
0.0111861015
-0.034373157
0.027855854
0.01092236
0.02095842
-0.0072801877
0.063962385
-0.006852734
0.02559786
-0.060058694
-0.044505496
-0.04345111
0.016569173
0.00943099
0.05194389
0.012574935
-0.014785767
0.039418798
-0.03291684
-0.012067763
-0.037726548
-1.4591876e-05
0.01105721
0.016468735
-0.0071404697
0.014590177
0.0026226207
-0.03979955
0.00023298233
-0.010739713
-0.039426975
0.010454306
0.02787925
0.02052923
0.014669677
0.033745285
0.021369068
-0.024126422
0.01918483
-0.0015555924
-0.047508966
0.036680076
-0.023369787
-0.01591789
0.021165576
0.013999676
0.0999035
