2304,
-0.030123198
0.13602333
-0.3841572
0.33693796
-0.17340927
-0.15652934
0.34522042
-0.013852311
-0.13725153
-0.19260846
0.019386724
-0.25850087
-0.219806
0.14822312
0.3367548
0.0077636796
-0.03576244
0.7360527
0.033084646
-0.031454068
-0.3558165
-0.16558003
-0.378459
-0.109916195
-0.17854434
-0.10493361
0.16314621
0.11452407
-0.019253083
0.46498248
-0.030453298
0.28297672
-0.16968825
-0.50410753
-0.0008347789
-0.1285477
0.16585952
-0.14920367
-0.1688051
0.25216913
-0.026584925
0.30623582
0.18587743
-0.17441106
0.078860946
-0.13174763
0.018459946
0.10425293
-0.0063471487
-0.0670233
0.033427108
-0.09274634
0.12538782
0.17525443
0.30556795
-0.115558326
-0.15145308
-0.1327937
-0.12821601
-0.118787214
-0.016064735
-0.1862132
-0.31030148
0.014418688
0.3233609
-0.5680487
0.16552842
0.19435298
-0.33607677
0.6783074
-0.082141615
0.3106826
-0.08193555
0.43769655
-0.22056326
-0.33023202
-0.25595683
0.1078789
0.5503705
-0.12635095
-0.31608242
-0.12489483
-0.20515856
-0.113126285
-0.26112837
0.10400741
-0.3613414
0.26061583
-0.14910378
-0.3101914
-0.08606149
0.1476309
-0.118776925
0.17804493
-0.008806179
0.085498944
0.025822086
-0.020229034
-0.2224123
0.12736148
0.5323067
0.0085405335
0.26102582
0.093588285
0.15144156
0.20460244
-0.21692573
0.07451642
0.3539066
-0.004967568
0.1430778
0.30911806
0.180033
0.29422402
0.10521785
0.32589754
-0.4114109
-0.0072757415
-0.2978444
-0.4190196
-0.14096442
0.0029098971
-0.7651028
-0.1250089
-0.37472758
-0.03606552
-0.66852105
-0.22425842
0.3067034
0.2772584
-0.0357459
-0.066571265
-0.18040177
-0.01445454
-0.2848817
0.119728304
-0.10813441
-0.02957367
0.14812522
0.23262358
0.18313476
0.15721269
0.11551256
-0.009400687
-0.22055562
0.13182455
0.13524327
-0.0024637505
-0.07940421
0.11329063
-0.19825715
0.32735264
0.16908698
0.11702661
-0.14845869
0.17037398
0.22203568
0.45189723
-0.1369384
0.09401362
0.13371773
0.090555124
0.17606716
-0.320856
-0.16044022
0.029352723
0.121226676
-0.04729812
-0.19940734
-0.07561484
0.5301885
0.049600735
-0.08576699
-0.13318455
0.19000846
0.33300903
-0.9162278
-0.01815234
-0.2450353
-0.13247353
-0.09296314
0.07294083
0.17319274
0.17308919
-0.46604127
0.19697179
-0.2615294
0.13300726
0.019059416
-0.1720432
-0.42369974
0.011790056
0.16573107
-0.09291829
0.17689496
0.29540136
0.19618438
0.23689838
0.10553864
-0.17553215
-0.074050434
-0.16920282
-0.07131254
0.13075769
-0.060496956
-0.005322975
-0.4076828
-0.034617767
-0.108464375
-0.08383061
-0.023978896
-0.046494916
-0.019390885
-0.5678038
0.19126575
-0.27112108
0.15138309
-0.035411123
-0.0181294
-0.022362549
0.21976517
0.14436989
0.082204774
-0.15123801
0.085538305
0.2006331
0.07108602
0.055811245
0.048765585
-0.10142258
-0.23917776
0.017465465
-0.017654179
0.095229246
0.21134213
-0.07474494
-0.016410267
0.7178279
-0.069805786
-0.03474581
-0.07641719
0.17063443
-0.11323425
-0.020004379
0.17884254
-0.16038771
0.10098075
-0.009631962
-0.19243677
-0.47037202
-0.23087873
0.2687974
0.1019327
-0.1723707
0.028450724
0.2547027
0.05780712
-0.080782704
-0.17954652
0.04728928
-0.17468695
-0.15647678
-0.16603129
0.40933022
0.14869407
-0.08409947
0.3980577
0.07913932
0.23833132
-0.0075232266
-0.10050206
-0.060362764
0.35877943
0.04059819
-0.011177493
0.21930003
-0.0015620595
0.021587094
0.13993767
-0.033742078
-0.056712944
0.19469416
-0.122508086
0.15200855
0.46035865
-0.02738436
-0.2824732
0.22678848
-0.037193302
-0.15851071
0.085525945
0.67079633
0.040680967
0.1293424
0.25085995
-0.25847915
0.13640165
-0.11104648
0.003708735
0.23661515
-0.11395978
0.037387785
0.18426383
0.05410116
0.16549376
-0.016189521
0.26202378
0.20807792
-0.08152353
0.08269614
-0.08522079
-0.1554902
-0.16143684
-0.16774018
0.27502996
-0.065406285
-0.14696828
-0.042653523
-0.2749523
0.020261975
-0.34259507
-0.023431286
0.07446162
-0.050874177
-0.41342306
-0.24040633
0.07861802
0.004259677
-0.03914885
0.031274993
0.043141983
0.38455647
0.23097779
0.12162124
0.26502103
0.39123315
-0.027914176
-0.07485808
-0.035178803
-0.49480316
-0.24046871
-0.0754605
-0.052048746
0.34695697
0.34175754
-0.024189515
-0.12849282
0.7382464
-0.49214387
0.26630127
0.10520164
0.083582215
-0.08295834
-0.023378687
-0.29904324
0.08998903
0.05542125
-0.078585744
-0.02335916
-0.45906204
-0.02827066
0.29993385
0.7375881
0.26638886
0.078227974
-0.35435906
-0.16673167
0.11165965
0.20797615
0.3600771
0.086032115
0.3202281
-0.05731868
0.033349995
0.0484352
0.007171936
0.3761389
-0.050349336
0.063670136
0.021166367
-0.02040656
-0.050322782
0.03648326
-0.04640728
0.6642261
-0.3433036
0.27235746
0.1007961
0.26146019
-0.12222568
0.010168414
0.03905871
-0.13374315
0.11015891
-0.24258329
-0.36628392
-0.18596171
-0.083890535
-0.2769937
0.33512652
-0.120850354
-0.24309704
0.08122689
0.004766252
0.04521616
0.18799539
0.09100896
-0.44564968
-0.004617543
0.18648972
0.17873919
0.05117666
0.24121344
0.07626335
-0.24173822
0.47940868
0.025366196
0.010679971
-0.14269556
0.18862799
-0.5527364
-0.032207172
0.16730133
-0.18025377
-0.38637692
0.10790733
-0.28317255
0.034958743
-0.021794092
0.33954537
0.07486622
-0.00019865636
0.03925538
0.0067142565
-0.35281706
-0.11581849
-0.53339124
-0.1497574
-0.05378572
-0.08035885
-0.12613681
0.27753928
0.037939783
0.090583436
-0.029057365
0.15831988
0.15366891
-0.15008111
-0.13314153
-0.0034548459
-0.31673107
-0.02868981
0.075535886
0.060554836
-0.018786153
0.058155783
0.27953607
-0.0020821206
0.15358141
0.039629392
0.036475644
-0.2602789
0.044186592
-0.04166151
-0.16517144
-0.039428167
0.19537996
0.03501322
0.20071441
-0.35046035
0.09065163
0.24818225
-0.0673625
0.165238
-0.032464363
-0.07646134
0.009865132
0.0828102
-0.058788333
-0.18099402
-0.13864306
0.23018117
-0.012890719
0.008385647
-0.40205774
0.13831063
-0.22848009
0.07964993
0.028298503
0.17919637
0.1755242
-0.09651466
-0.031169781
-0.14932443
-0.076143466
0.40943006
-0.08552217
-0.10464257
-0.07068849
-0.09475263
-0.14565384
-0.12435877
-0.1490633
-0.2799424
0.008992508
-0.02381366
-0.13242157
0.12647283
0.0907792
0.21219032
0.014250945
0.31763688
-0.2638615
-0.4662398
-0.1394581
-0.29112816
0.18327053
-0.22914933
-0.13431264
0.09210105
0.7710011
0.086267695
0.034372702
-0.092636995
0.08765925
0.20008744
0.06149518
-0.008434082
-0.014732585
0.06956742
0.022555698
-0.017361613
0.21108809
0.054569025
0.22486758
0.24846119
0.11047737
0.38328475
-0.29622245
-0.07460704
0.11077575
-0.05630774
0.13126059
-0.1064798
-0.5825741
-0.093389384
-0.1049164
-0.103546895
0.07308543
-0.20369099
0.24468866
0.04388881
-0.36401075
-0.0702973
0.27228478
0.07569721
-0.043272078
-0.2526614
0.09386099
0.5758486
0.12477137
-0.016432768
0.09483376
-0.28132626
-0.043836426
0.067955315
-0.19849004
0.113045305
-0.26484114
-0.1169177
-0.1951364
0.115097694
0.0270419
0.13889185
-0.087537825
-0.042816192
0.10122783
-0.12715074
0.017089557
-0.04102085
-0.1333363
0.12491783
-0.34840658
-0.15252599
0.34907064
-0.083801635
0.00045930414
-0.28796914
-0.07584163
0.35990357
-0.5360102
0.10825435
0.1708194
-0.094759025
-0.06827076
0.2509513
-0.46935904
0.34593368
0.19104926
0.15188825
0.32541823
0.16826354
0.22122844
-0.017550278
0.024125611
-0.3828898
0.1311102
0.19946852
-0.12815797
0.012800784
0.15379761
-0.10072219
0.0387762
-0.106593065
0.27617747
-0.0059442203
0.009331419
-0.11099688
-0.21771222
-0.18496838
0.54490983
0.11300735
-0.53555065
-0.12773548
-0.10333857
0.075741515
-0.034792293
-0.09382365
-0.2495963
-0.12880339
-0.22385506
0.06776085
-0.23431692
-0.05475673
0.11833656
0.09690685
0.0027171825
-0.11264429
0.20810466
-0.022508418
0.25917253
0.41513726
0.3188377
-0.22309498
-0.38305628
-0.14299114
0.1977818
0.20937546
0.22596951
-0.05453787
0.18792138
0.23519333
0.010911128
0.38371888
0.1855853
0.251737
0.3868357
-0.06234177
-0.35414618
-0.05825534
-0.032187123
-0.24554111
-0.10832132
0.3141935
0.47323915
-0.5083904
-0.645462
0.06605906
0.039168503
-0.11322944
0.36229587
0.22373372
-0.22471544
0.20258383
0.09448939
0.07846174
0.34754676
0.33308035
0.1711098
0.25707752
0.46360934
0.14690514
-0.33250478
0.18181951
0.1690566
0.045256324
0.22282042
-0.0267744
0.4594178
-0.18142417
-0.018363439
-0.25842026
-0.10456389
0.19712615
0.20191948
0.28450605
-0.23376931
-0.027874982
0.56174046
-0.10759155
0.06732226
0.11305416
-0.34907702
-0.019305905
-0.05397648
0.17750047
-0.29783067
0.19762811
0.14505848
-0.4178086
0.06992361
-0.1561896
0.2705397
0.04389906
0.0699014
0.15524389
-0.014151054
0.34419787
0.37932107
-0.16599199
0.14620319
-0.047354043
-0.0472432
0.30927938
0.058092438
0.3353697
0.49581885
0.25782228
0.00082108064
-0.36974353
0.23268688
-0.1875658
-0.43676037
-0.05906213
-0.28125814
0.19963019
0.11785167
0.029631764
-0.045260232
-0.17039606
0.1282359
0.06442671
-0.1808802
0.041791096
-0.06980052
0.4548809
-0.22002673
-0.13967486
-0.4734565
0.024016283
0.67735726
0.18736616
0.0401432
-0.587463
0.06427102
-0.26761463
-0.22386433
-0.15010238
-0.16765241
0.021309625
0.14502671
-0.02639623
0.09464903
0.32541433
-0.14508678
-0.07261293
0.0728792
-0.2534579
-0.017623518
-0.02581282
0.20684506
-0.064039566
0.14593063
0.018507503
0.034193605
0.11235088
0.08677934
-0.05493957
0.021903362
0.053192984
0.046690043
-0.004376285
-0.080620006
0.11294744
0.049861133
-0.11693097
-0.10350074
-0.029185934
0.010328654
-0.01723522
-0.13372388
0.18671055
0.21759364
0.059848234
-0.03222207
0.029475586
0.23832236
0.017801369
0.080868624
-0.023244318
0.113557585
-0.14651515
0.056394104
0.034816362
0.057098333
0.015263151
-0.08242635
0.17275223
0.0054764524
-0.0589775
0.1648547
-0.14054
0.04082181
-0.0849916
-0.113929406
0.028356494
-0.017442295
-0.11881885
-0.00035511455
-0.13152328
0.069256455
-0.1751946
-0.2057659
0.18528715
0.115112185
0.072765045
-0.084090106
0.030063475
0.008228256
-0.081258096
-0.06063422
0.10149499
0.075925365
-0.24898909
-0.06253761
0.19679002
0.018954908
0.10694334
0.013352375
0.20406587
0.1184044
0.05851905
0.012157546
0.0012769647
0.0437345
0.09575725
0.13465786
-0.101436734
-0.07692683
-0.052446455
-0.03135051
0.06279166
-0.056918677
-0.11778392
-0.037628368
0.0019980208
-0.08848091
-0.07048611
-0.056219842
0.067488
-0.043300536
0.106094345
-0.06379779
0.18915372
0.013614151
0.07351129
-0.0744264
0.06190482
-0.008009355
0.07660758
-0.07276669
0.24659768
0.08033248
-0.049079664
-0.0100750355
0.10685343
0.09689875
-0.010322891
0.14253901
-0.087809354
0.029833902
0.11015879
0.03103349
0.19622631
-0.14310849
-0.07799872
0.1402163
-0.19453196
-0.106413074
-0.07244363
-0.19279952
-0.03977047
-0.0023552924
0.08088796
-0.29094094
-0.14176199
-0.0077889403
-0.046288427
-0.043639302
0.053243753
0.059077296
0.09629744
-0.22566244
0.06299506
0.09216914
0.019930512
0.108192876
0.069213785
0.23558778
-0.08498064
-0.021855488
-0.04820286
-0.07573336
0.18001804
0.024011262
0.08167059
0.052421626
0.0018039157
-0.07065353
0.08433516
0.038189914
0.04537316
0.072866976
0.013452986
0.15158652
0.13646688
-0.064683154
-0.15061381
-0.011710645
-0.0032802229
0.101666525
-0.037028503
-0.09752527
0.029125554
0.045457084
-0.087101996
-0.054906778
0.0060122483
0.065974854
-0.005154141
-0.003226049
-0.017610367
0.050467882
0.17795631
-0.052174248
-0.034848146
-0.17725779
-0.10931048
-0.054762665
0.12335549
0.05436344
0.12668417
-0.015150903
0.13854817
-0.18864316
0.053631175
-0.10473109
-0.16812901
0.12805346
-0.017528154
-0.0026550877
0.06832044
0.016368452
0.10004068
-0.03672998
0.06229848
0.043648593
-0.043487243
0.12568355
-0.0344014
-0.21925934
0.150885
-0.09028956
0.14910965
-0.05060792
0.022512011
0.0049102595
-0.09868916
-0.047740318
0.0062644645
0.021457903
-0.11678758
0.11977722
-0.0361898
0.055663902
-0.021212313
-0.024673508
-0.07607876
0.08759259
-0.092780575
-0.07615168
-0.009618578
-0.068367
0.053863727
0.047990743
-0.03927893
-0.07209224
-0.06354506
-0.11511286
-0.30094793
-0.014014625
-0.06758895
0.065185405
0.07440868
-0.060776636
0.25421357
0.13505374
-0.055493806
0.04787546
-0.037972793
0.054389074
0.16998768
0.017291838
0.08330774
0.10889221
0.13995601
0.027829437
-0.22556564
-0.17958835
-0.046587016
-0.018309405
-0.15049544
0.057129174
0.049435806
-0.02514324
-0.081832945
-0.07284069
0.05798122
-0.13532987
-0.03597456
-0.009355521
-0.016359977
-0.013627376
-0.21081531
0.03789747
0.016790073
-0.025748828
-0.07368281
0.036661897
-0.0065850024
0.0102001885
0.05009973
-0.05646617
-0.056916233
-0.05579796
-0.13269597
0.08943196
0.07092404
0.020311838
-0.08818399
-0.013526559
0.059329085
0.12589245
-0.04335718
0.01662616
-0.091213584
-0.003779051
-0.0030436125
-0.09110001
0.08316945
-0.056191195
-0.037781406
-0.054071847
-0.03466918
-0.0021502015
-0.07272145
0.10576992
-0.03518283
-0.08912608
-0.032443117
0.010641158
0.041230496
-0.08710484
0.012189501
0.12874775
-0.103460014
-0.16995998
0.09958453
0.097976394
0.09989947
-0.074136205
-0.010341672
-0.06693862
-0.04635756
-0.0462298
0.05059115
0.053960517
-0.123589076
-0.03879471
0.052974474
0.20341508
-0.028446285
0.12781265
0.035726216
-0.05856911
-0.038150415
-0.020568162
-0.10880019
-0.030860752
-0.10980925
0.010990524
-0.11891404
-0.01009794
-0.08271536
-0.07976966
-0.11728756
0.11052027
0.12484842
0.09385597
-0.12184508
-0.085278
0.027466374
-0.0133337965
-0.047404796
0.053907577
-0.12398017
0.01202249
0.0013266287
-0.08320297
-0.11450768
0.1169852
-0.03357273
-0.056308474
0.107268445
0.025836227
-0.027660998
-0.1660013
0.04747276
0.103455596
-0.034813594
0.13951546
-0.031699445
0.0914686
-0.06485513
0.037474506
-0.010149441
0.0032321976
0.055054955
-0.10459149
-0.050282966
0.22607407
-0.041631114
-0.098426834
0.09428309
-0.015683021
-0.0149438325
-0.06659872
-0.08568653
0.13117282
-0.023162702
0.08871941
0.039807867
0.15033378
-0.009154368
0.08602696
-0.01552821
-0.084527984
-0.036936525
-0.15199105
0.07122069
0.031541325
-0.037440486
-0.03465717
-0.026431795
-0.2894114
-0.0392301
0.09347665
0.10931416
-0.018464541
-0.06296312
0.01714337
-0.13522965
0.10824148
0.025356948
-0.11334284
-0.12599249
-0.06630116
-0.08793548
-0.14218654
-0.118784085
0.0052626473
0.0007675691
-0.0041405857
0.06376476
0.00039758364
-0.07914649
0.04719869
0.15426883
-0.40952617
-0.15874285
-0.076805376
-0.020944333
-0.16722658
0.11122397
-0.047909237
0.1183587
0.042937066
0.047551185
0.035807356
0.05064007
-0.046934746
0.18809614
-0.08039375
-0.13143031
-0.134061
-0.27348098
-0.11507262
-0.017645247
0.12278067
0.049964976
-0.11361998
-0.042854097
-0.039151907
-0.0020589032
0.12623619
-0.20097552
0.024634523
0.04732183
0.03890119
0.05391587
0.022081768
0.17612597
0.18129608
0.14990541
-0.1600092
-0.15974195
0.024073713
-0.022108328
-0.07914066
0.1952555
0.011658194
-0.046535343
0.08032639
-0.07449694
0.02652489
-0.12710711
0.009897383
0.14840262
-0.124148205
0.03366902
0.1696492
-0.17045967
-0.007439614
0.12458288
0.046844836
-0.070516706
0.03736846
0.12093919
0.21636446
0.03241756
0.048275586
-0.0305503
0.03007278
0.088764556
0.1515074
-0.10519047
-0.021991793
0.027907254
0.1126608
-0.0137718115
-0.13272086
-0.11143308
0.12590535
0.018125087
-0.0285746
-0.07547939
-0.014758776
-0.1762198
0.082102105
-0.09093805
0.2317377
-0.015901184
-0.011257661
0.14217019
0.022692027
0.064820334
-0.2846427
0.01125213
-0.12268905
0.04976432
0.037575155
0.20636255
-0.049876258
0.08501303
-0.028247828
-0.017278345
0.05605903
0.059047114
-0.06577741
0.0882049
0.012202679
-0.122261025
-0.055031657
-0.0039672037
0.014482294
0.020449772
-0.013621446
-0.06630549
-0.02068985
-0.0021199144
0.17669252
-0.07054513
0.07040671
0.04483188
-0.008798491
0.03776061
-0.08181211
-0.06539666
0.09026323
0.07265472
0.124802954
0.050615415
0.04189034
0.1338408
-0.14743716
-0.117282085
0.050166897
-0.054864604
0.016716104
0.118477404
0.028475314
0.058504846
0.015413688
-0.04132471
-0.07079638
0.10193991
-0.06740006
0.009770293
-0.010207033
-0.14983888
-0.026577817
-0.1210685
0.068181336
0.010347377
0.09444811
0.0015779923
-0.18432993
-0.07569251
-0.0060374327
0.056048762
0.02404391
-0.05767526
-0.14260402
0.03172928
0.03694761
0.16921207
0.062030483
-0.05959008
-0.14410566
-0.047374748
-0.14799698
0.0006354262
0.02127329
0.024926221
-0.018054683
-0.051928245
0.09905376
-0.024068845
-0.32469794
0.013627137
0.13238257
0.13182575
-0.04496002
-0.056949195
-0.14600132
-0.02947152
0.0010150363
0.08525415
0.027522035
0.06316349
0.025545029
-0.17245732
0.06068295
0.02077851
0.014019828
0.037930105
-0.0207162
-0.077837
0.059335593
-0.0015149305
0.07385784
0.09881868
0.13461831
0.00793766
0.083360426
-0.0930807
0.12558512
0.04161075
0.10633808
0.19790584
-0.2378299
-0.00085273
0.04768487
-0.06893811
0.039645366
0.07774897
-0.21447241
-0.03240427
-0.122376405
0.04050265
-0.01669693
0.04726733
-0.15962873
-0.11047791
0.028873254
0.02585718
0.1310884
-0.029223038
-0.022738954
0.055996343
-0.07447588
-0.09236437
0.14886218
0.03173973
0.017315732
0.025754001
0.0365048
-0.10856301
-0.046535145
-0.11975955
0.09757932
-0.008330305
-0.097457975
-0.15487748
-0.22956139
-0.035621874
-0.09347619
-0.08841641
-0.21059039
-0.029489866
0.05199066
0.012047819
0.13118997
0.0812884
-0.13284327
-0.033801403
-0.12457329
-0.05989861
-0.0513256
-0.10687855
0.07292735
-0.09786072
0.054200545
-0.025809607
-0.05395327
0.15482834
-0.056107175
-0.081820026
0.12366117
0.0051857056
0.053521737
-0.13855128
-0.18539786
0.021259306
-0.12346891
0.056678306
-0.010802093
0.04781968
0.09573891
-0.08023647
0.12088971
-0.1109561
-0.052377094
0.0991551
-0.09695985
-0.05988386
-0.11612979
0.08339806
0.009105632
0.066448145
-0.066887036
0.1653689
-0.041877653
0.0038294368
-0.18311627
0.20170611
0.22563177
-0.16781934
0.13118431
-0.0448525
0.053316165
0.028155435
0.009086183
0.037952643
0.037173416
0.03485135
-0.09594333
-0.00071076205
0.018335132
-0.027461441
0.00040640592
-0.14002435
-0.043317743
-0.07171991
0.12296145
7.342356e-05
0.08862283
-0.05476884
0.031949677
-0.03004178
-0.15413049
-0.12646984
-0.14453186
0.03308052
0.074916296
0.070324704
0.07315375
0.106205404
0.04658796
-0.069585934
0.19193767
0.07447821
-0.057260823
0.04990208
-0.16440703
-0.105248086
-0.03092843
0.0045562997
0.31098115
0.07492731
-0.09983564
0.098246
0.036472995
-0.19020323
-0.18550868
-0.0462298
-0.16481969
0.033003215
0.1269543
-0.100582995
0.04817408
0.06524234
-0.19277212
0.11271357
-0.06502155
0.0128150955
0.045798372
0.010084797
-0.006088572
-0.030354833
-0.027002567
0.017869228
0.0051344894
0.014446412
0.01158105
-0.015810166
-0.021820113
0.027610084
0.0147841815
-0.01008777
-0.009356857
-0.050175253
-0.010511918
0.0010001264
-0.015922489
0.019860404
0.009483947
-0.013754474
0.0038413673
-0.03733559
-0.029785208
-0.07175391
0.028448315
-0.015904866
-0.008377768
0.011444187
0.01140472
-0.06110523
0.038464375
0.023749745
-0.0006619661
-0.018862577
0.05040799
0.005075594
0.011328438
0.013182734
0.025690114
0.0074206744
0.011619658
-0.03239249
0.018230377
-0.0202657
0.012152349
-0.030827958
0.0046270317
-0.0031943633
0.052460384
0.014572184
0.017572135
-0.052796178
0.029113479
0.071282275
-0.064425685
-0.026170144
-0.10114547
0.037289582
0.0032870506
0.020322341
-0.036828876
-0.0081921285
0.009108025
-0.0033798967
0.008557647
0.022322882
-0.014426504
0.009805888
0.0006672526
-0.011270754
-0.010970802
0.012913556
0.032655235
0.01899946
-0.007488858
-0.28939813
0.002437935
0.011604844
-0.0047572413
-0.014655619
-0.011526599
-0.015110824
0.0054801013
0.0010853054
0.0028244948
0.008557174
0.014340136
-0.06495195
0.01854999
-0.02169392
0.09607352
0.02968542
0.013754227
-0.12390826
0.0077677583
-0.021411454
0.010184229
0.017183809
-0.026942207
-0.013821751
0.4164231
0.005823929
-0.038675338
-0.0035555125
-0.0148204
0.020731864
0.012690551
-0.018345295
-0.020164335
-0.0036359204
0.013924361
0.0037093395
0.012432185
-0.023983613
-0.012610746
-0.039467372
-0.109944165
-0.009736629
0.019685963
0.01412054
0.0011453396
0.0045451424
-0.0061716526
0.006961427
0.0067044864
0.004332692
-0.016188381
0.018640604
-0.03327908
-0.01493957
0.027490424
0.00036867007
0.030743515
-0.038104028
0.05706276
-0.008176886
0.061244078
-0.004564801
0.014658666
-0.0036941168
0.017901063
0.001152055
0.01243951
-0.02938666
0.015331694
0.17669106
0.0407219
0.017364038
0.006631295
-0.02871728
-0.0027055398
-0.010709741
-0.015277106
0.009447253
-0.14323033
0.007173645
0.026144246
-0.00019377843
0.02241379
-0.018486992
-0.23673812
-0.0150370095
0.030290945
-0.0015111538
-0.0027790265
0.03364242
-0.024084667
-0.0060398965
0.020230217
-0.01766766
0.0054743574
0.009339351
0.006572318
-0.010203495
0.0068515874
0.0033542798
-0.014388288
-0.012170622
0.0260348
0.02451852
0.015926521
0.033393897
-0.0029690124
-0.16910596
-0.0048840847
-0.0031908422
-0.0015755459
-0.012440138
0.006230728
0.015575738
-0.012519259
-0.006948728
0.011444574
-0.011054568
-0.027720053
0.00964247
-0.0008024893
0.013487392
0.007063709
-0.005222056
0.004332352
0.0026792425
0.011528909
-0.0070187473
-0.009293876
0.049946718
-0.0140359225
0.10924793
0.007379346
-0.026926313
0.010369852
-0.0050895023
-0.07207767
0.00202938
0.04899924
-0.022824878
0.010077606
-0.010648591
-0.0021252807
0.0032617273
-0.0016034313
-0.030040178
-0.005909455
-0.13571297
-0.009820934
-0.004815919
0.009752988
-0.03511482
0.023042671
0.0048263925
-0.062781096
-0.013843448
-0.0010252316
-0.0045823664
-0.014440841
-0.12697247
-0.017326241
-0.042602874
-0.023188194
-0.007442793
-0.019164415
-0.31100395
0.033222944
-0.046909984
-0.0061060553
0.015491254
0.010355757
-0.042253632
0.027809529
-0.025332473
0.04376484
-0.032226395
0.043576673
-0.012179763
0.0031384772
-0.008493245
0.002388086
0.010138771
0.0006694927
-0.011336047
-0.004848105
0.037589077
0.019668425
-0.0061734314
0.02285863
0.005175108
0.024594255
-0.022413738
0.028575296
0.0117837265
-0.012844961
0.0008494324
0.010052029
0.0045076758
-0.0036410373
0.045929976
0.021712378
-0.0006280429
-0.012055803
0.012136219
-0.008408841
0.018515844
0.0023319281
-0.01701887
0.01251183
0.0051775323
0.021430783
-0.06431012
0.019504657
0.013094067
-0.23649663
-0.015223173
-0.0013907261
-0.011730443
-0.0002478795
-0.01446369
-0.015452746
-0.014322494
-0.04297772
0.0052367444
-0.027174802
0.043811977
-0.026950883
0.033346344
0.003304421
0.039221223
-0.008165783
0.01823294
-0.0027883442
0.019050412
0.030207776
0.006808178
-0.016803041
-0.05043342
-0.028307999
-0.047513396
0.0054291715
0.014531914
-0.0023885267
-0.08655372
0.00608246
0.02447896
-0.0066044712
-0.0040933974
-0.0298298
0.031640638
-0.008363822
-0.016855896
0.15708698
-0.025653256
0.008764813
0.0012699113
-0.009357139
0.035333674
-0.04628226
-0.041774355
0.011966714
-0.013386329
0.033302166
0.07060521
0.026069574
0.017583488
0.001157797
0.003080176
-0.036802713
0.08844552
-0.0053929235
0.027240118
-0.012260241
-0.03253763
0.0075153853
0.0006488492
0.043531436
0.014493234
-0.008070128
0.014642663
0.054666754
0.0023137764
0.06962889
-0.026189411
0.00688881
-0.011205197
-0.06810143
0.0015454895
0.0056129573
-0.010333747
0.00054660556
-0.024846759
-0.010133557
-0.0007514558
-0.066659585
-0.0037554344
0.010490721
-0.011875786
-0.003982652
0.00124936
0.0066260826
0.044338644
-0.014463966
-0.06640286
-9.634086e-06
-0.020052087
-0.02493158
-0.026677296
-0.009255746
-0.04087107
-0.043120265
-0.045614228
-0.025936525
-0.0064704153
-0.04709182
-0.027866205
-0.013129909
-0.04051523
0.018069457
-0.026957449
-0.016714005
-0.033634137
0.0064419573
0.012262131
0.019590983
0.0114700785
-0.009458424
-0.014879644
0.02964699
-0.034801394
-0.0067566894
0.039933056
0.019752864
0.0046341633
-0.06115682
-0.018920762
0.025691146
-0.0025573573
-0.010638121
-0.025737079
0.016267207
-0.0995076
0.0028547314
-0.0504542
0.031291544
-0.013740803
-0.0073876316
0.0004969702
-0.031336367
0.028841225
0.032325573
-0.017880045
0.022203693
0.011189436
-0.0060571055
-0.016034616
0.01630063
0.012257179
-0.03580901
-0.002379105
0.021718336
0.019700333
-0.03787677
0.0021103455
0.32360375
0.0137915285
-0.014765735
0.00083242153
0.011787541
0.017015684
-0.04059864
0.0007768603
0.002810192
-0.0063476698
-0.012406383
-0.016389392
-0.022074843
-0.12636137
-0.042408586
0.084524624
-0.0071305456
-0.030205319
0.023144815
-0.008000723
0.017750181
0.009385884
0.0070124827
-0.01120311
0.02703311
-0.0072424826
0.042994287
0.011838042
-0.0055781286
0.020037178
0.0019273933
0.006112738
-0.23792236
0.16942348
-0.024543364
0.015975762
0.021558177
0.015161503
-0.016732996
-0.0075006546
-0.012324629
0.017985916
0.0055639665
-0.017554803
0.00468677
-0.008389924
-0.028737146
-0.017206697
-0.00045435753
0.03693478
0.11309722
0.004925587
-0.03318596
-0.032694675
0.0061997334
-0.005387566
-0.019280227
-0.004799844
-0.01759449
0.01511936
-0.0010587827
-0.060605213
-0.019768361
0.017270086
-0.20951885
-0.003952646
0.11178585
-0.009326797
-0.015667064
-0.009516563
0.022002205
-0.030736458
0.09791369
0.0039211917
0.011358951
-0.020028213
-0.016661268
0.020606043
-0.01790113
0.03265192
-0.001004278
-0.019124191
0.021044454
-0.0064773494
-0.011691882
0.014036619
-0.032683156
0.02936402
0.014251246
-0.011254225
-0.00031194798
0.023634838
0.007050291
-0.009597545
0.015914435
0.0067837285
0.012195278
0.06825893
-0.024282498
-0.011588864
0.009842866
0.015071069
0.01663113
0.0022575995
0.036732633
-0.04954986
0.021344848
0.019706378
-0.024807103
-0.0120295
-0.007839543
-0.013252877
-0.090461664
-0.0014488903
-0.06468367
-0.020458719
0.036568955
-0.019406682
-0.030569643
0.0070828707
0.028743904
0.027913757
-0.057929456
-0.003576854
0.043836117
0.015288776
0.037064053
0.04056804
-0.010894925
0.0060360013
-0.024341563
0.0009310127
0.0028670693
0.004324973
-0.0052379807
0.007595074
-0.016889175
0.04412603
-0.014417669
-0.00854814
-0.0342127
-0.0067102658
-0.027485132
-0.012955083
0.032850306
0.007144896
0.001574357
0.03234608
-0.051519677
0.060774773
-0.0161998
0.018502317
0.025102304
0.0076273023
-0.013073625
0.023660576
0.03131466
-0.0037629302
0.0061399336
-0.011404653
0.044991165
-0.00474915
0.0042400225
0.020067366
-5.259656e-05
-0.010366243
-0.0051397453
0.044866655
-0.026160972
0.026203927
-0.0093489885
-0.2749184
-0.019580446
0.0051381933
0.02675974
-0.011378432
0.02777931
0.02621774
-0.014294509
-0.0076920097
-0.027327955
-0.00053744693
-0.019612258
0.07153245
0.0078985635
0.017133288
0.0011132001
-0.0008326272
-0.005660922
-0.016452812
-0.017236711
-0.008564156
0.04651329
-0.019272562
-0.01116684
0.018824117
-0.03086086
0.001956531
-0.012782928
0.03252982
0.074817754
0.023968097
0.025386967
-0.009440145
-0.02816733
-0.086644836
0.28111672
-0.036960445
-0.023200734
-0.0014658323
-0.03705281
-0.062122434
-0.07031603
-0.0077996715
0.061943907
-0.07245506
-0.044382982
0.017003274
0.01692652
-0.0050390274
0.047312774
0.09061262
-0.028591573
0.038597986
0.02267551
0.109001964
-0.024391077
0.04463049
0.005620134
0.083267845
-0.020110302
0.054470666
0.02951924
-0.06479186
-0.004786446
0.028464869
0.03350212
-0.010783456
-0.007651852
0.11843079
0.037246805
-0.0025256134
0.03917344
-0.029434057
0.023664394
-0.04175148
-0.016550103
-0.04301391
-0.040510975
-0.02604862
-0.018745365
0.058198072
0.028981522
0.01013014
-0.0835868
-0.0032440792
0.062796704
0.0162579
0.013206726
0.035182983
0.0771935
-0.0033482623
-0.005253902
0.027590727
-0.028701145
0.029259354
0.013969126
-0.16381899
0.00046323065
0.014941782
-0.106185205
-0.047287617
-0.02418097
-0.020178923
-0.0026725666
-0.020531217
-0.004702335
0.045971997
0.012195679
-0.008595393
0.008258208
0.0019830912
-0.012283811
0.1363031
0.012079593
-0.011766174
-0.030214027
-0.010573492
0.010308847
-0.011518484
-0.021283807
0.0040141135
-0.008249885
-0.021406712
0.015940402
0.0046033217
0.021893514
0.004197037
-0.0036126142
-0.018633123
-0.020928146
0.025841637
-0.03494657
0.065450504
0.018160839
0.02250002
0.039525468
-0.02145598
-0.0118875895
0.03531443
-0.01829947
-0.0156225
0.017313648
-0.12025419
0.011037202
-0.03109598
-0.012774283
-0.016970385
0.00080095936
-0.027841004
0.029937558
-0.014600184
0.024062553
-0.059929296
0.10590821
0.027610192
