2304,
0.03800593
0.17135221
-0.14090241
-0.027486568
-0.01740636
0.004081439
0.14218177
-0.012513013
-0.30990496
0.24462098
-0.14100476
0.05839856
-0.10612322
-0.052443326
0.11745595
0.14483286
0.12879212
0.09724991
-0.12311742
0.11404515
-0.08647168
0.01764259
0.13273771
-0.09421923
0.14234243
0.23195729
-0.010605048
-0.15673056
0.11084087
-0.09214214
-0.018059805
-0.04997227
-0.20614432
0.21656144
-0.008787264
0.08391493
0.080352485
0.047702946
0.15415068
-0.12619685
-0.18313202
0.13401186
0.0691771
-0.098462984
0.13746427
0.40332052
-0.08615687
0.18229894
-0.029956723
0.053506657
0.012368201
-0.08510817
0.04613082
0.016959982
0.050406843
0.04462223
-0.053915124
-0.13151248
0.16142891
-0.04406154
0.22509341
0.3023561
0.03443908
0.056040768
-0.008286129
0.39184082
-0.265697
-0.04387764
-0.2685899
-0.18340445
0.02985594
0.46756634
-0.35439605
-0.19636348
-0.16003045
-0.17023048
-0.39495227
-0.063379616
0.19956665
-0.06015778
-0.32346663
0.30237114
0.09072846
0.10286732
0.3323507
0.009953623
-0.21736489
0.12884386
0.096092656
-0.47226644
-0.46094382
0.12593351
-0.14751016
-0.13147998
-0.15483342
-0.016458003
0.001009326
0.06463296
-0.0993537
0.42512217
-0.020170957
-0.062174313
0.12294931
0.021050252
0.052934695
0.714974
-0.09331588
-0.14418946
-0.078965604
-0.051763255
0.22320078
-0.01525184
0.076656654
0.4529555
-0.07651069
0.088513225
0.009944516
0.050684586
0.027869526
-0.10613438
0.09461013
-0.1772833
-0.11331116
0.018404886
0.72434163
0.109328136
0.15061818
0.038992815
-0.19124521
-0.05200598
-0.2554979
-0.07804792
-0.033931375
-0.03610246
0.033578616
-0.08629909
0.0009608412
-0.10231615
0.07787398
0.017409327
0.105452344
0.15142696
0.08996641
0.45611936
0.03445678
-0.19597974
-0.013912355
-0.0344595
0.035591245
0.60091364
0.51165414
-0.18494518
0.053913973
-0.09240829
0.17463809
-0.12128432
-0.058061905
-0.056534186
-0.13370703
0.4640625
-0.024482306
0.047479972
-0.031822283
-0.08652696
-0.040686022
0.5603012
0.101692446
0.11109488
-0.00516936
0.19007806
0.010513024
-0.006960081
-0.0070287404
0.0847791
0.07025099
-0.03389565
-0.0373154
-0.19574894
-0.28579152
0.03897415
0.005326831
-0.10096173
-0.06847049
0.009054119
0.030461194
-0.102191344
0.08341142
0.04028296
0.0040424806
0.008450389
-0.060225613
-0.022992639
-0.06342295
-0.58284885
0.2825121
0.027242757
-0.072434284
-0.039600328
-0.14007929
-0.020213889
0.022966765
-0.13973618
0.13290472
-0.2877798
-0.013563882
0.030993467
0.11178608
0.15932749
0.12615263
0.12110453
0.05827179
0.40650892
-0.04956035
-0.02415255
0.14917454
0.01900608
0.20218639
0.06158778
-0.014672521
-0.49726307
0.018631333
-0.07470937
-0.10628631
0.03762736
-0.042350058
0.15451054
0.089285016
0.041039437
-0.0077134375
0.089702144
0.021516526
-0.012091157
-0.019225087
0.025477054
0.0060270648
-0.06698321
-0.09375527
-0.122952715
0.4655382
-0.08588889
-0.04463935
0.09002432
0.08578803
-0.04924411
-0.10040922
0.046392933
0.023894167
-0.061188277
0.32932985
0.029273434
-0.041100785
-0.017816843
-0.07160895
-0.058433305
0.011928203
0.045359634
-0.01612253
0.04481272
-0.08261357
0.0009823344
-0.090377465
0.04699048
0.07310675
0.0024157907
0.097201735
0.15845126
0.08360114
0.39639792
-0.015504339
-0.06401545
-0.050726235
0.2368122
0.08451598
-0.027140476
0.11416337
0.050366696
0.06320694
0.006833536
0.110296465
0.06382056
0.023614803
0.0428625
0.04695487
0.4180221
0.02970492
0.174698
0.0893844
0.09794384
0.07808582
0.03852693
0.0642221
-0.072013095
-0.18088776
-0.15797253
-0.034834392
-0.075137086
-0.036519594
-0.073955126
0.074027255
-0.12065984
0.19218704
-0.060764756
-0.00040193662
0.010328511
-0.29036692
-0.02726003
-0.0012472583
-0.059469547
0.09337086
-0.010880312
0.019407988
-0.11826126
0.019696798
0.061718564
-0.005530538
-0.017343799
0.06475093
0.025168711
-0.027343865
-0.053203266
-0.03372302
0.0027790735
0.3370048
-0.20907953
0.25605276
-0.039654326
-0.020735942
-0.032664288
-0.12738103
0.023704976
0.011545817
-0.030962277
0.088932924
0.32778764
-0.08633242
-0.040494118
0.10830517
0.02919557
-0.011055518
-0.047669493
0.03320127
0.51153857
-0.07071865
0.03641511
-0.11469772
-0.024194608
0.07431823
-0.050921652
-0.021224847
0.18404864
0.086292796
0.052715745
0.0734556
-0.57753545
-0.021869056
-0.047364432
-0.026628716
-0.07191171
0.08633621
-0.06709056
-0.0052525336
0.024252491
0.031224133
0.08602195
0.106513806
-0.013843106
-0.069203235
0.011027682
0.0029642947
-0.024251891
0.0008921225
-0.040570416
0.05691131
-0.41225755
-0.45848602
0.06639657
0.09844739
-0.04420954
0.0692579
0.06002743
-0.025953628
0.008749479
-0.057475477
0.0958541
0.03435356
0.05010227
0.009090805
-0.1099378
-0.25458744
-0.029332273
-0.008153203
-0.0036532688
0.13016817
-0.08255127
0.2806166
0.03942929
0.23880973
-0.027397173
-0.017222518
-0.1646788
0.035523962
-0.12604293
0.053149004
-0.1051842
-0.02150014
-0.03955549
0.17174189
0.093484275
0.08218201
0.05124956
-0.06538445
0.07068423
-0.097032145
-0.41410893
0.038840074
-0.051244393
-0.16578612
0.14722022
0.058725566
0.0022850733
0.07485644
-0.069431424
-0.100944124
0.038934965
0.004332561
0.12790817
0.08989074
-0.071597196
0.1560518
0.111110575
0.07879054
-0.064436115
-0.073134534
-0.060932573
0.09841807
0.01786465
0.3915662
0.24593377
-0.06262865
-0.023313599
0.26662683
-0.025008038
-0.19152834
0.019903114
0.34382492
-0.00079443335
0.017002145
0.036836494
0.27043715
0.022765402
0.14915466
0.09610266
-0.11145558
-0.12041125
0.15617304
-0.06386883
-0.037195127
-0.04268006
0.061891314
0.049560674
0.07256061
-0.07106109
-0.084600024
-0.054394834
0.031123038
0.018206798
0.046531662
-0.05401965
-0.07907963
0.029939368
0.14358015
-0.13120605
0.1345019
-0.11653977
-0.1406923
-0.17378391
0.0023196677
-0.02670555
0.193522
-0.013775838
0.07277641
0.085978694
0.15830046
-0.055502906
0.020568727
0.10566523
-0.11245082
0.2039681
-0.06061244
0.2859183
-0.05502468
-0.45870724
0.07317038
-0.05980434
-0.06655269
0.49832833
-0.21909311
-0.15084262
-0.16123189
0.3592426
0.14084868
-0.004465363
-0.3245711
0.19219601
-0.038028307
-0.11237279
0.021173391
-0.044140797
-0.11480528
0.0011473277
0.0056485985
0.16447313
-0.2947892
0.23105353
0.12534885
0.00025535945
-0.4975815
-0.1294555
-0.100749075
0.017271943
-0.03537615
-0.4227228
-0.23572922
-0.2686249
-0.044507302
-0.057428896
0.15074638
0.19591515
-0.010261456
0.118238226
0.085101254
-0.04612746
-0.47908503
0.10854306
-0.015483166
-0.06514165
0.0050817435
-0.15241054
0.07130882
-0.09144284
0.0814138
0.043345373
-0.09172269
0.034031425
0.021636399
0.13170026
0.025135782
-0.041875966
0.014033436
0.026035424
-0.03742087
-0.11632765
-0.024941001
-0.035100948
0.054450516
0.11601754
-0.027092943
-0.12013301
0.046492282
0.008074938
-0.008115005
0.052056707
-0.1897994
0.15447871
0.15544948
-0.06627229
0.084780544
-0.08929578
-0.113450155
0.38428527
-0.08976668
0.025498694
0.13335568
0.021710258
-0.5312169
0.0007030708
0.18568859
0.031853337
-0.012333282
0.28174287
0.17907561
-0.100934125
-0.56059384
0.09056318
-0.48105553
-0.5332285
-0.49834016
0.4603181
0.22504242
-0.12436545
-0.24164668
-0.3841016
-0.32102954
0.5415581
0.42789987
0.52056694
-0.13813919
-0.49243715
0.1646359
0.31207216
0.3802326
-0.32608598
0.10730255
-0.5533426
0.42468035
0.21901152
0.3356492
-0.40834257
0.13078757
0.32813728
0.1975533
-0.16872488
0.29686227
0.15525824
0.12228371
-0.085271336
-0.16273224
-0.28477043
0.35331926
-0.49771342
-0.09707145
0.3946057
-0.37106124
-0.39043233
-0.28356245
-0.16992994
-0.058089245
0.48918167
-0.4955385
0.04514236
-0.18582635
0.27863953
-0.16129465
0.5490096
0.24350974
-0.29189324
-0.354328
-0.14743811
0.21477515
-0.08480549
0.030681765
0.09001617
0.092969716
-0.20658033
0.10626689
-0.064707674
-0.81143457
-0.04867293
-0.011478225
-0.1670493
0.38587713
0.57045573
-0.059777502
-0.060137287
0.3067249
-0.094177045
-0.15404338
-0.0461399
0.1055083
-0.038661882
0.015649455
-0.06795159
-0.1093569
-0.019098872
0.063431025
-0.117316626
-0.102366954
0.14739351
-0.27651864
0.18438643
-0.073575504
0.029260399
-0.09167751
-0.10141871
-0.06851497
-0.261239
-0.14188479
0.058824435
-0.14312235
0.0453581
-0.06284416
0.23461764
-0.09187677
0.052152395
-0.069062285
0.07074538
-0.13129354
-0.1470761
0.14970487
0.1086134
0.7031575
0.018049259
-0.016691871
0.048175067
-0.15550767
0.027287886
-0.028422339
-0.04867521
-0.101828
-0.02541202
0.07508857
0.21345004
0.000116151794
0.15745941
-0.5664844
0.19597138
0.16918808
-0.004766807
-0.012853043
0.14214982
0.026346417
-0.15066604
-0.1173832
0.00982176
-0.16215998
0.0062581273
0.040033743
0.14147858
0.03084982
0.043599717
0.13018304
-0.04992528
-0.06408409
0.103432484
0.14666742
0.037670687
0.042924467
0.029288456
-0.115714595
0.042176716
-0.17724873
-0.038363107
-0.13681476
-0.1886067
-0.21432292
0.5283455
-0.11453819
-0.18267372
-0.19868961
-0.11108025
-0.005857705
-0.040439267
-0.18022074
-0.07474191
-0.120291054
-0.07992612
0.016144183
0.015416849
0.33553603
0.119140856
-0.15980117
0.22012827
0.08447914
0.123367175
-0.018360447
0.16601686
-0.045356993
-0.36398688
-0.03932893
0.024549622
-0.15680884
-0.4480894
-0.0035039573
0.081427686
-0.087542124
-0.08962518
-0.11110787
0.15238649
-0.12745306
-0.12059053
-0.0078070117
0.10612983
-0.15291491
0.022047041
-0.018509021
-0.052053213
-0.12142119
0.09243934
-0.07746855
-0.22707671
0.067739636
0.20025405
0.08527367
0.17828651
-0.23929782
0.08052107
-0.042884532
-0.10904651
-0.076230064
0.12980422
-0.022937438
0.18900992
0.03378917
-0.01818383
-0.09066784
0.013109031
-0.0326411
0.022848787
-0.043263126
-0.10271038
-0.060525168
-0.009184043
-0.21434627
0.039872896
-0.0096855005
-0.11077947
0.23027517
0.21890824
-0.05262287
0.023318155
-0.041644473
-0.006470683
0.0154300295
0.06925839
-0.016685853
0.0030508607
0.026693696
0.046004597
0.009824285
0.08977223
0.01886518
-0.08555596
-0.10301887
-0.030619498
-0.091852054
-0.004569807
-0.0034865604
-0.0034993463
-0.16497104
0.0335796
-3.1650106e-05
0.097488835
-0.0036744475
0.14891843
-0.09338784
-0.19798401
0.14853224
-0.035522085
0.10802619
0.18548241
-0.191343
-0.12272952
-0.02774282
0.08646444
-0.06365034
0.06315684
-0.023591427
0.020167505
-0.12028743
0.051177688
0.057907585
-0.08652397
0.05685239
0.12772495
-0.07074405
0.13141826
-0.10559506
-0.06752512
0.062849745
-0.012570408
-0.27597708
-0.005128394
0.17783579
-0.07485539
0.0496065
0.016155623
-0.08735982
0.016807
-0.03768446
0.16828448
0.07104832
0.09140531
0.054948088
0.010004858
-0.039892685
-0.114973985
-0.012097718
0.13823748
0.06300273
0.02048548
-0.115183525
0.03211564
0.24314068
-0.043143146
-0.1081243
-0.057450652
0.078561634
-0.065015875
0.10944005
0.07701347
-0.09229182
-0.086292885
0.11680757
0.045843113
0.03951264
-0.05502242
-0.08764455
-0.0018441222
0.0016364526
-0.037289325
-0.06096338
-0.13934006
0.0835299
0.17446896
0.042361915
-0.023754003
0.030315746
0.069584444
-0.07491961
-0.08912416
-0.17372698
0.030231424
-0.09309517
-0.015692221
0.08229598
-0.07128159
0.045011573
0.005334225
-0.14023677
-0.13366298
-0.065056324
0.06215133
0.013032968
0.06941009
0.071186215
0.11714095
-0.047483504
0.18330194
-0.048341054
0.0061739655
-0.050615154
0.19654709
0.017353399
-0.2837184
0.027875364
-0.11169917
0.1714662
-0.17647167
-0.2564421
-0.013348965
0.11112891
0.031956214
-0.061676987
-0.11432769
-0.011545535
0.12126179
0.0624039
-0.012361303
0.08632662
-0.039787292
0.05395214
-0.03111488
0.0012866057
-0.057469465
0.1142734
0.19556354
-0.039708685
-0.07966224
0.022304047
0.031976752
0.13024
-0.028718837
0.32590768
0.013578453
0.042366315
0.033966135
-0.06972044
-0.008784598
0.18692811
0.07318544
-0.09355058
0.19999537
0.038004104
-0.14550039
-0.010075173
-0.124687396
-7.541378e-07
0.08156625
0.10956288
-0.15017366
-0.02180653
0.08537916
-0.044465274
-0.02094271
-0.10457329
0.04437521
0.06336226
-0.12827337
0.013164502
0.02731073
0.16105902
-0.011230985
0.03299813
-0.013717261
0.10532656
0.010903441
-0.035043806
0.115199804
0.04940104
0.015904168
-0.008754037
-0.082946256
-0.030149013
0.0066536893
-0.18434341
-0.077312276
-0.028163305
0.040817115
-0.02619782
-0.04769972
0.036116093
-0.15579337
0.105325736
0.010569602
0.08547061
-0.09052659
0.009231755
0.063631505
0.25220326
-0.12422635
0.06021236
0.12013797
-0.021261698
0.1824264
-0.07697411
-0.0462601
0.11110411
-0.05140757
0.018264415
0.1692694
0.043519456
-0.0869303
-0.030062173
0.12642275
0.04599438
0.10739573
-0.06605734
-0.032438964
0.0015974641
0.2739441
-0.06471727
-0.13731147
0.14726295
0.15004548
-0.06293586
0.012068654
0.01781234
-0.06439588
-0.1556981
-0.062303454
0.059464596
0.1473189
0.049435277
-0.0616927
0.009804496
-0.12932381
-0.16205104
-0.019704599
-0.12743329
-0.03683077
-0.12680185
0.12891349
0.1957089
0.116819225
0.08266805
-0.060932618
0.014800189
0.08465898
0.016529098
-0.12408258
-0.13989143
0.06561745
-0.13009031
-0.13857225
0.016833564
-0.10354845
0.08185376
0.021756366
-0.14799967
-0.079015516
-0.040067285
0.16507104
0.017373525
-0.16017108
-0.009852151
0.0025008158
0.025764408
-0.009497991
0.12617807
-0.08874065
-0.09604774
0.16556244
-0.17089182
-0.07285118
0.11371302
-0.036690727
0.06052922
0.19805789
-0.12429694
-0.13529353
-0.004125402
-0.11872561
-0.033060703
-0.06753705
-0.050902467
0.14529099
-0.04320834
0.12612407
0.06533331
0.08323016
-0.09349154
0.15957971
-0.04257573
0.08132898
-0.04629979
0.021417309
-0.13920456
0.009384288
-0.06858955
0.070673496
-0.08588796
0.0039887317
0.0057904283
0.1084595
0.0030553744
0.1233784
-0.0649513
-0.087323405
-0.01543772
-0.110234275
0.0046251286
-0.10029032
-0.1182362
0.15822308
-0.16053984
0.10946375
-0.007188221
0.02993969
0.16770722
-0.031427853
0.028797187
0.030832533
-0.014614777
-0.13394152
0.13559502
-0.08578261
0.1293663
0.13922475
0.055458765
0.0065935142
0.11886815
-0.0032071644
0.04009636
-0.021632254
-0.1932731
-0.083659485
-0.13017963
-0.16166161
-0.0024054558
0.0707571
-0.060923308
0.016077435
-0.053390235
0.016409207
-0.067560926
0.0035162733
-0.16289586
0.024190735
0.05363346
-0.053492244
0.0058600325
-0.12227256
-0.017589444
0.055487998
0.118580535
0.014986209
-0.10748422
0.075605616
-0.11628594
0.10392495
-0.020964047
-0.1400901
-0.18071546
0.079441115
-0.033153247
0.02793909
-0.0248517
-0.08540458
0.038596738
-0.09504562
0.032123946
0.0059604095
0.008391219
-0.22157949
-0.13310488
-0.15260659
-0.009525867
-0.0019381704
0.052752044
-0.02869091
0.1490086
0.020927424
0.022221101
0.0006021622
0.20935303
0.1366831
-0.17630737
-0.08933672
0.17921928
0.061055105
0.018030394
-0.056140598
0.3308274
-0.07771508
0.020001708
0.22679067
0.077164814
0.030249257
-0.19422336
-0.09599389
-0.016460048
0.09063207
0.10878199
0.08246606
-0.007926396
0.0481545
0.13060842
0.027764896
0.09928839
0.019785738
0.055763807
-0.07837488
0.1894789
-0.011671805
0.07039809
-0.12820913
-0.0035161795
0.1868725
0.08863922
0.06947982
0.010258998
0.12390066
-0.13077664
0.07718765
0.08919728
-0.08499341
0.04452581
-0.009317071
0.06879803
-0.08474708
0.060882315
-0.041439828
-0.028735124
0.06539509
-0.10249371
0.045432378
-0.18499006
0.13134438
0.10109705
-0.23738874
0.09009563
0.06187515
0.06022599
0.17287065
0.054263193
0.045651816
0.036155913
0.0580813
-0.01427047
-0.11216871
-0.18354064
0.09392971
0.035270184
-0.094500564
-0.07349781
0.038111124
-0.070615135
0.003651564
-0.04928376
0.19695114
-0.063302584
0.09348134
0.06571862
-0.1494703
0.01744916
0.11888994
0.04361046
0.08530747
-0.016290002
0.12201215
-0.057966206
0.08225842
0.01878356
-0.16543435
-0.006845018
0.004104188
-0.08075644
0.19001162
0.07270715
0.027999382
0.21352223
0.03097361
-0.004790715
-0.047800638
0.037258472
-0.07405221
0.039533548
0.033987064
0.04340007
0.00075611053
0.23944995
0.018829085
-0.025808243
-0.08828731
0.09192011
-0.030766828
-0.014220984
-0.06162122
0.27071124
0.11010579
0.048800282
0.105106324
0.012624156
0.045326512
0.051676843
-0.0114205815
0.049898144
0.13118549
-0.06071459
-0.013130574
-0.2016588
0.083240256
0.15327686
0.057412617
0.048112664
-0.0065836036
-0.14521451
0.16465248
-0.036788758
0.101391606
0.08770969
-0.16011272
-0.17702417
-0.045947973
0.042475484
0.008086443
-0.072457954
0.100914456
-0.02266476
0.15376551
-0.027739566
0.03935108
-0.02847544
-0.16099209
-0.29292187
0.05299121
0.05902997
-0.014932518
-0.12739228
0.16443168
-0.10093118
0.06945022
0.29851577
0.12541252
0.028340735
-0.19815634
-0.008102434
0.043192573
-0.09350436
0.048842292
0.005541134
-0.19821827
-0.0031788447
0.074154176
-0.05521269
0.08408004
0.05393863
0.12630473
-0.15230751
-0.09094917
-0.06918663
-0.04078627
0.097937964
0.057647288
-0.02943485
0.041058317
-0.10472494
-0.19977766
-0.1633692
-0.10253054
-0.17375214
-0.135387
-0.030578444
-0.058368273
-0.038040604
0.17191567
0.04563673
0.14870834
-0.13681622
0.058645476
-0.010351222
0.18069804
-0.03981181
-0.0865942
-0.034844175
0.038665388
0.1380219
-0.01788497
-0.013624344
-0.07787308
0.09266019
-0.024390556
-0.07427082
-0.1494359
-0.12986694
0.13233255
0.0052102744
-0.12125147
0.15363972
-0.0007973865
-0.06506679
-0.04834152
0.033986703
-0.039831296
-0.029655
-0.15668328
-0.018751038
0.06140352
-0.09274302
0.030534562
0.15963328
0.0052275984
0.048972312
0.0814171
0.00563306
0.17266105
-0.18933827
0.1422384
-0.019452965
0.058653302
-0.24223994
0.008809448
-0.03836314
-0.09062092
-0.07233896
0.22101198
-0.04687334
-0.059404206
0.173781
0.09528103
-0.09189883
-0.036654655
0.070542656
-0.052603677
0.0076450245
-0.12825769
0.09817968
-0.05975404
0.10081132
0.20371546
-0.063474976
0.030525561
0.1336421
-0.18060404
0.04348425
-0.102760054
0.06744795
-0.09355592
-0.09176736
0.00046950195
-0.10405017
0.035864662
-0.07433674
0.14015555
0.10980564
-0.010858145
-0.07464011
0.0007704373
-0.21357892
0.01847892
0.065203905
0.11495714
-0.080593266
0.12848917
-0.086216174
0.08152378
-0.08388398
0.06925622
-0.15289837
0.07875061
0.031947784
0.058503777
-0.04789194
0.058626108
-0.042653274
0.09566897
0.017182527
0.03478922
-0.010204365
-0.19962618
0.06265038
-0.0076586707
-0.180401
0.106740765
-0.046274904
-0.00817718
0.11461388
-0.02967131
-0.086279064
0.016526062
0.06355443
-0.27738342
-0.12276671
-0.11515485
7.826816e-05
0.08075342
0.056557883
-0.019018307
0.052644413
0.004427235
0.17395173
0.02839697
0.031851035
0.108755305
-0.04150191
-0.00035976505
-0.014564628
-0.07670423
-0.16414578
-0.03322447
0.09696531
-0.11207651
-0.16769826
-0.112120844
0.12963569
-0.06514247
0.008094793
-0.012891687
0.012476509
0.021194303
0.040157624
-0.026638817
-0.023752382
-0.0010719501
0.0330976
0.010285281
-0.0068890313
-0.12575328
0.000932441
0.011718522
-0.043873947
-0.008764471
-0.071704514
-0.01209606
0.011502828
0.0081244605
-0.015051799
0.0037668569
0.028139528
-0.045497198
0.017318193
-0.045558996
0.027256353
0.029855875
0.012814095
0.004683386
-0.01682532
-0.013973663
0.027152175
-0.036404964
-0.0040481603
0.01084735
0.028303558
-0.026426742
-0.008557415
0.0059730266
0.005736725
0.016451186
-0.04525385
-0.0029784131
0.0010926842
0.014734744
-0.013800194
-0.0037770132
0.011149464
-0.0070512365
0.03895798
0.013903932
0.09448711
0.016334334
0.013421632
-0.010259144
0.023000153
-0.022680622
0.12680836
0.03594873
0.0032274025
-0.02616583
-0.004106731
-0.123094365
-0.0067199105
0.004651876
-0.016521856
0.026976017
0.008774416
-0.02025923
-0.011548543
-0.13416329
-0.010386781
-0.005519163
0.014890966
0.0106047485
-0.0025623015
-0.13125022
0.012541943
0.013937397
-0.02863819
0.0055551957
-0.001949401
-0.0064923735
0.0166921
0.013510528
-0.021346927
-0.025472596
-0.0021795204
-0.03189554
-0.03168288
-0.008034849
-0.0011188613
0.019268574
0.010384017
0.093192704
0.0008045658
-0.021877212
0.09085462
0.016767912
-0.12887484
-0.011706563
0.0265934
-0.00043461408
-0.0086595155
-0.007978765
0.023137799
4.6947604e-05
-0.020024484
-0.03698463
-0.026788495
-0.013454923
0.013591766
-0.011999772
-0.009724192
0.01419017
0.028743897
-0.021018185
-0.053782303
0.0074801682
-0.006077405
0.01808353
-0.048652913
0.011254012
0.031521544
0.021925101
0.011174214
-0.00028662052
0.011684146
0.0156214405
0.013436499
-0.0107931355
-0.006205376
0.013042555
-0.012254331
0.005753107
-0.0025694126
0.017496683
0.005928365
-0.019183598
-0.01311476
0.004384633
-0.006448242
0.013350975
0.0011727327
-0.0140413605
0.01657628
-0.01704217
-9.4502284e-05
0.018024944
-0.013819995
-0.0065794545
-0.010567338
-0.0019112078
-0.011720966
-0.028949577
0.0031303465
-0.008195208
0.04025529
-0.011501012
-0.011139903
0.04956023
0.010859782
0.014731618
-0.09499158
0.006123384
-0.0002729574
-0.021128587
0.01627797
0.00038111626
0.009514823
-0.0055729365
0.018671382
0.017113714
-0.0041581667
0.004283829
0.01822889
-0.00020550191
0.008881998
-0.0019004255
0.0032548863
-0.008686479
0.017410487
-0.024678294
0.0005925898
0.005300655
-0.022975434
-0.0157405
-0.020812405
-0.015310815
-0.021377848
-0.004861365
-0.008909666
0.02794432
-0.015021246
-0.002909364
0.002985561
0.03385481
-0.018864062
0.0066045495
-0.001390283
0.011433775
0.0034949477
-0.0034608927
-6.0481354e-05
-0.002863138
-0.0043569338
-0.0013991107
0.009592163
-0.021999143
-0.010098345
0.01440423
0.012658476
-0.017308949
-0.0060564424
0.013013416
-0.012145579
0.0884604
-0.007295655
0.0019028692
0.031249214
0.0041997284
0.015713576
0.0050149057
-0.053636547
0.05572039
-0.015821474
0.0065020598
0.011588317
-0.00751611
0.043059763
0.012642488
-0.0025925608
-0.014433379
0.005356968
-0.005152517
-0.03422724
0.010512375
-0.01736308
0.0056291483
0.020761106
-0.013552682
0.0031635845
0.0053622616
0.0055262335
-0.008684225
-0.059492674
0.020946044
0.0020825248
-0.0013525932
-0.017834468
0.012605997
0.038503166
0.0019847895
-0.016533157
-0.0013228093
0.017002486
-0.018769348
-0.0010259997
-0.010617057
-0.00061843096
0.0049613374
0.012802875
0.0024418766
0.006494448
0.020877454
0.0052244663
-0.015849452
-0.012334694
0.019745547
0.015318087
-0.0018000561
0.014633762
-0.0024889652
-0.015913798
0.0028278737
-0.0039764885
0.004191322
0.0012375724
-0.0062942463
0.011422325
0.011571375
-0.0060500195
0.0055497694
-0.0016715685
-0.009698835
-0.0032470254
0.0031885142
-0.02723115
-0.00036725443
-0.019852273
0.00078014925
-0.0007836499
-0.011282193
0.012978039
-0.007159889
0.023325678
0.004395997
0.006335625
-0.0048786053
0.011754217
-0.015356036
0.019661779
-0.005976166
0.002438316
0.0043014297
0.014400035
-0.013191403
0.010562798
-0.015995609
0.0072086975
0.035106003
-0.021440336
-0.006521049
0.012909233
0.009350877
-0.012620684
-0.0075763334
0.02627473
-0.009023524
-0.0012756524
-0.004099302
-0.0168691
0.030207528
0.010952616
0.0021506757
-0.00345737
0.03704276
-0.019247562
0.011088874
0.020096602
-0.0062086247
0.0034983533
-0.0021426193
0.014772969
-0.01910536
-0.015466275
-0.016872443
0.01415162
0.0015200303
-0.023102848
-0.009174416
0.0022859522
-0.011126114
-0.024760189
-0.018760143
0.012063962
0.013097095
0.0006792185
0.009477122
-0.0040188944
0.0018254011
-0.007202505
0.017814025
0.02100442
0.0075074565
-0.014224848
-0.025074594
-0.0036771756
-0.013711357
-0.0042399406
-0.022537157
0.028877787
-0.0074435947
0.0069933506
-0.004846675
-0.015209114
0.02243779
0.03269844
-0.011778234
0.007786258
-0.011744523
-0.0060900785
0.00551569
0.0015399058
-0.018710297
0.017256454
0.004372648
0.0027084304
-0.016676512
-0.006941716
-1.1987366e-05
0.021470977
-0.005747925
-0.003375554
0.0032846592
0.0035118402
0.005153099
0.004769635
-0.032071672
0.011119104
0.012656204
-0.014205889
-0.013285288
0.00916645
0.017075513
0.007342168
-0.0019663444
0.069777615
-0.010760551
-0.011007812
0.032768186
-0.014821396
0.0097890645
-0.019036442
0.023329053
0.010518881
-0.010399298
0.02659965
-0.007905935
0.021983292
-0.016888905
-0.0049859607
0.0050933287
-0.004949266
-0.035085436
-0.00651947
0.013073252
0.006370875
0.004442016
0.002152923
0.00095405907
0.008076295
-0.020588994
-0.002483706
0.1471335
-0.026543247
-0.022478445
-0.0048381076
-0.00081923313
0.0030168204
0.029739914
0.009798025
0.007111405
-0.03010139
-0.015633212
-0.005474101
-0.0015512957
-0.00018527692
0.05026886
0.018019378
0.00075873325
-0.00483552
-0.005940004
-0.00079297443
0.022727152
-0.0038355577
-0.018605921
-0.01008842
0.009100958
-0.014344727
-0.01084721
-0.017557783
-0.04068712
0.01972962
0.029869713
-0.013709109
-0.019618617
-0.027743995
0.02409941
0.0036724175
-0.02329861
0.02466241
-0.070208356
-0.013249312
-0.007851819
0.013746526
0.0059120664
-0.04661864
-0.017220683
0.0014957067
0.019320618
0.042229865
-0.0097065605
-0.011131636
0.018245773
-0.011786704
0.016241215
-0.0077489
0.0034051333
-0.012697438
0.00048747542
-0.009260072
0.032035086
0.027249096
0.0033987171
-0.0015994249
-0.01668989
0.05875433
0.036802854
-0.006078537
-0.012940741
0.007929555
0.008363266
-0.034612328
-0.014669408
-0.038272418
-0.02091711
0.006678424
-0.016614366
0.024589514
0.0287052
0.01206344
0.00090475706
0.006546222
0.010962423
-0.02950247
-0.012771485
0.025690736
0.013534936
0.042846147
0.002263977
-0.002472204
-0.024146844
0.025994254
0.047372304
-0.040415864
-0.033757593
-0.023445468
0.0543906
0.067008935
0.037676368
-0.15036926
-0.049085677
0.0013097333
-0.015206317
0.043841552
0.015803631
-0.024381258
-0.049351458
-0.017267479
0.008724824
-0.018598177
-0.006246513
-0.006954906
0.035438016
-0.0027104053
-0.012909111
0.0141791
-0.056397352
0.0118022105
0.014555831
-0.016540011
0.023522934
0.007282998
-0.005740561
0.023562595
-0.019643517
-0.021171562
0.010174988
0.01778055
-0.05867426
0.0058592865
-0.0070144194
0.040864307
-0.029794067
0.0115142865
0.014900339
0.014784837
0.026039487
-0.28030932
-0.0006905578
0.009916909
0.0062420024
-0.011779362
-0.006929358
-0.014058698
0.012308468
0.023907904
0.03396436
4.412678e-06
-0.023396593
0.0026737128
-0.0033455112
-0.037661463
-0.0002498202
0.013096541
-0.035970565
0.0064023524
-0.002026913
0.005830797
-0.021932714
0.0200686
0.014245779
0.52482283
0.024828678
-0.0066708885
-0.028710995
0.017800946
0.00091991335
-0.0033022217
0.021949962
-0.013772578
0.029956728
0.004327571
-0.008639467
0.0033263082
0.010244937
-0.005233224
0.008268565
0.018132865
-0.0014555914
-0.008550994
0.016620751
-0.01956499
-0.010511129
0.015853247
0.012807876
0.15247655
0.017920818
-0.014558604
0.038817532
0.013683308
-0.035743438
0.006661203
-0.021800354
0.014912906
0.018489283
-0.022018725
-0.015587481
0.00088773255
0.0072129727
-0.028580159
-0.13279465
0.030611975
0.009939362
-0.23873304
0.045099206
-0.017361416
0.008710064
-0.018210199
-0.002807501
-0.010474694
-0.0003879161
-0.008949887
-0.02728692
0.022209682
-0.0031120349
0.0045444337
0.021620285
0.014121756
0.0026463424
-0.0055600493
0.0066984664
0.0018479938
-0.008131916
0.014849225
-0.012476314
-0.0015843982
-0.0070076752
-0.0006338363
0.016312657
-0.010932008
-0.0032454664
0.009946005
-0.004793615
-0.029852845
-0.00767046
0.007278636
0.010112511
0.063227296
0.0050105094
-0.0032878416
-0.0073564025
0.0048274016
0.0080385255
-0.0077113304
0.020227628
0.012067897
0.020317135
-0.009863342
0.0037149028
-0.010582723
-0.026064008
-0.014639349
-0.030447282
-0.03334744
-0.0040662005
-0.00412412
0.00027305493
0.012507054
-0.004707523
0.0018214032
0.0018824872
0.0034136537
-0.0048209056
0.0006959464
-0.013547574
0.0047111455
0.018722022
-0.02422165
0.0031492359
0.016236534
-0.014397898
-0.023516772
-0.025326539
-0.023210233
0.0010795868
-0.0001771202
-0.016657162
0.013829874
0.005463642
-0.0071417284
0.002088206
-0.00046854455
-0.09056643
-0.020877259
0.015742522
0.010037879
-0.027501091
-0.025865987
0.032350056
0.02529162
0.013803992
0.0064381156
-0.02092288
0.0038952641
-0.006718962
-0.0075277514
0.009197284
0.03305228
-0.014176309
0.0035723543
0.010966333
-0.021428552
-0.14078806
-0.011619111
0.0076178256
-0.002982057
0.00034377788
-0.006573404
-0.005609576
-0.025940765
-0.0035242054
0.012427566
-0.0068375613
-0.044156827
-0.015362797
-0.0021764357
0.025306167
-0.02425741
0.004228761
-0.027394949
0.010612733
-0.0075356946
-0.023762582
-0.008744044
-0.019830776
-0.0079552
0.006847168
-0.03209605
0.00049010746
0.00020311635
0.005954918
0.10288672
0.024803495
-0.020911412
-0.019265251
-0.027822334
0.028712649
0.045947067
-0.13604903
0.029443767
-0.0034344762
-0.033110157
-0.044080995
0.05437319
0.0040593846
