2304,
-0.030168336
0.10533975
0.15787463
0.024759537
-0.006538494
0.060618676
0.088399954
-0.13495968
-0.020193778
0.12939753
-0.081561916
0.34852737
-0.25281668
0.072656795
-0.008797166
0.46894974
-0.20609458
0.09965331
0.16798031
0.21133244
0.16016334
0.023227757
0.26179433
-0.2517807
-0.27660996
-0.010905024
0.045260422
-0.013393934
0.2999334
-0.19226034
0.2906915
0.24171597
-0.27573302
0.15380333
0.046239443
-0.014303439
0.3452633
0.39705968
-0.2519949
-0.28852922
-0.23382361
0.19749643
0.4770842
0.07425294
-0.12781408
-0.15002984
-0.18022643
0.47252777
0.106139585
-0.016932527
-0.18177797
0.23282248
-0.22376944
-0.09336309
0.44726828
0.05175117
-0.02375491
0.33302048
0.141904
-0.011319212
-0.16730219
-0.10505802
-0.022716591
-0.5790203
0.11079313
-0.22692059
-0.017427376
-0.3405907
-0.082887776
0.19264194
0.053662527
0.10225857
0.060954887
-0.1448561
0.14725761
0.15809533
-0.11613294
-0.14285216
0.35939336
-0.032490432
-0.07004228
-0.11076596
-0.050562616
-0.35114825
0.011705362
0.12444378
-0.034213144
-0.23781745
-0.5621564
-0.10719271
-0.09617385
0.025262613
0.24163271
-0.20564502
0.4208724
0.17802517
-0.12651849
-0.018049976
0.4563024
-0.032296028
0.1392407
0.2224092
-0.0081356615
0.041886702
0.05950448
-0.061755575
-0.009065979
-0.35065246
0.19223815
0.083747804
-0.27055728
0.12324594
0.02774584
0.008315221
0.011587102
0.11658996
-0.15478106
0.09344986
-0.25182006
-0.1648944
0.25499243
0.31092018
0.07773834
0.14631239
0.20265497
0.07270083
0.0065296884
-0.42548886
-0.027873509
-0.35087985
-0.016699873
0.061361074
-0.064523086
-0.670845
-0.017145233
-0.041521873
0.069341056
-0.2540483
-0.15591419
0.092122
0.03399018
0.27175432
0.27398014
0.12446438
-0.22832353
0.059880286
0.089742735
-0.016739344
0.08032442
0.008101802
-0.04500343
-0.2153239
0.23498966
-0.031576365
-0.041720923
0.0021514054
-0.042009525
0.016202044
0.020794956
-0.1932516
0.066470206
-0.37062877
-0.03442374
0.08768967
-0.023135956
-0.32666576
0.0109450845
-0.13369526
-0.113746
-0.0630159
-0.012210212
-0.21372576
-0.51243657
0.05677999
-0.01237639
-0.6763795
0.039034
-0.07868186
-0.07427171
-0.071792595
0.24413034
0.041998137
0.05973987
-0.0008088367
0.00046687544
-0.09869267
0.05338776
0.14558026
0.2256813
0.015798012
-0.021917857
-0.11096452
-0.10423835
-0.26430342
-0.038077474
-0.16776913
-0.08509531
-0.16254081
0.08935393
-0.31624052
0.04814889
-0.04255012
0.34458905
0.03823208
0.19477578
0.32897633
-0.0108450195
0.23576963
0.109575726
-0.06890672
0.04347472
0.16520189
-0.110088594
-0.024047136
0.01973071
-0.23906724
-0.1813659
-0.26595744
-0.31107578
0.28861114
-0.00883752
0.019323407
0.07785927
0.26461318
0.10682261
-0.013592214
-0.19037195
0.17817068
-0.084083006
0.062382117
-0.028463587
0.09539849
0.06485036
-0.04946845
0.17426388
-0.15233886
0.102504924
0.5582711
-0.4074937
0.23984297
0.15966897
0.1129738
-0.24869035
-0.040244948
0.11881816
-0.06925621
-0.07494205
-0.113517694
0.15404296
-0.06548403
0.039087653
0.010381134
-0.47924155
0.08732193
0.004293754
0.33218148
-0.12460376
-0.0938295
0.13884825
-0.14999746
-0.20350543
0.035342
0.42681965
-0.21786986
0.20839486
0.11368029
0.07659765
-0.076784246
0.12200516
-0.056905385
-0.04380952
-0.015837833
0.2881394
-0.045107335
0.036588304
0.04596043
0.108870775
-0.029105611
-0.45066363
-0.1420111
-0.027050043
-0.3048952
-0.036040176
-0.015763644
-0.12000425
0.37262973
0.07135182
-0.013010252
0.12303372
0.11342902
0.012462932
0.036210224
-0.07367405
0.07743925
-0.043247014
0.3778854
-0.1739005
0.1160271
-0.0747092
0.16645585
0.0024916409
0.0110461945
0.096776135
0.17441009
0.10079595
-0.045335907
-0.13517599
0.136092
-0.068182014
-0.020912534
0.28078368
0.06616162
0.29722765
-0.042774945
0.14613736
-0.1454699
-0.058077615
-0.048729785
0.002695004
0.041857965
-0.18041591
0.11757302
-0.04436726
0.13254066
-0.14570726
0.18593226
-0.17782544
0.6055675
0.00093353825
0.15303184
0.063532196
0.4953069
-0.30976862
0.14307977
0.19712207
-0.3367875
0.53369415
0.18517597
0.03979496
0.326186
-0.04294435
-0.069252886
-0.03234922
0.43711692
0.086576834
-0.22851686
0.15206902
0.119306095
-0.40895244
-0.08618417
-0.08340559
0.040621273
-0.10303443
-0.16790897
-0.02790975
-0.07690786
0.15783143
-0.0009175161
0.123705015
-0.12295648
-0.101453535
0.1230433
-0.14285216
-0.025106883
0.077902615
-0.14665797
0.044623923
-0.016992122
0.32946646
-0.3880306
-0.011140061
-0.15360367
-0.00031502
0.09638048
0.07976321
-0.19977683
0.05645389
-0.17434306
-0.38932338
0.07954078
-0.056224406
0.45930216
0.39056763
-0.068187185
0.1678316
0.47210243
-0.17426597
-5.587238e-07
0.16743208
0.0712478
0.03388626
0.1957462
0.22999644
0.043036215
-0.07316378
-0.10654341
0.15052906
0.13193765
-0.02138821
-0.109272584
-0.063195795
0.7087622
-0.018466787
-0.16443299
0.11309764
0.35616362
-0.115422666
0.50080264
0.07802451
-0.033322
-0.0067240135
-0.015645003
-0.015896592
-0.041850362
0.4957179
0.050472014
-0.04725437
0.030770052
-0.004958238
0.10276306
0.10858718
0.27814803
-0.08835227
0.22687817
-0.109146714
-0.054933626
-0.11775979
0.3105908
0.27734905
0.04097699
-0.0019445511
-0.10434012
-0.060192514
-0.22160743
0.48139027
0.018373199
0.060093213
0.010747895
-0.2456192
0.15725023
0.016121788
-0.14630362
0.3151344
0.056069568
0.2258956
-0.019596545
-0.060705297
-0.11682794
0.0108757755
0.13465707
-0.10458152
-0.60096455
-0.3974123
-0.054966457
0.17225623
-0.0680679
0.023230791
-0.23184179
-0.32583597
0.114211544
-0.10710767
0.07079084
-0.16884324
-0.32091135
-0.20994668
0.08810721
-0.095052935
0.98749954
-0.17580941
0.07247798
-0.15981102
0.025717525
0.13629435
-0.19707927
0.20187524
0.1398301
0.05911135
0.02707497
-0.012725567
-0.38583556
0.1729336
-0.062493764
0.07055109
0.2574114
-0.05154781
0.035000414
-0.17886193
0.067642935
-0.25984165
-0.26210684
-0.045960087
0.13974628
0.08028612
-0.110991225
0.08614805
0.07691004
0.012144868
-0.16357683
-0.30324
-0.0039544157
0.00028292477
0.016600024
-0.2783442
-0.112988405
0.14236471
-0.04965183
0.14993939
-0.08041776
0.014523928
0.018148446
0.30505937
-0.19693732
0.11743476
-0.07368292
0.07420836
0.097559236
-0.11064142
-0.0689573
0.096889846
-0.034768336
-0.010245479
-0.07086329
-0.8410977
0.34173715
0.27599537
0.025243461
0.09043256
0.036581043
-0.0019535031
-0.0069637536
0.0034238035
-0.30717444
-0.17707737
0.085546315
0.1544476
0.38161305
0.108352095
-0.015804613
-0.17178024
-0.054247864
-0.034649864
0.10613932
0.018140737
-0.041051764
-0.18388137
0.04724852
0.06343507
-0.032128762
0.26705036
0.20949095
-0.19300169
-0.0906395
-0.10006076
-0.6654272
0.014285533
0.2568246
-0.446788
0.036491822
0.31161934
-0.099321276
-0.070173465
0.04977408
-0.08118816
-0.076298475
-0.006928248
-0.07814113
-0.053424124
0.09315274
-0.0018365739
0.092094354
0.16941467
-0.067753434
-0.02599976
-0.20341152
0.07032979
0.022231285
-0.22141467
-0.083798476
-0.18777692
0.15859587
0.31305447
-0.10589515
0.31691805
-0.03603718
0.1530641
0.1056424
0.079434544
0.19321504
-0.0407192
-0.09729782
0.010603466
0.32575017
0.00409371
0.13915569
0.3713629
0.21820149
0.32401392
-0.07968554
-0.07375629
0.07191093
0.09721696
0.027412254
0.19095576
0.13311267
-0.1529927
0.1574769
-0.05981101
-0.016543875
-0.067477785
-0.33507484
0.09262077
-0.0047516674
-0.0034878347
-0.10610254
0.020160558
-0.013459535
0.5739899
0.1575999
0.37313592
0.14903791
0.19007783
0.08065083
0.12135096
0.31741354
-0.10807946
-0.14692464
-0.004086716
-0.14231417
0.0056753517
-0.039366182
-0.5690265
0.27847472
-0.27790347
-0.0062032337
0.08396848
0.03083469
-0.11844827
0.15667263
0.13703215
0.1747928
-0.09789484
-0.008325571
0.14997536
-0.0584048
0.03537758
-0.044773977
0.22870101
0.03919938
0.21396224
0.099389695
-0.034690987
-0.7361368
0.07338845
-0.001401559
0.010285865
-0.014407033
0.032430865
0.32588792
0.045739446
0.025881486
0.40986308
-0.16590811
0.73066443
-0.31219178
-0.0061976095
-0.057924867
-0.14322068
0.037550982
0.09143783
0.027987571
0.051383223
0.0191358
0.106637366
0.040169522
0.14694908
0.026290808
-0.046344522
-0.20319273
0.04801
0.06894101
-0.14950262
0.03910154
0.2233225
-0.0005436917
-0.098458
-0.033182994
-0.040785894
-0.0021305485
0.18895058
0.11020107
-0.00209568
0.1598769
0.017888874
0.18935923
-0.039647646
-0.023905339
-0.055976268
0.025800437
0.19363473
-0.007881549
0.01928568
0.06323896
0.002375708
0.013645257
0.06920735
-0.015940022
-0.44892758
-0.16130787
-0.36820194
0.50260305
0.25028002
0.19664316
-0.31493926
-0.057317372
-0.42431903
-0.16363618
-0.872566
-0.20592497
0.061113168
0.54731727
0.040884748
-0.09051331
-0.1321847
0.030361287
-0.033044573
0.37619004
-0.4516321
-0.16855325
0.1822327
-0.43595877
-0.697617
-0.12892054
0.39203534
-0.017176451
0.07135528
0.16701697
-0.046154115
0.30511713
0.17803255
0.16523245
0.41404104
-0.12003451
-0.07624876
-0.29645732
-0.22517724
0.12475309
0.028341573
0.23060936
0.48065597
-0.23068856
-0.23858982
0.16518319
0.16849022
0.15049578
0.08871778
0.33258954
-0.23699595
0.44133127
0.108133
0.6181444
-0.08678359
-0.046976775
0.23388825
-0.373654
0.09980433
0.11431463
-0.13554624
-0.18367891
0.0024043215
-0.06472461
0.109593
-0.11826681
-0.060756803
-0.078038044
0.026330736
0.08133443
0.16048148
-0.07287874
0.07689438
-0.115749456
-0.1231698
0.020244198
-0.1340734
-0.04319455
-0.047686752
-0.10229927
0.16470568
-0.057190448
0.0721766
-0.0053900015
0.18323499
-0.1891531
-0.037560187
-0.06304398
0.07563447
-0.058894977
-0.0041046576
-0.14995043
0.13452528
0.019688478
0.04351365
0.012426413
0.051357597
-0.037601024
0.022087907
0.14131238
0.18930197
0.04216584
-0.05518526
0.021175606
0.0410023
0.033820663
-0.13935451
0.08095606
-0.13619657
-0.017438909
-0.044643834
-0.09051534
0.031461734
-0.02650589
0.05901212
-0.1900008
-0.074427225
-0.066755116
-0.01950311
0.029064558
0.16306026
-0.07152147
0.11160008
-0.13580991
-0.13180816
-0.06688708
0.020985713
0.09163181
0.02639003
-0.029457686
-0.0014445132
-0.15909511
-0.06996146
-0.1181302
-0.1408734
-0.03340813
0.047910847
0.02183881
0.014734312
0.05924218
-0.005796096
0.15965717
0.04430712
-0.018356996
0.12887873
-0.19745718
-0.014162633
0.10813099
0.18076116
-0.06972259
0.10630232
0.11185259
0.22629231
-0.096142724
0.012300023
0.07409617
0.0072265123
-0.05689504
-0.08759619
0.12824392
-0.0917908
-0.076133944
0.19096856
-0.014442273
-0.11830852
0.07178569
-0.04788868
-0.0468004
0.038371325
0.04661453
-0.050596196
0.011035636
0.0064272988
-0.06414014
0.110882804
-0.071586974
0.0029935052
0.114636704
0.00096107816
-0.20768993
-0.036123015
-0.022859054
-0.041057304
0.116288394
0.046044413
0.020734923
-0.14089574
0.1249373
0.036743596
-0.011030857
0.0468901
-0.03501868
-0.18372172
-0.006102766
0.06110037
0.09712776
-0.085359566
-0.044370923
0.040797025
-0.05932496
0.056884393
-0.06988209
-0.055759247
-0.034959674
0.15949917
0.113043465
0.2591402
0.020316064
0.10321325
0.019067192
0.0388436
-0.13621691
0.021546312
-0.012634393
0.2463648
-0.0135361105
0.041346665
0.041356202
-0.19004004
-0.0822248
-0.01891882
0.075031094
0.028764522
0.14592075
-0.10320775
-0.18516032
-0.09591855
-0.08950334
0.00033589697
0.120427944
-0.0943691
0.039412364
-0.003391319
0.072421074
-0.029735563
-0.03939172
0.04182777
-0.2321938
-0.088071175
-0.06121016
0.020781547
0.03727701
0.10935052
0.006684907
0.095532864
0.063178964
0.032448865
0.0911507
0.09321526
-0.012070767
0.028716747
0.053666808
0.13962017
0.020105219
0.08813254
-0.15714546
-0.008284255
-0.019152332
-0.12163843
-0.059788723
-0.09597117
-0.040778026
-0.049278136
-0.09998975
0.0059992787
-0.17262407
0.012572082
0.12947364
-0.12049989
0.0038666632
-0.059013512
0.023160242
-0.030213816
0.10892312
-0.18875138
-0.041853145
-0.08413762
-0.060940664
-0.16316237
-0.06544813
-0.12314046
0.060520083
-0.004878611
-0.02241222
0.0017345867
0.01850215
0.20111877
0.02842957
-0.08542971
-0.046663385
-0.20647274
-0.20769441
-0.023242999
-0.0456765
-0.0050892034
0.07198937
0.06298844
-0.059473325
0.10851887
0.08179574
0.103830434
0.086563624
-0.024156269
0.0478087
-0.00303197
-0.056213755
-0.03661175
0.111929595
0.05785782
0.11046469
-0.07743301
0.21694988
-0.07501436
-0.010948159
-0.079020604
0.08131983
0.026197717
0.094991386
-0.02862622
-0.17310868
-0.060261212
-0.05694067
-0.062503405
-0.041346688
0.0016136431
0.07289504
0.0030958878
0.05034146
-0.058522563
-0.10632806
-0.052342046
0.010023434
0.056127556
-0.08722091
0.109657496
-0.12989435
-0.16165766
0.005746529
0.029832816
0.08280719
-0.13344994
0.07565687
-0.090166
-0.0037231066
0.1848642
-0.0007578226
0.059420973
-0.03956354
-0.032987703
-0.12979789
0.022514412
-0.030611558
-0.095041454
0.16679966
0.040805645
-0.07507173
-0.021630567
0.17555045
-0.020906672
-0.16854386
-0.0038888592
0.11677659
0.17147489
-0.00010133325
0.02346479
0.121995464
-0.080381766
-0.025721055
-0.029522067
0.07053458
0.05793919
0.14748698
0.025519555
-0.12628035
0.05206317
-0.08273025
-0.035294026
0.23574522
-0.11077954
0.065163635
0.044537753
-0.0859859
0.23955996
-0.035727996
-0.019650877
-0.16229632
-0.23632507
-0.08732723
0.13376926
-0.105810575
-0.080970444
-0.03126243
-0.042877976
0.019994203
0.078150705
-0.105690755
0.03067693
-0.089770295
-0.123447865
0.12049863
0.04849068
-0.07114344
-0.12613897
0.08140424
0.09155746
0.05280956
-0.009930852
0.038401484
-0.13386582
0.09278936
0.06222574
0.0031822103
-0.08029669
0.07136266
0.062459446
0.030134318
-0.08916272
-0.04507365
-0.013147819
-0.003297792
-0.15081167
0.114626355
0.052724455
-0.25894952
0.08242752
0.023839595
0.0549099
0.007515294
-0.098098546
-0.14484894
0.0018988497
0.12900437
0.19023362
0.076285444
0.07537216
-0.09331448
-0.0960726
-0.008419578
-0.22906917
0.074182026
0.011342741
-0.13692561
0.09337316
-0.040354226
0.05721569
0.050839502
-0.07745783
0.0017275647
0.03956785
-0.013108515
0.015478991
-0.011143801
-0.0052745594
0.020788854
-0.021616675
-0.19163899
-0.042552117
-0.06719054
0.13996449
0.04551594
0.11125991
0.078891456
0.047706854
-0.15130009
0.0705629
0.0161961
-0.03398988
0.029651886
-0.18645167
-0.1820158
-0.062400408
0.07664838
0.11808543
-0.030194396
0.0654688
0.17128444
-0.014535044
0.034530617
0.056313474
-0.12460376
-0.25990054
-0.113641664
0.004285155
0.045692336
-0.11562399
0.18167086
0.07350748
-0.010674944
-0.04948723
0.091955744
0.042469785
0.12868099
0.041073706
-0.117362514
-0.08263515
0.14303742
-0.009797778
0.016416328
0.10819569
-0.06850646
0.12527607
0.108372904
0.088764645
-0.058214273
0.034594018
0.07597028
0.15618849
-0.059229642
-0.11397727
-0.046658434
0.027708676
0.00047850856
-0.09610155
0.06677516
-0.117974564
-0.00661226
-0.101256646
0.14885245
0.12574638
0.057263616
0.16364993
-0.0737768
-0.034084175
-0.031581
0.056571886
-0.05628039
-0.1097203
-0.0012554917
0.17853582
0.0051604444
-0.096784994
0.11980822
0.18369788
-0.059400037
0.056249756
0.004602579
-0.009886079
-0.05842203
0.007095734
0.03607196
-0.18358387
0.039737005
-0.02004849
0.06513655
0.16299714
0.03158345
0.07298525
0.020227443
0.03193576
-0.018262958
-0.20524077
-0.020440493
-0.066044554
0.018311083
-0.00054016616
0.09682738
-0.100084595
-0.052182134
-0.019729722
0.09635976
-0.040460374
0.21338132
0.20891644
-0.020629577
-0.20741959
0.011143552
-0.056700375
-0.031546146
0.07011917
0.12585826
0.095533416
0.005784188
0.1287082
-0.06960331
0.048732568
-0.015718587
0.1961121
0.103611134
-0.09998784
0.056073654
-0.16305356
-0.09389281
0.16085352
-0.00273729
-0.2069398
-0.09969968
-0.068156645
0.074643604
0.1267917
-0.018273659
0.03928081
0.05619048
0.08666106
0.0049264543
-0.10546246
-0.05090484
0.0008729198
0.23163478
0.03975925
0.08427069
0.08782254
0.08943632
-0.12592286
-0.008771124
0.3242264
-0.07537132
0.12976037
0.0061732708
-0.066885285
-0.027300248
0.090888835
-0.049071655
-0.023813361
0.09972034
-0.029336827
0.014226626
0.06997792
0.1523561
0.008112727
-0.13850282
0.037984647
0.010992316
0.0017101082
-0.027074514
-0.012183313
-0.10167129
0.028089518
-0.10020905
-0.022079816
0.16604982
-0.10174991
-0.12319944
-0.0020970078
0.08257114
0.0013541135
0.0015947744
0.09314438
-0.046697393
-0.15395977
0.07123855
0.24591635
-0.0020335645
0.07184218
-0.04529832
0.040600665
0.008387839
0.040052
-0.07309309
-0.11872324
-0.024736688
-0.11997538
-0.15453207
-0.19439404
-0.07164079
0.00869954
-0.011272315
0.08021917
0.09922357
0.0060205925
0.06709596
0.18530314
-0.19382186
-0.020445332
-0.056869477
0.040017307
0.13714339
0.035870846
0.12952392
-0.081898816
0.051328275
0.010233862
-0.10027197
-0.23770541
-0.19557181
-0.03095333
-0.06241053
0.19340506
-0.005158738
0.1752599
-0.028814243
-0.09812058
0.24518597
-0.06971975
0.0040418752
-0.0406168
0.036195613
-0.09008933
-0.04413282
-0.13293087
0.08850455
0.15249826
0.03611918
-0.049078856
0.020503452
-0.15210406
0.075457506
-0.01913582
-0.014325472
-0.07046657
-0.0033402848
-0.035201225
0.036385093
-0.15491302
0.054850336
-0.020924985
0.08984486
-0.023119286
-0.13182868
0.0124613745
-0.047242716
-0.025373537
-0.17788774
0.1690566
0.19026947
0.096473515
-0.020287482
-0.0106692705
-0.04627197
-0.13476658
-0.05928946
0.015417257
-0.013935006
-0.024949616
0.035647165
0.04653438
0.27694258
0.031514872
0.013566118
-0.018501103
0.02244037
0.047182906
0.017486416
-0.028633218
0.03725922
0.11976453
-0.007614972
-0.063476056
-0.08134342
-0.11881675
-0.09609206
-0.08348255
-0.028061839
-0.06713568
-0.027361967
-0.09196427
-0.12684177
0.103442274
0.105612025
-0.012625298
0.02379377
0.104297325
0.028431855
-0.122737266
0.07124514
-0.054821018
0.04867176
0.016012035
-0.022490596
-0.07498985
0.03428413
-0.25002912
0.0913314
0.11590552
0.031371165
-0.14500695
-0.03390351
1.7893136
-0.25731406
-0.95691174
0.47365013
-1.4363347
2.0022888
-0.008589503
1.114784
-1.8443314
-0.39776984
-0.4563912
0.72809917
-2.6122808
-0.14372975
-0.0028138142
1.5990043
-0.96110076
-1.2749202
-0.32855326
-0.54421186
0.45161337
2.0279381
-1.6081916
-1.3202593
1.4812207
-0.96373284
-2.2586737
-0.8489061
1.9607779
-0.0767811
-0.37224174
0.90610063
-0.32345918
0.78382844
0.6251662
1.0057762
1.1432703
0.822473
0.17098752
-1.1267829
-1.6086539
0.17589115
0.33926618
0.7513264
1.0639822
0.08166019
-1.1739541
-0.110871814
1.5020452
-0.6662672
0.011550752
1.6065181
-1.5178845
2.7456756
0.10700466
2.5881577
-0.3578986
-0.15779415
1.7704513
-1.0493122
0.5265509
0.17140257
-1.1139202
-0.82551634
-0.0037568153
-0.028291272
0.04427961
-0.006230845
0.39550668
-0.013563661
0.005526489
-0.008295733
-0.0014077099
0.03508787
-0.027403831
-0.02312975
0.0048303986
0.021356355
0.003141814
-0.04464752
-0.0054389723
0.007052769
-0.022552958
0.0025499729
-0.004259043
0.0021538278
-0.009394511
0.0011360921
0.0030295867
0.0038806365
0.0351208
-0.01568274
-0.008386562
-0.009174746
-0.010713254
0.0018770467
-0.011905031
-3.975436e-05
0.030391755
0.005566117
0.011616356
-0.025701318
0.0077270605
-0.0011466765
0.010131457
-0.23956023
0.03383388
0.006285525
0.008091919
-0.0012414048
0.1396417
0.007589792
0.008611204
0.0051703416
0.0017424782
-0.003546451
-0.009828829
0.0026791918
-0.029432524
0.02376252
0.010827145
-0.011889555
0.0071913614
-0.0057290397
0.0056118974
0.04158347
-0.010767843
-0.030818745
-0.024471112
0.013342418
-0.031320564
-0.09836144
0.02223617
0.0020628332
-0.037369605
0.009187558
0.04749776
-0.03167168
-0.0021079506
0.014795632
-0.015113694
0.034389466
0.032123737
0.010429083
-0.006637877
-0.014870068
0.014268774
-0.023707826
0.013057141
0.031912558
0.01093807
-0.50678146
0.004657718
-0.018246325
-0.00793555
-0.014400387
-0.030171964
-0.0015386541
-0.0026458073
0.025446543
0.028749347
-0.0025353718
0.10377394
0.02019958
-0.031326354
0.032312885
0.0008826973
0.034814987
0.024388224
0.023721602
0.020847287
-0.018987026
0.0043063797
-0.029576074
0.0022263841
-0.004706578
0.017988013
-0.013748994
-0.017281283
0.0033273157
-0.019191928
0.0037166437
-0.033234328
0.061874975
-0.0031635296
-0.020772763
0.0032484678
-0.032410815
-0.02386871
0.023106057
0.0034739804
0.0062593524
0.005890125
0.010496396
0.0152035225
-0.012458084
0.02942202
0.0023081235
0.002958405
-0.0151497815
0.021070208
-0.0039342935
-0.0020773353
-0.070508696
-0.019638766
-0.0031506647
-0.06621954
-0.0043340675
-0.009927363
0.0055501214
0.012115592
0.02245472
0.0057764114
0.010295059
0.008482199
0.012936153
-0.017853713
-0.018301994
0.0086749
-0.007148151
-0.02708566
-0.00600909
-0.0016394042
-0.016392136
0.020674761
-0.00465197
0.016935969
0.0049030595
-0.009689101
-0.054298222
0.024124451
-0.009554361
0.0019566733
0.032193847
0.022552045
0.03619355
0.011715749
0.011213175
0.013703275
-0.017672203
0.045825444
0.021236327
-0.043647837
0.0070173563
-0.005653489
-0.012087751
0.033445973
-0.024263356
0.004233088
0.018541116
0.0054057837
0.0062821894
-0.0074183717
0.008148468
-0.04832913
-0.0094588725
-0.0068005277
-0.009608856
0.05432183
-0.025947986
-0.006002463
-0.037480313
-0.022661433
0.0086808745
-0.02975429
0.003831738
-0.0011087097
-0.03175987
-0.03453248
-0.026364502
-0.03315933
0.031416193
0.02257738
-0.040681776
0.0047552735
0.0042063207
0.008984798
-0.009840368
-0.018304024
0.48058903
0.018378843
0.087684326
-0.058877397
0.008443068
0.013753401
0.03906017
-0.045602266
-0.006881885
-0.010921482
0.042936254
0.04042767
-0.023623783
0.08791308
-0.0036672147
0.048656475
0.0047822
-0.018193584
-0.013355552
0.009132085
0.024128865
-0.025164977
0.043138627
-0.04782501
0.0094920155
0.02701686
0.03538019
-0.008808137
-0.053031594
-0.00793023
0.005738716
0.00089895463
0.072614945
-0.010883811
0.045921143
0.013579456
0.02534273
-0.025106799
0.007854852
0.036132704
0.02693385
-0.0585084
-0.0041643525
-0.038753845
-0.015721908
-0.01178738
-0.007066673
-0.017336817
-0.022684172
0.0039752023
0.018201593
0.028444795
0.013976927
0.0036599233
-0.002174012
0.030925116
0.01991934
0.00078281795
-0.008840316
0.021396466
-0.012039746
0.0006652499
0.0020670146
-0.003184702
0.01724694
-0.004761026
-0.011670814
0.01868254
0.017112717
-0.019710883
0.017882975
0.011185265
0.0057988963
0.006674649
-0.006704868
0.031102465
0.0027286077
-0.011610234
-0.04682685
-0.01797892
0.01603713
0.020316364
0.0064670006
-0.007736356
0.0035471208
0.013945705
0.006284291
-0.018169552
0.013337284
0.006299336
0.0033238656
0.025774986
-0.03641449
0.031055262
0.010007338
0.008898419
0.02954586
-0.00091322395
-0.04018369
0.01710092
0.028333928
0.004937342
0.015644541
-0.007502132
0.021024717
-0.026943132
-0.013186184
-0.011365655
-0.011436748
0.0005688467
-0.0043912167
0.005685242
-0.005904115
-0.02483993
-0.0041888505
0.0024935505
-0.0029517924
0.008775188
-0.0058130412
-0.008240093
-0.0076003144
0.018934872
-0.0069499034
0.0040555657
0.0045646615
-0.00408551
0.0118994005
-0.0013504225
-0.010862304
0.0012642089
-0.026310703
-0.018259656
-0.015676927
0.00095800264
-0.0011082806
0.0028692854
0.000749866
0.38475102
0.004548189
-0.0035501688
0.0023378418
0.04517453
-0.0008963143
-0.0031745932
-0.0104910415
0.028264418
0.0035235193
0.005713051
-0.008928464
-0.027358461
0.008557821
-0.0014521091
-0.018084288
0.0031516624
-0.011007849
-0.013969789
-0.012107271
0.005350916
-0.017327806
0.00017514087
-0.005629617
0.014680448
-0.007262204
0.015989378
-0.020087812
0.014940909
-0.009098657
-0.0053418223
-0.0029955732
-0.04021142
-0.0046377587
0.017456092
0.0036695546
0.0131643815
0.009433303
-0.016074197
0.021078987
0.017050873
-0.0016040079
0.017182827
-0.0020140046
0.0065026404
-0.32938492
0.008477505
-0.01349799
-0.03832497
0.0010137509
-0.028962178
-0.00454165
-0.009734502
0.0244807
-0.0008457508
-0.01897843
0.006269133
0.0097039
-0.020324703
0.018164154
-0.034525115
-0.03468753
-0.029021302
-0.011250464
-0.022217
0.030021423
0.0004280509
0.008828455
0.014119123
0.019515319
0.0069767865
-0.005469626
0.012358505
-0.0120902695
-0.009693186
-0.019501982
-0.0038155054
-0.0015629283
-0.027532322
0.00037479354
-0.015582488
0.15330017
-0.020725671
0.020182135
-0.0034784407
-0.0029177403
-0.00062256167
-0.042251155
0.010828865
-0.017484566
0.041658394
-0.0004242045
0.016974185
0.02206606
-0.005184144
0.006066835
0.013832758
0.0062870616
0.048223328
-0.0658963
-0.04920211
-0.013831202
-0.08269814
-0.009677544
-0.06253021
-0.06992929
0.07537343
-0.34089583
-0.1339951
-0.027227279
0.024475327
-0.020018281
0.13063237
0.01373688
0.0057154675
0.065183125
0.041615263
-0.04262001
-0.06811658
0.02669627
-0.018609436
-0.025620896
0.06481041
-0.026352309
0.013761199
-0.08811024
-0.04178112
-0.0481941
-0.011042835
0.029385822
0.101754546
-0.004253171
0.0033254514
-0.014762865
0.0012311082
-0.031051533
0.045512337
-0.09028227
0.0016102596
0.029638318
0.046970546
0.024744852
0.0299634
-0.01224875
-0.11278666
-0.06223312
0.057972666
-0.088568136
-0.048561152
0.0019796044
0.012448937
0.06928034
-0.034879018
-0.008452786
0.024690093
0.022500614
-0.024996143
0.045762137
-0.06729697
0.09215154
0.0074360943
-0.01879663
0.0205608
0.012239074
0.001905323
0.0033650836
-0.013990193
0.009831412
0.006371929
0.013702047
0.0053385706
0.01820537
0.0047282944
-0.00019161912
-0.019997623
-0.007751879
0.0054758363
0.0033545499
-0.012063037
-0.0019488587
-2.4954603e-05
0.001608252
0.0058694314
-0.004911375
-0.012399307
0.01112238
-0.015315812
-0.006190671
-0.0027390833
0.036175918
-0.007838515
0.014416874
0.016976321
0.008178737
0.0015171164
-0.0068813954
-0.009505748
-0.002254246
0.015363019
0.013358942
0.004552447
-0.0061400607
-0.006798787
-0.0048522665
0.018620476
-0.0020561297
0.020134034
-0.016503742
0.015366909
0.009030793
0.0015056422
-0.001983055
0.01979637
-0.023047112
-0.011513359
0.019585423
0.00650718
0.011516441
0.006870556
-0.004035083
0.020483421
-0.020912955
0.026015753
0.004641176
0.005424495
0.034111954
-0.025586255
0.0062796283
0.058730185
0.009915992
-0.053633045
0.0046457606
0.004575606
0.059211053
0.01041768
0.010397748
-0.06459752
-0.010777711
-0.024535734
-0.029719712
-0.08055314
-0.0062737837
0.10435752
0.023024397
-0.047294967
0.019463103
-0.029571988
-0.002934301
-0.0037741691
-0.01666489
-0.0008180222
0.016127674
0.020168556
0.026482873
-0.0059808046
-0.014653602
-0.049406875
-0.001881834
-0.028207
0.0075879465
-0.017939199
-0.015649559
-0.007865108
-0.013489286
-0.045673393
-0.009545957
-0.013185942
-0.0064715925
-0.096385114
-0.0033919383
0.014601222
0.004689499
-0.02682688
-0.02460279
0.0421097
-0.029250806
0.0075192186
0.066418804
0.07849323
-0.025371384
0.044657912
0.013127528
0.0030677086
-0.048268426
0.012922552
-0.023268914
0.018292803
-0.066376716
0.019141266
-0.0034682443
-0.010777875
-0.00067991274
0.01921378
-0.016604621
0.004310605
-0.010507953
0.010382951
0.067116
0.030261569
-0.056940567
0.0044499864
0.0005460508
0.0131172845
0.024069453
-0.008085061
0.023593595
-7.2342016e-05
0.031412203
-0.021860644
0.011414003
0.007892976
-0.011650667
-0.0035243393
-0.16831262
-0.02705238
0.025779694
0.0031782098
-0.0022862211
-0.025091812
-0.0116443075
0.0035770936
0.004542557
0.018519659
0.031845536
-0.014001176
0.016014671
-0.014102535
0.018849516
-0.0061224373
0.0036990065
-0.018357772
0.016425835
0.005721793
0.01946292
0.019111566
-0.035395216
-0.015392343
-0.0010997704
0.010045797
-0.008322073
0.0008821605
-0.018807268
-0.012863509
-0.019316189
-0.01453106
-0.03417428
0.027588177
-0.006309789
-0.026332395
0.010915549
0.005422639
-0.01241769
-0.034484252
-0.043365188
0.0067743845
-0.02058056
0.07392982
-0.11715471
-0.02955718
-0.019035686
-0.019322872
-0.017600695
-0.11464388
-0.02249576
-0.13829467
0.040174503
-0.055714957
-0.5243655
0.013818944
-0.031686097
0.13704291
0.0169568
-0.02044258
0.42083675
-0.061587535
0.0055108177
-0.0104239
0.016441226
-0.04754417
0.0061282306
0.023327991
0.03491567
-0.032880485
0.040051356
-0.090459704
0.042011745
-0.041680448
0.014432435
-0.027560266
-0.40902966
0.027677454
-0.018172175
0.08727461
0.03853517
-0.03566603
0.007609042
0.0455458
-0.032389387
0.034469735
-0.0039400626
0.036253314
-0.045543272
0.013846048
-0.05518853
0.049693353
-0.042257372
0.047540355
0.034005802
-0.002788927
-0.030757112
-0.07396547
-0.0016490137
0.109833546
-0.018463116
-0.009679577
0.092701264
