2304,
0.37788376
0.07670742
0.0018559127
-0.10767139
-0.00879796
-0.05189953
-0.0003922692
0.4756139
0.0758145
-0.088618465
0.0838981
0.017376201
0.046795983
0.30265206
-0.08545417
-0.021172594
-0.1114467
-0.012073465
0.5199975
0.1743377
0.11690048
-0.10706549
0.13133074
0.103407584
0.47415647
0.007109155
0.0268289
0.040207297
-0.51971596
-0.060860462
-0.10388824
0.22008638
-0.07391408
-0.058254134
0.17621297
0.010224944
-0.34760016
-0.015271093
0.05478969
0.05834673
-0.1101179
-0.041232463
-0.11115351
-0.04165183
0.1919575
-0.05873163
-0.010218448
0.18729001
0.13083497
0.005569717
-0.07684116
-0.23711021
-0.06247594
-0.17335247
-0.03955055
0.08233575
0.086833686
-0.04515986
-0.005131408
0.48160306
-0.049210545
0.23960839
0.32073542
-0.21629515
0.05128293
-0.0926192
-0.010120013
0.2977524
-0.16781388
0.16073227
0.07492758
-0.12821032
0.0012704617
-0.25417116
0.026591215
-0.020689843
0.1996379
0.017535795
-0.10823616
0.117924646
0.23445788
-0.15167579
-0.0113706365
-0.2878837
0.100237206
-0.13877417
-0.03775631
-0.034898218
-0.111035034
-0.06586722
0.56421226
0.06655894
0.44265643
0.40202296
-0.1596558
-0.102279365
0.03910121
-0.075911626
-0.0065209935
0.22072786
0.049975954
0.09841572
-0.036757004
0.18844865
-0.23068552
0.07672269
0.08226483
-0.40161225
-0.18828525
-0.021463305
0.065227754
0.011785426
-0.09457266
0.08578754
0.092573784
-0.13225663
-0.051648933
-0.15838866
0.63853526
-0.030271897
-0.11146923
-0.075351715
0.15537408
-0.13698843
-0.012503824
0.018672336
-0.2429462
-0.012263768
0.109389305
0.16590504
0.56116647
0.41616008
-0.14209542
0.35183427
-0.355668
0.30388343
-0.72523665
-0.4073439
-0.3241811
-0.24872093
-0.112448946
-0.48091626
-0.41374877
-0.27979282
0.5996057
0.4745566
0.3743409
0.10142504
0.2482045
-0.4307248
-0.38988182
0.190916
-0.48625407
0.42023695
0.107828274
-0.20091061
-0.28216863
-0.0875031
-0.24109909
-0.20734335
-0.5594204
-0.167209
0.65883684
0.15437025
0.42010394
0.53134567
-0.3701213
-0.43583438
0.3470743
-0.365195
-0.5429427
-0.23866321
0.20900765
-0.40528744
-0.39028236
-0.1787399
-0.024832543
-0.443969
0.11589232
0.5074868
-0.23061505
0.59878886
0.50999004
-0.41752002
-0.3661396
-0.63085586
0.1711834
-0.07356176
0.20329653
-0.3400753
0.24108636
-0.4968851
0.09827872
-0.1401369
0.079534374
-0.005916746
-0.12789968
-0.05565422
0.01767101
-0.050509755
-0.3381073
0.059600826
-0.102361806
-0.036675774
-0.06426607
0.07743148
-0.024846947
0.029388508
0.049756847
-0.4474717
0.2403107
-0.0017278239
-0.05612049
0.008070796
-0.11382947
0.056487948
-0.17304489
0.092737205
0.05053375
0.12159725
0.20994624
-0.015774136
-0.105358675
0.04460465
-0.1892017
-0.13316302
-0.026898984
0.19602261
0.23012537
0.22472583
-0.021040518
0.10764504
-0.053153407
-0.008835854
0.09849639
0.0009818684
-0.0015485266
-0.029769428
0.071846396
-0.02384764
0.09273899
-0.03867566
-0.031773485
-0.068588756
0.006887895
-0.10831957
0.03192527
0.10511077
0.020642882
-0.0013629195
0.022932952
-0.06612442
0.102389224
0.039737206
-0.4200082
-0.52103484
-0.19594467
-0.10866063
-0.050114084
-0.11540064
0.12489959
-0.04887154
0.076737106
-0.38523716
0.24859025
-0.035216108
-0.06002557
0.051266667
-0.2550606
0.0034106243
-0.5260978
0.09290231
0.0028774957
-0.04828788
0.06515194
0.04189454
0.35363162
0.06557946
-0.4683182
0.21169959
-0.020309031
0.120158166
-0.15523012
0.13754359
-0.031498026
-0.15339744
-0.17762789
-0.055239145
-0.2718248
-0.013360166
0.37791738
-0.16354154
-0.0023002324
0.17199837
0.13739602
0.07761189
-0.23254004
0.07743898
-0.035450775
0.16224131
-0.14184721
-0.33658165
-0.2011315
0.07040187
0.06789444
0.08441016
0.028381832
0.29798958
0.31732523
0.005747339
0.5639734
0.06725526
-0.07592586
-0.4675162
0.015588732
0.10783618
-0.087836824
-0.27945134
-0.4024932
-0.1398279
-0.15203363
-0.05684891
-0.01269955
-0.009338118
-0.11225925
-0.08131084
-0.18334074
0.040728375
-0.014857804
-0.090650454
-0.01955914
0.012675208
-0.09182689
-0.0735549
0.06984931
0.264474
-0.04011347
-0.063517205
-0.0504824
0.11904881
-0.14476459
-0.3878239
0.005776988
-0.043317992
0.00046240937
0.16050035
-0.1556153
0.20281053
-0.03238677
0.046419453
0.105719164
-0.018645475
-0.03547566
0.09893345
-0.038403656
-0.37784037
-0.042827386
0.02220789
-0.077567555
0.055317845
-0.019707134
0.013800508
0.014334743
-0.0026945272
-0.009793331
0.12458357
-0.0194813
0.15813589
0.055980314
-0.01870152
0.09851618
0.010430856
0.04427922
0.09943912
0.029211683
-0.091612205
0.036195
-0.052512098
-0.074922964
-0.049520332
-0.021102209
-0.07196436
-0.06368084
-0.050809726
-0.112871476
0.03390725
-0.026839746
0.01970252
0.035101697
0.0016062965
0.0042784903
-0.048660412
0.0018093657
0.18945429
-0.0011717795
0.01781661
-0.014167686
0.06975012
-0.0009854209
-0.09257845
-0.0069873882
0.042816043
-0.035210103
0.0039119944
-0.06791674
0.02793508
0.34992185
-0.025788836
-0.09128519
-0.10942774
-0.009296565
-0.0640474
-0.0685185
0.06445448
-0.0017577317
-0.05989603
-0.26878035
-0.10913421
0.027518282
0.0034131312
0.042389613
-0.027920133
0.057344053
-0.07856976
0.053057622
0.02358565
-0.08462951
0.069620945
0.5151721
0.0411569
-0.05642574
0.01678436
0.11589618
0.012936819
-0.38366732
-0.037760496
0.022627076
-0.0229741
0.08826534
0.03798468
0.02407208
0.034151517
-0.4434721
-0.116036616
-0.016440846
0.052037988
0.0032237535
-0.3087538
-0.36958644
-0.16940033
-0.03126877
-0.11930812
-0.053070106
-0.12150119
-0.17408302
-0.13781184
-0.40331152
0.03930044
0.19492896
-0.0390134
0.09627685
0.08335167
0.091313936
-0.1785056
0.2422982
-0.018857395
-0.03453595
0.40247646
0.3930871
-0.044977836
-0.17195778
0.12321037
0.03457191
-0.38362586
-0.31480217
-0.13395022
-0.076156594
-0.090733044
0.06097593
0.013900471
-0.20300005
0.19877316
-0.12983587
-0.37971514
0.68185
-0.06646229
-0.019176627
0.057636727
-0.17636989
0.10378303
-0.20235391
0.16477261
-0.18669435
0.13120382
-0.08280553
-0.06990521
-0.30288368
0.07357926
0.3809348
0.51287717
0.12290088
-0.03077458
0.45811775
-0.0933879
-0.049044967
0.108702056
-0.036639065
-0.0045360914
-0.001785943
0.13304466
-0.14198525
0.00469409
-0.048015814
-0.0154171325
-0.11844578
0.048503567
-0.08674401
-0.068265356
0.0065862
0.41958806
-0.06074885
0.029034598
-0.42247477
-0.053985875
-0.055032883
-0.11341262
-0.11478622
-0.018556472
0.28312168
0.12660797
-0.24899842
-0.1053781
-0.08149459
0.11304158
0.0088902665
-0.4390089
-0.0061169225
-0.014048311
-0.17532669
0.11475079
-0.0491806
0.22048686
0.019633004
0.07435053
-0.08289482
0.03292353
0.14214307
-0.11505127
-0.021082947
0.19771779
-0.108541526
-0.3502831
-0.17113714
-0.22185275
-0.034173466
-0.10537496
-0.077676326
0.10239329
0.013253733
0.07316683
-0.11710811
-0.11536315
-0.19539802
-0.475962
0.3933494
-0.11451209
0.0896082
0.093676105
0.11664794
0.029807141
0.0575705
0.09597191
0.030656457
0.08683444
-0.16266635
0.24548474
-0.14204185
0.13232398
-0.076277286
-0.13324481
-0.14745893
-0.039924122
0.31590208
-0.024706703
0.06742083
-0.29250222
-0.038472135
0.105149694
-0.00028008138
-0.067572236
0.2247289
0.20667566
0.10130175
0.019293984
8.382402e-06
-0.04676908
-0.24004583
0.09957442
-0.15998252
0.15035164
0.3163753
0.017758315
0.12003723
-0.038476374
-0.0019300199
-0.27095103
0.123851895
0.046131015
-0.12510306
-0.06921832
0.101706654
-0.031464074
-0.2395412
-0.10259907
0.06032378
-0.37455043
0.017870149
0.02861793
-0.5792027
0.27763516
-0.06658647
0.20872104
-0.05355039
-0.05964783
0.09300822
-0.038568664
-0.3027181
0.21917984
0.118499406
-0.24228089
0.11705108
-0.16449483
-0.09022742
-0.14262141
-0.25104198
0.13379167
0.4837771
0.03605696
-0.05244001
0.09873178
-0.18061611
-0.756746
0.19424945
-0.033150934
0.20099536
0.21138105
-0.025353761
0.15429251
-0.3567797
0.012163109
-0.40538475
0.5844027
-0.58357173
-0.24321532
0.1894845
-0.49954355
0.22790311
0.46922618
-0.15731509
0.43093064
0.5007742
0.10270203
-0.59725976
-0.20932622
0.09904553
0.021058213
-0.023693359
-0.079071924
0.116078146
0.72745484
0.35196257
-0.20900142
0.058740873
0.12974526
-0.25785694
0.40517053
-0.061014026
-0.28611574
-0.12270021
-0.4014513
-0.005281401
-0.058153335
-0.16593279
0.25860786
0.20631425
-0.08835156
-0.5138633
-0.014238612
0.4978488
-0.27050942
0.30097678
0.16580555
-0.27931285
-0.3484808
-0.08575567
-0.031832643
-0.2817086
-0.024977963
0.11990993
-0.31422472
-0.14206845
-0.14024705
0.023401968
0.29605848
0.35546556
-0.06974141
0.015450843
-0.035642304
0.25066826
-0.31614965
0.06569089
-0.030274147
-0.012462153
-0.1031472
0.269323
-0.08930886
-0.21183763
-0.1398426
0.089244165
-0.4056902
-0.11464882
-0.020625208
0.6400167
0.012873408
0.611423
-0.12990938
0.063886985
-0.028686834
-0.10494968
0.6104636
-0.077878214
-0.0045566345
-0.038593456
-0.37089333
0.024283545
0.0012605533
0.18770075
0.08511103
0.7107518
-0.20223683
-0.100737445
0.053603075
0.32833058
-0.12670752
0.03013525
-0.07866073
0.16511959
0.060212173
0.13219705
0.12585519
0.046074316
0.05044851
-0.2554799
0.12378956
-0.35054526
-0.30895263
-0.23623227
-0.08173428
-0.031930152
0.12545277
0.24196285
0.02178544
-0.084888645
-0.10452884
0.3146576
0.057618972
-0.10629053
0.17969328
0.013042252
-0.18303783
-0.03140943
-0.0070373346
0.020716492
0.11414632
-0.11920138
-0.007742414
-0.08552657
0.061860323
0.10332899
0.023821801
-0.016373945
0.06977186
-0.030119624
-0.05601739
0.16823578
0.11003938
0.0146720875
-0.02718647
-0.0116702225
-0.02080807
-0.07849122
0.04935546
0.04723888
-0.04173576
0.056465864
-0.00088797446
-0.13110013
-0.049501084
-0.07612619
-0.17198053
-0.10301227
0.0076157507
0.108110264
0.0035585272
-0.1592756
-0.06918938
0.05641401
0.02971577
-0.17944121
-0.007368827
-0.12268167
0.05258604
-0.031839456
0.073827416
0.116763614
0.06261683
0.046600662
0.046599645
0.09552694
-0.043261033
0.09942676
-0.1221169
0.00026284944
0.11809295
0.094714604
0.0007172304
0.06941779
-0.034710854
0.03878005
-0.0133048985
-0.0066430974
-0.08688048
-0.0781465
-0.045140337
0.15926038
-0.04143788
-0.01521773
0.07323688
-0.006698196
-0.008954504
0.015082965
-0.06244197
0.07086765
-0.06821277
0.009614556
-0.08586565
0.0147892255
-0.006507135
-0.029912641
-0.12925483
0.0069016707
-0.17255302
0.032765314
-0.08612179
-0.01871482
0.09295576
0.084497705
-0.0557317
0.13116941
0.010168225
0.12829582
0.07652321
-0.191028
-0.08068554
-0.08100357
-0.07557694
-0.0369222
-0.0069832643
-0.104928024
0.050535444
-0.0007388738
-0.11363282
-0.059632625
0.07397796
0.10769567
0.015108103
0.052362766
0.05057531
-0.01578472
-0.094402626
0.030221477
-0.123030044
-0.15112416
0.038447406
0.006481941
0.030479757
0.07155794
-0.07517629
0.075501785
0.031742405
-0.02496481
-0.13996242
0.15319732
-0.091016926
-0.15196943
-0.122119516
0.115903236
-0.10786593
0.07663561
0.026392987
-0.0019019395
0.15212378
-0.1555417
-0.037552536
0.00311175
0.044865783
0.122247435
0.19918145
-0.12894636
-0.10408075
-0.07085716
0.0035545442
0.26392832
0.15637453
0.065728135
-0.08860561
0.012774408
-0.08177923
-0.07838059
-0.08676449
-0.12863474
-0.06680535
-0.080011345
-0.07192547
0.0425199
-0.02194107
-0.05065203
-0.05682586
-0.02510902
0.042765886
0.20559816
-0.19581582
-0.030899009
0.19560541
-0.13933556
-0.044981476
0.02578199
0.044402655
-0.09989321
0.09160618
0.107745096
-0.017660715
0.012640736
-0.05073747
0.18840061
0.029403461
0.12160581
0.20693302
0.103708215
-0.092828065
0.022741226
0.11275021
0.13686328
-0.12770738
0.18917458
0.035600055
-0.024944358
-0.033607442
0.0446757
0.08593421
-0.00987967
0.0812959
-0.117104925
0.0936125
-0.06124264
0.17204966
-0.091752924
0.045300864
0.021781838
-0.27633765
-0.11893205
0.15949781
-0.12261425
0.031852566
0.061559673
0.07976576
-0.047393788
0.15069239
0.06530141
-0.14875402
-0.009741947
-0.103503905
0.13219184
-0.17648576
0.038230825
0.16749932
-0.08303771
-0.046993967
-0.26334548
0.022843346
0.02382357
-0.07637878
0.02399236
-0.021135477
-0.117457986
-0.14928272
0.0680883
-0.11567526
0.15226738
-0.05997304
-0.0045406185
0.0907565
0.079783365
0.016945718
0.042027283
0.01638799
0.0996246
-0.045096043
-0.08026739
0.1522662
0.13527057
0.007990664
0.10506489
0.027173797
0.023133257
0.028002068
0.14869693
0.0796149
-0.11545639
-0.20933591
-0.07563826
-0.08870335
0.05377068
0.16330884
0.014027108
-0.101326995
-0.04857302
-0.09491728
0.0932817
0.15193711
0.004231441
-0.018795967
-0.012692287
0.08043018
-0.010138235
-0.0013115987
-0.017105423
0.11421103
-0.09537559
0.20346706
-0.14800383
0.085801646
-0.040650927
0.0077973986
0.12255888
0.13746719
-0.18238777
-0.1691223
0.04922413
0.08325545
-0.1198516
0.05537445
-0.0703497
0.103946686
0.095642805
0.015388581
-0.16236863
0.031199634
-0.14571856
0.21963865
0.14664018
0.035366
-0.049100272
-0.06648355
0.0018369912
-0.13918774
-0.1328356
0.082610644
-0.0062568076
0.0037604263
-0.035139874
-0.2682534
0.018853007
0.10847608
-0.049516086
0.08812969
0.1085197
0.24114399
0.04904006
0.021334913
-0.10826734
-0.027886113
-0.05277216
0.08185293
-0.03404
-0.19110763
0.13625439
0.03810902
0.0635581
-0.15639812
-0.16821201
0.05678515
-0.054317437
0.065108284
-0.14376153
-0.05037114
-0.05245688
0.0380816
0.15480669
-0.11846408
-0.17586383
0.043209143
-0.02305621
-0.065410644
-0.07218457
-0.07411263
0.116876826
-0.0042946683
0.000119536904
0.14026691
-0.07303854
-0.15603234
0.04086747
-0.06302868
-0.0683539
-0.0031971512
0.012279794
-0.10783853
0.00308769
-0.08612928
-0.042113457
-0.019558668
0.03752706
-0.10392777
0.077166095
-0.0139451325
-0.033488024
-0.055572473
-0.09314163
0.20846936
0.016222646
-0.028254947
-0.1523962
-0.11244785
-0.022875655
0.09898153
0.1208803
0.046477187
-0.12447659
0.07987306
-0.07916766
-0.068133764
0.16796131
0.17500125
-0.11647576
-0.025595428
0.06621542
0.0028257715
-0.061334893
-0.13270749
0.033730563
-0.20639725
-0.073444664
-0.072107516
-0.03052506
-0.09368608
0.08442622
-0.0953004
0.06484137
0.038512327
-0.071405165
0.141582
-0.037041638
-0.08029891
0.09226039
-0.07103918
-0.16310175
0.121195674
-0.038504094
0.15932329
-0.16667564
-0.0007323089
0.008446387
0.057504907
0.042897016
0.041598346
0.03736771
-0.092342734
0.023502812
-0.09530429
-0.028962668
-0.013640947
-0.045782745
-0.12093889
-0.23557521
0.03917394
-0.0895962
-0.102764316
-0.051508673
-0.15246515
-0.06341982
0.046509802
0.04871745
0.10110729
-0.22847694
0.035318527
-0.13848695
0.11220441
0.16883844
-0.04226809
-0.09137064
0.09843427
-0.124198765
-0.10385218
-0.14815305
-0.13822159
-0.023905039
-0.12553291
0.056356568
-0.013446835
-0.06870202
-0.087814495
0.008463445
-0.02665328
-0.023513587
0.071508884
-0.18312341
0.0036500695
0.0053171953
0.021641918
-0.02785299
-0.020492798
0.024360508
0.05414292
-0.029347844
0.11379842
-0.12738803
0.14061838
0.027386958
-0.07189904
-0.054867174
-0.09845963
-0.11239551
0.11449298
-0.20710903
0.19642335
0.15299517
-0.053099025
0.07559414
0.2920761
0.102058575
0.15173525
-0.11500193
0.07472065
-0.011117251
-0.24582979
0.029961534
-0.10291057
0.023674604
0.15104893
-0.18398692
0.09758285
0.11295634
0.09703437
-0.11096556
0.056662276
0.15001851
-0.07655333
-0.06365323
0.07628629
-0.01345096
-0.028621657
0.074715525
0.18209155
0.12689582
0.037487958
0.07789969
0.069464445
0.016208401
0.02648187
0.03617886
-0.16011977
0.11012429
-0.100549735
0.051081765
0.027937368
-0.03569909
-0.034632683
0.12881957
0.0902103
-0.068231516
0.010385571
-0.12053743
0.04319856
-0.071088985
-0.055136725
0.13976048
0.11027153
0.07800787
0.029085793
0.025597254
-0.030430736
-0.023769043
-0.030997507
-0.085023694
-0.18100701
-0.07735584
-0.14650619
-0.097767174
-0.06083943
-0.06074831
0.03500457
-0.004952946
-0.10646104
-0.07422021
-0.117143616
-0.113830484
0.23117113
-0.05391099
-0.06429239
0.033169407
0.098456
0.10213553
0.14736378
-0.089600205
0.014174126
-0.04459057
0.053980224
-0.06712925
-0.15116334
-0.092619054
-0.07378492
-0.11122191
-0.0050755893
0.014123714
-0.0015080578
-0.041064017
0.23100792
0.048272174
0.0005490878
-0.25463668
-0.19895357
0.059175264
-0.05570667
0.05809308
-0.0071042236
0.023172159
0.09895123
0.02853831
-0.05597226
-0.0723983
0.031602006
-0.08399181
0.02804609
-0.05470438
-0.10105984
-0.1860816
-0.21492559
-0.15808699
0.06724227
0.035204537
0.18530993
-0.13745505
-0.15195256
-0.07122768
0.023311423
-0.180546
-0.1363958
-0.11051422
0.024325417
0.07106191
0.16463882
-0.07786604
-0.13595444
-0.04420522
-0.043871608
-0.07981575
-0.1746044
0.025046764
0.02955264
0.003673176
-0.16117777
-0.0033133905
0.021504033
0.051594134
0.0115471855
0.16933092
-0.032904193
0.2172097
0.10404275
-0.15182889
0.0594113
0.018728545
0.09771796
-0.022392474
0.1272304
0.012820983
-0.08023452
0.048992258
0.1321552
-0.10454115
0.19653855
0.12615779
0.1871343
0.1261697
0.03515062
-0.024996253
0.06932014
-0.010178198
0.06933163
0.09238884
-0.060934603
-0.111552976
-0.15709862
0.0044157323
0.119554095
0.046895705
-0.088935204
0.011574902
-0.06570096
-0.004696282
0.19185165
0.031998552
0.16247655
-0.065954134
-0.04126851
-0.1328812
-0.031314187
-0.0060288515
0.16550013
-0.028987736
0.02811711
0.12229776
-0.18920445
0.056680188
0.06882379
0.083912924
-0.06366887
0.10903504
0.09524488
-0.13463102
-0.08417995
-0.037968267
-0.077192016
0.062033884
-0.116085835
0.099563904
0.036216002
0.04303725
0.08239243
0.0019986453
-0.02012187
0.016052745
0.049125835
0.056738906
0.096426435
-0.09669102
-0.18721521
0.05164171
0.08241815
-0.017826047
0.05793469
0.0070343316
-0.024285857
-0.08212333
0.1470047
-0.10040963
-0.033387344
0.026904717
-0.045759816
0.064072356
0.0024811698
0.06961268
-0.08799468
0.12079341
-0.020227678
0.012050712
0.09709199
0.22139212
-0.054896116
0.0074658673
0.023415651
-0.07207819
0.12776577
-0.024135554
-0.07045299
0.19771497
-0.04960537
-0.03523183
0.12071411
0.19486105
0.010368784
-0.052561283
-0.08245848
-0.025907159
-0.14405985
-0.11335956
-0.16859032
-0.02181683
0.015829612
0.055222053
0.10687162
0.013562062
-0.037365578
-0.09406514
-0.12369065
0.15094085
0.034988277
-0.23999877
-0.02832608
0.032379426
0.16054553
0.03513983
0.10315971
-0.10910111
0.013348007
0.18362509
-0.08865256
-0.173795
0.015299404
0.00034596806
-0.03804087
-0.0073169796
0.14965437
-0.044190932
0.15606539
0.028165996
-0.06381987
0.022200735
-0.04903308
-0.0442622
-0.1655175
0.1747587
0.019201728
-0.16425918
-0.09945556
-0.08381848
-0.005118732
0.032731347
0.10178265
0.026190575
0.030318325
-0.17301995
0.17226443
0.05198645
-0.040634397
-0.0015067236
0.01182502
-0.015962932
-0.009843949
0.017166583
-0.0023309593
0.017166188
-0.017852224
0.02480374
-0.045447163
-0.042333473
0.1925229
0.023084216
0.010606026
0.020862935
-0.014164811
0.044070646
-0.0013676158
0.03417486
0.0010759947
0.020503728
-0.018043607
-0.009803203
0.028919917
-0.0030416315
-0.04108193
-0.03098017
0.0037019672
0.009434755
-0.0042091636
0.0016339615
0.022096613
-0.014821839
-0.02030492
0.032732792
-0.042659182
0.0060172193
0.009281632
-0.028216742
-0.0078091547
-0.034149535
-0.011486138
-0.0063985586
-0.014157279
0.010680633
-0.067262515
-0.03862823
0.0076258974
0.038496483
0.009629054
0.00846353
-0.00665572
0.036673483
0.0039829593
0.009552056
-0.0053462395
-0.035036135
0.011662699
0.021878805
-0.020032123
0.013595375
0.020465571
0.013654086
0.028500156
-0.003554747
-0.026944816
-0.07729926
-0.0014772826
0.0016188249
-0.024352377
0.010106565
-0.009226585
-0.015759507
-0.011727843
-0.0031822019
-0.019372908
-0.010540963
-0.04267659
0.020360364
0.023150109
0.00010922361
-0.01377913
-0.0021295743
0.018315157
0.0193373
-0.007920486
0.02213945
0.008689229
-0.036341783
0.0031387575
-0.017845262
-0.0033428972
-0.007817172
0.014494931
-0.007704364
0.01155041
0.014088743
-0.0144371195
-0.0019313174
0.0015676293
0.0055170073
-0.0007857683
0.015387073
0.0014741339
0.0033591827
4.52186e-05
0.0133802295
-0.004896278
0.002398038
0.0047813454
-0.0021258877
0.023192616
-0.008985282
0.023515899
-0.01568687
0.017742869
-0.0027918634
0.0058602886
0.0013484537
0.012375548
-0.012427574
0.006149035
0.08946166
0.01866577
0.0069549587
0.00011019082
-0.0057093054
0.022590127
-0.0017321799
0.0062258067
0.006857706
0.016675051
0.014456601
-0.0024420004
0.007028227
-0.010587506
0.0075495
0.002583195
0.016285907
0.012403181
-0.0072585256
0.0047048023
-0.0009842757
0.021216974
0.0052499734
0.00410397
0.0012509266
-0.007416114
-0.024278674
0.0031283987
-0.19948804
-0.011213993
-0.0018157812
-0.014891371
-0.25727934
-0.010820148
-0.006303083
0.021837158
-0.0015259197
0.004344591
0.0047684447
0.013946697
-0.04041383
0.018142715
0.038453475
0.008763022
0.0157636
0.0026593234
0.0034387931
0.012170962
0.0067339893
-0.0070670587
-0.014893851
0.0022725773
-0.0052962094
-0.015626004
0.020077338
0.02900665
-0.00132198
0.005011973
-0.0062256926
0.03609031
-0.007538337
-0.0017886328
0.013325965
0.015045588
0.009610121
0.0068238284
-0.01626191
-0.0046391557
0.009918423
-0.012470525
0.0028492245
-0.018900633
-0.035485536
0.008607752
-0.007664759
-0.034192495
-0.030555217
-0.029561752
0.011642787
0.0034754188
0.0018166971
-0.025373206
-0.013709858
0.007916176
0.002691617
-0.003122691
-0.009827852
-0.0136419
0.017418528
0.047751036
0.005581534
-0.0018364418
0.0057573426
0.03586535
-0.010494855
-3.2983586e-05
-0.019349974
-0.013250272
-0.008468688
-0.03740198
-0.006604764
0.011118507
-0.01576521
-0.016158719
0.012554917
-0.022595882
-0.019966653
0.003898658
-0.033744045
-0.018843077
0.014447123
-0.028034369
-0.007105059
-0.0067792237
-0.0070034806
0.05196465
-0.0034057046
0.009785367
0.0063361535
-0.021097679
-0.013910662
0.008895183
-0.03269047
-0.009131187
0.0007126786
-0.0021093965
-0.007453765
0.0069146445
0.0085923625
-0.014466507
-0.000675728
0.04091469
0.02060461
0.02971498
0.014755627
0.008544238
-0.011021461
-0.008160841
0.0183682
-0.0135233225
0.0076827304
-0.0066638156
-0.037899755
0.008096794
0.014163738
0.0014379561
0.18542624
-0.0022770828
7.782223e-05
-0.02174559
0.00043787507
-0.003514543
-0.021015944
0.00885549
0.02676846
-0.036111716
0.0031000448
0.026150737
0.009584634
-0.010249208
-0.27169988
-0.018426983
0.011767718
0.009918655
0.015658654
0.012168592
-0.0018641099
0.005928376
-0.0340604
0.01340697
0.015396877
-0.0054570013
0.0077451854
0.047603745
0.008940675
-0.012570477
0.023178287
0.0003446883
-0.010324246
0.0098043205
0.05139721
0.010986488
0.016983813
-0.06463677
-0.010175518
0.01024766
-0.0204736
-0.0053986586
0.014315643
-0.0015825497
0.059421223
-0.022372497
0.008345437
0.012310548
-0.02637368
0.0058392505
0.018037952
0.0050721923
0.0020631878
0.015019885
-0.006277664
0.0077260407
0.019614415
0.0018675585
-0.0020937528
0.028239314
0.035850976
-0.013414552
0.019107835
-0.030960243
0.014811819
0.018302206
-0.030823112
-0.03898212
0.002035549
0.015402272
0.0020462722
0.0102427155
0.008900021
-0.004628258
-0.012948269
0.035404142
-0.013479454
-0.002146765
0.05841668
-0.009435097
-0.009371248
0.013089576
0.005884439
0.009894354
-0.0032862218
-0.0104172435
-0.02133198
0.009856409
0.003861717
0.006798813
-0.0052440967
0.014308739
-0.002591836
-0.03351943
-0.0028743404
-0.018696452
-0.0050121825
-0.0074203736
0.0010475204
-0.015490195
0.024778366
0.01967999
0.0073682503
-0.003105907
-0.0040208735
0.0007609606
-0.0046473737
-0.012448955
-0.01771314
-0.007893752
-0.002737695
-0.012934993
0.045214713
0.025728775
-0.028048493
0.017024653
0.0022887154
-0.025824793
-0.005176567
-0.00673585
0.01177882
-0.008555722
-0.02333754
-0.015796563
0.010361031
0.003891377
0.0021096638
-0.28501213
-0.025339993
-0.024288937
-0.005575996
-0.014338794
0.009000652
-0.0063208304
0.031601686
-0.0037940165
-0.015545624
-0.009110029
-0.013561543
-0.007595107
0.0038431296
-0.008555674
0.024371153
-0.005230601
0.0018764195
-0.008852417
0.0034494156
-0.010160935
-0.0032316789
0.005191507
0.019242374
0.013738094
0.007765048
0.014443145
0.019573942
-0.04151682
0.021307351
-0.014128219
-0.000884697
-0.003483101
-0.004105921
-0.00994019
0.0056652813
0.0062045516
-0.022214686
0.020990424
0.007178487
0.0011452545
0.014842766
-0.014833072
0.0012789476
-0.0018675494
0.009324377
-0.007932517
0.0007544203
-0.0019042611
-0.0019040101
0.0022445396
-0.0101421345
0.013949404
-0.007446483
-0.004569032
-0.008806416
0.012284029
0.0060852515
-0.0023177043
-0.007558988
-0.016960388
-0.00042704245
-0.006187507
-0.007283167
-0.021368822
0.018977733
-0.0030901637
0.019709485
-0.023892887
0.014502297
-0.0048276293
-0.0022099349
-0.008960259
-0.001066891
0.036996856
-0.02360518
0.02172206
0.04955432
-0.022138136
0.009158259
-0.0136850355
0.0093710385
0.01127526
0.01585852
-0.024218531
-0.022910193
0.015826631
-0.008770272
0.012728581
-0.014398908
-0.030038808
0.042687397
0.0057713725
-0.0010303505
-0.0071235728
0.003468845
0.00996025
-0.0026584468
0.004745295
-0.0079041645
0.030632699
0.029263305
0.008399831
0.0038612867
0.009963168
0.02497396
0.024894308
-0.00018590866
0.018508842
-0.006894816
-0.1926476
-0.0030587388
-0.0139276525
0.00050893315
0.023347288
-0.0031662139
0.022758607
0.034362167
-0.01695299
-0.012464846
-0.0031461401
0.00978138
0.007382891
0.001289273
0.016188363
-0.023706358
0.0007287758
0.00999689
0.0067995368
0.018585568
-0.006409112
-0.0061904653
-0.028994668
0.0205046
0.018442262
0.011581989
-0.010146742
0.0063561
-0.0068521085
0.0066508814
-0.04955702
-0.005429168
-0.012834688
-0.010309108
-0.005938891
0.0032903152
0.001516742
-0.052196205
-0.007958752
0.023500863
0.012770295
-0.010775958
0.011383058
0.06079374
0.01319497
0.028283194
0.013918548
-0.009233573
-0.010963132
0.011218487
-0.001136543
0.00028328112
0.089935936
0.015100759
0.0021934176
-0.008763118
-0.019648405
-0.010290744
0.033878528
0.16869427
0.03719842
-0.0113488035
-0.010958295
0.020271402
-0.03916535
0.034736283
0.00012161149
0.010744135
-0.012499251
-0.029587293
-0.0010232968
-0.03742936
0.057198342
-0.0012630236
-0.0070730397
-0.0063643195
-0.095986106
0.0070927325
0.045825027
0.023950279
-0.015143926
-0.010234335
-0.0033050682
-0.0045538386
-0.0032993257
0.0092798015
0.00052559376
-0.008635113
0.02476083
0.04378662
0.006525081
0.000728134
-0.02728553
-0.004652358
0.024912212
-0.007132887
0.023490662
0.00699008
0.018587328
-0.002684805
0.022413697
-0.007346797
0.037664227
0.025006298
0.0098156985
0.005557586
0.0048389803
0.0028842231
0.020712895
-0.032456078
0.028514575
0.0032260339
0.01744599
0.008577353
0.08891928
-0.010565411
0.0071416656
-0.00047999204
0.013620412
0.042221483
0.022110997
-0.010482474
0.019451737
0.021771835
-0.012789809
0.011847781
-0.021205435
-0.014625093
0.019433275
-0.0038488428
0.010206771
-0.083392024
0.0012083218
0.031808972
-0.029999766
-0.40171605
0.00083942025
0.007246493
0.013145249
-0.0058668097
0.0076065874
-0.0026123615
0.025786793
-0.0026534041
0.0015397582
-0.009624791
-0.011406091
6.1654923e-06
-0.0050448156
0.022139
-0.001724109
0.01623629
0.008098826
0.010552572
0.0037379786
0.00060690066
-0.021134209
-0.015742138
0.020015145
0.03115003
0.017421562
0.017403876
-0.011698487
-0.0041421712
-0.018231431
-0.041078173
0.014999348
-0.003362878
0.018956628
-0.019253809
0.004530315
0.025404114
-0.011391083
-0.00559306
0.004438265
0.017388608
0.014821408
-0.022264611
-0.0017957047
-0.009785746
0.012026577
0.00532344
-0.011681879
-0.010576025
-0.001888001
0.018950008
-0.37863263
-0.009344843
0.014682359
-0.013611201
0.016075296
0.0015783657
0.019199336
-0.005254967
-0.014281763
0.010954014
0.0018607839
0.0054174126
-0.003676367
-0.008258124
0.021965478
-0.031200485
0.02510158
-0.005702077
-0.015572213
0.008176348
0.00612776
0.006116566
0.0054418948
-0.01564982
0.091615446
0.013201466
0.006795405
-0.0024773749
0.0045826915
-0.0053812796
-0.014233659
-0.011071731
0.012811212
-0.012263828
0.011157838
0.17843843
-0.023936806
-0.0045018326
0.032884143
0.01057142
-0.021582406
-0.037796557
0.0031207928
0.044500906
0.081668526
-0.0029213433
0.004301436
-0.004131815
-0.011058809
0.01319094
-0.0070927436
-0.023772111
0.029629536
0.020439511
0.008462586
-0.017347382
-0.011317844
0.0060021663
0.011673332
0.013437774
1.3291698e-05
-0.004892568
0.04179059
-0.02235644
-0.012197479
-0.005823101
-0.025735632
-0.019841565
0.019297913
-0.0149852205
0.011947517
-0.008263996
-0.0047567734
-0.012066643
0.0123072285
-0.0721443
0.0014771521
