2304,
-0.043581326
0.029470941
0.084987506
-0.09758781
-0.0054579787
-0.053635687
0.025817357
0.013489259
-0.09555291
-0.008811558
0.024593797
0.028042223
0.04425372
-0.16066611
0.057763472
0.2725077
0.049943507
0.045833297
-0.11017654
0.008982239
-0.40628618
0.03895717
0.32594725
-0.116819404
-0.009330144
-0.18952459
-0.028908612
-0.03226657
-0.029779406
-0.28491446
-0.025968311
0.009866392
-0.036193393
0.092090905
0.37364116
0.0984763
-0.022593359
0.13091494
-0.007704457
0.111507215
-0.038570642
-0.01086158
0.061019324
-0.0012437673
-0.03938145
-0.1118552
0.06796881
0.12511139
-0.011089898
-0.058316298
0.014392682
-0.033234503
-0.012216224
0.066933885
0.032083627
0.022825064
0.108759396
0.060445495
-0.10790642
0.04324103
0.15794131
0.38111696
0.015038556
0.09475477
-0.1535519
0.4464692
-0.39461222
-0.44873106
0.02782892
-0.34840974
-0.12697539
-0.07529694
-0.04888772
-0.030725421
0.053679507
0.19589841
0.4145126
-0.014062772
-0.0046666446
0.019782798
-0.012558769
-0.35759488
-0.03228392
-0.28403723
-0.027692687
0.027432058
0.05645829
0.15823956
-0.14474726
0.0472519
-0.13425075
-0.11229507
-0.12840019
0.16703227
-0.027765617
0.10200829
0.27039376
-0.21052945
-0.0033413684
-0.06118568
0.032069985
-0.020843586
-0.094109185
0.17333029
-0.0018192278
-0.3828768
0.030521134
-0.033488367
-0.40378204
-0.013893532
0.037714105
0.07497886
0.0030818728
0.06714702
-0.07370615
0.058209017
-0.35939
0.09415554
-0.17003347
-0.4344348
-0.4585997
-0.24401665
0.3586317
0.013861396
-0.030845234
0.11877407
0.052412026
0.36004746
-0.07278111
0.046622317
0.0009146577
0.06414424
0.021968795
-0.021680636
0.2004347
0.2879004
0.009575513
0.06331862
0.21325247
-0.09614238
-0.021973409
0.038776025
-0.1609456
-0.036904007
-0.06813268
-0.06649864
0.005200706
0.06439107
0.0060922904
-0.0004503889
0.03284593
0.051835947
0.0075607267
0.18496385
-0.02453261
-0.023899762
0.38132018
0.17351651
-0.030478405
0.007595672
-0.0060119494
-0.09981086
-0.12935488
-0.04019355
0.037389215
-0.022964409
0.26136863
0.060642373
-0.23197459
0.02918114
0.03360448
0.004512534
-0.034490332
0.15033998
0.03835579
-0.00576801
-0.03189062
0.15275529
-0.10756244
-0.15167344
-0.030617187
-0.02857749
-0.048211064
-0.0055950526
0.09562982
0.31521887
0.011508909
0.07550975
-0.36409804
0.033813607
-0.04808755
0.020863779
-0.050103303
0.102033466
-0.01733412
0.11356126
-0.019255202
-0.057569396
0.088592745
-0.010684731
-0.057381753
-0.02465332
-0.01205921
0.043194026
0.040299222
-0.098786704
0.02948171
0.10915745
-0.37554193
-0.0074041397
0.021702366
-0.045991212
-0.15481606
-0.2425124
-0.065823324
-0.020196084
0.055374827
-0.007380966
0.042099703
-0.010288791
-0.070803285
-0.015345327
-0.0665062
0.0048644943
0.07882712
-0.09506682
0.035430633
0.038725555
-0.03099983
-0.014897468
0.118577465
-0.066654876
0.041311484
-0.03608872
0.05398468
-0.08303193
-0.08313306
0.4267152
0.012979365
-0.06327097
0.08155563
0.1245273
-0.11185156
-0.0002805831
-0.026333904
-0.047684412
0.055136222
0.04429419
-0.043971658
-0.17503026
0.047411233
0.042847905
0.021412903
-0.033148427
0.029210372
0.06588016
0.06060452
-0.018729033
-0.20654275
0.13027862
0.23821898
0.09878674
0.062044125
0.07045146
0.079181366
0.23880677
0.02664405
0.031133207
0.0806237
-0.11883677
0.028334219
-0.106921054
-0.3126448
0.15164399
0.030714795
-0.058637083
0.024004323
-0.074537
-0.0088287275
-0.04339097
0.021685163
-0.062163305
0.043491803
0.0419785
0.15879819
-0.0925111
0.08554617
-0.116496876
-0.012461627
0.0008674952
-0.05527362
-0.00613239
0.24381217
-0.04978659
0.03992313
0.3221021
-0.1673502
0.014412682
0.13286816
-0.08170138
0.0723758
-0.45353228
-0.0018595585
-0.03688205
0.06352734
0.0761183
-0.047651306
-0.025560774
-0.042803254
0.08886544
0.0036400221
-0.010855083
-0.14863688
-0.01526073
-0.038827483
0.12213188
-0.09842702
-0.02711469
0.048629634
0.00044533654
-0.08095548
-0.085782096
-0.07116798
-0.04690739
-0.079656646
-0.308575
-0.036163244
-0.0380907
0.36793542
-0.0015856376
0.17210138
-0.0017179428
-0.09567423
0.016234055
0.12176363
-0.069912955
-0.04568871
-0.0018512507
-0.053866062
-0.2106226
0.04325893
-0.052364856
-0.16726369
-0.18309246
0.25272992
0.29033384
-0.035660833
0.04981133
-0.3200094
0.11226692
-0.0063688597
-0.023756005
-0.02249226
-0.14537427
-0.04939027
-0.02898571
0.017558536
-0.10596643
-0.36271033
0.07796133
-0.24708644
0.078736305
-0.21762513
-0.054145277
0.060862727
0.030978978
0.04326526
-0.058871143
-0.14953929
-0.24528308
-0.02023063
0.014775594
0.35643238
-0.030767512
-0.0044490313
0.017435078
0.0557484
0.06539501
-0.040538855
0.09664793
-0.016063228
0.0051833345
-0.056320928
0.04884012
0.06232816
0.13125947
-0.17035732
0.47442234
0.10221075
-0.069574885
0.0557181
-0.016620835
0.033234492
0.01784382
-0.000831242
0.06344359
-0.2459234
-0.5593917
0.09255255
-0.021170514
0.022289421
0.048540853
-0.028333759
-0.0032679355
-0.054506678
0.007491765
0.14080256
0.031513177
0.1736539
0.051987614
-0.11100121
0.00042143895
-0.0062081115
-0.04685338
-0.0063514262
0.017058866
0.028914459
-0.42340633
-0.19687401
0.47365552
-0.48554087
-0.06741701
0.002203426
0.052124318
-0.034066644
-0.021523427
0.019568427
-0.005917959
-0.0019817678
-0.07614367
0.036053143
-0.07495626
0.07919137
0.12688445
0.027810795
0.09958853
0.0663936
0.02267543
0.2363707
-0.024340963
0.021600569
0.10583016
0.021781035
-0.052320156
0.095532574
-0.062189195
-0.34910473
-0.069828205
0.049031824
0.027489366
-0.009012054
0.026539046
0.041741375
0.02982879
0.09409718
-0.29409808
-0.13188301
0.028011369
-0.0050462666
0.019490208
-0.12980033
-0.06675087
-0.028947502
-0.42221683
-0.09475132
0.086376734
-0.028309373
0.23053342
-0.0147469
-0.023689484
0.034939904
0.010305753
-0.10986312
0.046759207
-0.23680641
0.14697672
0.102630295
0.023221454
0.051113393
0.2914517
0.019300206
0.018118352
-0.18517093
-0.06040297
0.09644589
0.090320386
0.04882262
0.0029882714
0.36505923
0.08797226
-0.058978096
0.02496356
-0.048999876
-0.0092545785
-0.051561043
-0.16143642
0.023288172
-0.004181299
-0.013127713
-0.05173084
-0.035691265
0.022419373
0.037328206
0.05552524
0.06637574
-0.02756007
-0.10235467
-0.09669853
-0.05719723
0.3630508
-0.025945593
0.018080372
0.047429465
0.024394194
-0.00902621
0.07961785
0.022900065
0.029584097
0.018503524
-0.07242556
0.010316089
0.08062745
-0.023437476
0.45920205
0.17346604
0.026414016
0.07994198
-0.04698357
0.07423036
-0.14904442
-0.021643428
-0.07987917
0.18137653
-0.007149945
0.035700347
-0.04627735
-0.22791629
0.03359291
-0.036443114
-0.13191216
0.03748689
0.46243948
0.03436831
0.043429542
0.019804394
-0.39643967
0.05578472
0.21903455
0.06941897
-0.03549154
-0.07903312
-0.060915366
0.16132778
0.0012342675
-0.0849455
0.090990454
-0.017498385
-0.11097488
-0.04394198
0.033676315
0.08613854
-0.09981437
-0.101024605
-0.07478018
0.03159188
0.0011963288
0.035915397
-0.06989024
-0.043230135
-0.016493337
0.032186944
-0.082296856
-0.019945113
0.02909377
0.0855325
-0.14089008
0.044595093
-0.041763943
0.03408097
0.013594616
-0.015039984
-0.031674683
-0.043767225
0.012686994
-0.021948542
0.12400441
0.05934644
-0.044954523
-0.028177546
-0.035481904
0.19360794
0.20754947
-0.20926322
0.038211763
0.093390755
0.000981268
-0.030494632
0.0050032646
-0.040276937
-0.034590002
-0.06829621
-0.028442796
0.03865201
0.0006608627
-0.019672323
0.030175636
0.058824826
0.0038151958
0.07140675
-0.04031442
-0.047894694
-0.014733101
0.017731583
-0.05584589
0.020304414
0.023795417
0.070217565
-0.0018921506
-0.05105208
-0.03505567
0.028079087
0.09894163
-0.032854967
-0.020349383
-0.035207808
-0.035792578
-0.0043146224
0.014272175
-0.019192036
0.0144307995
0.061596524
0.046517123
-0.010783562
0.018382447
0.17032401
0.14227845
0.016202971
-0.029837849
0.02861189
-0.006687273
-0.22400564
-0.018778116
0.02675002
-0.0031340937
0.10425822
0.030083101
-0.00925002
0.09465864
-0.04388452
0.17760254
-0.03338115
-0.020435693
0.019942818
0.07685567
-0.0046322006
0.058207963
-0.051262338
-0.04237958
-0.011761703
-0.027081935
0.023974657
0.08892848
-0.079629794
0.016279811
0.008535629
-0.08400905
0.0050236136
0.034530908
-0.015653383
-0.047419
0.07476002
-0.0046004313
6.628913e-05
-0.055607628
0.0454947
0.030845335
-0.045543693
0.018539425
-0.013277788
-0.007856639
-0.0048360303
-0.045215763
0.082502745
0.02664028
0.05845732
0.024626816
0.013012888
-0.0058620493
0.024969798
-0.034567293
0.0108746765
0.056954402
-0.012915744
-0.015325212
0.101524
0.035306804
-0.036993165
-0.02348551
0.032821804
0.043690693
0.0038220491
-0.04991079
-0.04450221
0.10332101
0.10180608
0.031455263
-0.04621046
-0.088936284
0.03248182
0.02944124
0.0024459441
0.013913913
0.01915815
0.001845018
-0.040624622
-0.1971841
0.1087689
0.06859601
0.00711008
0.007843893
-0.01939377
0.0038118311
0.022158828
0.028457101
0.03303073
-0.011029483
-0.046585746
-0.04659649
0.04472238
0.027787052
0.032539014
-0.019688932
-0.0057964767
0.018866802
-0.018392377
-0.057326578
-0.09666613
-0.060313594
0.0017625724
0.016901577
0.043849207
-0.39025617
-0.08806883
-0.009108063
-0.008588247
-0.01642347
0.025566634
0.005429245
-0.05420827
0.007020112
-0.09398632
0.016373193
-0.0016955489
-0.025641896
0.013799928
-0.02761978
-0.024515599
0.07776188
0.008360549
0.051491715
0.085644715
-0.32255298
-0.009673578
-0.05707686
0.012469483
-0.031099077
-0.02817333
-0.041525103
-0.087222025
-0.26424322
0.06377688
0.150549
0.018325679
0.07387122
-0.004320622
-0.045310933
-0.100640096
-0.085565455
0.031467136
0.17099631
0.08066326
0.09223335
-0.16363361
-0.16473794
0.08373778
0.06706072
-0.12450822
0.05214961
0.058286924
0.033349264
-0.014655307
-0.033281874
-0.1576807
-0.06024617
0.16886124
-0.19513522
0.096930385
-0.0943498
0.029080868
0.012824034
-0.03995945
0.15244465
0.04693506
0.24207625
-0.084347144
-0.11334617
-0.018368145
0.051274676
0.15190545
0.00033777396
0.1297558
0.024499092
-0.20346731
-0.058937557
0.0044608726
0.17332043
0.21125777
-0.13216244
0.1368031
-0.09909327
0.06808795
0.0769426
-0.0036805796
-0.07064468
0.045262445
-0.0062036943
0.045312025
0.0064907963
-0.032065853
0.07284138
-0.14552495
0.063910864
0.15368913
-0.17414643
-0.06559967
-0.0541687
-0.1590619
-0.0017962483
0.18346895
0.14620993
0.07616491
0.008732434
0.1515382
4.6936395e-05
-0.000762496
0.030883357
0.019998409
-0.097350016
0.1840593
0.2000025
-0.02623237
0.05420636
0.06845553
0.042146135
-0.032385804
0.08368558
0.025944514
-0.066042095
0.07346353
-0.034688767
0.07717276
-0.017213427
0.036140833
0.14709401
-0.1988334
0.033224944
-0.1555488
0.10020754
0.060402527
0.039514154
-0.11931706
-0.20292924
-0.17557004
-0.07944094
-0.05732049
-0.012084034
0.1280742
0.15361603
-0.10435055
-0.3061438
-0.029290602
0.12221102
0.0017150659
-0.04300963
-0.026477495
-0.09621654
0.1124789
0.10694201
0.10941615
0.051305197
-0.05347596
-0.050212357
-0.0724487
-0.123637326
0.0544938
0.0182288
-0.15480474
-0.061880182
0.057349958
0.086641304
-0.11355021
-0.09093605
-0.07419262
0.12952983
-0.015209293
-0.1266456
0.13628133
-0.124108605
-0.09723682
-0.1410426
0.0037417598
0.25900915
-0.2355438
0.24576297
-0.1804841
-0.091944605
-0.079992555
-0.018732525
0.10400444
-0.053959776
0.18770167
0.07161912
-0.0710324
-0.11343474
0.0021800757
0.105843544
0.042775802
0.062580876
-0.13535178
0.13212517
-0.06739821
-0.017767278
0.020520432
-0.110438675
0.17638056
0.00018237144
0.11217635
-0.06845048
0.035289228
0.20332994
-0.07369951
0.099682994
-0.08748135
0.0352973
0.22330832
0.06891572
-0.038653787
0.040655732
-0.051059354
0.015774598
0.0724494
0.05232288
-0.028648663
0.050550133
0.027618391
0.0071538026
-0.044638712
-0.13653585
0.12399292
0.021830395
-0.17233837
-0.082635924
0.07156962
0.03839655
0.024790457
-0.08665567
-0.045393493
-0.09656874
0.0049065407
-0.051549867
-0.00996823
0.09038094
0.07036428
0.07301011
-0.006341667
-0.045033175
-0.18773861
-0.01430176
-0.0968424
-0.06048848
-0.026381431
0.027824663
-0.037171528
0.024449125
0.16342804
0.042174388
0.024889357
0.022032073
-0.072025985
-0.12105403
0.0034532798
-0.19568515
0.16069533
0.025640918
-0.09566092
0.026858019
-0.06688059
0.19229916
0.2066164
0.012386696
-0.13694227
-0.04633875
-0.054712206
0.05394447
-0.18486214
0.11734702
-0.022474632
0.12956034
-0.06330169
-0.10400037
-0.02231168
-0.044086233
-0.022124741
0.08416828
-0.11214471
0.03719715
0.060255114
0.043890562
0.17361924
0.0634239
0.18514042
0.034214593
0.07774024
0.08594426
-0.029913118
-0.23133983
0.17176795
-0.114611946
-0.015885267
0.05622484
-0.07531847
0.050240625
-0.013572157
0.071974844
0.031032598
-0.09000428
0.14823782
-0.0450533
-0.061619323
0.100805216
-0.15855305
0.15565439
-0.045522723
0.118098885
0.092044264
-0.03307142
-0.10228297
0.092497416
0.1630422
-0.011214097
-0.022078061
0.11631217
0.1036365
-0.021661771
-0.09979021
0.024432033
-0.00540981
0.031504504
-0.08484075
0.061279118
0.048402816
-0.09906776
0.16229604
0.2503855
0.0701026
-0.36088783
-0.0980161
-0.03510382
0.1847852
0.0071541816
0.20232593
0.20012166
-0.14837681
-0.107979335
0.049496163
0.043214522
-0.11153755
-0.16319986
-0.111734025
0.0015255113
0.13285388
-0.14414677
0.14130604
0.083332896
-0.063479416
0.10445344
-0.105298355
0.07362766
0.056105852
0.19050789
0.020849153
0.22443886
-0.04764512
0.1696546
-0.028910903
-0.11109362
-0.12193884
-0.024730274
0.22368033
-0.038725823
0.16787615
-0.08281198
0.25929815
0.10089351
-0.026800448
0.13794048
0.1121322
-0.18535094
0.097468495
-0.06765832
0.05071841
0.096114404
0.032568853
0.04643372
0.0108506465
0.3543472
0.06903601
-0.11758917
0.11499096
0.15162478
0.17404485
-0.043048993
-0.04814546
-0.102408946
-0.076623276
-0.14081375
0.023439737
-0.09840583
0.23527858
-0.12720281
-0.10500548
-0.1278306
0.072968766
0.184425
-0.10590344
0.03795947
-0.005012074
-0.11374007
-0.13718984
0.011425949
-0.091342986
0.0077477335
0.08546871
0.19367379
0.07614045
-0.07977445
0.0008755296
0.091583095
0.03692555
-0.0014079924
-0.050964147
-0.059478246
-0.07715428
0.10188912
0.11276034
0.28573522
-0.10474726
0.062122222
0.023633
-0.038064044
0.035287105
0.038723562
-0.15295869
-0.009503766
-0.053211637
-0.12480392
0.037355706
-0.17629959
0.14931194
0.016247688
0.038511395
-0.03467619
0.07745726
-0.16587456
0.08199093
-0.07277891
-0.05606701
-0.0698018
0.04166814
-0.10124599
-0.0655235
0.03454841
-0.12294959
-0.047224782
-0.11581608
-0.22459812
-0.0024346374
0.15901178
-0.08513036
-0.11775078
-0.13501553
-0.14675
0.0347368
0.23104936
0.15696298
-0.011190628
-0.159479
-0.0068440232
0.15629438
-0.035800572
0.103161454
0.12378868
0.062724166
0.10524556
0.07369223
-0.03403918
0.017574579
-0.115693636
-0.053510323
-0.0071823555
0.13055784
0.0043523614
0.030331505
-0.13792005
0.00948637
0.018398268
-0.07733092
0.014207421
-0.06260494
-0.03163763
-0.07701619
0.17870654
-0.045709435
-0.038195156
0.2834889
0.082021646
0.15192994
-0.17885838
-0.040019225
0.0010663347
-0.069645785
-0.08727409
0.004555501
0.03924694
-0.068384014
-0.026647368
-0.050598577
-0.052787032
-0.034648478
-0.011901526
-0.05245346
-0.06914588
0.009914072
0.004583913
0.028784636
-0.05342465
0.08896513
0.12393941
0.087242596
-0.17947651
0.12976116
-0.015288696
0.06967117
-0.04189388
0.11988914
-0.103228144
-0.06580002
-0.020154007
-0.11306291
0.10079108
0.04206575
-0.06695734
0.08805266
0.08175937
-0.011683605
0.046228364
0.15533724
0.0552973
0.18364194
-0.1343312
-0.02581189
0.034804866
0.13434115
-0.20697206
0.08131235
0.00063388294
0.14233154
-0.042163588
-0.0064552245
0.014341765
-0.12867956
0.181322
0.09598831
0.09563417
0.10148126
-0.07740874
-0.04226961
0.10400835
-0.035093177
-0.044867992
0.03395465
0.21299085
-0.13151282
-0.15373917
0.09170836
-0.14988303
-0.05340941
-0.021397186
0.12251944
-0.14072129
0.06377209
-0.009579731
0.22877559
-0.1286507
-0.07858139
-0.09107416
-0.0053703967
0.05228663
0.11399866
-0.08960221
-0.04911937
0.05891676
-0.057896223
-0.008629523
-0.00255591
-0.048113756
0.11879505
0.17151919
-0.06083942
0.07775199
0.24838673
0.092856675
-0.044404678
-0.00071262807
-0.16903354
-0.06189065
-0.17206572
0.12733546
-0.08639489
-0.029884094
0.14387506
-0.15917231
0.039542034
0.123544194
-0.0072820033
-0.04388366
-0.17727305
0.02744098
-0.08421042
-0.13717395
0.40996078
0.068462655
0.068902686
0.14687948
-0.24101308
0.09567267
0.13228193
0.025722403
-0.035733506
0.24761544
0.073505
0.1543889
0.16222578
-0.0066846833
-0.050074436
-0.015142176
0.0033580023
0.1283269
-0.14726675
-0.13987803
-0.015789013
0.028622473
-0.08863236
-0.13168964
-0.15592486
0.12630813
0.06528469
0.0015220386
-0.011314855
-0.11113567
0.15455258
-0.058150467
-0.04653759
-0.05989867
0.13861498
-0.1107571
-0.015366734
0.18614729
0.031810768
0.03371418
0.05872174
0.01875567
0.094487116
0.229818
0.17161828
-0.09782535
0.20030902
0.02667849
-0.013614865
-0.072018914
-0.23581919
-0.047523964
0.13487977
-0.09853987
-0.045681544
0.10962689
0.037513047
0.16733763
0.1008809
0.0940812
0.0720739
-0.014997662
-0.08575017
-0.0032296863
-0.2323724
-0.014121719
0.018905751
0.08598024
-0.21583048
0.07503919
0.006646223
-0.052496165
0.22216634
0.057059657
-0.06702234
0.029577462
-0.23541844
0.18887517
-0.09094338
-0.031583373
0.074656844
0.023202138
-0.14023377
0.062410455
0.07220655
-0.007853646
-0.13212785
-0.12588522
-0.010046154
0.0025665967
0.012696792
-0.13213335
-0.08884679
-0.2191823
0.04671364
0.13731962
0.05580911
0.001252774
0.20805608
-0.17941011
-0.059324116
0.025811914
-0.031190583
0.034702867
-0.123743944
0.06015134
0.04584381
-0.114825
-0.10983922
-0.090971716
0.029182684
-0.03945622
-0.031305775
-0.08399357
0.042623512
0.030087916
0.27326417
0.025725586
-0.10759934
0.017327953
0.01840027
0.0796947
0.114321195
0.052923024
0.018388085
0.02323187
-0.0510722
0.016233759
-0.021954635
0.13245176
-0.2808374
0.19484513
-0.12298634
-0.18846704
-0.016376521
-0.026076915
0.14765355
0.0065547293
-0.04549396
-0.06082152
0.046208452
0.02299871
-0.0048955376
0.09784987
-0.072626956
0.05837367
-0.022809852
-0.0030591285
-0.03463879
-0.028671743
-0.023516836
0.05275377
-0.09059061
0.111487895
-0.07393178
0.02596905
0.1155782
-0.1475206
0.085142106
0.0043089716
-0.032402176
0.15107779
0.013852461
0.0025433926
-0.036319114
0.041543297
0.06924993
0.023655603
-0.032355413
0.12497082
0.07529395
-0.0033146353
-0.12775417
0.050772656
-0.04675954
-0.01607303
0.041895654
0.09024343
0.020090792
0.1351697
0.08158146
0.10977351
-0.0033317872
0.054151554
-0.006112694
-0.16734111
-0.1336814
-0.02455097
-0.131725
0.13132198
0.013589432
0.08668482
0.009883745
-0.1850565
0.1290066
-0.016120428
-0.0006076621
0.0022104264
-0.013976474
-0.011980491
-0.007379863
-0.012559394
-0.0061746435
-0.0077605043
-0.0040817275
-0.024950106
0.009124019
-0.0021343802
-0.01919427
0.00026975878
0.0060087037
-0.003218474
-0.024689272
0.0014135593
0.012552669
0.02647095
-0.005210144
0.002176876
0.017575288
-0.014549457
-0.0082142465
0.006102074
0.0024686963
0.0024078102
-0.0028026828
0.015113485
-0.0005418426
-0.0047977227
0.008056791
-0.017109571
-0.020249685
-0.0073305788
-0.009295473
0.015267817
0.008461118
-0.0124113485
-0.01638941
-0.48144627
-0.003012711
-0.0066936337
0.00091917877
0.010588041
0.017692056
0.0060297246
0.004908912
0.002868534
0.0071302485
-0.010867058
0.021765973
-0.0056418986
-0.0069361487
0.013456951
0.006021026
0.014609886
-0.003859327
0.0035721029
0.02044837
-0.032422274
-0.0008890547
0.008135434
0.0066973222
-0.027454
0.010911043
-0.059725832
-0.04625638
-0.011801375
0.03610984
-0.34212413
0.0025767498
0.024002232
-0.0044961106
-0.027401695
-0.0037422273
0.043060865
0.0023682138
0.019863259
-0.01665316
-0.0048172306
-0.027492618
0.010295634
0.1058262
-0.02317342
0.015629051
0.022788474
0.0026243818
-0.02540326
0.002098778
0.026301645
0.009278602
-0.013214638
-0.013069096
0.18394947
-0.020810852
-0.022117464
-0.0033922712
0.016195681
0.012674669
-0.005681393
0.026496617
-0.01601705
0.0020801534
-0.021298105
-0.026338177
-0.008158394
-0.023012497
0.0029910158
0.016247327
-0.0053873295
-0.0125376675
0.07340093
-0.04798547
0.013841422
0.05348618
-0.014452759
0.03232162
0.032500584
-0.0026028608
0.0063127805
0.019548075
0.023921981
0.007130735
-0.017776527
0.033933867
-0.04675804
0.013387665
-0.0069378926
-0.017864395
0.0065052314
0.0020322981
0.004112182
0.010970224
-0.22406149
0.00927798
-0.01578248
-0.0066046854
-0.0010819155
0.0042294525
0.002775072
-0.0035226645
0.011567045
-0.003784385
-0.019630888
-0.0033018708
0.007735907
-0.011195002
0.0022853
0.017239038
-0.013306675
0.016624423
-0.01690545
0.023354124
0.0004997068
-0.018686729
0.0027535136
0.009897992
0.018197363
-0.024042072
-0.00035327746
-0.008032055
-0.0110464655
0.009105401
0.020997059
0.0034638864
-0.019729098
-0.020338835
0.022008609
-0.0035079462
-0.048347395
-0.005791853
0.015670793
0.0044042836
-0.011397004
0.01426618
-0.0034132234
0.011173412
0.009843284
0.0012243496
0.0073143453
0.012442557
-0.048130136
0.0067463233
0.019166546
-0.02165182
-0.0091174
0.0063287485
-0.016219784
-0.0073725833
0.00054530456
-0.012461655
-0.023137206
0.01166528
0.009720981
0.022574183
-0.0078039467
-0.008410522
-0.025152665
-0.0346421
0.00063837104
-0.0031965876
-0.0053339507
0.014090524
-0.04438056
0.0058964854
0.023173707
-0.027782196
-0.002801123
-0.026779637
0.17461304
0.02013781
0.0028515642
0.046265922
0.004394206
-0.02169591
-0.0109755695
0.010431595
-0.007087935
0.017065734
0.014489093
-0.044159405
-0.0081365425
-0.0015089267
-0.01775638
-0.015488347
-0.0027526862
-0.0428146
0.013920601
-0.03207769
-0.0023334606
0.039906606
-0.011002633
-0.0010650798
0.012743786
-0.021564998
0.009803746
-0.005860068
0.025392426
0.013341498
0.010303587
-0.0067495797
-0.021463575
0.010229267
-0.028436031
-0.017590288
0.006942657
-0.005779004
0.0270253
0.009943957
-0.021897422
-0.03223986
-0.020473547
-0.0019970958
-0.008954644
0.002632664
0.009821664
-0.02036909
-0.0072012194
0.015633224
0.0001441588
0.0024250618
-0.01355517
-0.023650926
0.016129162
0.0022498923
0.06842854
-0.012396291
0.009342066
-0.02513042
-0.0039050123
-0.045336027
0.0040211016
-0.0052907085
0.02306121
-0.034059647
0.025518615
-0.0061226655
-0.0063418504
-0.030110203
-0.004080199
0.029691935
-0.021538753
0.008700264
0.010009488
-0.024155512
0.025352959
0.009262864
-0.032144297
0.01685057
0.0032826085
0.006678931
0.00658585
0.016307602
-0.0037470479
0.006359854
-0.018336171
-0.027562547
-0.0031611794
0.008615449
-0.02938188
-0.0073231626
-0.0034583618
0.025563203
-0.0005039445
0.00015686417
0.03091993
-0.02479262
-0.018451134
-0.0042586466
-0.012978849
0.010044927
0.023710553
-0.0010944522
-0.022933528
-0.0038814708
-0.0012033018
-0.0043940414
-0.0070537194
0.017261902
-0.018705131
0.010854509
0.011552347
0.0019765443
-0.017262632
0.004675922
-0.010335766
0.011213914
0.0020571537
-0.0021099881
0.003539645
-0.034324255
-0.0066693895
0.014050964
-0.014877983
0.0063827517
0.0021525093
0.014842783
0.0069125243
-0.00024913033
-0.013657798
0.0045655104
0.011048594
-0.00042800786
-0.016979598
0.022576943
-0.36672774
0.035062935
-0.003993464
-0.0139263505
-0.016282953
-0.0047452427
0.009226209
-0.030256433
-0.0028318611
-0.010904536
-0.022883937
0.022802861
0.032035228
-0.0059919506
-0.046044085
0.3760799
-0.0048907367
-0.026460195
0.005474592
-0.009555397
-0.0075374725
-0.026039096
-0.0029483165
0.008921406
0.0065523614
0.2664887
-0.005507442
-0.025510434
0.0062302197
0.0061200922
0.024637332
0.0018340506
-0.006749848
0.02110676
0.005555019
-0.0132053355
0.014627087
0.013159701
-0.006888486
-0.005716137
0.0061956663
-0.013574717
0.01918611
0.0020500128
0.010442691
-0.016280657
0.0013181118
-0.0164849
0.010147202
-0.0005982067
-0.013931736
-0.035698246
0.0036831584
-0.011846398
0.0057311314
0.0037141494
-0.023160445
-0.02809681
0.03512209
-0.20014898
0.0046448126
-0.018590992
-0.06747545
0.032521565
0.0029687805
-0.022927899
0.002865068
0.022632755
-0.009572253
0.009374551
0.016715169
-0.0097071435
-0.0011934388
-0.01012362
-0.0105943885
-0.0049755676
0.011209466
-0.027481845
-0.020212129
-0.0059321336
-0.00139211
-0.011688891
0.01194669
0.06707225
-0.031098457
0.0033768555
-0.02489593
-0.029187651
-0.022318428
0.034395155
0.017870506
0.020969685
0.3350448
-0.020951046
-0.022447614
0.0009966046
0.0034034306
0.003366832
-0.0013338812
0.016914535
-0.002302023
0.0041592554
0.034505386
0.013601807
0.0154720135
-0.16296495
0.004539029
0.0073693274
0.0070585124
-0.015165549
-0.00069717807
-0.001804284
0.016897103
0.011288081
-0.013027116
0.0034225553
0.012783729
0.009564853
0.005788828
0.0049357554
-0.0099375965
-0.0074443305
-0.022086743
-0.0143555915
-0.038754698
0.017350027
-0.011884044
-0.011329947
0.007200866
0.030298242
-0.019422414
0.0055937353
0.0017109104
-0.004090897
0.0013495794
-0.00031224196
-0.001982459
0.24765259
-0.010619769
0.0076169064
-0.0052657104
0.0050343405
-0.010849429
0.036330458
-0.023484483
-0.014933237
-0.018365782
0.030910777
0.00862134
0.0017958714
-0.030688262
-0.016995233
-0.0077923345
-0.0031417545
-0.014646493
-0.0033789102
0.010904563
-0.0030953425
0.00798853
-0.015834924
0.015418518
-0.009826304
-0.08154509
0.009586984
-0.0035448177
-0.16833289
0.009760503
-0.009400268
0.011207484
-0.002802043
-0.0012841305
-0.014516166
0.0019945889
0.009922492
-0.03434372
-0.008969106
0.015009121
-0.015689138
0.017795375
-0.00885596
-0.0025380014
0.025625726
-0.011443908
-0.013273061
-0.023741916
0.004836715
0.017384766
-0.0026336252
-0.025523774
0.01187234
0.004864884
0.006310646
-0.0139295915
0.0130098555
0.009641496
0.38886088
0.013973747
0.017925235
-0.012013151
-0.023494035
0.00897675
0.012809006
-0.0146267
-0.0014765034
-0.03523908
0.0040166983
-0.00096713676
-0.009458641
0.012761442
-0.007579202
-0.0013218416
0.006021313
0.0030078962
-0.013196466
0.0022859816
0.0026207354
0.0016436777
0.029840954
0.009385245
-0.017523868
0.00989785
-0.017454563
-0.007905489
-0.01005078
0.012966511
-0.0034707794
0.003169228
0.009545145
-0.008486626
-0.019238759
-0.011432403
-0.023800833
0.0141819315
-0.010104896
-0.010157131
-0.006412014
-0.018147197
-0.0075505134
-0.011946547
-0.22314048
0.014729822
-0.0056307516
0.020503445
-0.004254021
0.0124103585
0.006938262
0.011958469
0.01162348
0.013395379
-0.012484331
0.0023191941
0.2794738
-0.23647888
-0.0075167515
-0.0030387044
-0.0043335874
0.00615506
-0.015664235
0.004988466
0.2144633
0.000468122
-0.0028703134
-0.25400665
0.00029588118
-0.0076171746
-0.01695015
0.08506871
0.002676144
-0.0032650325
0.0018091131
-0.0124715455
-0.01593271
-0.014437839
-0.015841445
0.004222788
-0.0035151856
-0.005918676
0.004711873
0.002542364
0.0052475072
-0.009331875
0.0032133341
-0.002280795
0.011562157
-0.018866017
-0.001175905
-0.008366729
0.011729052
-0.0019491651
-0.012111351
-0.023754226
0.027696371
-0.002868691
-0.012611926
-0.0036731658
-0.015190407
0.033868153
-0.0018256063
-0.0064031472
-0.01286601
-0.019896735
0.054725472
-0.02633528
0.009023278
-0.009583526
0.016355284
-0.012006727
-0.00011518002
0.044286925
-0.005572932
0.0021613094
0.0051934374
0.01498453
0.021737112
-0.018216416
0.003007907
0.008572721
-0.00010394989
0.012267627
-0.009647205
-0.01416998
-0.00031594853
-0.026331661
0.00048760616
-0.024301128
-0.025015866
0.00047037582
-0.008851558
-0.03331776
-0.046692796
0.021839222
0.0043013035
0.04453063
-0.026412146
0.016107274
0.0035395026
0.012630448
0.0074330126
-0.010018509
-0.026179032
-0.082510546
-0.008717441
0.0042056353
0.024495868
-0.011904436
-0.013173799
0.052322473
-0.0152796125
0.0009775136
-0.01630745
0.0060604666
0.04290309
0.0005279707
-0.02035854
-0.024135424
-0.016491456
-0.00078940205
0.0013256198
-0.0073742485
0.0072516985
-0.013483811
-0.0036872642
0.001311706
-0.015415329
0.02069517
-0.006713572
0.0036472103
0.020222448
-0.011738486
-0.006859909
0.006122947
-0.009708677
-0.0009143792
0.020679437
0.011450265
0.0029463521
-0.00029733474
-0.006135185
-0.0005932654
-0.004444687
0.013595188
0.0012298401
0.0046232278
-0.024894454
0.034268282
0.005478101
-0.0022971923
-0.009100695
0.0124627
-0.012345626
-0.034455884
0.0038040965
0.0007817795
0.002150827
0.031694528
0.014855318
0.009536977
0.0068453215
0.0010976812
-0.0027172638
0.00032661218
-0.011349182
0.018547796
-0.012483708
-0.020140516
0.009660014
-0.008990733
0.0007925383
0.0022829585
0.01414524
0.0022738422
-0.004844425
-0.0034710688
-0.020728774
-0.007372892
-0.011581441
0.005392658
-0.012397324
0.008851501
-0.0006905842
0.008183474
