2304,
-0.054097984
-0.0644474
0.031128775
-0.082882226
0.07840359
0.03914358
-0.45591456
-0.118760556
0.3670335
0.028461361
-0.08913631
0.28048715
0.011098351
0.026152827
-0.13877277
0.11404809
0.1009573
-0.005663519
0.14845638
-0.009866539
0.072570264
-0.16191164
0.09205066
-0.070567764
-0.072635576
0.060412124
0.06442663
0.092150904
0.12077068
-0.015391634
0.13990995
0.015000202
-0.055355035
0.46745282
-0.053256836
-0.04378734
0.018775249
-0.059310567
-0.14438802
-0.046637207
-0.121133015
-0.6494171
-0.012593233
-0.0285855
-0.11096602
-0.105667636
-0.13197994
-0.006167978
-0.06803402
-0.17842905
0.11768092
-0.022848248
0.06650788
-0.080394685
0.09309099
0.46105897
-0.08863523
0.50828797
0.11254448
0.019082777
0.19002114
0.008907202
-0.1338015
0.041419614
-0.0032845235
0.0064458125
0.03920048
0.030412171
-0.069541626
0.05140312
-0.05892729
0.057273824
-0.0069703353
-0.05510098
0.004375932
0.04515941
0.0678966
0.26428553
-0.102048546
-0.03498423
0.04147474
-0.055816133
0.08516012
-0.0410129
-0.0085215615
0.040131234
-0.039182678
-0.06073366
-0.00790098
0.032854293
0.079013325
-0.025186474
0.071233176
0.2808691
-0.032815214
0.027032193
0.28256473
-0.1645899
0.016738899
0.00060692953
0.15369105
-0.00914756
-0.07342074
-0.0022245115
0.005948392
0.16088912
0.1390539
0.15710281
0.07680855
-0.010211774
0.050092954
-0.5433228
0.06486792
-0.04180251
-0.09548177
-0.031311776
-0.4225958
0.02633251
-0.08236069
-0.12746863
0.42613643
0.14258751
-0.058187723
-0.06473398
-0.10714424
0.006916442
-0.12259385
-0.10018584
0.25455958
0.3974648
0.27692866
0.012800096
0.050997898
0.3691704
-0.14313497
-0.43743557
-0.15416607
0.10526292
0.1398542
-0.13910165
0.055785414
-0.00876657
0.16631378
-0.07635373
0.0041349833
0.28991318
-0.59890234
-0.1370973
-0.061722275
0.011680438
-0.19168936
0.07806805
-0.20437558
0.2712475
0.03288236
0.17005736
-0.017347703
-0.11573442
0.13036075
-0.4614718
0.32738093
-0.08205078
-0.37057045
0.107038565
0.08691144
0.023266278
-0.15512305
-0.2886586
-0.123067535
-0.1511827
-0.094940566
0.03568971
-0.035315495
-0.07514326
-0.07096788
-0.064253695
0.023753101
-0.33427483
0.07542706
-0.0744853
0.054030243
0.352892
0.21251336
0.15377945
0.41003835
-0.34926724
0.2528625
-0.727955
-0.34644714
0.03432206
-0.0036325576
-0.29061186
0.025485877
-0.026638627
-0.034894995
-0.00025612788
-0.022727754
0.06867042
0.5653544
0.46554756
-0.41140372
0.191669
0.018386412
0.0499896
-0.08307253
-0.016665092
-0.25568637
-0.45778516
-0.14745516
-0.04579096
0.5167085
0.0522621
-0.124017894
0.07874516
0.035423107
0.5250974
0.011266628
-0.29909375
0.1318829
0.13487056
0.19118257
0.049585704
0.07193402
0.16708155
-0.036205184
-0.01608924
-0.2413147
0.18403777
0.031425238
0.123084374
-0.13068183
0.1896436
-0.03483255
-0.1623959
0.034306042
-0.34514543
0.02356488
-0.07546495
-0.0052586165
-0.08929288
-0.46522397
0.5557042
-0.044814147
0.007651092
0.020584254
-0.0013253165
-0.1950133
0.042618237
-0.24545132
-0.048536856
-0.08032565
-0.09027977
-0.1258877
0.107286476
0.007043773
-0.031448506
0.3552331
0.46786222
-0.16606595
-0.2526219
0.047321968
-0.543121
-0.25126603
0.42825925
0.017505284
-0.55133265
0.22491364
-0.18731602
0.37606323
-0.53407156
-0.27194175
0.10329141
-0.44957122
-0.16669904
0.11102068
0.10964116
-0.14254574
0.11771809
-0.18712622
0.077799655
0.32803944
-0.3135061
0.25880128
-0.14832498
-0.029418057
0.29514176
-0.029334374
-0.04431495
-0.37011042
0.11101127
-0.14158766
0.09487131
0.012896712
0.1763256
-0.09787694
-0.028546272
0.1717407
0.024873512
0.10337073
-0.10440176
0.13200039
-0.35220927
0.05990014
-0.16315214
0.37512913
0.21253124
-0.09038079
-0.112441175
-0.027914489
-0.2356433
0.061812244
-0.023681361
0.31481865
-0.037996102
-0.13333872
0.07318302
-0.11548881
0.12932757
0.033672452
-0.13334514
-0.46590734
-0.47461316
-0.02611903
-0.045749303
0.45572537
-0.164935
-0.13819355
-0.41934606
0.17911556
-0.1543753
0.039640404
-0.13659012
0.17230548
-0.05156462
-0.2893699
-0.053357664
-0.16943224
-0.074012175
0.03562827
-0.028819252
0.24984239
-0.39900404
0.065801375
-0.41026363
-0.095937565
0.10918475
0.017988695
0.33226523
-0.10347987
-0.03451633
0.061242998
0.19378448
0.09311095
0.021464525
0.45387903
0.22588736
-0.47576028
-0.46739691
-0.31921428
-0.2261876
-0.24194194
0.016453987
-0.2307706
0.097415544
0.09363394
-0.09720802
0.11349624
-0.112821974
0.24032153
0.06234057
0.053704295
0.116729565
-0.003224657
-0.0044423863
-0.016263077
0.24275017
-0.00499549
0.089359425
-0.36907932
0.10141627
0.21415272
-0.028357908
0.14625493
0.30436164
-0.37839392
-0.15509394
0.28667334
-0.07845275
-0.018852102
0.6297032
-0.14502181
-0.075240254
-0.052600846
-0.15838918
-0.08093931
-0.024187958
0.085202575
0.04155766
-0.072297074
-0.08156607
-0.12313513
0.011039865
0.22743064
0.0140472865
-0.109955214
-0.5823685
-0.094107404
0.015487955
0.09196538
0.028464733
-0.024867797
0.014242397
0.004444526
-0.043185513
0.012130239
0.37779695
0.03525346
0.55076605
0.081517406
-0.0427649
0.5065683
0.44742507
-0.010448246
0.021430973
0.10348537
0.009726196
0.034959096
-0.017669635
0.5074782
-0.11741512
0.07532475
0.2695848
0.6626635
-0.091053024
0.52706087
0.030495819
-0.040142324
0.012158571
0.023969168
-0.050351538
0.043552738
0.05092094
-0.15701386
0.17862613
0.06843288
0.041051015
0.020389533
-0.22412272
-0.21043074
0.44325748
-0.37325534
-0.65204966
0.61391324
-0.4936965
-0.12647532
0.67968637
0.5984636
0.30746734
0.500467
0.49312273
-1.0548793
-0.3220361
-0.5782759
-0.11260146
-0.18397368
0.23100182
-0.55781454
-0.1542782
-0.62801725
0.32215688
-0.20013814
-0.19695064
-0.40347695
0.31971842
0.6681255
-0.4137423
0.70173186
0.09105692
-0.019077728
-0.013824803
0.49105376
-0.6194983
-0.39997625
-0.31777605
-0.32346708
0.16170527
-0.021528477
-0.58925694
0.14011586
-0.42363533
-1.0123943
-0.29671898
-0.42328608
-0.40656057
-0.15382636
0.036938038
0.16236219
-0.68296105
-0.33369544
-0.21316376
-0.4792327
-0.80938864
-0.4552174
-0.07696654
-0.2243194
0.468239
0.12650411
-0.03500146
-0.8131591
-0.8411819
-0.41355225
0.50064045
0.16530606
-0.28292552
-0.09168156
-0.19087511
-0.039411437
-0.028210595
-0.039326817
-0.011762137
0.026287325
-0.32585347
0.04110695
-0.03650077
-0.1337048
0.0037726641
0.43474814
0.1403417
0.019670285
-0.20676064
0.17528425
-0.06564378
0.0053731618
0.080994
0.41950572
-0.20145154
0.009358588
0.10706401
-0.22570342
-0.026555782
0.20312323
-0.021127844
0.1707176
0.05385689
-0.088365786
0.02089409
0.06182552
0.5129701
-0.14890873
-0.27065676
0.4969202
-0.08563912
0.105249576
0.28560597
-0.10897891
0.20854023
-0.032080773
0.09110498
-0.33303767
0.029568797
0.022428492
0.17999272
-0.054475524
0.052925285
0.19313549
0.12324317
0.06440757
0.05539993
-0.29896
0.05961284
0.19042787
-0.14500229
0.297941
-0.14475921
0.047754683
0.26137418
0.16825612
-0.54560894
0.074944526
0.1641469
0.030291649
-0.047584347
0.66050154
0.5028999
-0.33724838
0.0030610848
0.2721431
-0.19092879
-0.0887312
0.109428234
0.08821382
-0.013461682
-0.025557334
-0.30313757
0.0022591443
0.22540344
0.21943308
-0.020014757
-0.09788787
-0.023269162
-0.006534256
-0.5369051
-0.42057273
0.5172471
-0.110760875
-0.33942163
-0.019907365
-0.088634096
0.10463344
-0.0012803415
-0.63554937
0.02143605
0.0042344276
-0.11355847
0.63058406
-0.19862723
0.39674303
-0.35485286
0.087516405
0.29758427
0.052935548
-0.15831666
0.1453295
0.067786045
0.023031544
-0.04597627
-0.23773247
0.28498212
-0.06846348
-0.010974279
0.18654801
0.1008326
-0.18726358
-0.17111225
0.15531498
0.21217261
0.3716266
0.02055605
0.09639092
0.12060351
-0.06883042
-0.04120716
-0.09917411
0.55098695
0.025344508
0.008782205
0.20814967
-0.07089027
-0.14480779
-0.070243455
-0.288992
-0.026546385
-0.037780374
0.084723316
0.19183548
0.14853676
0.106454715
-0.11569268
0.05003824
0.12948497
0.044582535
-0.09621813
0.05847379
-0.022141075
-0.086903274
-0.15704961
0.089605376
0.12744321
-0.05672661
0.23236398
-0.17565322
0.0036370417
-0.06568756
0.067476064
0.1942953
-0.034458462
0.03469469
0.10706053
-0.06470365
-0.0060042082
-0.010076678
-0.014972177
0.3820901
-0.13399456
-0.10237105
0.06751276
-0.0519288
0.12787664
0.12255343
-0.12362734
-0.07572856
-0.07896471
0.113472715
0.079334326
-0.034367193
0.151737
-0.01752971
0.13824196
-0.079325825
-0.05488138
0.15065844
0.016720144
0.24958207
0.101807065
0.0039298655
0.055229995
-0.21518259
-0.24279134
-0.32672954
0.024858395
-0.65291095
0.10436032
0.042019445
-0.18220904
-0.5191415
-0.33792955
-0.26589665
0.1342765
-0.09908204
-0.0025077087
-0.25234327
-0.20990449
-0.5000585
0.24219649
0.12736648
-0.05987635
0.39079627
-0.04612186
0.12354567
-0.09674423
-0.2639764
0.19804879
0.20516457
0.674633
0.08010054
0.52564996
-0.99420106
0.44336876
0.56623316
0.44036546
-0.45673278
-1.4629976
-0.046186704
0.28826827
0.5429778
-0.4253029
-0.20291628
-0.19342555
0.1801531
-0.4235119
0.23783761
-0.050041024
0.12495728
0.11802129
0.169602
-0.28960183
1.177357
0.7288648
-0.13279179
0.09082002
0.43533155
0.35217068
-0.2950936
0.43522286
-0.5142253
0.19647938
-0.0487094
0.25719193
-0.11647639
-0.10782725
-0.050885156
0.006003556
0.08386744
0.16977492
0.07476543
-0.032640275
-0.027148582
0.025255295
0.073897675
0.14429283
0.05699726
-0.117807224
0.13794962
-0.006772763
0.090643756
-0.04641205
0.120435305
-0.042788472
-0.036252875
-0.035322815
-0.04498176
-0.014538942
0.07834719
-0.040421195
-0.08637494
-0.031165138
0.075572856
-0.111745164
-0.099870406
0.009413848
0.07141004
0.2704809
0.1953087
0.0111101
-0.040953256
-0.083709985
0.04973959
-0.057618335
0.04904099
0.009964016
0.102052234
0.09479967
-0.10134634
-0.043012008
-0.05479716
-0.09857314
-0.085609354
0.08577679
-0.09031269
-0.0005580331
-0.05399799
-0.07201589
0.020348405
0.0050487393
-0.010289109
0.15025042
0.1564848
0.038518652
0.032973636
-0.01750277
0.059785724
-0.013128646
0.08614227
-0.14869562
0.14555101
-0.0034140812
-0.114475645
0.04407934
0.016905716
-0.011560898
-0.029109815
0.014304715
-0.058117285
-0.0808032
0.09384774
0.22895825
-0.07154265
0.03989985
-0.07581138
-0.1177205
0.17447692
0.09219733
-0.12947975
-0.047877908
0.027922198
-0.054078538
-0.012974875
-0.055298857
0.059574388
-0.081748284
0.01998177
-0.10494955
-0.04955081
0.029695427
0.09523411
0.074603006
0.0065230634
0.0011913847
0.016433215
-0.017429981
0.028720977
-0.005382613
0.011783957
0.025766822
0.022240138
0.25791007
0.024241228
-0.1894161
-0.1663057
-0.16032194
0.1168567
0.057819374
-0.12034411
-0.21060768
-0.18485317
0.042692468
-0.05819214
-0.08620491
-0.05129002
-0.04491336
0.009860449
-0.08080684
-0.06276097
0.025156789
-0.069623634
-0.108048454
0.2058685
0.035119336
0.03712655
0.14468166
-0.041998405
0.007841937
0.061244346
0.004786008
0.010918692
-0.007744807
0.036739968
-0.16367003
-0.05271315
0.02653871
-0.1893328
0.15383497
-0.10301339
-0.041533574
0.16354121
9.6179305e-05
0.035660643
-0.04777564
0.13300094
0.0070526227
0.11632115
0.08420426
0.110502414
0.15041846
0.07267921
-0.06924679
-0.07816417
-0.08114446
-0.07120152
0.05005574
0.08147189
-0.11145278
0.018952666
-0.06684311
-0.13614337
0.11759635
0.045482833
0.07678441
-0.009051036
-0.07068617
-0.1210566
-0.11441486
-0.097332224
0.17018849
-0.01266699
0.1008514
-0.049054198
-0.17670737
-0.13512045
0.14866814
-0.09671418
-0.00072330155
-0.2741459
0.07198062
0.109260075
-0.0045761294
0.14399509
0.096416056
0.056975406
-0.050167315
0.13233295
-0.0073851557
-0.10347525
0.074806064
-0.05817524
0.013877315
-0.01025508
-0.015618043
-0.044957396
-0.13581835
-0.10401438
-0.21478043
0.03588706
-0.021562599
-0.0110958265
-0.08666875
0.11702564
0.20548336
0.03771072
-0.0859518
0.09099132
-0.0005500431
0.020589963
-0.12666392
0.084227644
0.037214838
-0.02708284
-0.036166634
-0.21499039
-0.0687029
-0.02090244
-0.0740316
-0.07130513
0.02057397
0.13630758
-0.13969569
-0.0015425928
-0.09221716
-0.12907085
-0.2624023
-0.0960638
0.22406071
-0.05884066
-0.029819315
0.1999332
0.13633719
-0.039105814
-0.034233153
-0.013215602
0.116498314
-0.1493472
0.07858305
-0.03629783
0.25155526
-0.036725983
-0.06991476
0.13289112
0.08089751
-0.07133993
0.05327045
-0.005544229
-0.08956882
0.05227894
0.14039497
0.04422348
-0.11254172
0.015100549
0.008686191
-0.034260854
-0.013251375
0.07035988
-0.011021253
-0.0349485
0.12451271
-0.017672159
0.21512426
-0.15454331
0.09929032
-0.041525625
-0.011058715
0.025324289
0.011451623
-0.04294142
0.045913592
-0.11925073
-0.07998183
0.021755314
-0.10184363
0.052525744
-0.1039143
-0.010367748
0.055470977
0.05473989
-0.004422488
-0.011585142
-0.06329957
-0.046532765
0.012376125
0.046525177
0.026045596
0.13680021
-0.12952384
-0.1997325
0.21639109
0.05846639
-0.016000457
0.10360498
-0.09610428
0.113711484
-0.04799377
0.02319725
-0.050456904
0.011005716
-0.0670465
-0.12901329
0.0052126436
-0.09545302
0.13373835
-0.050623085
-0.07709247
0.07185145
0.018510925
0.14597109
0.020279989
0.025641581
0.20704572
0.1099095
-0.09570572
-0.12677261
-0.16857575
0.062188614
-0.11125355
0.10792663
-0.08693656
-0.020827832
0.06016818
-0.17214662
0.23084804
0.08369782
-0.12568796
-0.07320634
-0.028271085
0.06891261
-0.06149857
-0.2575108
-0.0058709285
0.004925589
0.08208891
0.15170956
-0.028389024
-0.008642354
0.05745047
0.07151329
-0.0544746
0.08254504
-0.039687637
0.13922921
0.17199676
0.012581448
-0.15645762
0.056798704
0.034666836
-0.103153884
0.030345187
-0.13043049
-0.06370332
0.083929755
-0.22113493
0.021495847
-0.03075865
0.058577914
0.02181307
0.02820939
-0.036968056
0.01065826
0.010426672
-0.04872013
0.19524086
0.010759204
0.06258384
0.031025317
-0.043490533
-0.053857997
0.016246388
-0.0076781455
-0.028380347
-0.0077898433
-0.10983104
0.07066773
0.04384521
0.23360206
0.031862527
0.2406927
0.018533584
0.041119266
0.030049985
-0.076269045
-0.03342785
0.07444835
0.22155863
-0.026271174
0.044403724
0.008161296
0.069341004
-0.092301965
0.023478338
-0.05491872
0.018371982
0.042375356
0.20920211
0.019704109
0.07956021
-0.07979785
0.017494055
-0.018227609
0.08129129
-0.13752548
-0.08583762
-0.11093171
-0.084750794
0.05469345
0.052713912
-0.09464884
-0.24773613
0.08670526
0.0013159168
0.06450378
0.04263229
0.23572937
0.07758769
-0.024942296
-0.054784924
-0.04550878
0.039516356
0.0966502
0.068780474
0.039132964
-0.11357009
-0.07231421
0.29891416
0.009315534
0.10789412
0.1490412
0.0025329674
0.071938
0.0016562685
-0.051092897
-0.018385908
-0.0413754
-0.13233663
0.033932365
-0.083490655
-0.082572676
-0.04877514
-0.079628944
-0.19314416
0.035709742
-0.13333091
-0.10788159
-0.010614237
-0.16140486
0.18472087
0.11981423
-0.11330072
0.0316591
0.09588637
-0.014308516
-0.15293172
0.11272296
0.059613455
0.038746767
0.008538524
0.18742849
-0.074865185
0.18913
-0.17440157
0.04348508
-0.1635514
-0.15363431
0.107999794
0.18162234
-0.10100231
-0.081465945
0.21650273
0.023005331
-0.028417725
-0.004615364
0.18679492
-0.22213744
0.2083217
0.025978072
-0.03897268
0.014871291
-0.073028274
-0.0019945095
-0.1651453
-0.009796425
-0.010708556
0.24292801
0.08529264
-0.15618357
-0.043947287
0.1551576
0.033084672
0.020398814
0.20016898
0.18770443
-0.043867726
-0.0074185855
0.010932066
0.047018487
0.10893081
-0.05541909
-0.10983218
-0.0099906735
0.0016689387
0.009441711
-0.08257514
-0.05959869
-0.123418555
0.082608186
0.047607683
-0.027531287
0.08544906
0.029035205
0.06511882
0.045301247
-0.004848613
-0.27207512
0.043800842
0.08893366
0.031809717
0.063969724
-0.0009812582
-0.31865454
0.11620862
0.005821013
0.00987291
0.1083549
0.0733346
0.1581387
-0.059111312
0.10143805
0.030168358
0.121832125
-0.05546122
0.10879263
0.034695312
-0.07202163
0.021857373
-0.11439183
-0.066275865
0.12553172
-0.04405863
0.05156786
0.021038635
-0.088461876
-0.08999586
-0.1057546
-0.007017913
-0.021741778
-0.09959454
0.1424028
0.10056652
0.15172474
0.06252034
-0.026629468
0.0817856
-0.11828684
0.14243057
-0.08916317
-0.027397437
0.071587004
-0.07596367
-0.09190771
0.00632197
0.063834704
0.12520102
0.05386998
-0.1684983
-0.09571302
0.017089225
0.049535524
-0.15164147
0.13126047
0.07891791
0.15313448
-0.034445688
0.07830438
-0.19271839
0.18292247
-0.0022601122
-0.1463693
-0.10171514
-0.061584566
-0.16413786
-0.05563319
0.04833272
0.11060556
-0.08068797
-0.05194413
-0.12100666
0.07500043
-0.26732397
0.0802172
-0.020898685
0.044430736
0.049839918
0.09259298
-0.06318669
0.1166
-0.008880435
-0.16841447
0.05620578
-0.08290937
0.045683946
0.20535843
-0.121410616
-0.05003136
-0.21640252
0.04740586
-0.078280255
0.11330134
-0.036213186
-0.0834614
-0.07126894
0.016405521
-0.086092874
-0.1992359
-0.05581068
-0.20546225
0.03805285
0.03616581
0.024808852
0.048683036
0.013137013
-0.028647374
-0.2447723
0.15662186
-0.020877667
0.15725595
0.009365977
0.011382431
-0.04307315
-0.045619745
-0.14398415
0.041949492
-0.0980151
0.06344046
0.052438844
-0.08754448
-0.21622677
-0.033216733
-0.03440162
-0.129933
-0.093901366
-0.074001074
-0.14925668
-0.0094575295
0.045437384
0.055831447
-0.06132492
-0.09423505
0.04910458
0.05289474
0.0996176
-0.07264282
-0.06435149
0.053655297
-0.1330279
0.06222349
-0.15334448
-0.11675158
0.026308391
-0.109360136
0.07386344
-0.06029658
0.014243552
0.07811675
-0.0054430305
0.04466479
-0.0024272637
-0.12622441
0.20930469
-0.14379199
0.040042065
0.015756195
0.034952935
-0.06520262
-0.047604
0.16044734
0.029365344
-0.07110019
-0.019829826
-0.11970004
0.028108642
-0.08797196
-0.15348257
-0.024244757
-0.046123687
-0.02873708
-0.07083975
-0.06927822
0.07831274
0.016284669
-0.0075769876
-0.09605176
-0.021728281
-0.076143526
-0.008112245
0.012165743
0.15882619
-0.030276727
0.08473103
-0.050116993
-0.15525082
0.059024137
-0.08822046
-0.11884543
0.14692166
-0.0661003
0.1413472
-0.022205587
-0.034185704
0.09086417
-0.2477166
-0.14456466
-0.15712832
-0.052526366
0.10926961
-0.19120474
0.0534422
-0.21674204
-0.02697416
-0.18613091
-0.06367956
-0.07786609
-0.117330536
0.11317009
0.016214069
-0.20680222
-0.0031299049
0.043144636
-0.021210453
-0.14494513
-0.24363649
-0.24249984
-0.060713977
-0.10070292
-0.03341532
0.07150821
0.10702473
0.115982495
0.026210684
0.09537633
-0.10761867
-0.06587647
-0.0023375046
0.0010658369
-0.09798453
0.019665165
0.11551057
0.09029021
0.23089685
0.1418021
0.07054771
0.1242855
-0.06334122
0.14392535
0.01891308
-0.0967574
-0.022870107
-0.3174586
0.0374579
0.15117602
-0.075013496
0.0003532003
-0.023520358
0.035794415
-0.008190094
-0.013341247
0.22570615
0.01436425
0.019578142
-0.0029258071
-0.0056154532
0.006173498
0.033944525
0.04145542
0.02271554
0.027301738
0.023053527
-0.030637609
0.0011183558
0.009655784
-0.0031652076
0.004611491
-0.0008690875
-0.00602603
-0.009716541
0.014348393
-0.010869566
-0.015734069
0.025384622
-0.029720588
-0.00057103916
0.0009462513
0.022110196
0.0040915147
0.0009700194
0.009012877
-0.013626644
0.38099006
0.014510695
-0.02360141
0.018054811
0.010923933
-0.00028579647
0.010522323
-0.004665673
-0.001996693
-0.004145859
0.013359738
0.013441804
-0.011359168
-0.024204854
0.012824749
0.002637807
-0.012624424
-0.02603349
-0.0029220823
-0.0015969696
-0.0026668452
-0.03575223
-0.3376878
0.009193518
0.014932462
-0.0103871
0.0032960656
-0.023387512
-0.0033513538
0.01443817
0.006300567
-0.017699823
0.015226514
-0.022323696
0.008432556
-0.0004582949
-0.0014080262
0.011822817
0.026622701
0.015080543
0.017018724
0.0011486546
0.009481635
-0.0038085608
-0.0036246125
0.0010177381
0.0005370143
-0.006052282
-0.00049632124
-0.016719326
-0.023653304
-0.0017901642
-0.019333864
0.0046526706
0.0046514985
0.0046947952
0.00093830243
0.0038705233
0.002842768
-0.00023244193
-0.0038667847
-0.0072568213
-0.0051113903
0.11333132
0.011063581
0.0050473833
-7.3925046e-05
-0.0065915566
0.010969854
0.004560265
0.012323147
-0.0056111678
0.016777212
0.0032100182
-0.008614061
-0.007083714
-0.0055125123
-0.00025597005
0.00721884
-0.0022969998
-0.018348247
0.008905914
-0.0014390248
-0.0033865953
-0.016695619
-0.004148824
0.0006583032
-0.007189351
0.006023668
0.0107796565
-0.01049319
-0.011472851
0.008164315
-0.38697177
0.025318041
-0.031825464
0.029812425
0.02184054
0.024543606
-0.032626458
-0.036553003
-0.008150437
-0.002787474
0.025179088
0.011822091
-0.06644992
-0.006668248
0.0025341269
0.034651946
-0.017150264
-0.028192218
0.0039965496
-0.026514731
-0.003591378
-0.0048963386
-0.0010021576
-0.09190777
0.00078144774
-0.006070058
-0.004402503
0.07853036
-0.0025782334
0.003974879
-0.015561459
3.3744935e-05
0.0143585205
0.028681887
-0.03499833
0.003185687
0.026992694
-6.797279e-06
0.0063026245
0.007982092
0.0017635153
0.0038919162
-0.0005619043
-0.02403209
0.0042325896
0.0010160237
0.00055918656
0.00297509
0.029980727
-0.034606226
0.015088061
0.012852089
-0.032423493
-0.02881803
0.015689354
0.005036528
0.022192858
-0.015093351
-0.026973555
-0.0001437173
0.019301502
0.026652176
-0.014680408
-0.018662142
0.021663705
0.005028651
-0.020202983
-0.00043033913
0.031648837
0.0038006615
-0.0051930994
0.017305044
-0.01735622
0.009101724
0.0049046515
0.017914146
0.024152568
-0.13915063
-0.021198845
0.013942823
-0.06019167
-0.0030993565
-0.009585843
-0.0028721746
-0.03609387
-0.03940785
0.06593971
-0.00045683788
-0.41675362
0.017580595
-0.027333206
-0.010241572
0.014134959
0.012322195
0.026571702
0.023240374
0.024977049
0.024971992
-0.27527365
-0.01674669
0.02761741
-0.0031119082
0.0035233228
-0.033080827
0.028402861
0.035423137
-0.0026238286
0.0073399004
-0.021813048
0.011437128
0.0071606585
-0.014635492
-0.006040179
-0.017894661
-0.0013384515
-0.3528637
0.038488027
-0.0116169015
0.00286208
0.022507235
0.035050757
0.0019118479
0.010592765
0.005867861
-0.04498611
0.14716168
0.0038727985
0.007996355
-0.003831303
0.0012424008
0.0015248113
-0.0017199359
-0.0003263312
0.0027959414
-0.0012239987
-0.006340569
-0.0028669788
0.0104082115
0.010288881
-0.0038735669
-0.0031240445
-0.007052501
0.00065046194
-0.0102304015
0.00043135157
-0.01836477
-0.013898101
0.011828145
-0.013750754
0.0014709384
-0.0063807587
0.008211861
-0.018871976
-0.008889567
0.0031390707
-0.02853849
0.0016178249
0.007242984
0.02230793
0.024407757
0.01567685
-0.0098974435
-0.01066381
-0.029997244
-0.00012945304
-0.015015975
-0.013568835
0.00854439
-0.015362246
-0.0024365184
-0.008935498
-0.015871828
0.0022834304
-0.016060935
0.0033261494
-0.0020518436
-0.01051965
-0.0005935781
-0.0093001155
-0.022942733
0.015098475
-0.023391621
0.004698138
0.015350451
-0.013322209
-0.014323904
0.017575203
0.02713202
-0.014307621
-0.34911963
-0.01267039
-0.00033138233
0.2666629
-0.0022581115
-0.03245256
0.002951243
0.0028744345
0.014630649
0.015746085
0.014650414
0.027024057
0.01647935
-0.00752589
-0.053710647
0.011605307
0.011453521
-0.009066749
0.016052289
0.009874736
-0.023694837
-0.061113495
0.0846041
0.039867323
-0.055303473
-0.015669692
-0.0020575179
0.007308433
0.012882947
-0.010299684
0.0062733185
-0.027658641
0.009484851
0.41612917
0.009397796
0.023529744
0.013608446
0.019320508
-0.0281681
-0.019288996
-0.031809695
-0.0041536596
0.026270729
0.31392744
-0.15750891
-0.011020079
0.034640677
0.021545611
0.012274553
0.009328639
-0.01066295
0.002649242
0.006343444
-0.025143363
-0.031938605
-0.028276477
-0.0061109765
0.03115825
0.0024334667
0.014575617
-0.013584571
0.026039584
0.024639511
0.22340412
-0.019436557
0.005256594
-0.02099358
0.05506139
0.015597774
0.0012142799
-0.006116204
-0.0034423503
0.013823073
-0.03977146
0.002817565
0.033167925
-0.015317416
0.01257791
-0.04439313
0.0073595885
-0.0057873325
0.11168361
0.024856823
-0.014223595
-0.0024490599
0.0009210095
0.1024963
0.026302254
-0.0064528883
-0.0087025175
-0.011818339
-0.009941118
0.008685594
0.36429211
0.0035982085
-0.018171057
0.0038369037
0.01477372
-0.011981826
0.011668198
-9.251692e-06
0.018887302
-0.01355364
-0.29169923
0.03787613
0.005672313
-0.20253792
-0.009051413
0.027096592
0.018815476
0.005273348
0.008600459
0.0025867908
0.023998287
-0.045383018
0.006805696
-0.009866911
-0.0019526166
0.013969388
-0.035829015
-0.015625762
-0.026035791
-0.013522518
-0.019474084
-0.0025829433
0.21745226
0.003051492
0.021114634
0.00457134
-0.012984013
-0.0014597186
-0.0013597168
0.009506128
0.008555256
0.14162342
0.092691615
-0.030712485
-0.011114315
-0.02912428
-0.0023174316
-0.002588393
0.024854861
-0.06581414
0.002918455
-0.004572429
-0.07106716
-0.0010645122
-0.010111404
-0.03976868
-0.13544919
0.017812204
-0.010534829
-0.0050252867
-0.00081771304
0.005704419
-0.003600993
-0.0073689264
-0.0076014493
0.061043903
0.0013403952
0.015047879
0.0006517517
-0.026186474
0.002298301
0.015624293
-0.0014095741
-0.0028016982
-0.07960434
-0.10682435
-0.0145546775
-0.0192651
0.001921394
-0.03928497
-0.010733331
-0.024965601
-0.024087548
0.0048556635
0.0901111
-0.016432589
-0.0106623545
-0.015343144
0.00019787888
-0.005185932
0.006561601
-0.009102059
0.021949444
-0.00062832626
0.043949474
0.008599112
-0.1909503
0.0036020554
-0.07229379
-0.028573198
-0.019056305
0.0030163329
-0.03778381
-0.0067070853
0.009856243
-0.020879926
0.010858358
0.004004499
0.027836926
-0.02670234
-0.00032408393
-0.005151833
-0.0010650908
-0.013459745
0.004142821
0.008844061
0.008341941
0.02289981
0.007739357
-0.016848397
-0.008915543
-0.017631805
0.008370159
4.613911e-05
-0.023857955
-0.020297272
-0.024580449
-0.01597833
-0.0021275028
0.0297939
-0.0070864432
0.037603945
-0.0036654093
-0.018280342
-0.0133446045
0.034988504
0.005827706
0.015348947
0.010506916
0.030263856
0.0030890936
0.009206699
0.00063016143
0.0034095224
0.007844635
-0.010725084
-0.011858885
-0.0027358741
-0.014652315
-0.012196097
-0.026524117
0.007619117
-0.0046737557
-0.006512878
0.00091195037
-0.012544951
0.022864325
0.014296835
0.0022418473
0.3054304
-0.010419416
-0.026423454
0.031846702
-0.011830516
-0.45872232
-0.010047182
-0.004825236
0.37901932
0.022792162
-0.047355402
0.0045897122
0.005428958
-0.023815686
-0.00032722927
0.013233546
-0.005592208
0.027635891
-0.026716601
0.010716642
0.015586973
-0.015904848
-0.00078077713
-0.007543167
0.010965648
0.006903399
-0.016692637
0.008363157
0.023362456
-0.01594449
0.36995134
0.024537358
0.0056399815
-0.018480703
-0.0128189465
0.0005158375
-0.021087702
-0.0056777066
0.010089674
0.00859461
-0.02760423
-0.01673243
-0.029735407
0.022507718
-0.035549823
0.0054978803
0.00576095
0.0018150238
0.00579639
-0.016292602
0.007055698
0.003950729
-0.00504939
-0.016296288
-0.011574547
0.010146541
0.002205326
0.059151214
0.0075210785
-0.010572163
0.0094246715
-0.0022497543
0.020172302
0.00053606584
-0.03170901
-0.0023009554
-0.006065109
0.011429443
0.015672194
-0.018963825
-0.030083073
0.0039865263
-0.010425999
0.009189865
-0.010437725
-0.029823583
0.005350295
0.035481207
-0.027165573
-0.0067459336
-0.012339399
0.02408772
0.026305702
7.5540556e-05
-0.0020890837
-0.03721282
0.0017474152
0.022982446
-0.027403334
-0.013792414
-0.030984692
-0.092473626
0.021147998
-0.019817218
-0.034570493
0.0033687234
-0.05804848
-0.00060316146
-0.26358306
0.0056020874
0.009318274
0.01598906
-0.16097254
0.0049889497
0.023261622
-0.2754363
0.011894588
0.011288652
-0.00016513531
0.028193051
0.013548836
0.0033144616
0.0007436413
0.029974656
-0.0052004512
0.12530835
-0.42799598
0.018580446
0.017111994
-0.0014353845
0.002978439
0.025597023
0.028493615
0.042782847
0.05515041
-0.1098461
-0.027522828
-0.01604533
-0.008770228
-0.0011323608
-0.04320791
-0.03201486
0.0161101
0.033327978
0.0019244772
-0.018494846
-0.016082695
-0.005770779
0.009888453
0.014615056
0.01920854
-0.0009931369
-0.0043596337
-0.014196504
0.020752314
0.013794494
0.0030073249
0.0011389521
-0.013427794
0.009433397
-0.02427287
-0.0036614905
-0.0077945064
-0.00088307157
-0.025618283
0.03450399
0.011321841
0.08270665
0.0069153467
0.008307883
0.0030360194
-0.021607328
0.019379934
0.016277203
0.003368307
0.01768654
-0.00028877697
-0.024445007
-0.0026289239
0.007850229
0.01877237
0.0065503167
0.00071098044
-0.011075054
-0.012709787
-0.35064125
0.012688561
-0.004961732
-0.0068487804
-0.0035462775
-0.02207326
-0.16702428
0.014506388
0.0006657507
-0.05510907
-0.018549025
0.15006834
-0.014761469
0.019040776
0.0015282197
-0.0031138472
-0.01588361
-0.005380726
-0.004665582
-0.0034105792
0.0014890711
-0.04272577
0.005862578
