2304,
-0.22222382
0.05490632
0.033070818
0.15804982
0.030288696
-0.2349749
-0.30648315
-0.1160963
0.11942906
-0.18294057
0.09135613
0.1770371
-0.044169217
-0.23199965
-0.26596165
-0.06414085
0.17821991
0.23306677
0.026206264
-0.10767792
0.028602539
0.07664166
-0.18136713
-0.118235596
-0.038848277
-0.23405541
-0.10244384
0.096168905
0.01388029
0.26459637
0.15879808
0.060945757
-0.06838053
-0.12107343
0.10945734
-0.014045334
-0.074477814
-0.05716543
-0.02017483
0.01800717
0.13795999
-0.09765028
-0.029250644
-0.024638087
-0.03791008
-0.021373654
0.092548475
0.0033766928
0.26531634
0.27108738
0.16453063
-0.15194556
0.18582506
-0.24460937
-0.11437344
0.21340789
0.1339259
0.11491957
-0.0035882092
0.09331179
0.030719323
-0.0126864705
0.33929515
-0.045534573
0.024396695
-0.045155797
0.2430541
-0.5802251
0.016919214
0.09132324
-0.095363416
0.030689549
-0.18824415
-0.007920668
0.03301672
0.08528927
0.1873753
-0.11721735
-0.06501719
0.106169164
-0.20755106
-0.08518243
0.025770888
0.03347937
-0.045572117
0.039989047
0.10007267
0.15401201
0.04849266
-0.09779282
-0.014092012
-0.290577
0.09593756
-0.24238805
-0.10058645
0.14022279
0.1708325
0.02303013
-0.092371486
0.12047649
0.15060955
0.05981674
0.02482931
-0.122599564
0.49813387
-0.029361717
-0.0697104
0.09735484
-0.1419976
0.19328889
0.06500151
-0.27190647
-0.06636208
0.21687882
0.14187907
0.09519584
-0.03764389
-0.051035035
-0.09084554
-0.018776938
0.065476306
0.01970939
0.008263793
-0.009647479
-0.016813198
-0.10795226
-0.037878044
0.0832753
-0.040370516
0.14645013
0.1397806
-0.110575765
-0.281478
-0.27177912
0.011904647
-0.19656132
0.0007838754
-0.11211521
0.095206484
-0.3294376
0.19235498
-0.118475094
0.15043952
-0.25125027
0.045526706
0.15891346
-0.38487393
0.009569331
0.2670545
-0.189164
0.08479814
0.050026134
-0.00610977
-0.014601295
-0.24129175
-0.20792028
-0.116767675
-0.5985626
0.27247688
-0.09953402
0.07667021
0.011574773
0.28868017
0.010635583
-0.05368717
0.113232195
-0.31366897
0.1706356
0.28206345
0.09063297
0.24822608
0.15168306
0.22076808
0.3442832
0.10558872
-0.2454357
-0.26354557
-0.1311268
-0.033851005
0.22845423
-0.027150001
0.4212455
-0.06973915
0.12750651
0.08147196
-0.0090482365
0.01925133
-0.08482137
-0.1743984
-0.16646792
0.08945036
0.09553913
0.040752776
0.10202207
-0.21142183
0.17551844
0.18488714
0.27067617
0.046608657
-0.11684183
-0.01496938
-0.11807269
-0.17775212
0.091564745
0.090572745
-0.031238977
0.47489324
0.070859425
-0.17478594
-0.06771364
-0.11706451
0.0818971
-0.023536254
0.20305994
-0.055865273
-0.17194338
-0.0930652
0.007366669
0.15035436
-0.023026729
-0.029990945
0.020654991
-0.07076254
0.1698042
0.07926397
0.06944901
-0.010074356
0.117141716
-0.14550102
0.023472477
-0.36180982
-8.410501e-05
-0.11423644
0.16806147
0.1824402
-0.02311322
-0.73127866
0.03860777
-0.091521256
-2.9428626e-05
0.1614798
-0.1120617
0.02797178
0.082478486
-0.09814605
0.59920955
0.042696677
0.26921764
-0.02977053
0.03581752
-0.8045961
-0.068698905
0.021341635
0.152998
-0.4689307
-0.21018732
-0.14474653
0.010384223
-0.21260196
-0.19117638
0.04633523
0.3347108
0.1136748
0.1522188
-0.18040144
0.053034313
0.13043834
0.009189747
-0.016145626
0.23572709
0.15870343
0.004386876
0.49334618
-0.121616125
0.057625387
0.36344135
-0.0608479
0.5301763
0.35619974
0.13395722
0.050812654
-0.32271436
-0.10942182
0.3031928
0.3796167
-0.1301408
0.040264864
0.11097424
-0.09793208
-0.27722144
0.0816718
-0.19522853
-0.28140002
0.0602154
-0.09082969
-0.42450714
-0.16642088
-0.0023831702
-0.33357233
-0.2467519
0.03865642
-0.3833989
-0.6195992
-0.0017710328
-0.077042
-0.064624645
-0.0016674834
0.48568034
0.045084193
-0.37717625
-0.085889935
0.21210006
0.17057373
0.049288016
0.20704162
-0.043851983
0.07625441
-0.060729973
-0.10271614
0.148955
0.11390169
-0.035787243
0.15526943
-0.43196592
-0.011881509
0.0011517926
0.13301162
-0.13233915
0.26845506
-0.22129832
-0.10990874
-0.16941364
0.21055375
0.010744053
-0.13734615
0.11892921
0.01779775
0.036847062
0.14308271
-0.26724178
-0.023094833
-0.23933466
0.04816102
-0.03938115
0.26412287
0.0020335314
-0.014244619
-0.23610651
0.24617472
-0.1267237
0.0050979224
0.1012277
-0.27358097
-0.116931066
0.041554544
-0.27071026
-0.15432218
0.5811534
-0.21574952
-0.07281303
0.0075885644
-0.03690504
0.06683054
0.07017892
0.20013767
-0.04734419
-0.06429411
-0.4000049
0.07876751
0.07246493
-0.26485205
0.041316245
0.108810104
0.2721003
0.16743645
-0.07002201
0.2968846
0.047160383
-0.047783356
-0.11584071
-0.663406
-0.029759388
0.25941148
0.14036402
0.23799546
-0.15318495
0.2629851
-0.20758289
-0.001945278
0.2710054
0.14291954
-0.45553795
-0.14687845
-0.35094023
0.20960829
0.23468028
-0.10613259
-0.20220892
-0.23544526
0.157971
-0.21824387
-0.32291716
-0.25468814
-0.32845306
-0.107817285
-0.23025672
0.26249743
-0.150756
0.33045506
0.1582725
-0.12750149
-0.2785159
0.025236443
-0.1316859
0.18341637
0.12736654
-0.19910306
0.09239497
0.1401558
0.29001284
0.11452905
0.1725294
-0.04560035
0.0059136613
0.08462172
-0.33748665
0.1782775
-0.07175448
0.12968317
0.3264315
0.22997361
0.23997083
0.163275
0.09366642
-0.26302418
-0.10412443
0.16436496
0.061016288
0.16330263
0.04304314
-0.007114612
0.2275591
0.12084888
0.090176985
0.18215531
-0.11225337
-0.22166981
-0.11596333
-0.13216256
-0.010535752
-0.044063628
0.051631317
-0.27826038
-0.19806534
-0.24241689
-0.07144848
0.40477335
0.14892904
-0.060161438
0.05657472
-0.17165728
-0.033330627
-0.032660287
-0.25098297
0.05600653
0.5371943
0.08045452
-0.21405317
-0.20154487
0.04118061
-0.10842719
-0.16952984
0.23169994
-0.03103461
0.2029917
-0.079700485
0.13230617
0.06454861
-0.15605476
-0.10724952
-0.120737396
-0.16518603
0.028293991
0.05514937
0.08119501
-0.04966347
0.01819684
0.20371073
-0.14121611
0.33642387
-0.049240984
0.1735734
0.10015939
0.00626908
0.0333111
-0.00961271
0.061169878
0.11128
-0.12563576
0.08618532
-0.13428216
-0.12256411
-0.039080296
0.15843518
0.46238658
-0.16234201
0.13445972
-0.17468895
0.019571783
0.008726878
-0.028085414
0.3958819
0.07236418
-0.007961314
0.038798347
0.093688585
0.17366752
-0.07492082
0.16459647
-0.19411227
-0.28017002
0.3764437
0.108147964
-0.3073955
0.2718931
-0.14842643
-0.07264992
-0.02649071
-0.18702912
0.061050657
-0.22304891
-0.113495626
0.1609299
0.1371044
-0.109878555
0.23027383
-0.07155176
-0.16504183
0.120678745
-0.038618077
-0.0046632634
0.010804203
-0.02227536
0.09358095
0.11431144
0.35091382
-0.18272778
-0.10111529
0.13930799
0.08202744
-0.19913688
-0.0087876385
0.15412022
0.11592494
-0.1935568
-0.1876064
-0.072461456
-0.14154619
-0.25574294
0.19369827
0.014651881
-0.02530547
0.06786751
0.12629753
0.12303471
-0.15569383
-0.009413795
-0.24025382
0.16666652
-0.14581913
-0.13141409
0.1572048
0.020793727
0.118200846
0.0048094047
-0.064629406
-0.016050303
0.24963824
-0.19314222
0.15275508
0.14906755
-0.18028961
-0.034904532
0.13144015
0.19405182
0.4850336
0.08078493
0.012555891
-0.2896019
-0.105568744
-0.1001702
0.07693807
0.2669495
-0.012015922
0.062366616
-0.064841524
0.00758644
0.24133155
-0.055027597
0.3504391
-0.025836457
-0.24152242
-0.12723044
-0.01334899
0.138986
0.14648183
0.14639686
0.16189225
-0.24546146
0.107635364
-0.52810526
-0.008985293
0.11926323
-0.5802996
0.10420206
-0.19863422
-0.16013625
0.060095478
0.2236735
-0.13915755
0.25295237
0.043943327
-0.0625139
0.062648244
-0.06340787
-0.101690784
-0.40877783
0.08300937
0.23567615
0.15782003
-0.06633869
-0.14552432
0.19924365
-0.05182299
-0.23092405
0.15730356
0.08487167
-0.065332405
0.075057775
0.17449225
0.03053118
0.08751906
0.19080201
0.53606206
0.01391698
-0.14735296
-0.044102896
-0.037011713
-0.21160544
-0.07356376
0.10861377
-0.16522795
-0.11387916
0.3177287
0.10624914
0.053229675
-0.09685186
-0.2351657
0.0650251
0.036098603
-0.13305366
-0.063331805
0.24604988
-0.04173836
-0.032873448
0.15843755
0.13091345
-0.15020715
0.08573622
-0.017654082
-0.16780291
-0.115444645
-0.11826006
0.21929958
0.13029018
-0.09858131
0.034974724
-0.07663421
0.113787055
-0.20794407
0.08335701
0.08867716
-0.19582227
-0.13475367
-0.0048994645
0.16952464
-0.010060526
-0.09859343
-0.1510616
0.04695476
-0.016988993
0.037247576
-0.08868241
-0.13782468
0.043587558
0.027715657
0.24254373
0.124906324
-0.107796684
-0.046196207
-0.09236844
0.17072599
-0.018005637
-0.09895694
-0.06159179
-0.016366743
0.14458431
0.4092389
0.038165364
0.09949132
-0.061939407
0.32139674
-0.0983792
0.27988476
-0.04801637
0.08178527
0.2606264
0.12838368
0.14901105
-0.049778365
-0.24597216
0.07052141
0.024313781
-0.21428159
-0.052158806
0.19165602
-0.15807083
-0.11153877
-0.04918033
-0.04542982
0.042109545
0.08595287
-0.09102069
0.16026679
-0.21604003
0.14126547
0.28717008
-0.20348486
0.19827817
-0.098316625
0.039058212
-0.39109656
0.118974835
-0.07729137
0.17082496
0.07220067
0.25063765
0.014082732
0.061693985
-0.24499466
-0.19485459
-0.11492463
0.0027959726
0.1336335
0.024017971
-0.23067267
-0.14330325
-0.4306036
0.10449904
-0.09537224
-0.47956878
-0.28212598
-0.11128527
-0.0034134733
-0.18322633
0.015767675
-0.0054081394
0.20453748
-0.034924943
-0.004139484
-0.051968668
0.07758142
-0.098920055
-0.012891787
-0.08430493
-0.0046173614
-0.049879827
-0.10014704
-0.038740057
0.021258645
0.01637471
0.043721274
0.07768498
0.16058843
0.027597737
-0.07801636
-0.013343899
0.07003918
0.069915265
0.057901673
-0.011289183
-0.10574349
-0.03696604
0.033819105
0.014667626
-0.04725192
0.0238205
0.05489091
-0.13334262
0.0047001177
-0.062326677
-0.038913302
0.13126357
0.040422603
-0.107188754
0.10132021
0.032857418
-0.14819472
0.096694365
0.060749836
-0.021170279
-0.0051409593
0.017761718
0.117506795
0.06715808
-0.035232678
-0.09291042
0.0847216
-0.09411825
0.10165678
-0.032278515
-0.0031577111
0.051615678
-0.07985622
-0.035533078
-0.066280335
0.07918779
0.0797758
-0.026248697
-0.08337139
-0.029391745
-0.06277098
0.041661527
-0.023767032
0.06674152
-0.17643909
0.03754979
0.11405991
-0.013458676
-0.056552112
-0.14405896
0.10481693
0.04553163
0.046321813
0.008544794
-0.0068413266
-0.10148597
0.06707073
0.009578589
-0.060988646
-0.020106377
-0.04257981
0.008721257
0.032135762
0.030046795
0.11215273
0.0452834
0.029363437
0.0003014713
0.0035455548
0.029572962
0.015492996
-0.03915974
0.08235797
0.22662209
-0.047608815
0.051833883
0.074437186
-0.059310425
0.036094904
-0.009922274
0.08189533
0.055551108
-0.0035273936
-0.077765815
0.093446024
-0.014312951
0.0010294616
0.027670207
0.093626484
0.10738993
0.10628835
0.042535957
-0.04353699
0.15815267
-0.042580076
0.015247059
-0.09598477
-0.09909648
0.07932362
0.06497075
0.009758069
-0.024403315
-0.040549293
0.059652556
-0.015480576
-0.0494104
0.1766421
0.017407626
0.062496632
-0.09381124
-0.12935576
-0.0399051
-0.21121849
0.18561552
0.031556904
-0.068922035
-0.011826251
0.04932624
0.08456098
0.097377054
-0.027589735
-0.11597298
0.16485931
-0.20207272
-0.12688358
0.13333224
0.09193334
-0.012900969
0.022608785
-0.1641845
-0.019133123
0.028205218
-0.09345993
-0.06621445
0.0869684
0.18006189
-0.08620478
0.044845838
-0.04306232
0.05516225
-0.16448739
0.012651498
-0.15351999
-0.066139065
-0.01948142
0.06002978
0.06948978
-0.040641062
-0.049425486
0.17378223
0.10273987
0.072974555
-0.0047538644
-0.058316283
-0.13758059
0.060444348
0.21905445
0.07899886
-0.06316813
-0.079253495
-0.004316267
0.001863153
0.051317956
-0.034251817
0.06324671
-0.056919087
0.06396283
-0.00023533238
0.027110822
0.07579164
0.023226527
-0.040356025
0.12133939
-0.07910053
0.107378535
-0.22524568
0.09972429
-0.01687219
0.025553528
0.09132402
0.029268103
0.067545965
-0.15474811
-0.0029305622
0.09379702
0.050031614
0.022546483
0.018022414
-0.084143646
0.01732399
0.0064513353
-0.037854414
-0.03467863
0.0138316825
-0.014295245
0.0944511
0.0055391476
-0.19514261
-0.07902813
0.20065111
0.0871976
-0.17770329
-0.028410412
0.0653925
-0.0485242
-0.098321065
0.0828698
0.11339282
-0.015621385
0.042864516
0.048596628
-0.046214174
-0.100004405
0.10780716
0.2884657
-0.09362081
0.053503584
0.09513726
-0.0059159715
-0.08591585
0.0041701966
0.08752982
-0.19936214
-0.012990869
0.04632673
0.06521077
0.07188858
-0.057107642
-0.02543334
-0.063828096
-0.06090239
0.04709928
-0.15021935
-0.056672107
-0.009410728
-0.05400869
0.013948667
-0.04233575
0.11465167
-0.08999878
0.07303361
0.12215922
-0.022858337
-0.009220562
0.034580838
-0.050708327
0.11309547
-0.14410199
-0.060948424
0.017256219
-0.023434691
0.04245797
0.0012686903
-0.048981365
-0.2713918
0.043370407
-0.0644443
-0.017732756
0.082653925
0.013539889
-0.08301677
-0.07561344
-0.07545861
-0.054005366
-0.011520409
0.040891822
-0.027897213
-0.079247445
-0.11093456
0.03226005
0.030686213
0.04118323
0.018613383
-0.060663648
-0.048165295
-0.016137142
-0.025045712
-0.059002243
-0.14122203
0.041242503
-0.07104027
0.13354735
-0.011016162
-0.081615314
-0.071921185
-0.12787405
-0.021314235
0.06363192
-0.017773885
-0.011798113
-0.06554613
-0.16472751
0.10514953
0.06434705
0.05081396
0.01858646
0.08878898
0.0042539593
-0.14692111
0.002326852
-0.022063555
0.08033862
0.09544726
0.0040510874
-0.089050256
-0.015361634
0.09598459
-0.059694946
0.092546836
0.05125697
0.054548886
0.105230056
-0.14291148
0.097851515
0.019539982
0.006197724
-0.12511061
-0.119852714
0.06725544
-0.11764064
-0.101915985
0.014801983
0.04599311
-0.07848663
0.040370587
0.17726102
-0.12859602
-0.061772954
0.07459267
-0.13636594
-0.049747106
0.06649941
-0.015698226
-0.087759845
0.06477748
-0.107276395
0.055546667
-0.057426576
0.0003332418
0.013511079
0.08703334
-0.045900397
-0.039609663
-0.037722528
0.0007784044
0.016776688
0.012837271
0.013422221
-0.021752601
-0.15757948
0.1527801
0.03445825
-0.014084487
0.09228154
0.04549057
-0.003589622
0.04724118
-0.34814382
-0.08995124
0.06729192
0.028780323
-0.15715556
0.09613076
0.021416793
0.06696537
-0.0019524876
0.042091157
0.09390717
-0.030395227
0.16942565
-0.0595339
-0.047179103
0.11981664
-0.0610401
-0.26637667
-0.15576191
0.07607808
-0.027789852
0.024901845
-0.061403334
0.01778367
0.029312838
0.0063808234
0.049477387
0.06843907
0.0017641762
-0.004300059
0.028999895
-0.11364615
0.04284525
0.10106087
0.03612385
-0.05075895
0.050087694
0.118022054
0.049407404
0.008409406
0.106588855
-0.010311633
0.19202916
0.0018948267
0.029511796
0.05573159
-0.06397061
0.060432184
-0.071568236
0.075998455
-0.19336678
0.08409926
0.06625254
-0.019971367
0.026289606
-0.030727552
0.04164825
-0.19277637
-0.033572324
-0.06128413
0.08336522
0.0064631654
0.020484181
0.056386452
0.01429178
-0.002645615
-0.14276202
-0.0353964
0.013323944
0.048044126
-0.032528136
-0.1499034
0.004021619
-0.012576262
-0.09518469
-0.14493664
0.2107264
0.15032771
-0.06342836
-0.07332454
0.02754018
0.077705935
0.016198022
-0.05581239
-0.08733293
-0.0024315163
-0.048512172
0.027650725
-0.07938814
0.008164715
-0.05259188
-0.15183745
-0.0352836
-0.097184904
0.24130602
0.029721802
-0.04610232
0.11860738
-0.12884645
0.09818727
-0.09107289
-0.05350687
-0.018014917
0.06738842
0.039957456
0.01240803
-0.08189274
0.05165373
-0.022783386
0.12074612
0.045627106
0.10972405
-0.023331199
0.046910685
-0.0778632
0.04946485
-0.12998353
-0.006811202
-0.007101453
0.07463146
-0.13026935
-0.049998146
0.12528546
0.0745041
0.14202316
-0.12123028
0.0023323628
-0.0077950926
0.06820135
-0.035523277
0.079545006
0.2978854
0.17176618
0.048788335
-0.11704779
0.15289126
0.04236214
0.048321247
-0.006239947
0.0052415156
-0.05158288
-0.0055221785
-0.07154451
-0.13413471
0.13318656
0.1087158
0.08228696
-0.19540022
-0.044954546
0.035935722
-0.07325985
0.105451725
0.09487265
0.110601045
0.044877134
-0.20593846
-0.047831915
0.027889397
-0.043080512
0.15445262
-0.032558583
-0.054620158
-0.0006660853
0.048020877
0.14056021
0.32956058
-0.11171684
-0.101429544
0.060130615
0.027204666
0.03598694
0.011034687
0.08308587
-0.01811415
-0.16046831
-0.06492812
-0.11185897
-0.1372308
-0.07510549
-0.039224364
-0.014012834
-0.010566837
0.09451713
-0.08128974
0.104634434
-0.07636305
-0.055162888
0.054852575
0.00030638583
0.05926857
-0.07575141
0.011137869
0.08585524
0.06587051
-0.130151
0.084141195
0.00042302159
0.05006924
-0.10288208
-0.056488257
-0.06004115
-0.044688497
-0.054836318
0.029373588
0.011998535
0.048174296
0.14087705
-0.056328006
0.039287657
0.06307104
0.03010376
-0.14605401
0.19897798
-0.051935907
0.035324063
0.0076648593
-0.01450236
0.051694024
0.036359776
0.23968565
-0.123281226
-0.17565407
-0.16116562
-0.09186967
0.07307852
-0.047672626
0.130436
0.11737674
-0.16793595
-0.06506638
-0.29663625
-0.017543767
-0.08491202
-0.11216688
0.090615116
0.07669589
0.058541767
0.043465596
0.07137093
-0.06317005
0.023853138
0.082884565
-0.023806239
-0.051846087
-0.041474998
-0.06581551
-0.06506171
0.16880816
-0.05962338
0.069630586
-0.07448769
-0.07390267
0.071660824
0.029921798
-0.03592706
-0.056868706
-0.02721392
-0.14265978
0.0023972492
0.08390836
0.10070798
-0.026020681
0.10496425
-0.0761555
-0.076778166
-0.022970816
0.06742347
0.07434236
0.118315905
-0.041412376
-0.006150069
-0.009459338
0.10446397
0.085264385
0.056453753
-0.017960861
-0.10345213
0.011982189
0.0051143933
-0.06454404
-0.04917347
0.1291319
0.11095817
0.041898057
0.0076243333
0.05685156
-0.010792156
-0.10637002
-0.02575054
0.08740112
-0.035415825
-0.04689559
0.107144006
0.04770458
0.008042457
0.17268993
-0.10579638
-0.015754955
0.08935629
-0.057175443
0.012960041
0.15589117
0.062981926
-0.14886756
0.009584168
-0.042767137
0.015023722
-0.107896306
-0.06798649
0.018775962
0.032230146
-0.025653096
0.05846929
-0.050556485
0.090267494
0.12837486
0.014383278
0.044211928
-0.00086022256
0.21626584
-0.06139739
-0.028534023
0.012359409
0.07602426
-0.064957716
0.047552675
-0.016368357
0.29596627
0.016987894
-0.09573273
-0.054771524
0.069213316
-0.12808415
-0.028518628
-0.001231068
-0.005571095
0.01272999
0.053316787
0.00407216
-0.043982547
0.05778728
-0.0028987054
-0.0459377
0.012291291
0.061014835
-0.02750151
-0.08243133
-0.026548337
0.04347611
-0.0123526575
-0.04596832
0.06346245
0.021770662
0.09504835
-0.093866765
-0.02332614
0.14140713
-0.08321691
-0.060124606
-0.10152737
-0.08237804
-0.021715345
0.10009765
0.01262869
0.001657916
-0.022556998
0.08738603
0.19125019
-0.035704046
-0.020866707
-0.032184843
-0.11830729
-0.0033681684
0.13730335
-0.023808986
-0.11440663
-0.07542281
-0.06811519
0.052433044
0.07302985
-0.007713732
-0.15035395
0.064775735
0.1743573
-0.077482246
0.034989577
0.02815439
-0.059081044
0.055570133
-0.023522645
0.020958656
0.023626002
-0.012116808
0.1049512
0.0023480363
-0.026154993
0.015563439
-0.009612269
-0.009856086
-0.058930542
-0.09239071
0.04128853
0.06829941
-0.013641005
0.04428236
0.016503284
-0.029918699
-0.011992885
0.124126256
-0.054380395
0.047319666
-0.04588116
0.0141682215
0.05015944
0.025816878
0.00835946
-0.10869877
-0.03229375
0.077478394
0.073872425
0.03886329
-0.03948506
-0.03416376
-0.0060890964
-0.027499897
-0.024719369
-0.03862935
0.03230511
0.03716854
0.06618903
0.07940977
0.10769245
-0.03206511
0.05591516
0.06935247
0.12748276
-0.037804753
0.08653442
0.1560407
-0.00617163
0.0017746658
-0.0686683
-0.008267528
-0.07462799
-0.2624301
0.009578247
-0.21922737
-0.012209191
0.07679093
0.17484017
-0.046373673
0.07164892
0.026657825
0.0086261295
-0.016919179
0.007694059
0.0112712225
-0.029238928
0.035262085
0.017525224
-0.030424202
-0.0030577646
-0.041120674
0.071594045
0.0284779
0.013870476
-0.01626439
0.0117565235
0.007731841
0.016417623
0.018063813
-0.15267633
0.0046798163
-0.010285732
0.009445537
-0.0034604943
-0.015304281
-0.02662345
0.01078682
-0.005758473
0.01728571
0.012850098
0.023671523
0.008450399
0.03519998
0.010155183
-0.024865763
0.029763104
-0.007241489
0.02701388
-0.0014179823
0.0046315133
0.012888071
-0.0028461223
0.035200715
0.029983222
-0.034222312
-0.0028130154
0.023318198
-0.019038616
0.0017780988
-0.008438197
0.024360448
0.027302537
0.0095170755
0.03951986
-0.037996966
-0.24349982
-0.18385898
0.024598528
-0.0024809365
-0.014716395
0.0120065855
-0.006559986
-0.0020187914
-0.026142884
0.013475925
-0.014332219
0.0033734683
-0.015751323
0.002353832
0.035763115
-0.031962577
0.04973773
0.025730377
-0.021838356
0.018161323
-0.033856366
-0.03543218
0.015996652
0.02156851
-0.011823212
-0.036533978
-0.0005140881
0.018549949
0.0033100802
-0.058724873
0.027221857
0.16583924
-0.050175466
0.0013749473
0.040711626
0.009035692
-0.13191667
-0.03378192
-0.035549976
0.024614872
0.02289868
0.020080736
0.044170238
0.020848285
-0.002480972
-0.031975362
0.1745473
0.006593912
0.0012579373
0.017545732
-0.028377194
0.041030366
-0.0012139508
0.015992137
0.017013073
0.011620254
-0.11788789
0.008177274
0.004786048
-0.014851939
-0.029767675
0.006119089
-0.010813457
0.032975107
0.016116533
-0.0016915455
-0.009000357
-0.023517262
0.045593526
-0.040231217
0.00038311759
0.02912739
0.023711206
0.0060021025
-0.0025961243
0.0013910194
-0.025200829
-0.023197876
-0.004138393
0.0065979445
-0.02737242
-0.010362942
-0.030828834
0.0332185
0.003164898
0.019446483
-0.06556807
-0.031106604
-0.017017027
0.0050490713
0.057451162
0.011364701
0.031656835
-0.037656836
-0.0014270949
0.00855721
0.025330663
0.032706447
0.02081278
0.0035255412
0.027563157
-0.0073364344
-0.027432375
-0.0007416212
-0.03722991
-0.006202229
0.028774062
0.0161759
-0.037730567
-0.015454397
-0.008022041
0.008931953
-0.0050043827
-0.019922307
0.002182213
0.018661704
0.0017803204
-0.013855635
-0.024203423
-0.011840579
-0.00979365
-0.053593215
-0.0040743896
0.01043275
-0.050224856
-0.07245883
-0.017064003
0.014531466
0.0006112331
0.014827672
0.003148645
0.0014537075
-0.006823662
0.011490478
-0.008308233
0.022824677
-0.009735458
-0.0014247758
0.024097053
0.0053142216
-0.00032870943
0.008183583
0.11215484
0.013910171
0.03954754
0.004170665
0.031012584
0.006077096
-0.033914864
0.046510357
0.0048765293
-0.00033910063
-0.096162
0.0068774577
-0.02246198
0.07243793
-0.054029394
0.014481791
-0.018841265
-0.0015481877
0.023569394
0.059310574
0.010099793
-0.022431288
0.013448005
0.026325988
-0.03090881
-0.014175437
-0.022487104
-0.052382898
-0.01877303
0.13084997
0.039978962
0.00087885297
0.009616859
0.012268754
0.030690089
-0.033110414
0.010399325
0.023635954
0.0023932585
0.055061385
0.0034430954
0.026135374
-0.065623775
0.043367065
0.018770184
-0.0027786163
0.03555807
-0.025627054
0.022268936
0.013174962
-0.09204975
0.019363243
0.0056242915
0.022187596
-0.024832606
-0.06007029
-0.026080385
0.0025566914
0.02366712
-0.0100508975
-0.046642233
0.009430138
0.018943654
-0.0049604424
0.0029419675
0.010230894
0.009129208
-0.009691205
-0.033790536
0.0014297423
-0.0058822283
0.035961762
-0.04048572
-0.02385037
-0.052664746
0.017913
-0.009021978
0.0074849403
0.009959575
0.0511321
-0.0256347
-0.016489096
0.0025623036
-0.006566703
-0.021500248
-0.02850216
-0.22158775
-0.04654423
0.022044536
-0.06577741
0.004081741
0.009409544
0.0070738364
-0.02295974
0.042768437
-0.09441094
-0.008757374
-0.026637806
-0.031105772
-0.020810308
0.0017455595
0.016467556
-0.009734751
-0.008419935
0.010216246
-0.04754426
-0.02720428
0.000499098
-0.02502278
0.010244568
0.019228235
-0.019888822
-0.002824595
0.024635457
-0.00092150253
0.008083277
0.056654252
0.01369737
-0.021459034
-0.048262034
-0.022129722
-0.10989923
-0.0014332399
0.0005235143
0.007484672
-0.05032363
0.052419625
-0.0149571905
0.00569749
0.04848924
0.019636309
0.01133935
0.009800655
-0.016437309
-0.0051496746
-0.0979817
-0.0067216298
0.02372979
0.2537786
-0.017465085
0.025416724
-0.036680035
0.032417893
-0.0161978
0.031616136
-0.035863984
-0.04067369
-0.049526013
-0.0010321476
-0.018311573
-0.026094515
-0.04282032
-0.016029516
-0.035268307
0.078197494
0.023381814
0.012018746
0.104432434
-0.010365722
0.0030551008
0.003509172
0.05460069
-0.002272468
-0.115169875
-0.032244314
-0.035521176
0.0044268747
0.0033132765
-0.042779658
0.022845061
-0.017405506
-0.024769975
-0.03866046
0.044692837
0.008535105
-0.069770224
-0.01530447
0.0140105495
-0.003938083
-0.03489213
-0.022469193
-0.012138752
0.00010838746
-0.036427304
0.013144057
-0.025869876
0.05922809
-0.023240037
-0.029209021
-0.014644123
0.020552114
0.20777495
0.009590353
-0.013039897
0.062548585
-0.010363204
0.013181911
0.0117526
-0.010936326
0.05072305
0.03847982
0.059287276
0.011478698
-0.0022887923
-0.0035604597
-0.0015723476
-0.019148141
0.011982241
0.02538629
-0.01069259
-0.034583863
0.011848316
0.039985213
-0.007883434
0.026574353
0.02680469
-0.107806996
0.034166988
0.021357553
-0.060899995
0.022472536
-0.019402232
0.041178815
-0.002177595
0.0037636214
0.02542662
0.03156758
-0.035412997
-0.02093712
-0.028910093
0.006809452
0.035710335
-0.005069081
-0.014891078
0.017407669
-0.014062669
-0.063483514
0.024823986
-0.021631941
0.031274166
-0.010003603
0.0056599034
0.03348215
0.024156308
0.014061232
-0.015664585
0.004529265
-0.010245379
-0.022542313
0.026316106
-0.0134423375
-0.08377042
-0.08432915
0.086260594
-0.18377957
0.06267837
-0.2690912
-0.057909712
0.10238563
0.09764595
0.13111438
0.022667924
-0.28733382
0.01913348
0.19475138
-0.03826071
-0.05746726
-0.11775082
0.11637251
-0.06549459
0.08240044
0.047569297
0.0037669085
-0.00015431544
0.024028609
0.14995246
0.09238983
0.10119213
-0.03340591
-0.1930994
-0.023773558
0.29315925
-0.20804292
-0.2524619
-0.07063499
-0.00077245955
0.13748275
-0.16343093
0.03102877
0.052749418
0.14347576
0.24653137
0.10479008
-0.06440881
-0.03393795
0.088371895
-0.034601156
0.048135925
0.20899568
-0.028541757
-0.22996573
0.039379574
0.029525092
0.10448484
0.03730759
0.040104475
-0.06634393
-0.07657085
-0.06786654
-0.12613875
-0.015865257
0.072101116
0.03507398
0.021694895
0.13171057
-0.02421435
0.043687027
-0.018313235
0.006615483
-0.014191162
-0.07593032
-0.019661771
0.02073385
-0.020558372
0.008239112
0.008685485
0.023194166
-0.0007850872
-0.0048289676
-0.012500971
-0.056654453
0.021179548
0.011786079
-0.18735152
-0.0029210977
-0.012763147
0.019397978
0.009978572
0.034049634
0.024756324
-0.025135398
-0.0065694805
-0.021982899
-0.048027486
-0.030482512
-0.0046477965
-0.012912804
0.0036454385
-0.052460592
-0.0139491735
-0.013853225
-0.0010918966
-0.006225264
0.14359309
-0.0045316066
-0.047729664
-0.008187484
0.030012913
-0.00938402
-0.008705833
0.022764988
0.012296465
0.024781749
0.00032841394
0.024174498
0.026273001
-0.020472586
-0.01881987
-0.090741284
0.014928863
-0.05741404
0.02158293
0.018115012
0.061574366
0.0016248501
-0.011388811
0.014434742
0.023744442
0.024919283
0.0022914126
0.02260209
0.0038057133
-0.00051208783
0.019057484
0.017667912
-0.003303194
-0.02490723
-0.0011527173
0.02292789
0.033310138
-0.011098377
0.0007846982
-0.015470655
-0.02099518
0.0077702454
0.03188032
-0.028937789
-0.00809987
-0.021003004
0.023792155
0.0006243361
-0.026284313
0.02505738
0.026150454
0.022141518
-0.0044227517
-0.029874586
0.0053094877
0.009365076
0.02467263
-0.0070018703
-0.0012321107
-0.013293993
-0.02386025
0.002090131
-0.002182595
0.0012481408
-0.0063288133
-0.023637703
0.016582012
-0.038272414
-0.0028344535
-0.010507714
-0.026620246
0.0035315424
-0.022661276
-0.023224285
0.036177862
-0.028003281
0.016054412
0.00097045966
0.01525137
0.012454654
0.034806754
0.006443375
-0.015359635
-0.03209342
0.017344648
-0.044445686
0.015998015
0.013498817
0.0012160668
0.0018492461
0.009624512
-0.011677643
0.05462629
0.014305745
0.043876346
0.0369603
0.0108275665
-0.026545504
0.014691508
0.022541268
-0.03792322
0.029591206
-0.019064188
-0.021873463
-0.0132006705
0.010459968
0.053751674
-0.008798617
-0.019960066
-0.0073208106
-0.009253196
-0.08091674
0.014687232
-0.021789808
0.06754024
0.11633846
-0.021610253
0.026914515
0.037304606
-0.0015600666
0.034226064
0.020781226
0.0011045533
-0.019145751
-0.020965368
-0.11539643
-0.06931305
-0.0070605157
-0.032114018
0.009317661
-0.011963208
0.0031876292
-0.026439337
0.021544546
-0.005180361
0.012583398
-0.0027427108
-0.025832638
-0.010144058
0.05572966
-0.04763151
-0.0032464336
0.020826701
0.037599377
-0.03547949
0.024395265
0.0051707844
0.016322449
0.008002559
-0.016807873
0.0057316525
-0.028897753
-0.024065154
0.0062943846
