2304,
0.009169706
-0.124126405
-0.22797348
-0.15159778
-0.064282276
-0.090324536
0.20536052
0.07991953
-0.20144078
-0.29229414
0.03318206
-0.3854477
0.2117023
0.081041284
0.092643574
-0.4475022
-0.050004624
-0.023844007
0.05235231
0.120305605
0.30267584
-0.12246655
0.14410752
0.28238368
-0.21916758
-0.057428636
-0.015879285
-0.093102455
0.34371942
0.002751553
-0.004252987
-0.005570805
0.1630915
0.0160788
-0.09417919
0.56200594
0.21715856
0.046945915
-0.050199483
-0.38939634
0.20430988
0.21276186
-0.20421678
-0.5551738
-0.022560943
0.92811877
-0.12684691
-0.23099872
0.2710072
-0.17407101
0.039123196
0.26199836
-0.037200302
0.2486481
0.25638902
-0.2359543
0.51585853
0.1997689
-0.8079978
-0.34361672
0.23937395
0.082292244
0.122622214
-0.17088592
0.031801894
-0.018628458
0.62798095
-0.2112441
0.79849815
-0.018538523
0.1598174
-0.07295278
0.114087515
-0.9513844
0.31659523
0.22179753
0.83742493
0.48304883
-0.26223207
0.09430617
0.5736529
0.026728513
-0.12326358
-0.29354194
0.005701831
0.009226415
0.2071164
0.07981575
-0.049774405
0.46773708
0.63689554
0.06962868
0.009324807
-0.23075831
0.120384276
-0.3040644
0.046487387
-0.01998995
0.176009
0.101256646
0.5246183
0.07995325
-0.0925788
-0.04294949
-0.18908893
0.19065464
-0.0996492
-0.16746822
0.5665016
-0.29586482
-0.34398687
0.4581875
-0.87810963
-0.1020475
0.23560518
0.17048497
-0.046082698
0.041173074
-0.614576
0.26771456
-0.25170013
-0.13511954
0.026385741
-0.10996496
-0.06612702
-0.21563444
0.18635918
0.047434017
0.044745967
-0.13625503
0.19022572
0.14041789
-0.25439715
-0.5972294
-0.0690431
-0.4337408
-0.6701706
0.045054797
-0.5843081
0.24175562
-0.5116041
0.36331823
-0.018318506
-0.16901375
0.55680627
0.42531136
0.34867343
0.3622543
0.2300567
0.17031129
-0.3061555
0.1326847
-0.006193156
0.43477985
-0.057404645
0.15629867
0.19961913
0.012935503
0.23775311
-0.29028946
0.13291913
-0.5722401
-0.44322872
-0.5528195
0.01774931
-0.056657262
-0.38075474
0.37783906
0.6504954
0.3041211
0.041673508
-0.17423297
-0.27674076
-0.8123458
0.5057058
-0.09156539
0.31360897
-0.06456044
0.2036522
0.15477136
0.33707613
-0.48927036
0.12345704
-0.39426723
0.50418895
-0.98427767
1.3204072
0.3782917
0.28044447
-0.5441704
0.2631479
-0.043088123
0.19732162
-0.037320904
1.5759095
-0.45818418
-1.4667355
0.16644278
-0.14235295
0.3813852
-0.28063637
-0.08425764
-0.42265663
0.28254154
-0.4623165
0.17375608
-0.08764866
0.1644009
0.46747348
-0.38143772
0.17464744
-0.09157957
0.40544125
-1.3560357
-0.44656488
-0.17415704
-0.046698656
-0.24699596
0.39483252
-0.21240915
-0.024183415
0.36464247
0.040941436
0.08847646
-0.04757653
-0.3967568
-0.13642813
-0.10799983
0.29370368
-0.17417635
-0.103964664
0.3602692
0.24244031
-0.0152020315
-0.27830264
-0.23917294
0.3595913
-0.4018695
0.021865549
0.18336518
1.1697587
-0.046313412
0.5686931
1.4941595
-0.28669468
0.09925219
0.25436267
-0.16817534
-0.019298924
0.22695565
0.1662866
0.58967763
-0.22757941
0.43175718
-0.27928588
-0.23013401
0.19484024
-0.105304375
-0.692135
-0.21471494
-1.2986023
-0.09631332
0.76763344
0.0632279
0.36356172
0.070042774
0.12664819
0.08019256
-0.027020311
-0.22666408
-0.58188576
-0.30173352
0.23350304
-0.14777514
0.21466132
0.08386105
-0.051112168
-0.14527698
-0.13679515
-0.40850884
0.10689984
0.47733143
0.071086496
-0.17356709
0.1643417
-0.07310413
-0.6804871
-0.14458562
-0.18167633
-0.89243734
0.18998747
-0.09843005
0.094938576
0.30868074
-0.11091707
-0.15709369
-0.03628655
0.17678598
-0.057253327
0.09631797
0.07761842
0.78297526
0.6217193
0.091117136
-0.011283591
0.43021756
-0.88223517
0.086604916
-0.27960357
-0.6026893
-0.024118464
-0.66197616
0.41156176
-0.5455267
0.012349544
0.028493965
-0.17301948
-0.35542676
0.17291903
-0.19096981
0.12135608
-0.0022232968
0.11455391
-0.042152803
-0.46526688
-0.23571599
0.10936389
-0.01078816
0.051117614
0.15689757
-0.075346746
-0.4668505
-0.122111395
-0.11508921
-0.006688491
-0.035582744
0.06578886
-0.20519197
0.14613433
0.0969615
0.09047775
-0.007996255
0.21194333
0.28781614
-0.105922274
0.026570493
-0.14688314
0.58979857
0.058626786
-0.20168684
0.054157995
0.13245341
0.2467095
0.0071011917
0.09657652
0.13860139
-0.40635747
0.12059448
0.06788983
-0.029577482
0.24330145
-0.13265678
-0.053064324
0.26381513
-0.047848497
0.1504934
0.106196165
-0.08162061
-0.16881755
-0.19617915
-0.42959785
-0.08141558
0.32190713
-0.2113905
0.22150299
0.1981541
0.1714425
-0.2494333
0.042035002
-0.09553151
-0.19013558
-0.13251734
0.21849132
0.015729629
-0.24627012
-0.33616304
0.0018706132
0.108074285
0.055413023
-0.36014774
-0.055274796
0.11834476
0.10351047
-0.43050915
0.268041
0.031298775
0.1432896
-0.12450735
0.14993623
-0.4289731
0.021763414
0.069245175
0.029423611
0.17548297
0.031089537
-0.070836104
0.23568183
0.11344358
-0.2367277
-0.1006971
0.018196778
-0.30137318
0.32423314
0.20897737
0.097619005
-0.11507843
0.23529732
0.05200697
-0.19386674
-0.290012
-0.019790014
0.1354505
0.014800204
-0.32520306
0.12271578
0.14102016
0.06148875
0.06687767
-0.24307969
0.26143998
0.2459575
0.23176195
0.47014576
-0.20495726
0.023528008
0.43597683
-0.15925832
-0.18344101
0.014874965
0.24663918
-0.018243814
-0.13254315
0.29101232
0.20543152
0.092501834
-0.29416203
0.030550512
-0.15131128
0.08832947
-0.42250282
0.28176305
0.013041795
-0.34484476
0.25038055
-0.031575814
0.22536871
-0.47936195
0.21485978
-0.2392712
0.0060336953
-0.071728654
-0.122206464
-0.46798417
0.060182795
-0.169904
0.13548188
-0.34591138
0.087505005
0.39285034
-0.041627634
0.05556382
0.001694402
-0.10436809
0.09525319
-0.30567887
-0.47271702
0.14865732
0.16440646
0.08004732
0.14726785
-0.060853876
-0.09646993
-0.02444377
0.057908107
0.1261868
0.036965728
-0.18376504
-0.3675114
-0.002777228
0.41843003
0.5855209
0.35133594
-0.11693251
-0.47277832
-0.10315835
0.42493796
-0.41768336
0.14887115
-0.11601218
0.045048475
0.41214442
-0.12919666
-0.38149807
0.10575291
-0.023301525
0.19613357
0.14073524
0.35097724
-0.20851332
0.14598139
0.0028585289
-0.23148
0.31783035
0.09540384
-0.28742203
0.48692387
0.43886784
-0.35424703
0.3183552
0.23698987
0.31428874
-0.09559536
-0.21307783
-0.41350177
0.39583403
-0.26989433
0.44011432
0.5662559
-0.22392252
-0.33420077
0.4029434
0.253497
-0.4530102
-0.5933911
0.4347688
-0.22898778
0.61342424
-0.38199756
-0.2217373
-0.21062818
-0.2935242
-0.28787917
0.1301904
-0.059609663
0.2802326
0.3410294
-0.11017036
0.16817783
0.54938287
-0.47809425
-0.20782794
-0.11756919
-0.5522742
0.33182704
0.078200124
-0.2679501
-0.086170964
0.36402428
-0.3129798
-0.61893266
-0.46842209
-0.35448226
0.13499999
-0.2207841
-0.35942152
-0.17761439
-0.1671221
-0.62450457
0.2877661
0.41453156
-0.5913275
0.14423954
0.004262602
-0.38245547
0.307138
-0.1566694
-0.3920324
0.3727395
-0.15250431
-0.057752088
-0.36062205
0.31336862
0.40665382
-0.0029756767
0.6179727
-0.39258027
0.01267465
0.12616761
-0.3479951
-0.5841972
-0.44608706
-0.40838447
-0.4387972
0.08529579
0.19453081
-0.19476064
-0.39285266
-0.2978048
-0.050949145
-0.2012612
-0.42314458
0.36836722
-0.17788424
0.42553824
0.26734903
-0.25982383
-0.3154924
-0.038842242
-0.3894865
-0.3820333
-0.2504365
-0.31033707
0.07403635
0.49178195
0.7261783
-0.5719358
0.36298248
0.41504666
0.068699576
0.21892488
0.09535911
-0.05390452
0.41783696
-0.45682362
0.21668774
-0.5367559
-0.16398291
-0.48564184
-0.11059422
-0.26717517
0.26991126
-0.24174516
-0.6473423
-0.15355085
0.31938285
-0.4170249
-0.03311379
0.2826669
-0.36888298
0.4419773
0.63778985
0.3632744
-0.036942344
0.20203413
0.7279097
-0.10295786
-0.09573633
0.36820418
-0.032349344
0.49478608
0.016054
-0.08700074
0.1130408
0.08581608
0.24264084
0.36693585
-0.44867104
-1.0812714
0.40070182
-0.44463325
0.054685276
-0.07827305
-0.8288787
-0.3734619
0.22062622
0.23624739
-0.46285078
0.30199423
-0.29622698
0.8861504
1.939461
0.467679
-0.03087895
0.9503703
0.48787677
-0.20215486
0.24532644
1.2118783
0.25367585
0.8696779
-0.53628296
0.79931575
0.00081559614
-0.13452388
-0.070658416
-0.282743
-0.352557
0.1782901
-0.10249105
-0.32664222
-0.72797775
0.690655
-0.04802191
0.2054995
-0.14837274
0.0007353483
0.10998101
0.027151119
0.013270678
0.038415276
-0.6816848
-0.2839057
-1.815081
0.31315655
-0.15632151
0.11030279
-0.09893905
-0.3267669
0.049686667
-0.09456532
0.41017136
0.030723976
0.34365234
0.14968657
-0.36440054
0.11772791
0.10539756
0.086044684
0.29469928
-0.20032756
0.4219847
0.022819655
0.46981394
-0.0949686
0.39811367
0.011404896
-0.18962812
-0.019258033
-0.25975543
-0.14367482
0.24516924
0.38527837
0.043696046
-0.010364174
-0.24023761
0.12548405
0.16085413
0.08874779
0.25851932
0.44242403
0.03403001
0.24790712
0.23753312
0.025799831
-0.10696375
-0.11330505
-0.18413395
0.3408865
0.18443921
-0.23289374
-0.32066572
-0.24307199
0.027764173
-0.050691802
0.37575832
-0.19427326
-0.17368579
-0.36675832
-0.16869812
0.12547043
-0.060319245
-0.15158229
-0.10721906
0.27770254
-0.008692103
-0.41005075
0.07271369
0.3465193
0.06022193
0.02671199
-0.11922122
-0.17624381
0.035855465
-0.12939872
-0.030771246
0.12242953
-0.09835339
-0.11360206
-0.020433212
0.07380035
-0.06358355
-0.080600925
-0.06989173
0.15351263
-0.014747769
0.045025393
0.10441412
0.025026776
-0.004849613
-0.116160505
-0.025275638
-0.09416145
0.07276794
-0.092433296
0.042544633
0.10009083
-0.055179868
0.0114178695
-0.029713495
0.044743072
-0.19478355
-0.045884702
-0.06821195
-0.1359712
0.08369462
0.06176892
-0.060760953
0.0049646236
-0.006261666
-0.06775607
0.059082687
-0.0044024037
0.03810907
-0.02831397
0.07820176
0.13965222
-0.0020562771
-0.22201893
-0.1977636
0.062028326
0.023058264
0.011390314
-0.04874091
0.045706127
-0.12089673
-0.045889787
0.18824705
-0.016515896
-0.15221302
-0.1352936
-0.14814597
0.26042503
0.009637846
0.0053531956
-0.12777635
0.0624638
0.08828269
-0.12809148
0.078781955
0.029373
-0.106365904
-0.017654544
-0.01141367
-0.060469266
0.16513763
0.21191269
-0.0030602657
0.12519701
0.07469227
0.1145856
-0.12886521
-0.10177802
0.00078079116
-0.09091042
-0.004492962
-0.10307812
0.025160706
0.093063824
0.09880949
0.02289101
0.013158523
-0.012244223
0.13061531
0.06997594
-0.04193997
-0.08060409
0.051462714
-0.049578086
0.0067142867
-0.062325813
-0.23310602
-0.033261925
0.06039494
0.053298052
-0.029457033
0.11562278
0.20153497
-0.008249646
-0.11979848
0.10289145
-0.07093709
-0.03628787
0.08201169
-0.037224837
-0.15401149
-0.06305962
-0.05470503
0.023073202
-0.08335515
0.080856666
-0.08840723
0.15512756
0.03481857
0.015492931
0.06889889
0.028072838
0.00473958
0.0010254467
-0.051469553
-0.0964302
-0.04159753
-0.16917053
0.0003128541
0.04903206
-0.023872424
-0.07210949
-0.113825805
-0.0060504056
0.01782116
0.05216505
-0.009226674
0.04473006
0.11456023
0.0014959493
0.037675075
0.09044539
0.04344675
-0.0407733
0.110574804
-0.05586943
0.024058381
0.12200836
-0.06113349
0.31079125
0.09846359
-0.065964244
0.12321078
0.06649983
0.024210237
-0.1411324
-0.14576216
-0.08900586
-0.018365694
-0.09150305
-0.046899814
0.1312104
0.19126292
0.037104443
-0.007627573
0.032008044
-0.15186113
0.09134137
-0.00037833542
-0.062104885
0.10446444
-0.07713441
0.0944474
-0.004628772
-0.010634481
0.05584728
-0.046710383
-0.047984432
0.10034003
-0.019543163
0.020373302
0.08558509
-0.16110912
-0.2369139
0.006159974
0.017052604
-0.1506251
-0.17904295
-0.078794725
-0.063425355
0.10241949
0.014193901
0.037393328
-0.10990014
0.010277952
-0.005296787
-0.038944103
0.025836112
0.15174586
0.039719813
0.16954513
-0.16383962
0.077063784
-0.15448971
-0.03985352
0.077460624
0.09667998
-0.061564185
-0.03932105
0.019434419
0.06737794
0.14473018
-0.16409545
0.09668573
0.059539042
0.1272355
-0.08699428
0.0679425
0.056213345
-0.059143566
0.0011592238
0.064906485
0.040836755
-0.017127644
-0.023248672
-0.043032397
0.09077057
0.016083112
-0.05067747
-0.017895665
-0.0644509
0.0030014054
-0.14888567
-0.049071718
-0.16406119
-0.0117887575
-0.069920346
-0.15982667
0.13002358
-0.10096248
-0.04569409
0.018269874
-7.791351e-05
0.078708515
0.041789018
0.014741411
0.09661106
-0.09065174
-0.011030263
0.015328437
0.004534896
0.062859744
0.026966814
0.07425695
-0.13859756
-0.109134406
0.008756297
0.20239347
0.06531877
-0.06146059
-0.07998766
-0.07472804
0.118814394
-0.004805248
-0.05408448
0.11425206
-0.027224872
-0.017043196
0.06632834
-0.07436609
0.078448154
-0.08534151
0.03894551
-0.087802075
-0.026060758
-0.009765841
-0.012167373
-0.040733773
0.115463026
0.058779452
-0.046773154
0.18173468
-0.1441099
-0.14574742
-0.12934656
0.050855923
-0.04731177
0.027204935
0.11420542
-0.13601644
-0.01617909
0.020967843
-0.0065446463
0.123625875
-0.045764543
0.18227385
0.0072416435
-0.0039272644
-0.024975494
-0.18305072
-0.04243057
-0.08178285
0.17344323
-0.102749966
0.04760303
-0.1043621
0.04208381
0.17209335
0.12557836
-0.18309899
0.071112774
0.043754682
-0.0993189
0.03242032
0.16971706
0.20478313
-0.017881192
0.08439077
-0.15077078
0.05566592
0.10171865
0.023926837
-0.15767044
0.08171788
0.04770867
-0.122747704
0.020160314
-0.032719284
-0.07111581
0.053236425
-0.007792197
-0.08705314
-0.034837395
0.19160475
-0.04849146
-0.013967427
-0.036337204
0.16256069
0.10927998
0.006048211
-0.15820575
0.15926288
-0.050232656
0.11736797
-0.13596389
-0.13215454
0.083686545
0.008465715
0.097014606
-0.009665608
-0.18159144
-0.050040703
-0.05910753
0.06732806
0.10646445
0.05084325
-0.017238474
-0.023628168
-0.015932199
0.007763712
0.01494933
0.055804092
-0.13744329
-0.0730318
-0.0569995
-0.117089845
0.1727037
-0.06523177
-0.005734916
0.09133432
0.10852248
0.051587652
0.12129559
0.030400118
0.02476729
-0.052759692
-0.091742136
-0.07803893
-0.05447379
0.06657265
-0.13211499
0.070909254
-0.08862348
-0.03478779
-0.037649892
-0.093368396
-0.015319999
0.037644185
0.04293318
-0.054547362
-0.042714506
-0.06414661
-0.0046918434
0.1254252
-0.0088582765
0.021801371
0.021553265
-0.08981067
-0.066939816
0.033263456
0.024751572
-0.07468404
-0.14734562
-0.0012584104
0.009092334
-0.018687492
0.11536065
0.07199113
-0.08098704
-0.0053544226
-0.06287939
-0.015740827
0.029999265
0.09524753
-0.036516707
0.10083371
0.16186753
0.0576989
0.12614426
-0.03730659
-0.042436972
0.04518615
0.013254156
0.032796964
0.12433782
0.072725914
0.03384411
-0.015140686
0.006621214
0.08875765
0.0192901
-0.16856584
-0.027584756
0.069335625
-0.07524125
0.049766913
-0.010661546
0.091558136
0.008231349
-0.13499926
-0.16988441
-0.00784917
-0.0696347
0.046861116
0.0042387657
0.012030596
-0.072031796
-0.11679953
0.10730466
-0.061027255
0.005727791
0.04627476
-0.09943958
0.044614542
-0.043868262
-0.031638548
-0.056815498
0.08391422
0.05656143
-0.13098674
-0.039238546
-0.010289368
0.07167285
-0.11165162
-0.075166054
0.10247824
-0.02327235
0.047787078
0.0382397
0.114749715
0.068000756
0.049175177
-0.039545137
-0.103207506
0.063581094
-0.018308733
0.022236753
-0.02866746
0.027136752
-0.01250752
-0.090160705
-0.082755126
0.060329624
0.065799594
0.03175894
0.09292103
-0.03451343
0.08550184
-0.0034046164
0.005790048
-0.06203233
0.00080126635
0.08011964
0.029786192
-0.033839017
0.052426443
0.10916394
0.021783441
0.09268024
0.04547376
0.005716582
-0.1777375
-0.0026264195
-0.016313052
-0.03375393
-0.088455066
-0.031127948
-0.03520139
-0.010955339
0.022352342
-0.07835849
0.08235273
0.023915157
0.018345786
-0.021257734
-0.085552186
0.040156886
-0.038073953
0.013453954
0.0007500799
0.046162076
-0.11976273
0.0028418147
0.04490857
0.0054044533
0.019373693
-0.046437666
0.031826578
-0.08918372
-0.013627718
0.14196448
-0.037200525
-0.03957346
-0.069894984
0.08798005
-0.015920954
0.039386336
0.046647955
0.06779526
-0.03243521
0.09511942
0.008225789
-0.048587516
0.015953733
0.06814528
-0.042591594
-0.056698173
0.025987955
-0.030688057
-0.022455135
0.009307379
-0.029856082
0.0041566556
-0.00070511166
0.038969185
0.051438678
-0.0301239
0.0172177
0.0832057
0.031796705
0.036155008
-0.021707918
0.10419331
-0.007896492
-0.051167306
0.0054612425
0.01421241
0.009896834
0.08702421
-0.049269255
0.0032204217
-0.01850448
-0.032277755
-0.017095214
0.00083930406
-0.014160847
-0.01359868
0.04600174
-0.018227257
0.020707836
0.031864315
0.009587163
-0.06329119
-0.0895612
0.013831155
-0.0349508
0.042420126
-0.028623987
0.021247422
0.076054804
0.07516645
0.01794618
-0.016275568
-0.00042874928
0.056377202
0.07492831
0.017099077
-0.10778123
0.0368022
-0.07199225
0.07388398
0.029240409
0.03511813
0.03856705
0.18054034
0.07052485
0.018926349
-0.021626791
0.07672526
0.18108152
-0.06546265
0.03806005
0.040683273
0.06153008
0.057748552
-0.066830955
0.00021783538
0.0031465574
0.031119091
-0.010640268
0.03314624
0.07372341
-0.0054116454
-0.019588048
-0.026749164
-0.04285146
0.1191253
0.028638102
0.036465023
-0.026176173
0.0010833408
0.0028208
-0.026892979
-0.01909047
-0.04011664
0.021816317
0.07673008
0.024704244
0.15363607
0.017284874
-0.021022078
-0.017089231
0.07523453
0.05829765
-0.020439964
-0.02162732
0.07961481
0.21879841
-0.047902513
0.07968823
-0.012680241
0.018279329
-0.040870987
0.049485087
0.106916346
0.12639731
0.07736276
0.16093843
-0.04155157
-0.16756506
0.062485367
0.0677769
0.05350336
-0.021666449
0.028024644
0.024980022
-0.006139608
-0.14599718
0.08978593
-0.031869788
0.0061289305
-0.12706634
0.037586406
-0.16962464
-0.05421565
0.039884076
0.020944843
-0.045753717
0.08813856
0.045060173
0.018209662
-0.025211498
0.045798454
0.022620562
0.12725891
-0.13584599
-0.024198059
-0.050207704
-0.059885476
0.03810012
-0.09508113
-0.09222293
-0.0061231717
0.14816459
-0.06685908
-0.04688804
-0.020219477
0.11608337
-0.02143733
0.015596651
-0.07710303
-0.079894
-0.017849376
0.020495394
0.04480378
-0.06440151
0.18600276
-0.040820282
-0.0028481393
0.08588211
-0.15173538
0.018661775
-0.048168838
0.040933475
-0.0024425026
-0.05295161
-0.106468454
-0.07546314
0.07031038
-0.0714037
-0.22438611
-0.14887992
-0.074223906
0.014397604
0.06572125
0.12202548
-0.00693746
-0.055103716
0.022206785
0.020610217
-0.08921061
0.021161677
0.040972095
0.043286495
-0.04150167
-0.042879794
0.10345941
-0.044663373
-0.30541322
-0.19464812
0.05626772
0.027757864
-0.046443447
0.20003346
-0.08517257
0.03213784
0.00052451045
-0.014847808
0.084241174
0.01869941
-0.046527434
0.032121953
0.038745034
0.08498734
0.055755194
0.17161217
-0.01285974
-0.04239319
-0.10662971
0.110374235
0.019376189
-0.14915806
0.023383774
0.019925691
-0.0108592585
0.6510787
-0.007127457
0.00030829234
-0.0018755022
0.0654956
-0.024767201
0.00981816
0.024395235
0.003666319
0.027201135
-0.043177724
-0.048617113
0.29467854
0.021457983
0.0048295823
-0.0063586542
0.005354858
-0.010436966
0.006854849
-0.011754098
-0.06555953
-0.021284023
0.0434739
0.041597303
-0.02927271
-0.013443979
-0.018049832
0.007790372
-0.026500061
0.008181908
-0.034506757
-0.01383323
-0.038205598
0.0022480267
0.008866684
-0.016958892
-0.028734982
0.011996814
0.0049425145
-0.014044055
0.05115793
0.027563494
0.022501325
0.04807088
0.0059542926
-0.044693027
0.037696403
0.0038445527
-0.028899798
0.003150577
-0.1568906
0.022746066
-0.017336048
-0.043866564
-0.034867227
0.04082415
0.05136773
0.056603894
-0.024878645
0.037484664
-0.047540486
-0.06279949
0.0014897102
0.0112766195
-0.06782359
0.009011581
0.023613859
0.063445576
0.3270588
-0.037770297
0.040665865
0.0031485367
0.027362024
-0.027417907
0.018175123
-0.014798153
0.012581431
-0.38366923
0.006571929
0.13051508
-0.005610342
0.020024186
-0.06420656
-0.01261003
0.02135763
-0.017121803
0.05023882
-0.41066682
-0.062176924
-0.24280354
-0.016932927
0.02872914
-0.05312503
-0.020645274
0.023486502
-0.024219505
0.0034685875
-0.0379194
-0.044345513
-0.03255332
0.034008957
0.006447881
-0.0070032896
0.018357053
0.031792045
-0.049913254
-0.00048578644
-0.0055549657
-0.024248093
-0.07602783
0.3847929
0.01944806
0.020554904
-0.0139139425
0.010433699
-0.007062907
-0.0014220029
0.001458818
-0.002810829
-0.04780417
-0.014025443
0.023017406
0.014908174
-0.0459618
0.011177985
-0.27630466
-0.00219883
-0.0024389199
0.09462985
-0.056570742
0.09037024
-0.024863286
0.27301466
0.0044079064
0.012252841
-0.14907487
-0.009496132
0.07164157
0.14392367
-0.02038517
0.018370857
-0.019942706
-0.0020659748
-0.034353536
0.08434428
-0.00167108
-0.012157454
0.007958463
-0.0014354412
0.06916608
-0.009869491
-0.0009904901
-0.19631366
0.0010553378
-0.004193018
-0.0043626004
0.10419542
-0.0005013683
-0.00032688957
0.028397217
0.030029705
-0.006336024
0.018636925
0.056723434
0.08489645
0.013458322
-0.008163423
0.0009139204
-0.0023564298
0.07203981
0.012027506
0.0028337962
0.006307112
-0.0062511573
-0.014591869
-0.006043639
0.007185582
0.30823657
-0.00539987
-0.34759122
0.007602546
0.018828748
-0.0008592808
0.24179162
0.039726514
-0.0022330242
-0.15452568
-0.0023311693
0.009385033
0.5511714
0.041815907
-0.048243687
0.004450735
0.06970137
-0.004870364
-0.07019439
-0.035089698
-0.1596672
-0.07020563
0.028230041
-0.04411756
-0.010796644
-0.13015933
0.0046747793
-0.0006542572
-0.0015433508
0.0064765015
0.016277066
0.028258659
0.13697006
-0.015886746
-0.01880243
0.0063482695
0.027199259
0.017286094
0.028962584
0.018141523
-0.0096986005
-0.0067421147
0.0042135613
0.54496723
-0.0018506764
-0.0995203
-0.054390557
-0.02605041
0.0053776097
-0.020774517
0.0093035605
-0.049873464
-0.0035455234
-0.027918102
0.014746395
0.001689061
0.009798301
-0.0017339832
0.094205394
0.11453242
0.03488607
-0.01636845
0.0043686554
0.042763874
-0.00045917675
-0.03453635
0.01375482
0.031216834
0.0235567
0.024452448
-0.03306305
0.008848824
-0.014418043
-0.06487545
0.052937314
-0.02343148
-0.013737341
-0.004057565
0.015434316
0.00560385
-0.00901628
-0.0031347987
0.008487359
0.009589724
0.00999529
-0.00067119265
0.01622576
-0.26109946
0.035146277
0.013246113
-0.13011733
0.0018714349
0.026913522
0.0064044315
0.02293201
-0.0023873795
-0.009115091
-0.038165204
-0.00475781
0.017779194
0.0028722063
-0.061201423
0.009778656
0.008759262
0.019841311
0.010622501
0.01504162
0.015958674
0.006660295
-0.012704829
0.011556343
-0.014841177
-0.002741437
0.0027882282
0.09008534
0.013986126
0.0037086254
-0.5960848
-0.0072532464
0.003773892
-0.007340454
0.017239096
-0.042109605
-0.000567592
0.0071124565
0.00084456214
-0.0087044975
-0.007885591
-0.0076145744
0.010988696
0.005894947
-0.019465886
-0.013322863
0.011189972
-0.013732748
0.01128371
-0.0039762496
0.0020218128
0.0038657142
-0.34472924
0.015725147
0.007991708
-0.031125575
0.112290576
0.013904353
0.008263477
-0.008641287
-0.00053439266
0.005700954
-0.014536707
-0.007897571
0.011960488
0.017451499
0.025983173
0.011178828
0.0030555276
-0.009953868
0.0028137672
0.0997083
-0.018357394
-0.024682
0.0067343246
-0.023655785
0.038813934
0.011839018
0.015281337
-0.015237036
0.01169177
-0.006837259
0.0024486792
-0.017238652
0.0019520284
0.00026188255
-0.0015329845
0.010018066
-0.0028570432
-0.013110939
-0.007736536
-0.014831846
-0.006951734
-0.013727129
0.0033192064
-0.013068588
-0.020814342
0.019092621
0.015874166
0.017322648
-0.011450202
-0.0011823486
0.04412746
0.018207286
-0.007075472
-0.014714849
0.028483296
0.0030608333
0.011899182
0.0059503918
0.0017262821
0.0036992917
-0.009737557
0.01289528
0.0022300873
0.020551205
0.036420517
-0.030220844
0.007923338
-0.010292134
-0.026791489
0.00077665586
-0.0009449499
-0.0033867592
-0.020073019
-0.03587161
0.019147128
0.028915927
-0.0038607926
-0.032485627
-0.01192182
-0.004633834
-0.012149394
-0.000573156
0.010725391
0.0011177853
0.00097031204
0.00624231
-0.02510443
-0.013617077
0.007592991
-0.03082681
0.002466912
-0.13545488
0.0072686216
-0.0020209097
0.0069964603
-0.015672417
0.0005190455
-0.0032395034
-0.003386375
0.003373119
-0.03362663
0.0028522753
-0.010613228
-0.0146925505
-0.20757575
-0.0461826
0.0054801726
-0.0076953312
-0.031802155
-0.008319169
-0.008822771
0.00546638
0.007733917
0.009539759
0.0044150627
-0.0057438063
0.0020999091
0.004957475
-0.058428574
0.001247328
-0.019358583
0.01840272
-0.030072378
0.004730978
-0.04635765
-0.0021871822
-0.0048598456
0.0063446886
-0.021976477
-0.0052179773
-0.0086659985
-0.0041934345
-0.011560693
0.0129400045
-0.0014317082
-0.004033973
0.031354822
-0.00079037575
0.10910594
-0.029351218
-0.027176695
0.006588711
0.01038568
-0.010325725
0.06736571
0.01888446
-0.02134352
-0.0047633834
-0.0032490194
0.00681774
-0.010664933
0.040844034
0.032742966
-0.02071487
-0.002807366
-0.0016962417
0.0020391466
0.030936891
-0.001145215
-0.0010838156
0.006570147
0.0074491356
0.0046308935
0.0065783104
-0.014049803
-0.08490599
-0.007258265
0.030539023
-0.001243334
-0.00984996
0.013332456
0.009161663
0.030301955
-0.009334998
-0.0064200847
0.012770189
0.00016666553
-0.05553372
-0.017970169
-0.13837081
0.020312564
-0.01626358
-0.00045117148
0.031348553
-0.005876175
0.0023999943
-0.031616654
0.0076840394
0.012329867
0.006999925
0.008091683
-0.008251639
0.0105202645
-0.0077934996
0.008037537
0.004206253
0.012358632
0.020994578
0.033062555
0.0054504764
-0.017066056
0.010301452
-0.009681485
0.017071672
-0.02458353
0.0126925735
-0.012298755
0.0016740822
0.004432559
-0.0016228576
-0.01385264
0.009533377
0.010446473
-0.00426454
0.015059751
0.0037758194
0.014796672
-0.00032130937
0.008357525
0.22355314
0.0047469665
0.0015016777
-0.012366411
0.010670559
-0.0002368266
-0.0024083266
-0.006833393
0.005763767
-0.017705169
-0.0082305735
0.011683046
0.002203659
-0.0012908813
0.002352414
-0.0031402793
-7.734789e-05
0.0010948238
-0.013953534
-0.013307852
0.0017593867
-0.01949153
-0.01968812
0.003859387
0.026974063
0.0022631958
-0.0070072794
-0.0015671796
0.017515982
-0.00018366096
0.0062103015
-0.0071394537
0.007068967
0.008450698
-0.0024656253
0.0063454686
-0.0055641155
0.008425332
-0.019622672
0.0051762825
-0.03352673
-0.014454869
0.016509501
-0.00041400737
-0.033473704
0.013024779
-0.005919791
0.0015198481
-0.018049577
0.057185493
0.0015069802
-0.038905226
-0.02079754
-0.004746976
0.012750471
-0.00059125904
-0.0048274533
-0.0051333373
0.011115213
-0.020121826
-0.004438677
0.013586495
0.0139648495
0.005775727
0.013928094
-0.01560109
-0.022398466
0.032170117
-0.00845099
0.04927808
-0.0040357164
0.005318237
-0.044993266
0.008517556
-0.015113504
0.0126882605
0.21706308
-0.010688935
-0.009851969
-0.015347082
0.01658011
0.058474302
0.017725242
0.0057332492
0.06213842
0.009942521
-0.012006521
0.0074977847
-0.047797903
-0.006319051
0.02492089
0.01771608
0.0003956362
-0.0049568904
-0.050245628
0.0132460585
0.0061630527
0.0057072877
0.0030032687
0.0015823538
-0.14964052
0.009885913
-0.052522417
-0.03096888
-0.032265954
0.038942948
0.03128077
0.015467058
-0.03614004
-0.07086208
0.058303382
0.010488655
0.006059854
0.3039004
-0.010132784
-0.03284643
-0.034373075
0.044700753
-0.14271897
-0.036066957
0.046306863
-0.01930765
0.0067531317
0.023895446
0.043642167
0.030365197
-0.0008535651
-0.017870555
-0.023696352
-0.31109044
-0.043520883
0.009336947
-0.0064052483
-0.046789248
0.0042961175
0.034083914
0.084107995
-0.0124664195
0.029646674
0.05268667
0.019930542
0.053807586
-0.25529012
-0.013196551
0.010026753
-0.091656394
0.013100187
-0.028223088
0.0396193
-0.017322699
-0.03089608
0.0125080785
0.043289967
0.004885309
0.0033776828
0.0073420582
0.022519663
-0.0204041
-0.01855032
-0.05632305
-0.11932546
0.021390408
0.011255366
-0.02586524
-0.15090244
0.029156344
0.022425087
0.059081554
0.090148635
0.0026473012
-0.008272748
-0.06290985
0.009359853
-0.09025163
0.033143625
0.026293745
-0.018914027
0.124239184
0.05477202
-0.033976056
-0.00359645
0.01272069
-0.03869579
-0.021686586
-0.008670132
0.12568188
0.021336935
-0.046428766
0.014400098
0.082071684
-0.01697407
-0.10080407
-0.02324438
-0.0097384555
-0.10351679
-0.102484606
0.033961862
0.033071183
0.011648818
0.12882368
-0.05748785
0.03853281
-0.021675406
0.04545711
0.047145315
0.02347976
0.0805234
-0.12961599
-0.06738185
-0.0021348228
-0.06675685
0.011740564
0.09730795
0.035846595
0.013287788
0.020785548
0.03851926
-0.06937204
-0.063218854
0.00747585
-0.05532704
-0.008976986
-0.08081452
-0.026130997
-0.15766451
-0.050951846
0.007832774
0.040365096
0.049362496
-0.003832422
