2304,
0.48033914
-0.5254326
-0.42926455
-0.2059525
-0.1277338
-0.09542736
-0.35286078
-0.07646318
-0.045903143
-0.037528504
-0.0137644885
-0.18478283
-0.11984436
0.043962847
0.042386953
-0.31302384
0.016616516
0.3490917
-0.39034963
-0.029888619
0.32861704
0.115892865
0.039020803
0.13164791
0.047539942
-0.12424779
-0.0056135883
-0.14189012
0.072825365
0.13007073
0.46423867
0.1281388
0.5761709
-0.07862017
-0.5689844
0.025124371
-0.17922913
-0.20681751
0.007442736
0.029732855
0.01715805
-0.21490426
-0.06254574
-0.30948293
0.12339303
0.21799693
-0.20176204
0.25511795
0.30167988
-0.28991392
-0.072179
0.15270555
-0.43990037
-0.022503711
-0.0077784266
-0.5091275
0.033491448
-0.11896029
-0.17936693
-0.33980888
0.35736585
-0.01480864
0.508298
-0.37197885
-0.13983327
0.5135863
0.3308959
0.15325186
-0.14919738
-0.3319601
-0.18601052
-0.08612468
-0.10644153
0.07903747
0.03698512
-0.62769675
0.55905825
-0.024101282
0.023281451
-0.2054333
0.07595699
-0.62596714
0.23449151
0.3809531
-0.2316923
0.30494437
-0.5413529
0.57114995
0.20921427
-0.164289
0.64578223
-0.4519817
-0.3413117
0.60828376
0.37996295
0.5725744
0.20521922
-0.17260793
-0.31178063
0.4920972
-0.39705685
-0.4138516
-0.017034907
-0.08722883
-0.27808228
0.45287457
-0.3108361
-0.2713855
0.20704979
0.5084586
-0.059040807
-0.18065636
-0.35574344
-0.22510836
-0.058524042
-0.16331233
-0.7309706
0.22229414
-0.5681555
0.598842
0.17029323
-0.22602892
0.06313771
0.3057933
-0.24424689
0.28380373
-0.6878052
0.10612741
-0.08802898
0.15083505
0.027635707
-0.717692
-0.23158708
0.88806397
0.19228216
0.025255479
-0.121676944
0.008373141
-0.22068922
0.28187096
0.27179062
0.059855033
-0.25360882
-0.040518258
-0.13737944
-0.22255686
0.71838576
0.1563724
-0.31277946
-0.0280583
0.13254775
0.034142
0.02675198
0.061431423
0.4681212
0.0103559885
-0.07257322
0.014844846
-0.051681187
0.15440884
-0.052975006
0.35818315
-0.20491973
-0.38217816
0.11988323
0.25386775
-0.44801608
-0.1738295
0.26651806
0.1561558
0.22596654
0.051873136
0.14429839
0.07614634
0.0004370948
0.060145017
-0.020163784
-0.21497224
0.0062185233
-0.17246364
0.092442125
0.41088086
-0.17659022
-0.1653495
0.19142607
0.15481757
-0.38666055
0.21574579
-0.5859087
0.86475736
-0.41111544
-0.2619159
0.07606119
0.46999115
0.57940656
-0.58562964
0.78276837
0.5712685
0.30229852
0.5211435
-0.4110283
-0.41958568
0.088694036
-0.24451575
-0.2842799
0.5714887
0.08236528
-0.87332886
0.35082844
0.3611994
0.1384751
-0.51687014
0.33450982
-0.32931247
0.42907536
-0.3490794
0.46057504
-0.57268
0.22023486
0.20117939
0.2112227
0.7667476
0.5030564
-0.3757972
-0.46497658
0.06778168
0.51094127
0.5616653
-0.46173927
-0.12612227
0.30556217
-0.13880983
-0.36857334
-0.12581801
0.40163887
-0.40041336
-0.37102464
0.35821983
0.47141212
-0.22664984
-0.08527971
-0.5913796
0.42688015
-0.73299736
0.41457593
0.8704506
-0.021853542
-0.60966444
-0.9692229
-0.35682118
-0.26823086
0.7573503
0.43039364
0.30336362
0.1283173
0.4205407
0.24785465
-0.1867584
-0.07003303
-0.2469447
0.147934
-0.031934973
0.28040704
0.15225348
0.51933575
0.31918737
0.25960174
0.072201766
-0.2108481
0.06682448
-0.07694571
-0.29267642
0.38642317
-0.1759175
-0.0646856
0.0013050104
0.21800134
-0.4441694
0.072554424
0.08970701
-0.19960968
-0.27005816
0.22447354
0.07195214
0.33780095
0.03108427
-0.5374192
0.5233802
0.05107339
-0.23976737
-0.10547839
-0.26422432
0.35951006
0.046437535
-0.06307833
-0.2514466
-0.24546613
-0.19121163
-0.1891754
-0.1551251
-0.2150109
-1.0108492
0.6475942
0.07558485
-0.27373442
0.32819894
-0.39734143
-0.2483913
0.38319975
0.11866973
0.47945052
0.51649916
0.3516057
0.3084711
-0.22487462
0.008402693
0.37939847
-0.25983593
-0.14136428
-0.43797624
-0.37580225
-0.36739433
0.18203151
-0.39756933
0.50669354
0.17913565
0.14368345
0.13951693
0.18595332
0.01056357
0.50753236
-0.28746128
-0.62950784
0.3233966
0.2852683
-0.33050972
-0.32314554
-0.17267032
0.25108132
-0.41324404
-0.31516334
0.49193528
-0.28949612
0.22952728
0.4775837
-0.62161255
-0.4008376
0.17935884
0.4602784
-0.5576083
0.45171964
-0.17846213
-0.65330756
0.31335345
0.28416365
0.3909495
-0.54153675
-0.3726541
-0.38286293
0.18058096
-0.4919887
-0.34491363
0.18437919
0.5850715
-0.2981599
0.41760352
-0.54493237
-0.09103927
-0.05036108
-0.017122427
-0.305155
0.19027238
0.22699064
-0.40412727
0.45390177
0.021276161
-0.6149995
-0.22132513
-0.079023466
0.31206384
-0.36948633
-0.44751108
0.43374068
-0.355881
0.11294384
0.2942945
-0.12129061
-0.4072624
0.61205214
-0.051876932
0.15218718
-0.15226974
0.019753868
0.055456556
-0.58312273
-0.6994599
-0.07361692
-0.15285839
0.2328478
0.24216914
0.022739187
0.13376808
-0.00514259
-0.20443712
-0.08667856
-0.13360871
-0.3550433
-0.05969517
0.08021043
-0.27049792
0.08150975
0.016371729
0.127901
0.06024854
-0.22663546
0.019955626
-0.58409834
-0.041983005
-0.40586075
-0.27357173
0.09159226
-0.41586173
0.063785054
-0.0770397
-0.37460586
-0.5019127
-0.5447735
-0.55283374
-0.047831975
0.18347399
0.028034963
0.28561085
0.6552666
0.30234605
-0.11998254
0.71490866
-0.0064966967
0.10605031
0.033150427
0.017346019
0.05265167
-0.2820127
-0.21087988
0.16993754
0.2549171
-0.08104528
-0.06726308
0.192058
-0.03705215
-0.14549874
0.39939573
0.007435504
0.15398298
-0.34439436
-0.32061648
-0.4324946
-0.23741655
-0.15197879
1.1749249
0.54592746
0.57808465
0.6978916
0.32428825
0.50548387
0.24305512
-0.16575727
-0.33574438
0.34647438
-0.8872049
-0.49292064
0.034502976
-0.7878626
-0.17658319
-0.53449035
-0.32129094
-0.27833426
0.04700054
-0.19856203
-0.17581579
0.11531224
-0.042795435
0.16038969
0.079991944
-0.19266436
0.44587106
0.19194546
0.53466463
0.011686206
0.053047184
-0.300551
-0.45208737
-0.44215205
0.19119047
-0.027630253
1.1421078
-0.4276915
0.38371652
0.73132765
-0.09982276
-0.11944071
0.46979758
-0.8414707
0.51112866
0.41706356
-0.028937977
-0.25926387
-0.23110735
-0.22067729
-0.19673805
-0.98342717
-0.17156349
0.33312613
0.06472348
0.91155106
0.007020167
0.22360168
-0.03218538
0.29266578
-0.28345004
-0.36000746
0.3559579
0.2557873
-0.16031711
0.007275568
-0.02569186
0.13009991
0.10154889
0.06887662
-0.026390119
0.014526706
0.20344983
0.6816155
0.0017099044
0.36465776
0.24009922
0.02373858
-0.044478048
0.21253906
0.033662975
-0.44114447
-0.036727335
0.22023436
-0.49153075
0.4337333
0.37899652
-0.15638442
0.22618696
-0.29947218
0.33441067
-0.052018646
-0.011684197
-0.0073779607
-0.25564423
0.57980335
0.008704076
0.02565836
-0.71799654
-0.10552443
-0.4505013
0.1557071
0.08226726
0.08112533
-0.1116346
-0.11316443
-0.10332632
-0.23050086
-0.30884627
-0.6039943
0.022910912
-0.038445514
-0.047104146
0.49467918
-0.13787359
-0.3431433
-0.3252209
-0.16676164
0.1100545
0.06329877
-0.04259693
-0.074602306
0.01798557
-0.017773861
-0.28738108
0.024688758
0.050422195
-0.8461864
0.3108299
0.32013485
-1.0202692
0.7764629
0.93976635
-1.2021116
0.07487739
-0.09977252
-0.7112667
0.044338647
-0.70945436
-0.018986728
0.015528702
0.7014585
-0.14438087
0.55464584
0.06476334
0.07683773
-0.069392055
-0.036402885
-0.15263246
-0.14138383
0.04870002
-0.07731775
-0.007892941
0.14009103
-0.027805984
0.10034351
0.046882566
-0.3752491
-0.023498654
0.030700216
-0.009744881
-0.014459146
-0.89532185
0.028193396
-1.0117111
-0.7092385
0.00016949871
-0.032936245
-0.05090835
-0.024584964
0.36472154
0.4756798
-1.253802
0.0083338
0.030913625
-0.010036089
0.24052057
-0.013898123
-0.06389626
-0.76461154
-0.096680894
-0.07870783
-0.09649827
0.15405245
0.14263572
0.2653269
0.045209378
-0.06708325
0.063727066
0.14742278
-0.07984778
-0.55552095
-0.0010777094
0.08665389
-0.3076683
-0.035340127
0.57954764
-0.101242736
-0.15417495
-0.4669801
-0.073876254
0.30893686
-0.038221426
0.094444
0.6275152
0.09313314
-0.15689977
0.030821554
0.111238204
-0.0755291
-0.013585643
0.11715344
-0.04866209
0.39251906
-0.17008409
0.20309727
-0.009649237
-0.011988435
-0.018603606
0.16444154
-0.29892436
-0.18192667
0.26591697
-0.40409368
0.21287197
0.4447228
-0.0027851218
-0.14501151
-0.22041664
-0.16608639
0.13437988
-0.05015873
-0.24090551
-0.049712714
0.45847577
-0.27246323
-0.2416206
-0.26104835
0.017523814
0.1740492
0.32180604
-0.19042087
0.11384297
0.20405759
-0.13202944
-0.1894321
-0.0760274
-0.32096496
0.2912755
0.793687
0.08711746
0.24832727
-0.36271787
-0.12665841
0.358404
0.31970003
-0.27804828
-0.046169616
0.1023083
0.02706726
0.40886799
0.08414589
-0.3859516
0.14068705
-0.06605034
-0.020798108
-0.038086735
0.6500633
-0.6981763
0.3214387
-0.095315
-0.62109935
0.25399464
-0.16755402
-0.0075628664
0.24247736
-0.13640422
0.07442846
0.1935301
0.81435674
0.31867185
-0.099197015
-0.036757533
0.0007411101
0.11579274
0.123303674
-0.14138083
0.7366218
-0.51073605
0.26982585
0.29564992
0.42450544
-0.076296516
0.47042847
-0.049620256
-0.14249803
-0.021483898
0.09478145
0.01712455
-0.013212743
0.05070976
-0.5952263
-0.041019052
0.0347818
-0.032111026
0.08340212
0.018872479
0.27612787
-0.4230182
-0.23774174
-0.14610797
-0.063201986
-0.047257613
-0.092681594
-0.083484344
-0.1357056
-0.10058197
-0.029561425
-0.15705119
-0.24261826
-0.081475645
-0.048325393
-0.16462255
-0.0266215
0.08502179
-0.19151475
0.20219946
-0.022727123
-0.083964035
-0.094136275
0.025285706
0.048059568
0.2209484
-0.061350375
0.023721958
0.08840664
-0.036372058
0.086800836
-0.08759018
0.008976171
-0.08836848
-0.084046125
0.16854416
0.14365181
0.035402738
-0.09368053
0.034466177
0.01283306
0.036465198
0.008882945
0.065743424
-0.031235684
0.0243282
-0.04417031
0.14711076
-0.008454859
0.019138962
0.06408202
0.024520934
0.03768349
0.03408901
-0.019812735
0.0012082257
0.0681158
0.15906876
0.096396506
0.017645337
-0.009847239
0.13708384
-0.118671365
-0.06291946
-0.13594627
-0.024013452
-0.05258985
-0.21407056
0.14069428
0.21187417
0.42147642
-0.6457914
-0.2565858
-0.4047694
0.16054049
-0.13904575
0.61006033
0.21664432
0.3492529
0.5696791
-0.043012146
-0.43942752
-0.018074462
-0.25402167
-0.58240324
0.13829806
0.9294043
0.48209667
0.32201263
-0.3335272
0.5640309
-0.1367605
-0.38154802
0.9557435
-0.61401564
-0.09344738
-0.1505804
0.37821347
0.7625664
-0.019781334
-0.019395528
0.31593582
0.40536672
-0.31291407
-0.45284352
0.12844972
-0.270717
-0.37637693
0.33525342
-0.3857066
-0.5146854
-0.14113583
0.37181368
0.89175504
0.22814251
-0.89289397
-0.11399879
0.060319863
-0.7064289
-0.7665229
0.4077145
-1.3370752
1.1514759
0.106722005
0.34687257
0.026044399
0.1259397
-0.42465478
0.39579263
0.53100157
0.37268966
0.08140352
0.15063597
0.046010908
-0.19762214
-0.07278337
-0.17233992
0.015703864
0.1539325
0.019220605
0.12679392
-0.023782825
0.005144392
0.017401047
0.09211832
-0.10225959
0.06940549
0.017612027
0.012196925
0.053231884
0.040389176
0.041055024
0.08502204
-0.04837428
0.034198347
-0.19783819
-0.102985844
0.09902767
0.13574496
-0.041357756
-0.0018017263
-0.11571053
0.0439751
0.028873555
-0.106505185
-0.035614338
0.06884714
-0.018377235
-0.045121208
0.1480068
0.0988376
0.12599324
0.06335058
-0.06579671
0.04052896
-0.0904369
0.14712776
0.05632754
0.08181278
-0.0023126747
0.16014925
-0.072817035
0.07921728
-0.06633993
0.07861182
0.12560079
0.10875382
0.0870902
-0.021759445
0.05354582
-0.043722637
-0.121719114
-0.10913538
-0.17821547
0.0420853
-0.18381143
-0.24874522
0.01921594
0.41448864
-0.06559292
-0.03553947
0.019044312
-0.33281296
0.11185556
0.1730497
0.040495194
-0.1260837
0.30315503
-0.39585495
-0.11644648
0.1110785
-0.13842599
-0.075790115
0.011160266
0.12453564
0.10242217
-0.05678045
-0.14924571
-0.11103774
-0.09019552
0.49654183
0.0062125516
-0.052128207
0.0468745
-0.084117286
-0.25140178
0.09419281
0.40149745
-0.09094242
-0.07301462
-0.024515055
0.19119905
0.23074009
-2.3176004e-05
0.10800196
0.17304988
-0.076002695
0.07653163
0.07084452
0.1073192
0.06523668
-0.06313516
0.069966815
-0.063010514
0.17055601
-0.26326004
0.22985089
-0.23051873
-0.35283825
-0.09823926
0.2043824
0.4048405
0.12018948
0.05351635
-0.15579626
-0.0701059
-0.11108771
-0.06866381
-0.26032692
-0.07518726
0.16075344
0.032261007
-0.07472195
0.011478603
-0.056877542
-0.0023850072
0.07389036
-0.061833467
-0.09295857
-0.011237741
0.037400573
0.06575347
-0.19802041
-0.08690351
0.11303432
-0.0011594825
0.028345807
-0.109362416
0.023486659
-0.11335278
0.026688179
-0.012992995
0.011949343
0.09679772
-0.013967073
0.048084937
5.6098503e-05
-0.069127105
0.17218491
-0.048034865
-0.21260244
-0.10720809
0.032991126
-0.08143809
0.12280733
-0.054750822
0.044742554
0.08461891
0.014232282
-0.02035642
0.16938595
0.248845
-0.08872147
0.104011245
-0.0019896277
-0.06255582
-0.049044356
-0.036727805
-0.12862219
0.1147107
0.1003007
-0.10219314
0.009049308
-0.12031091
-0.033620387
-0.05841658
-0.058333326
-0.079576
-0.057462055
-0.13531426
0.049677715
0.09254463
0.114601016
0.17170148
0.21620846
-0.23855652
0.5306342
-0.061886393
-0.08021897
0.14366774
0.12675874
-0.11855667
-0.11131497
-0.1701432
0.20042165
0.3188577
-0.122262076
-0.04773186
0.073660605
0.10227317
0.3722566
-0.32653454
0.3557672
0.282964
-0.2964025
0.20971574
0.25865632
-0.69726527
0.026315827
-0.18255682
0.07164857
-0.5389463
0.3488776
-0.085525066
-0.19581108
0.20597231
-0.14185447
0.1893286
0.046969492
0.31435612
0.34117436
0.03072112
-0.38054746
0.3193575
0.17296764
-0.22087115
-0.6763155
0.0761542
-0.30747002
0.54919565
0.25547588
0.00040817895
0.039202716
0.18327805
0.07992291
-0.20420258
-0.070449576
0.11713903
0.37763986
0.1714834
0.19308962
-0.06551266
-0.1224131
0.2186424
0.17469555
-0.11551334
0.2953441
0.010976424
-0.0032148089
0.0766393
-0.05419257
0.025151465
0.10160867
0.05258698
-0.0104028
0.013562789
-0.061777014
0.021136845
0.04007842
0.05018552
-0.02545397
0.030994356
0.116618186
0.07291178
0.15301128
0.05296523
-0.017853472
-0.004537604
-0.03564843
0.12526076
0.002542012
-0.09426167
-0.21523565
0.11037771
0.020058898
0.019175487
-0.11560683
-0.03421074
0.12422925
-0.11713232
0.072149225
-0.009100581
-0.04628218
0.082158275
-0.027292822
-0.025002157
0.1254897
-0.10746405
0.012202508
0.048870265
0.037504178
-0.08733366
-0.10946536
0.04286596
-0.16623327
-0.03692574
-0.000805394
0.010945827
0.10727813
-0.09525084
-0.019436264
-0.0674429
0.06306777
-0.065204345
0.08098511
0.07200922
0.08745593
0.01945922
0.030470062
-0.0110084815
0.009869793
0.07284226
0.041216318
-0.039498467
0.09453626
-0.008237997
-0.12498597
-0.023909422
0.2113152
-0.057284784
0.022693103
0.084535785
-0.25535056
0.06097137
-0.02530579
0.023667535
-0.12621011
-0.002501834
-0.10035995
-0.08701772
-0.012110498
-0.1119436
-0.16685383
0.21075083
-0.27309886
0.13757582
-0.04246125
0.041640796
0.039438877
-0.0007672307
-0.13294262
0.0040510423
0.1308766
-0.11551209
0.08460223
0.10154615
0.12212463
0.18399362
-0.02814868
-0.013810341
0.036842223
-0.066234745
0.065897174
-0.05356987
0.0551317
-0.023523523
-0.20957044
-0.03429318
-0.13449162
0.06872493
0.18847944
0.07156837
0.14589737
0.14417228
-0.05191178
0.07407846
0.16523322
0.043127485
0.08536729
-0.2163925
0.06264863
-0.026426075
0.01497846
-0.15323873
0.09443004
0.022816954
0.00475511
0.07917953
-0.12700804
0.031720113
0.14462246
0.041414984
0.089801885
-0.0566787
0.11645456
-0.02925011
0.08075249
0.04146144
-0.11681386
0.091967694
-0.090573646
-0.038901005
-0.01289679
-0.018688455
-0.1144426
-0.093830116
0.023227014
-0.014256283
0.06663101
0.093474664
0.008849574
-0.1003542
0.13336034
0.05716489
0.07993879
-0.020064494
-0.027267028
-0.08161714
-0.06637516
0.03766236
0.042125892
-0.063067354
-0.091592066
0.10121072
0.0027800754
-0.088781744
0.10466027
-0.07988551
-0.048122164
-0.06809165
0.017937077
-0.03875009
0.059500303
-0.045423783
-0.0636881
-0.072882
0.1820658
0.032666698
0.066052385
0.013732389
-0.00033508535
0.014183729
0.009095329
0.10982903
-0.06319971
-0.067751005
0.15016404
0.00041709575
0.017325656
-0.10560115
-0.0058428333
-0.026279895
0.10136549
-0.0114869345
-0.004449171
-0.03279924
0.16684607
-0.086094156
-0.098767534
0.028619228
0.022019435
-0.012499266
0.1290566
-0.10967973
-0.023810308
0.061091512
-0.06393701
0.1595923
0.047135614
-0.15104939
-0.0068190824
0.030001022
-0.0844991
0.0012554855
-0.10120107
-0.06452643
-0.086827
0.033931084
0.059564073
0.11444574
0.096261956
-0.017779106
-0.13722323
-0.056528684
0.063278235
-0.09302238
0.028544594
0.06231742
0.10402695
0.050463773
0.006057246
-0.007891632
-0.056601446
-0.05807849
-0.06460065
0.09197219
-0.008584806
-0.14643615
-0.094963826
-0.07482504
0.04677499
0.08638783
0.044902325
0.11458782
0.12193654
-0.089915775
-0.08846618
0.0708323
-0.03870676
0.024960548
-0.1314521
-0.05783086
0.043287702
0.14889187
-0.1148658
-0.052181628
-0.056014657
-0.25862634
0.16024378
-0.1148417
0.0066825
-0.094997354
0.038105622
-0.069235586
-0.08602957
-0.19312194
-0.113262765
0.026131606
-0.088111505
-0.04666054
0.015959162
0.053491853
0.11764835
0.06040378
0.07236729
0.0051088063
-0.11124655
-0.016957913
-0.19169432
0.055338368
-0.051546145
-0.06706752
-0.081442274
0.07487819
-0.061021864
0.07475791
-0.18980998
-0.1368339
-0.03892755
0.11633869
-0.122700326
0.008218266
-0.10373225
-0.08552459
-0.07353997
0.039164577
0.026803268
0.070303395
0.031409387
-0.0057589873
-0.0864558
0.107675135
-0.07312725
-0.038734388
-0.0072274613
0.09535627
0.031791367
-0.09042683
-0.18703979
0.1379479
0.0367036
0.05077612
-0.09498659
0.010227086
-0.10609066
-0.09224599
-0.077276655
-0.086303234
-0.066195674
-0.023688892
-0.096985854
-0.0027765941
-0.03140739
0.041209716
0.04387807
0.06376307
0.04530044
0.004421107
0.01619286
0.0002956914
0.17648937
0.021476315
0.026498746
0.061489556
-0.013662242
-0.008913801
-0.051712804
-0.010361154
0.06420099
-0.10386446
0.07404209
0.07149709
-0.0010501338
-0.16217308
0.076681815
-0.004727824
-0.043165904
0.010876247
-0.032656904
0.03317125
0.058436204
-0.009345713
-0.0007909325
-0.028763726
-0.015068678
0.011480715
0.11272659
-0.08487853
0.018590873
0.0439333
0.0667771
0.006395152
-0.12154138
0.010938614
0.01587794
-0.0030598787
0.0010433042
0.024199033
-0.04250187
-0.047475755
-0.057369042
0.009353143
-0.001752533
0.056295194
-0.0032696854
0.021738453
-0.14149658
0.04580962
-0.04070304
0.08223472
-0.05299661
-0.0034378956
0.006358778
-0.0029906938
0.009416978
-0.016416214
-0.03116022
-0.03259316
-0.013008746
0.0141590815
0.01563858
-0.015867118
0.0012518136
-0.00022387959
0.004032569
0.36283964
0.0020718318
0.019725105
0.0021790103
0.009739902
0.0017378413
0.010672812
0.012437801
-0.001008145
0.0054728114
-0.0103401905
0.014554113
-0.0021612423
-0.00025967413
-0.014462821
-0.017029485
-0.02399072
-0.0060753264
-0.0014871998
0.005704337
-0.111333646
-0.01868513
-0.00045426993
-0.011927076
-0.009372209
0.020024475
0.013106474
0.004762679
0.00282206
-0.0019243814
-0.0065265256
0.01613055
-0.010516763
0.021433927
-0.01288283
0.010477456
-0.011688037
0.0052316682
0.032005794
0.009033872
0.006774464
0.027733013
-0.0021885147
-0.012626015
0.0037306447
-0.012747696
0.005183377
0.015340368
-0.0060249544
0.002758587
0.06926449
0.015717302
-0.00059147587
0.023465613
-0.041569088
0.029383324
-0.20841204
-0.0014714525
0.015251496
-0.013973962
0.021905247
0.025102979
0.033180952
-0.02683865
-0.009661444
-0.0017488428
-0.15346384
-0.03206543
-0.02970744
0.047424283
-0.025703123
0.23300146
0.018899381
-0.022414163
-0.003243379
-0.009675393
0.033934377
0.008697489
-0.2533643
-0.024873061
-0.06830572
-0.0074080643
-0.013231855
0.013571034
0.0053111864
0.045998033
-0.0012190843
-0.028143942
-0.018989118
0.08226581
-0.069842435
-0.010732177
-0.19569291
-0.00932864
0.040529404
0.09856185
0.00012505142
0.02573806
-0.05778536
-0.027669288
-0.022949992
-0.018031558
-0.042688806
-0.0008338694
0.117275745
0.009101689
0.028749673
0.020184174
-0.004083112
0.08653504
-0.0053336113
-0.066598415
0.15376768
-0.010119825
0.028379323
-0.0093111405
-0.027987756
0.023957208
-0.009966727
0.0219301
0.003970268
-0.03340933
0.23760155
-0.0010781295
0.02196997
-0.012588104
-0.007849484
0.0225167
-0.0063248007
-0.00330444
-0.019937016
0.017094726
0.0051796935
-0.0001371428
-0.010595511
-0.0232684
-0.008497131
-0.0060336012
-0.0021741395
0.007147197
-0.019798396
0.09367271
0.019966323
0.019841565
-0.0008364824
0.033088546
-0.02050222
0.017159283
0.010447782
0.0070687234
-0.017051991
-0.008628599
-0.012250861
-0.012447297
-0.00078990514
0.0009495537
0.005629679
-0.025834633
-0.001582027
-0.016471807
0.028427668
0.008435792
-0.012343537
-0.012712822
-0.0006258179
-0.002349502
-0.003195486
-0.0034401037
-0.001950293
0.0012521597
0.010289361
0.03472704
-0.0060200416
-0.003773629
0.006726983
0.013191359
0.00876284
0.0060989335
0.009973693
-0.0088738315
0.009638802
-0.029869236
-0.017001564
0.00032169177
0.0045038834
0.002570488
0.006326154
-0.023299985
0.01984634
-0.008579305
-0.018407237
0.012755837
-0.015046281
-0.025513383
0.0076388824
0.0039369115
0.0024633307
0.001125934
0.0047781724
-0.007637976
-0.01066382
0.039595462
0.019002683
0.017147368
0.026457654
-0.0031502314
0.01098811
-0.015942603
0.014651524
0.16193567
0.043572795
-0.002422537
-0.13129197
0.0017536647
-0.02786375
-0.075565465
0.24147359
0.004870188
-0.08827487
0.17400427
-0.005738633
-0.006214338
0.0029177514
-0.034461536
-0.073449284
0.009541379
-0.026322465
0.016827477
0.028410893
0.004575517
0.0005077414
-0.047683835
-0.049297664
0.0052499454
-0.0041220197
0.016498841
-0.009549849
-0.027076814
0.007823817
0.015102114
0.027212732
0.01423731
-0.0012620775
0.015530104
0.007977175
-0.037666913
0.018614555
-0.03243028
-0.016444895
-0.0054115155
0.01775846
-0.03136622
0.0035832808
0.0092433
0.029888185
-0.010506426
0.010808626
-0.077047534
-0.036911428
-0.007355356
-0.078963295
0.022532787
0.0036605347
-0.045440253
0.030922828
0.029718837
0.0077917455
0.03775785
-0.03734588
-0.014464789
0.059921358
0.007900211
-0.0038539802
0.0034026317
0.031803142
-0.07706613
-0.032788813
0.04236567
-0.0061254236
-0.015837988
0.021209465
0.01273283
0.041805238
0.007844925
0.035696086
0.017291358
0.013346027
-0.03333542
0.008803612
-0.0061922204
0.021911172
0.03204595
-0.06420459
-0.005401381
0.009270538
0.0017043293
0.025270991
-0.025953813
-0.025866346
-0.025363188
0.013307412
0.008320074
0.018245228
-0.0013596273
-0.025545724
-0.012374929
-0.021255232
-0.0016497314
-0.03200199
-0.16750267
0.06336334
0.015037268
0.014424718
0.0053364886
-0.007218948
-0.0035482848
0.049650315
0.034928374
-0.016321765
-0.015662149
-0.056176662
-0.108205356
-0.011189505
-0.029041955
0.021991625
-0.0076250285
-0.0041074394
0.014041091
0.030970747
-0.015792407
-0.0035528021
0.048954144
0.0075891763
-0.013921351
0.013645457
-0.0041395356
-0.028288718
0.010481308
-0.019067822
-0.031290635
-0.031881604
0.05237351
-0.01493709
-0.05152669
0.0077109905
0.028455267
-0.019308252
0.055829287
0.056080297
0.00015311551
0.012992712
-0.012103236
-0.12169136
0.016397571
0.009809521
-0.03940571
-0.14314955
0.100765504
0.0037457966
0.025085425
-0.04688965
-0.04451316
0.011974438
0.008211444
-0.025560843
-0.002551071
0.060672663
-0.006406701
0.0037665833
-0.008009658
-0.013333395
-0.008866896
-0.0023566873
-0.005676492
-0.008407257
-0.026279612
0.0045807664
-0.0052090646
0.014802742
0.018456183
-0.013509658
-0.0007612813
0.01498983
0.04436026
-0.0075784363
-0.050042715
-0.0032225596
-0.011309099
0.0042299833
0.003972041
0.009068719
-0.006871322
0.0021500075
-0.010412223
-0.009975251
-0.005342893
0.03292577
-0.0066612097
0.014637225
-0.019096052
0.01801037
0.030737184
-0.013747549
-0.0086338585
-0.004878149
-0.016826596
0.017014641
0.0019703037
0.0068815704
0.008958583
-0.004974485
-0.01772421
-0.014537565
0.0057958676
0.0012370722
0.010698654
0.002474076
0.00045777
0.018400531
-0.004175241
0.009398149
0.0009954432
0.014488717
0.0056011155
0.020330355
0.005330795
-0.023919089
-0.0029859825
0.03511211
-0.00019107485
-0.010233508
0.00570775
-0.0018515909
0.009770352
-0.036222853
-0.0540633
-0.006374368
0.020595236
-0.016610378
-0.018525735
-0.014026242
-0.00027195548
0.010000308
-0.04304222
-0.0021679134
0.0052330457
0.004722554
0.03432901
0.006421964
0.0026690906
0.008702194
0.0006123497
0.02547988
-0.013789798
0.025751423
-0.0073494297
-0.03471847
-0.009741384
0.07061554
0.05969146
0.010008898
0.20833398
0.037663307
0.017251007
0.0026444278
0.01817375
-0.036654547
0.024816895
0.02651583
-0.080121495
-0.015939169
-0.020770814
-0.058922715
0.062052432
0.01935675
-0.0018387442
-0.0082507385
-0.033576936
-0.030959921
0.049919702
-0.0055278367
0.020002998
-0.012186382
0.0324286
0.018575221
0.037516456
0.011801924
0.004491585
0.047733516
0.0055330447
0.038028352
0.02423229
-0.017839152
0.030557245
-0.033480488
-0.0195309
-0.015383638
0.04798388
0.1725879
-0.023796082
-0.0073218965
-0.018148685
-0.0021212492
-0.033889156
-0.00038971458
-0.013345911
0.013154772
0.023094997
0.01010991
-0.0036314104
-0.020745387
0.004894468
0.0060800393
-0.03653857
-0.013260278
-0.020046806
0.0137666715
0.017896796
-0.0015012932
-0.018894289
-0.003362259
-0.030465156
-0.00267156
-0.023768086
-0.10178762
0.006278686
0.0021708359
-0.0027487834
0.009831597
-0.015381879
0.005575478
-0.014405043
0.0043982533
0.009533675
0.016936263
0.0025905955
0.0047240024
0.02229849
0.008694734
-0.023000678
-0.019964581
-0.049235757
-0.017703159
0.0018069994
0.01636829
-0.02817712
0.00050559663
-0.022833774
-0.020337118
0.023183547
-0.013724069
0.019155795
-0.0021661927
-0.019828035
0.0013717008
0.026202025
-0.0028837794
0.014492905
-0.03617741
0.010335844
0.00035658746
0.0004930717
-0.014644917
0.060912088
0.010973216
-0.0013763324
0.14632234
-0.016710065
-0.04206632
-0.0153854
0.01337901
0.1336025
-0.006502126
0.016732015
0.12147915
-0.04759223
0.01077139
-0.046811685
0.0054774345
-0.036118962
0.010187369
-0.014670153
-0.0043946784
-0.050834347
-0.029291552
-0.010402612
0.005948604
-0.20463954
0.07261297
0.016690789
-0.01448284
-0.006600017
0.031693853
-0.099616244
0.08889889
0.0942972
0.01558675
-0.014559668
-0.0033543252
0.09263812
0.06129134
0.025605155
-0.012695606
-0.018893188
-0.00030980082
0.013373453
0.22000903
-0.0067838836
-0.010704394
-0.009190708
-0.16296406
0.06461365
-0.026684878
0.03709928
0.0391845
0.10638796
0.0008241406
-0.022501225
-0.006763185
-0.018646015
-0.04010489
0.045649722
0.05077496
-0.0020346825
0.003887869
-0.011516679
-0.0059369663
-0.001802374
0.010167004
-0.032352127
-0.013368133
-0.0023043982
-0.01145644
0.060397264
0.013093224
0.31528476
-0.063658394
-0.0043475907
0.027809525
-0.011774937
0.058821205
0.00031156186
0.021633202
0.026802178
0.0009992763
-0.08045169
-0.039720573
0.011448049
0.012853826
-0.20067467
0.004509637
-0.0017003233
-0.013785011
-0.010355477
0.014092397
0.0030751454
0.0068633356
0.011065623
0.030596534
-0.029744655
-0.092549875
-0.012939557
0.007429766
0.01349428
-0.038975194
0.010934519
0.029863164
-0.020963145
0.006346512
0.023376925
-0.0076818415
0.013367927
0.00894406
0.043002777
0.031724785
0.035513625
-0.019376088
-0.029234434
0.005752311
0.0446954
0.012734282
0.0478108
0.013996121
-0.0002851697
0.0043066666
-0.010483796
-0.014673485
-0.021096736
0.0006773126
0.022856954
0.0062752804
0.009023936
-0.032757703
-0.25487983
-0.025559824
-0.11005619
-0.019912338
-0.028993212
-0.01184346
0.1319067
-0.037047744
0.034007367
0.00050849566
0.014859524
0.11236404
-0.011658347
-0.001973282
-0.07514363
0.000479268
0.0038570717
-0.022403423
0.007570645
0.014907944
-0.021437516
0.011856453
0.013410961
-0.022411501
0.0010614287
0.03180553
0.049316518
0.018312318
-0.012061177
-0.019475875
0.009685758
0.049438722
-0.030437473
-0.03365342
0.045336287
0.054737493
0.015496188
0.014725374
-0.13216397
-0.04323256
-0.026797613
-0.010855286
0.018416695
0.014401975
0.011688216
-0.054079674
-0.009214356
0.0034299954
0.04662524
-0.114373274
0.03945378
0.025423165
-0.015429099
-0.09701245
-0.02134943
-0.05739618
0.026296021
0.0121081425
0.0125730075
-0.04987717
0.0032476448
