2304,
0.057074428
0.035462648
-0.099121325
0.13527709
-0.028422339
-0.025333665
0.009800233
0.003807163
0.2587927
-0.2757237
-0.20594575
-0.10678357
0.0766326
0.100829005
0.09312676
0.024569605
-0.023615787
0.027035534
-0.17550106
-0.01942157
0.17456819
-0.27237165
-0.06578843
0.7469214
-0.16401294
-0.040414296
0.08138409
0.22788934
0.089812756
-0.12558602
-0.10621572
-0.16889676
0.3766502
0.12396036
-0.11711006
0.10036955
0.36573428
0.030289948
0.050580774
0.012993028
0.1384068
-0.12291362
0.42085472
-0.0064771795
-0.0933946
-0.26561868
-0.14917082
-0.050086904
-0.10742329
-0.29186177
-0.14619948
0.0014122124
-0.2363259
0.25467184
0.049421
0.1772948
0.13760816
-0.15750355
-0.136505
-0.061483845
0.047040828
0.2200407
0.056220636
0.1585304
-0.052636724
0.14194505
0.048548583
-0.21930553
-0.010866976
-0.027046852
0.21637492
0.14523618
0.093187466
0.1755536
0.27972704
0.024600163
0.22460298
0.16508499
-0.007224867
0.0971977
-0.17470439
0.09195745
0.15614119
0.32872435
-0.5277122
0.056570616
0.0122822635
-0.111580804
0.0020687093
-0.06859319
0.0543724
0.10110779
-0.20737043
0.011545687
-0.42895946
0.07371651
-0.076243006
-0.10125756
-0.12785932
-0.11375495
-0.0051606856
0.061398067
0.19391139
0.025910484
0.09455054
-0.02427363
-0.24386418
0.22690812
0.102238305
0.11643263
-0.08444809
-0.32173675
0.30013505
0.071703754
-0.09947998
-0.22650072
0.48369554
0.80386454
-0.080233864
0.07519522
-0.0014445966
0.40229464
0.16163321
-0.7144473
-0.24942549
-0.029386839
-0.19359341
-0.023614846
-0.19458267
0.04434573
0.08540132
0.0005392445
0.046194647
0.05873887
0.09583684
-0.047041476
-0.013434611
0.12861747
-0.13863778
-0.5260064
-0.07795865
0.06624633
-0.18906017
0.015870027
0.025899382
0.018146409
0.08762641
0.047506243
-0.13262331
-0.024412518
-0.06147945
-0.0662389
-0.078818776
-0.09135671
-0.022078695
0.009938435
0.13729836
-0.09705723
0.03724173
0.07976823
-0.0036994899
0.06454411
0.1625223
-0.5663341
0.0706029
0.18253614
-0.050029203
0.03574811
-0.028263468
0.2211835
-0.06771854
0.048378382
-0.09415013
0.09249348
-0.15537332
0.12005521
0.13244106
-0.10050433
-0.12397208
-0.21505737
-0.04033145
0.21948093
0.11585546
0.014619251
0.22080514
0.03746473
0.053100407
0.0035542648
-0.18931548
-0.09362856
0.15423322
0.0014336932
-0.0007171617
-0.12575403
0.119770624
0.0053910045
-0.120870166
-0.07783661
-0.16742353
-0.12112228
0.53714186
-0.21372673
0.13819663
0.09561511
0.45491317
-0.01198896
0.044179864
-0.14895225
-0.19131693
0.015917748
0.24728386
-0.012594322
-0.047310974
0.15049411
-0.022955077
0.08494438
0.25916418
-0.15119597
0.019091217
0.009547625
0.11137965
-0.13251427
0.11036654
-0.14689791
-0.081932254
0.17284699
0.16587035
-0.12540077
0.029276952
0.1379495
-0.13115801
-0.001587624
0.31076103
0.21178319
0.2517369
-0.108279966
-0.047226522
0.074768595
-0.105122484
-0.045343272
-0.37389496
0.036630202
0.11814127
-0.13579984
0.030902939
-0.052938297
-0.43874097
-0.15169738
0.027483663
-0.14786676
0.46263373
0.012536212
-0.03778882
-0.05079865
-0.038133834
0.10866042
0.07810162
-0.18570173
-0.042874902
0.24918818
0.55768234
-0.112916015
0.23260038
0.20587857
0.11569672
0.30604872
0.7055708
0.19254619
-0.025529845
-0.10501225
-0.16024034
-0.2652645
-0.0511405
0.14268345
-0.009419828
0.40079093
0.075269766
0.031589143
0.2608799
-0.018130064
-0.09462849
-0.08906714
-0.39743286
0.10138599
0.69044703
-0.053575497
-0.19309863
0.104300395
0.023206191
0.44273263
-0.20318672
-0.104035735
-0.13866176
0.029659325
-0.032834515
0.041619774
-0.01152351
-0.06661938
-0.054350197
0.05127567
-0.035212584
0.13291074
0.22013763
-0.55311227
-0.1053722
0.14619581
0.056365304
0.039655905
-0.2389202
0.08560263
-0.104077354
0.0013277937
-0.18454035
0.092078984
-0.18097664
0.048142716
0.0029896148
0.11406199
-0.14427043
-0.0664435
0.014895201
-0.1672013
-0.110553205
0.0050605554
0.18262395
-0.12893026
-0.08438858
0.12598181
0.11775911
0.3558771
0.09475556
-0.08865047
0.2764842
0.06991373
-0.006259712
0.067105494
0.14272444
0.36327177
0.0053712884
0.26915097
-0.13292266
0.09773569
0.21094538
0.04902241
-0.65247655
0.05239062
0.11344082
-0.10692375
-0.023290591
-0.07532246
-0.17185059
0.11696028
0.08505949
0.15433766
0.10515049
-0.043034606
-0.271805
0.15769538
0.20265354
-0.15431567
0.049608
0.00793208
0.009390293
-0.11588765
0.0043968805
-0.06686702
0.52129626
-0.03098829
-0.08823518
0.08351757
-0.14894004
-0.16971414
0.022868251
-0.14802103
-0.23517989
-0.28940052
0.166852
-0.041697584
0.16098298
0.17997412
0.11163545
-0.022289077
-0.066003375
0.4844755
-0.07014843
0.1643527
0.06974332
0.028874112
0.0468434
0.39946046
0.66648036
-0.061398312
0.20311889
-0.09590382
-0.036849853
0.34239966
0.026601845
0.115850285
0.07460677
-0.102580965
0.36976117
0.0007203936
0.31415394
0.24332333
0.040496722
-0.015876712
0.32559252
-0.25035554
0.10233452
0.026216356
-0.063873306
-0.16078459
-0.9545805
0.19848962
0.028208628
-0.28848532
0.14068234
-0.22680879
-0.07693598
0.12753965
-0.65862083
-0.05050923
0.09972346
0.20383793
0.28792316
-0.24737935
0.3108098
0.019829603
0.14843188
0.20928976
0.15452665
0.08774475
-0.56095177
-0.03714311
-0.04918645
0.31797102
0.09050987
-0.27632323
-0.12354281
0.5893318
-0.18257836
-0.21668649
0.089886434
0.118
-0.6062289
-0.2928966
-0.3069973
0.38412887
0.048330814
-0.078803815
0.025990099
0.026446262
-0.014975701
-0.073132046
-0.080456056
0.042376164
-0.10572288
0.1179559
-0.028370645
-0.050707363
-0.12904927
-0.11529379
0.1853117
-0.033794545
-0.085811436
0.019221079
0.019441547
-0.03573734
-0.16714855
-0.37100777
-0.7858533
-0.0063878605
-0.04676265
-0.09985091
-0.050698142
-1.0424496
0.12313721
0.034613874
-0.1544073
0.13353214
0.15257676
-0.05246781
0.6238519
-0.024937132
-0.04274224
0.020701064
-0.039589327
0.031488508
0.16187684
0.034280293
-0.13561898
0.08405216
-0.028741108
0.1730234
-0.3707934
0.008132181
-0.018047959
0.18367708
0.11837902
-0.12266506
-0.034130454
0.4062718
-0.14308159
-0.32506806
0.058516957
0.050606936
-0.027041707
0.033994965
0.082531504
0.013753535
0.2315021
0.01908406
0.06575668
0.1453619
-0.049662445
-0.43190545
-0.10705177
0.06861318
-0.13726777
0.06924557
0.2973894
0.22016376
0.12796815
-0.13019164
-0.04357742
-0.017935686
-0.034890346
-0.04288809
0.43293422
-0.13170384
-0.10961171
-0.054248136
-0.073161356
0.09346904
-0.08750219
-0.27806783
0.14107485
0.14656703
0.050861396
0.21897462
0.06643812
0.22621717
0.5746033
-0.24912612
-0.15914477
-0.070183896
-0.14763163
0.07299073
-0.07941537
-0.023018096
-0.284047
0.2239108
0.079230756
0.027028479
-0.23288105
0.018568173
-0.24934071
0.20196606
-0.03693305
0.18618709
-0.0958464
0.049750827
0.005933216
0.058197983
-0.24284509
0.038626768
-0.112719186
0.12285384
0.17214394
0.1358158
0.10773789
-0.05550629
0.12223582
-0.15026674
0.2314822
-0.14182621
0.29769424
-0.1480259
0.13640068
-0.34612212
-0.84603333
0.25875324
0.15911375
-0.45313957
0.1778449
0.26576272
0.35878062
0.027762158
0.061658952
0.0973638
-0.18164745
-0.3124638
-0.08346968
0.07931209
-0.19352512
0.30716735
0.029615683
0.26655337
-0.3363477
-0.102406725
-0.62561977
-0.3258698
0.1852245
0.41067022
-0.08158504
0.3857284
-0.39140004
-0.22412524
0.020741628
0.15299891
-0.47833085
0.5727919
-0.13536692
0.070099235
-0.031952627
0.021288252
-0.6535
0.6542278
0.27859986
-0.3517931
-0.16619828
0.29719836
0.23656687
0.21408737
0.122957334
0.23077697
-0.23068008
-0.016008232
-0.15411451
-0.081096426
0.3185457
-0.12311649
-0.17508213
-0.5288784
-0.5758318
-0.15480907
-0.37575817
-0.29719368
-0.067941375
0.27357826
-0.31142575
0.43646875
0.09000827
-0.20668684
0.16564856
-0.050887663
0.13776805
0.13897651
-0.10420284
-0.013467525
-0.07368651
-0.012491547
-0.38213757
-0.101447694
-0.34203547
0.5172135
0.3090191
0.026898697
0.14164644
-0.035779297
-0.18689686
0.026732208
0.33351177
-0.22418356
0.34873924
-0.0996629
-0.22359684
0.66217005
0.4943297
0.0034153047
-0.45032313
-0.00993488
-0.027307242
-0.07013747
-0.048116837
0.4066375
-0.028932823
0.05376068
0.015314444
0.035357684
-0.044744343
0.14540792
0.12457448
-0.13797785
0.13940547
-0.018423645
0.017155599
0.032940965
-0.1148118
-0.27031225
0.11909634
-0.03203982
-0.3143033
-0.029037619
0.159649
-0.10941755
0.08463809
0.031556886
-0.17373171
-0.18982369
-0.36791977
-0.0049307235
0.41306013
0.07144597
-0.7011332
-0.22701015
-0.21436337
-0.1877552
0.1799458
-0.0960983
0.14566466
0.23199071
0.16248053
0.12402148
-0.31905332
-0.20290661
-0.0034448144
-0.036970027
0.3307583
-0.026619865
-0.10010841
0.27430502
0.08423958
0.28036612
0.0673858
-0.5057751
-0.12151135
0.57576114
0.62568974
0.0061143273
0.17853642
0.21927017
0.06679008
-0.043276653
-0.26397958
-0.019645393
-0.07625563
-0.09729141
-0.09334465
0.011609068
-0.08374345
-0.06409507
-0.1763637
0.22073993
-0.056376733
0.37313905
0.7939318
-0.14373323
0.043174177
-0.28678548
0.023979833
-0.026634226
0.14406213
0.31414005
-0.2861803
-0.18982816
0.11444368
-0.19468506
-0.15816797
0.275212
0.3296704
0.15948701
0.10450149
0.0018255095
-0.10598806
-0.060641877
0.16228995
0.08785987
-0.12550524
0.22063312
0.02155466
-0.06883164
-0.15823682
-0.032664753
0.08761485
-0.06262275
0.0811035
-0.064437725
-0.019888574
-0.14905107
0.0266667
0.110453315
0.12034416
-0.03482687
-0.06882551
-0.06385402
0.10434503
-0.069253616
0.004499129
0.029036764
0.12643346
0.06261695
0.0075062374
-0.03166307
0.005090614
0.12981074
0.042653006
-0.08955527
-0.05183161
-0.06341343
0.02652036
-0.0019174102
0.0691813
-0.08278383
0.028731957
-0.048909247
-0.041976694
-0.059566315
0.0582877
0.13663228
-0.06106344
0.05689333
0.05640139
0.05263125
-0.02547165
0.06858216
0.025790347
0.051624674
0.07319015
0.111297235
0.005322005
-0.07416636
-0.07053175
0.017512225
-0.09870586
0.045575984
0.07294949
-0.0077075167
-0.07982398
-0.075648494
0.005544155
-0.033246264
0.0029752303
-0.038990434
-0.08305734
0.02231815
0.07246793
0.06540189
-0.017104922
-0.00592067
-0.004416729
0.03917921
-0.05206195
-0.037599035
0.12539533
0.055853676
-0.011741978
0.18541193
-0.13439691
0.041202724
-0.09681937
0.031918988
-0.08337962
-0.013161018
0.021603651
0.00997884
-0.05101243
0.005461743
0.02367795
0.0757665
0.044689156
-0.05529333
-0.11779848
0.030040521
0.043763004
-0.061053444
-0.06702004
0.022422748
-0.1734565
-0.22356865
-0.07697257
0.05704215
0.009266555
-0.068904474
-0.18452406
0.2154943
0.083202764
0.028722188
-0.09567249
0.0006401417
0.12987937
-0.0636476
0.05512903
-0.06062313
0.14943105
0.12824605
-0.06281763
-0.12563105
-0.14043675
0.13631415
0.114476584
-0.27113438
-0.15511602
-0.09098612
-0.037913248
0.08049575
-0.1276629
0.03735638
0.05091917
0.038147267
-0.008292892
0.043166813
-0.02364438
0.016026406
-0.13288155
-0.013213176
0.07969215
0.11615373
-0.079206236
-0.0099703055
-0.17308421
0.17290507
0.081371106
0.026661847
0.03521888
0.05990664
-0.011440386
-0.066254735
-0.060785647
-0.050900992
0.091917515
0.10672893
-0.05447489
0.15571631
0.063954875
-0.14847562
0.029257933
-0.025145723
0.068021916
0.015820745
-0.04295144
0.015490828
0.05228879
0.11360666
0.033706788
0.024110535
-0.048169553
0.0724054
-0.14942421
-0.08213276
-0.0631558
-0.12394107
0.053977277
-0.009513968
-0.0060565523
-0.017771255
0.035585415
-0.009460414
0.009333358
0.007156028
0.032839797
-0.17426625
0.098087355
0.029211372
-0.06309186
-0.13292667
-0.022325665
-0.11389278
-0.14331919
0.008322797
0.040144138
-0.09022132
0.04724918
-0.04817549
0.04710759
-0.044054743
0.00316283
-0.03288526
-0.04471582
0.02757761
0.03849629
0.12912093
0.052544024
-0.14315262
0.02065787
-0.2046505
-0.07987288
0.087908305
0.11400973
0.21145663
-0.005674419
-0.117163174
0.059095785
0.15169494
0.14168736
0.04764574
-0.122231364
-0.05095348
-0.031228384
0.2221537
0.013958612
-0.11302147
0.06475142
0.04835942
-0.18196578
0.030995507
-0.08926436
-0.054815993
0.058964062
-0.17594825
-0.041053664
-0.013483623
0.09602852
-0.012257928
-0.017262608
0.13113359
-0.20858848
-0.11253383
-0.02210827
0.13500059
-0.032454204
-0.0989137
0.12204697
-0.13683964
-0.1308119
-0.0261211
0.044254646
-0.0017182586
0.10344763
-0.00079852913
-0.08769846
-0.06842263
-0.039233327
-0.17277047
-0.024039317
-0.07187104
-0.22325054
0.0977873
0.06466397
-0.048069466
0.06329105
0.014863662
-0.08136295
-0.109351866
-0.09342266
-0.06088571
-0.0068186205
0.077024855
0.04172141
-0.031640723
0.0945115
-0.09015024
-0.10669082
0.007695971
0.06339496
-0.06339344
0.0044281464
-0.096820295
0.037025403
-0.061323717
0.06172549
0.003700202
-0.13693586
0.10513478
0.022661975
0.011666731
0.14636521
-0.027095083
0.1024532
0.06847887
-0.03460369
0.032243773
0.06914346
-0.053265754
-0.014216271
0.06087719
-0.0017516582
-0.10659846
-0.061344407
0.053605214
0.1284867
0.04081205
-0.01118608
0.0026419158
-0.11860935
-0.152288
0.0719906
0.041132003
0.15213867
0.0091367075
-0.0019093878
0.0017534163
-0.13007703
-0.013185455
-0.06790241
-0.011714882
-0.09787909
0.054468725
0.018189063
-0.046256308
0.024062933
-0.050213423
0.039230324
0.04242125
-0.120523795
-0.18888223
0.02147924
-0.012025005
-0.14301673
-0.047707774
0.11293052
0.01586903
0.06615776
-0.04310407
-0.04456468
-0.21919876
0.051966242
0.05657315
-0.035314113
-0.0031644094
0.053795572
-0.022535572
0.066763066
0.08687473
-0.007048506
-0.0014605436
-0.0431226
-0.08281203
-0.12554808
-0.08920783
-0.051476046
0.14215103
-0.23290628
0.019182723
0.10220856
0.011446466
0.005824813
0.025937436
0.07516659
-0.08398655
0.045124587
0.020160625
-0.11893316
0.06198204
0.11031001
0.07096752
-0.024044443
-0.015601614
0.024954014
0.055062495
0.016862374
0.084816895
0.09294722
0.1276244
-0.012678084
-0.054142013
-0.13377741
-0.028091542
0.026180858
-0.061834645
-0.010695742
-0.07067561
0.1936044
0.100558326
-0.049736604
-0.081213295
0.11459065
0.20481846
0.03536505
0.016053531
0.123552635
-0.1368696
-0.08124233
0.028887378
-0.067815654
-0.026523562
-0.0007611949
0.030275462
0.10546427
0.17042701
0.14205141
0.122311234
-0.05430942
-0.053686846
0.13978681
0.047344092
0.031359702
0.10045121
0.06095642
0.0343335
-0.252846
-0.033952486
-0.00525121
-0.17372578
0.072874025
-0.18076879
-0.087371506
-0.0492712
-0.08325948
-0.108083986
0.07429478
-0.090218164
0.019820945
0.016257424
-0.13308787
-0.1174122
0.013590349
0.077977486
0.14527434
-0.04960731
-0.13428032
-0.07918386
0.12575488
0.023627538
0.0010584943
-0.101259775
0.18344915
0.025047965
-0.032732114
-0.06401931
-0.08001524
0.13879797
0.016086595
-0.15805286
0.024021227
0.06234456
-0.020934185
0.12464636
0.019301249
0.036777087
-0.0014208877
-0.042827014
-0.025090262
0.027796077
0.02073568
-0.09419744
0.16585313
-0.058156613
-0.24248298
-0.0813271
-0.028829107
0.15642893
-0.17057575
-0.065081626
-0.025594994
-0.09558387
0.0078719435
-0.007129618
0.12429873
-0.1890991
-0.16235316
0.09445242
-0.057285022
0.031642895
-0.092281386
0.084543824
0.050641786
-0.15223101
0.05417652
0.1385107
0.16170283
0.12363464
0.20031385
-0.05076443
0.05729163
-0.08900226
-0.12725627
0.062403243
0.04085048
-0.10285537
0.13335298
-0.064265646
0.07298153
0.09482641
-0.11318401
-0.1136121
0.0450839
-0.012446976
0.016232025
-0.08132176
-0.11711416
-0.03330828
-0.11723991
-0.11597844
-0.045045007
-0.154025
-0.11718866
-0.039989416
-0.07149248
0.081298895
-0.0013395326
-0.056423344
0.015409975
0.055902578
0.0063787485
-0.09901344
0.16343182
-0.10422588
0.1243756
-0.034517024
0.0449357
-0.015305445
0.061851785
0.009951583
-0.1985055
-0.06655227
0.1329393
0.09193132
0.04734162
0.16189025
-0.08478862
-0.08713831
0.059672233
-0.07430534
0.06045653
-0.07208569
-0.11599671
-0.12168292
-0.08496821
-0.13559797
-0.07752546
-0.082456104
-0.121685416
0.06058306
0.047561746
-0.038283274
0.09325093
-0.12389986
-0.039252505
-0.12170481
-0.13206308
0.037523527
0.0023023142
-0.03765556
0.03863758
0.02090058
0.106276415
-0.14851314
0.10181803
-0.095310055
-0.006173053
0.011626004
0.03063217
-0.14263076
0.033195224
0.14067866
0.042143922
0.00193856
-0.036704656
0.036480572
0.069002405
-0.032480605
0.003906817
0.030214502
-0.007834181
-0.0698811
-0.095342584
-0.0014899531
-0.15230198
0.050016332
-0.0016995404
-0.113950804
0.113818906
0.04530487
-0.119055286
0.02071269
0.095927425
-0.24181904
-0.00650045
-0.16657186
0.048292447
0.1731664
0.105183326
0.28396308
-0.0798598
0.009588497
-0.047800202
0.032589234
-0.07526762
-0.016920686
-0.28142434
0.064787485
0.025260683
0.09498879
-0.021494653
0.082289495
0.024537368
-0.14448783
-0.13611057
0.063386515
-0.038872126
-0.07648412
0.05345046
0.005030457
0.0072500273
0.16073878
-0.0031011542
0.06588963
0.133279
-0.04010881
0.0947965
-0.10069882
-0.039202396
-0.09314379
-0.18463291
-0.023487827
0.0036220523
-0.026018877
-0.025387088
0.027430642
-0.18801048
-0.17660616
-0.22315949
-0.032905657
0.04590849
-0.055343546
-0.097375214
-0.06636227
-0.19123389
-0.07702081
-0.006868757
-0.06798931
0.13583419
0.0139551
0.033908885
0.027016237
-0.12143374
-0.14172466
0.15163885
0.11729987
0.095259696
0.16706225
-0.13185827
0.03958576
0.21601103
0.17999004
-0.13261469
-0.020685807
-0.09765951
0.08968356
-0.03325891
-0.2804541
0.14551324
-0.019656237
-0.2214984
0.03409281
0.3491754
-0.06112408
-0.09337483
0.13392948
-0.098697245
0.036593337
-0.12226164
-0.07753096
0.054277897
0.23064035
-0.10628797
-0.030051084
-0.17091158
-0.13515353
0.078677915
0.13276713
0.02182657
-0.02667532
-0.2936079
0.15772586
-0.2908719
-0.0099771265
0.007835898
-0.21538621
-0.12829055
0.02755144
0.23227485
-0.076689586
-0.08926595
-0.007151389
-0.019020507
0.009974252
0.107316814
-0.021911629
0.09136594
-0.20897537
-0.0052873287
-0.013013666
-0.15768437
-0.07669435
0.085320935
0.036027625
0.010524553
0.031959422
-0.13895832
0.014273888
0.08844986
-0.062009554
-0.0025235703
-0.023010025
0.14816448
0.10705112
-0.15835972
0.100778006
-0.11024772
0.053671964
-0.2433397
-0.08118104
-0.037248287
0.060648803
0.030770006
0.033728145
-0.06664393
-0.10185206
-0.16922297
-0.13001832
0.055910867
-0.03991758
-0.12127172
-0.051087514
0.015044081
0.12179938
0.20774342
0.07525797
0.04148462
-0.030182883
0.0057523204
-0.11705361
0.15486161
0.028690523
-0.045235
-0.15695451
-0.023762004
-0.16251634
-0.0535394
0.07144413
-0.033149578
-0.042608857
0.106665686
0.039223667
-0.08591691
0.1046338
0.2719509
0.20617935
0.11595872
-0.06285898
-0.029281046
0.084235996
0.022526337
0.050596572
-0.009483106
-0.011644612
-0.0045610573
-0.045064595
-0.024438394
0.0052984376
-0.0367507
-0.005855504
0.023449868
-0.005938439
2.3019446e-05
-0.004929764
-0.0028008488
0.046781015
-0.011273087
0.0013996741
-0.001102027
-0.0029190746
-0.01400936
-0.023327248
0.0017910274
0.01753389
-0.0017193621
-0.021800661
-0.002951193
-0.0016266274
-0.018399647
0.02288827
-0.0026130439
-0.010847715
0.014128912
-0.0065025524
-0.009734932
-0.038629293
0.06803448
0.05426073
0.043042433
-0.060145676
0.038863298
0.059191234
-0.07579533
0.014748166
0.0035174629
-0.029718079
0.027555667
0.025025686
-0.0053306967
0.01825696
-0.003930143
-0.004467135
-0.015034892
0.004247211
0.0027170416
-0.0055173673
0.05891452
0.026227288
-0.012941385
-0.008935522
-0.009879266
-0.017191553
-0.00054243853
0.002155744
-0.009793904
0.022453468
-0.0049746754
0.011783903
-0.033261415
0.021159032
0.00932388
0.07152822
-0.010867885
-0.031098593
-0.00895365
0.026180908
-0.025038294
-0.0060744644
-0.20604591
0.021279568
0.0017601079
-0.047477543
0.011862981
-0.0025031317
-0.015848272
-0.015632845
-0.0075052897
-0.023788495
-0.020438435
-0.012181758
-0.022717431
-0.0007994698
0.00933307
-0.004786412
-0.018038517
-0.003294739
-0.018777559
0.026139379
-0.010049482
0.031714298
0.012644216
0.022121616
0.005083259
-0.010567756
-0.0027664732
-0.022417912
-0.014126189
-0.010177
0.019271083
-0.28186613
-0.013935414
-0.006704754
-0.004354493
0.0023150656
-0.0029539156
-0.0030941956
-0.023231462
0.021637537
0.029687723
0.013339406
0.015937936
0.02657631
-0.008134978
-0.0020825597
0.007614024
0.01493324
0.013025021
0.009867775
-0.009103048
0.012145921
0.051642794
0.01802317
-0.04034696
-0.010576973
0.011212792
0.016232599
0.0054663355
0.01805616
0.010896045
-0.0067516924
-0.016323471
-0.012368665
0.021447798
-0.041595712
-0.011091455
0.0055330237
-0.021680245
-0.005383799
0.0017866343
0.006499588
-0.0015472027
-0.0036098892
-0.049317606
-0.05112394
0.006994611
-0.02826559
0.0013558023
-0.006783374
-0.0031342865
0.017762782
0.02139453
-0.0012143351
-0.01651718
-0.01201915
-0.00518935
0.001205517
0.019810522
0.0093693
0.016443571
0.026427383
0.016219134
-0.0012865918
0.018518025
0.00018813382
0.016250543
-0.015657693
-0.03267586
-0.0106722135
-0.0045048334
0.004925574
-0.008236882
-0.0014614258
0.00582658
-0.0115372585
0.042542186
-0.0019165085
-0.0023759701
0.0024836047
0.02130277
0.008054185
0.026059384
0.009237211
-0.0019030944
0.004593002
-0.021657705
-0.05260903
0.009668328
-0.026666587
-0.011139672
0.017492529
-0.036189757
0.13441978
-0.013687551
-0.020075794
-0.123493925
0.015600666
-0.033317957
-0.022507383
-0.002100778
0.022473777
-0.11363324
0.01644784
-0.01865918
-0.0020162046
0.025243381
0.029620316
-0.003991927
0.0018812033
0.023451399
-0.017183999
0.01202311
-0.014522625
-0.033971224
0.012860476
-0.0045817504
0.014729345
-0.04402611
0.023131149
0.012163688
-0.0052264514
-0.0253834
-0.053205334
0.000715949
0.04588336
-0.053597387
0.017611051
-0.029267207
-0.054771088
0.021390533
-0.017332235
0.00831008
-0.028669097
-0.012018596
0.008517666
0.03737962
-0.01544449
0.022855941
-0.0075984686
0.025779398
-0.034924556
0.02543409
0.0044455566
-0.018969838
0.01275465
0.02241785
-0.021947427
0.010235349
-0.014528843
-0.017872829
0.030427277
-0.020843966
-0.008905531
-0.047134336
0.001119271
0.004119867
0.008638123
0.0145323835
0.013248548
0.005318791
-0.0076499777
0.012907801
0.064421035
-0.013468433
-0.0027134537
-0.00439076
-0.03242102
-0.0038914883
0.0013723819
-0.0069365758
0.017585298
0.010479704
-0.002922395
-0.007960574
0.007172243
-0.007491214
-0.02289885
-0.005480184
0.0034000531
-0.0039578793
-0.002803023
0.08137394
0.004573861
0.00610211
-0.00028987075
0.028070398
0.03183529
-0.010784706
-0.00023123127
0.006680065
0.009623567
0.01859612
0.003011882
0.0222437
0.0033697207
-0.00540513
0.05317625
-0.024640305
0.028239302
-0.004642864
-0.00022429542
0.0099945525
0.030847562
-0.0023620715
0.012322915
-0.023173308
0.016533706
-0.01195765
-0.0057871053
0.01143486
0.014799582
-0.036500413
0.017482115
0.010257904
-0.022012929
-0.003610633
-0.019042
-0.028584829
0.012299659
-0.023800647
-0.0048202584
-0.0010337877
0.0108303465
-0.0026491454
-0.0002635852
0.014459064
-0.0034492067
0.009870776
-0.028468125
-0.032551266
-0.009074573
-0.0066234656
-0.011046204
0.0004981189
0.0020202962
0.0074449945
-0.021950148
0.008586786
-0.06189939
-0.021131076
-0.011563529
-0.020720122
-0.006771952
-0.023915954
-0.0040975674
0.00056207855
0.022802494
-0.0032128564
-0.009381754
0.010593694
0.018505981
0.007464839
0.021478238
-0.017590541
-0.0013066194
0.00398297
0.0033052415
0.017461438
-0.02106314
0.013373062
0.019876137
-0.018253138
-0.010679114
0.019760657
-0.024399484
0.009819832
0.03181024
0.010547152
-0.009335927
0.021874674
0.026641814
-0.007838378
-0.028583508
-0.008564687
-0.031094838
-0.025587361
0.022472877
-0.013291223
-0.011014293
0.034345325
-0.0098454915
0.007759457
-0.0047267834
0.01874918
-0.008207573
0.029818857
0.031839322
-0.021511788
0.010157538
-0.007287737
-0.027422938
-0.061800633
-0.013609104
0.005549831
-0.013224556
0.011529925
-0.017446958
-0.041034516
-0.042268313
0.009843581
-0.059359428
-0.0017848883
0.028446676
0.03030844
0.008984912
0.04845754
0.020067122
0.0104395235
0.0028826525
0.0030181454
-0.00041153166
0.04653854
-0.0078077964
0.017254677
-0.02166089
0.022640398
0.016470565
0.0021687765
0.007466565
-0.05298983
-0.041118603
0.018758284
-0.016256545
-0.032668892
0.016037809
-0.005014505
-0.011779416
-0.009274618
-0.035026316
-0.027056448
0.02156929
-0.004436856
-0.0020455867
-0.045185864
0.052470118
0.050320923
0.0012009293
-0.03131845
0.03176366
-0.03089353
0.027853113
0.019240161
-0.016805058
-0.0017823798
0.039257146
0.0019520085
-0.012984099
0.014157322
-0.00039399313
0.0075422367
0.20077932
-0.01152539
-0.037647534
0.01435838
0.0013713404
-0.0001907018
-0.0052824966
0.013921132
0.037454642
-0.00212255
-0.0139558
-0.0049915193
-0.011740196
-0.026885504
-0.0037482565
0.026367156
-0.018202763
-0.020649888
0.01753437
-0.012446847
1.720403e-05
-0.010590161
-0.0040812446
-0.015995808
0.027190354
-0.02477079
0.0054769567
0.027841007
-0.013388328
-0.020744076
-0.004329039
0.0021336058
-0.029174117
-0.019846331
0.036842417
-0.008508329
0.0027718653
0.013922052
0.0053061503
-0.03790291
-0.012723653
0.0022017993
-0.0017355386
-0.020114563
0.00017615367
-0.004630983
-0.006241808
0.01780815
-0.0005322589
0.0014936184
-0.0047140107
0.004789485
-0.0048023695
0.024911882
0.020280328
-0.009746011
0.011567051
0.005360771
0.044312444
0.0009627126
0.003152996
-0.011772429
-0.08520186
0.008911785
0.0056958254
0.03923517
-0.037455365
-0.014106588
-0.0028431974
-0.039985225
0.00820458
-0.032800574
0.011606852
0.0031608501
0.014424691
-0.004699878
-0.015372019
-0.030798918
-0.027093962
-0.010909694
0.019242773
-0.004225995
0.005232958
-0.035477385
-0.010665517
-0.021341875
-0.016608747
-0.026806373
0.0056973095
-0.0074001183
0.030065201
-0.002988448
0.0041500065
-0.015596605
-0.010768378
-0.029255362
-0.025255635
0.020591862
-0.019106256
-0.019331042
-0.0027427257
0.0054237666
0.00031245925
-0.0025125998
-0.0007581222
0.01464399
-0.01798818
0.027204193
0.062846996
-0.0030064525
-0.004881575
-0.004554963
0.0058116107
-0.01504808
0.06008941
-0.030062977
-0.009535035
0.05615082
0.020816093
0.0069891326
-0.015938055
0.022268504
-0.00945557
0.27276325
-0.017002515
-0.016144335
-0.07411617
0.03230902
-0.012774194
0.032394253
-0.01619337
0.0017477465
0.033954866
-0.034011442
-0.020914255
0.021536158
0.016028587
-0.0073521347
-0.00978543
0.033329953
-0.0005327549
-0.019947723
0.020079032
-0.015699068
-0.024109518
-0.097508125
0.009951284
0.011343858
0.013297709
0.0007087467
0.015280436
0.018841656
0.014463095
-0.007984279
-0.0025745349
-0.12587288
-8.7182394e-05
0.0011669068
0.017729757
0.02184068
-0.0053704614
0.027266087
-0.01672175
0.0007896346
0.0020031522
-0.030690804
0.020046273
0.030138541
0.024910955
-0.007898039
-0.020411823
-0.03504868
-0.00011327615
0.038107045
0.0033437773
-0.02180431
0.017919743
0.024234226
-0.002704361
-0.019527107
-0.0037788714
0.0059754266
-0.004506365
0.0011554601
0.0064007267
-0.009290748
0.004906486
-0.058198947
0.03243325
-0.0029906451
-0.009046158
0.043418277
0.047985975
0.0054456596
0.026643217
0.097479306
-0.014339447
0.023642777
-0.027807267
0.09075625
-0.03511337
-0.015932193
-0.012977898
-0.024787065
0.023114396
0.008156546
0.02166171
0.02075901
-0.015807329
0.04705612
0.0015854785
-0.009886668
0.003826178
0.0069396626
-0.0014298743
-0.0022512747
0.1100005
-0.015098628
0.00011977137
-0.02236595
-0.028854555
-0.08935031
0.02316577
-0.09408058
0.0031954006
0.0035324318
0.042613506
-0.007750301
-0.018499857
-0.0032672915
0.018140713
-0.02537992
-0.0032647853
-0.0012943163
0.002261924
-0.001327159
0.07148373
0.01927751
0.042486224
-0.033185747
-0.023741607
0.0038356064
-0.01068714
-0.016068242
0.011925096
-0.017549822
-0.016422484
-0.012994148
0.014626257
-0.03430986
-0.02849493
0.024375726
-0.009347422
-0.018547956
0.0056186477
0.02038088
-0.0220838
-0.014251454
-0.023219716
0.013293697
0.014058887
0.01216116
0.4007256
-0.011586912
-0.011661696
0.024544433
-0.019703515
-0.0052687204
0.014208759
0.007417812
-0.022027932
-0.0133248465
-0.024976306
0.008419546
0.0048321816
-0.018425616
0.0063101766
-0.0028181307
0.035587873
0.0029949117
-0.0037491245
-0.01009309
-0.029482123
-0.010498064
0.026127925
-0.007309764
0.008426171
0.040614404
0.03508266
0.1335153
-0.019495968
-0.011942516
-0.0061500752
0.017846825
0.00217866
0.040512677
0.0072800806
-0.029038144
-0.024451353
0.0049005835
0.07291761
0.0075138328
-0.040083557
0.026685739
-0.007144415
0.01594323
0.013609597
0.011489524
0.0075159757
0.021853501
-0.024058577
