2304,
-0.22508495
-0.06443759
0.022315053
0.31940836
0.5908807
0.16168332
0.38775626
-0.50703704
0.41563275
0.45957014
-0.08498618
-0.004274862
0.06361878
0.45144206
-0.4015737
-0.19062309
-0.31841385
0.5123385
-0.009396367
-0.17753193
-0.53925765
0.044367746
-0.11694872
0.31272513
-0.2726481
0.5700102
-0.28866532
-0.21522059
0.3726775
-0.4677732
0.37314665
-0.48702615
0.4973892
-0.36554646
0.0485185
-0.34090698
0.26238057
-0.35196802
-0.33767408
-0.47542724
0.32788604
-0.24509914
0.1465916
-0.6687664
-0.26083001
-0.2706844
-0.42985123
-0.24483313
-0.34930328
0.34749246
0.117502406
-0.34756106
-0.13469283
-0.061086744
0.20065701
-0.18113148
0.42457464
-0.40965074
-0.41617057
-0.5244878
-0.33781916
-0.5130966
0.09112181
-0.47088677
-0.07759259
-0.033300485
-0.02202812
-0.03355394
-0.13739099
0.015096923
0.02958446
0.42697567
-0.12746206
-0.049293913
-0.049620513
-0.18907952
0.0007093319
-0.15659793
0.010127963
0.023797529
-0.027165612
-0.10293395
0.03587777
-0.10839506
-0.06082809
0.2563068
0.10681976
-0.028591802
-0.030188926
-0.1641336
0.53129995
-0.0021893212
0.15387754
0.12916517
0.0755061
-0.12364139
-0.11187048
0.09775839
-0.14830822
-0.2210766
-0.25743505
-0.103294596
-0.009351149
-0.0073379916
-0.023741767
-0.02546189
0.5721223
0.017763741
0.058782313
0.15743986
-0.031168198
0.30367285
-0.014513279
0.033872567
0.1542802
-0.007934263
0.25095296
-0.07669645
0.19086626
0.21070306
0.711817
-0.1441685
0.22395587
-0.054265875
-0.06584931
-0.0030113442
-0.47910497
-0.017521571
0.16364785
0.05689856
-0.032784168
0.21203157
0.089546144
0.0012915095
0.20375508
-0.08901463
-0.059523568
-0.162831
0.2814846
-0.15317371
-0.36451933
0.2557534
0.1515299
-0.28033173
-0.0714787
-0.09379158
-0.13012503
-0.09339921
0.027066093
-0.14211051
0.06233374
-0.4189517
0.010572293
0.39147857
0.057975158
0.17707866
-0.15991783
0.5404087
0.24365063
-0.12180723
0.19332384
-0.20283465
0.10586985
-0.09402969
0.43467793
0.32700583
-0.07105803
-0.08619439
-0.005170921
0.19056478
0.17154834
-0.30477655
-0.08895347
0.021491874
-0.009119608
-0.06846203
0.11338315
-0.3107091
0.11614915
0.0007726536
0.052023992
0.16446498
-0.01747729
0.2676848
-0.28903893
-0.078493334
0.07101884
-0.09469982
-0.034502096
0.16464245
0.15221456
0.074862115
-0.47905612
-0.28484
0.019012794
0.06584808
-0.32301524
0.23446716
-0.042553306
0.0540359
0.20196
-0.2346182
0.11254731
0.27300993
-0.25930053
0.016327273
-0.40113243
-0.24801257
0.18506405
-0.29895642
0.4289071
-0.20393728
-0.2867936
0.13460676
0.03166994
0.20978503
-0.07915781
0.48496664
0.48572728
-0.00630183
0.04326569
0.1073645
0.105142005
-0.42978418
-0.12678432
-0.22083804
-0.36557707
0.038406447
0.060655512
-0.3428605
0.047485713
0.055763476
0.42193305
-0.19331692
-0.37079465
0.40275574
0.29517907
-0.4843061
-0.22853124
0.61373866
-0.40637854
0.37824553
0.19695897
0.15168518
-0.19545417
0.5574638
0.3701137
0.047128253
-0.17093366
-0.12398416
-0.29015172
-0.061456136
-0.19403705
0.23573895
-0.083720565
0.5745164
-0.02139259
0.10985955
-0.08146697
0.17217782
-0.021282336
0.099719055
0.07333513
-0.3807396
0.0062368135
-0.076744236
-0.038252324
-0.18770233
0.19867966
-0.036968816
0.010057948
0.038268954
0.0604511
0.06204767
-0.12221119
0.03225643
0.06529055
-0.0042705988
0.13190144
0.051034138
-0.07671627
0.0060970257
0.058560133
0.006330117
-0.009385134
0.13762423
0.036389194
0.058004595
-0.15063593
0.021853963
-0.15730172
-0.018061062
0.098026276
0.556596
0.06879717
0.07626794
0.06627388
0.026792271
-0.03177451
0.08010573
0.010764911
-0.10850227
0.002197664
0.10727941
-0.08637543
-0.071085796
-0.012258496
-0.43230042
0.056254514
-0.044360347
-0.052686356
-0.13484356
0.26334468
-0.12695031
0.03169598
0.106430925
0.037529502
-0.35635063
-0.016313782
0.062806614
-0.014369163
-0.046826165
-0.32502207
-0.054303333
0.06313292
0.020316757
0.034635585
-0.03279496
-0.044145864
0.06330531
0.14780281
0.069814794
0.3023719
0.0954646
0.030732982
0.48337182
0.036700614
0.1361284
-0.086149596
-0.012921333
-0.077679224
0.089614674
-0.07814767
-0.5292362
0.54508
0.052757528
-0.07636496
-0.121995755
-0.043012105
0.30904984
-0.056770157
0.06540696
-0.007114482
-0.10205877
0.094923966
0.064684756
-0.006202467
-0.09924551
-0.020129368
0.034755815
-0.004805475
-0.11318549
-0.101011395
0.033079837
0.010103398
-0.11890951
0.02816835
-0.06834819
-0.08390916
0.012008278
-0.010562484
0.09374319
0.034761555
0.54674083
-0.02238071
0.0710423
0.052460838
-0.035955
0.38576615
0.011053515
-0.005178493
-0.1151045
-0.12439784
0.014481422
0.23268491
0.069944814
0.26034606
0.06648987
-0.04694821
0.27481693
-0.07237113
0.0058544436
0.053574625
0.31390402
-0.25022835
0.04552642
0.04221759
0.053990122
0.2240462
0.05265155
-0.031270206
-0.0010407878
-0.030627515
0.06834031
-0.09652512
0.0305369
0.103456736
-0.06893874
-0.1562212
-0.10828425
-0.02826182
0.00022177825
0.100048445
0.073534824
0.11879437
-0.090938956
-0.19153069
0.2255943
0.49051926
-0.17494082
0.04580679
-0.34861425
-0.035730608
-0.07634943
0.42758042
-0.040507644
0.27349332
-0.018833695
0.12370098
-0.07410906
-0.2139526
-0.04302664
0.0049903467
0.033123937
0.4724869
-0.11096558
-0.21404062
0.01248574
-0.24733132
-0.020868305
0.02518221
-0.09351621
0.13767342
0.14753982
0.25925398
0.10521754
-0.04237456
0.038866296
0.066243656
0.16112788
-0.36751798
-0.06083471
0.16614336
0.08781108
0.042974208
-0.038552776
-0.28412658
-0.054769013
-0.02246065
-0.09302309
0.2754315
0.01694495
-0.027210249
-0.012469799
-0.026419584
-0.3104777
-0.35839996
0.028921675
-0.09377377
-0.2941604
-0.025609832
0.08126556
0.09078458
-0.14202279
0.15920833
0.25352135
-0.10064226
0.023222905
-0.2921318
0.17831375
-0.33927616
0.08521292
0.000614174
-0.5236156
0.13329794
-0.25881433
-0.30469146
0.25666013
-0.38040435
-0.15958063
0.04796552
0.016562773
-0.22292557
-0.52417105
0.0149124935
0.15785003
0.15308754
-0.122568876
-0.44160712
-0.06827237
-0.045015518
0.32594195
0.10508719
-0.0027599186
0.18215597
-0.021091573
-0.14906524
0.5412942
-0.43265036
-0.100191124
0.06888711
0.014467775
0.26906598
0.23948546
-0.004895336
-0.122185275
-0.02422563
0.47023416
0.009426079
-0.021083377
0.0005439566
-0.02108933
0.14738208
-0.20702155
-0.38363957
-0.49240926
-0.43500558
-0.18494472
-0.12172629
-0.013902858
-0.19812897
-0.03363757
-0.023964446
0.11748795
0.05737107
-0.336631
-0.2136718
0.14426893
-0.061873406
0.12702414
0.06620121
-0.3706778
0.25946915
0.16605891
-0.074702136
0.43101382
0.14916545
-0.013432471
-0.02309763
-0.22678897
-0.27056125
0.13991468
-0.15420303
0.12565279
0.10646423
0.05684469
0.15817812
-0.047690544
0.07756931
-0.03910639
0.16930526
0.045817465
0.3496608
0.14944926
0.06511885
-0.4832951
-0.16414404
0.210359
-0.05135823
-0.079073295
-0.10331034
0.054827873
0.032911573
0.12712842
-0.3360755
-0.18448313
0.059337936
0.1880475
0.26517332
-0.29443067
0.30747232
-0.12558396
0.06735645
0.36773577
0.0010177894
-0.17242384
0.08161338
0.16781923
-0.06494466
-0.07791166
0.19779724
-0.14090905
0.002133738
-0.008927814
0.024528978
-0.068606034
0.05370444
-0.18971653
-0.04941636
0.0051300516
0.041044783
-0.014147042
-0.119853035
0.2660298
-0.20965165
-0.26772174
-0.45410338
-0.12518384
0.0051543503
0.11901612
0.11013318
0.04643621
0.023647174
0.13094066
0.31636062
-0.010225689
-0.3190258
0.08227476
-0.08403224
-0.0505846
0.22182748
-0.38710704
-0.0051513556
0.1386161
-0.0046720942
-0.30702472
0.08596442
0.07300573
0.11038077
-0.064227015
0.029323526
0.09902512
-0.25522366
0.32849365
0.05204932
0.001254658
-0.18440647
0.10333688
0.19562356
-0.49960464
0.040031396
-0.019142458
0.039783005
-0.121242955
0.00026154506
0.015497447
-0.038755957
-0.011142025
0.095424846
0.3797561
-0.041264985
-0.02852251
-0.011538328
0.008221307
0.53829205
-0.05780997
-0.50976974
-0.18576878
0.055639476
-0.025010772
-0.017512957
0.056441512
-0.08176576
-0.12620099
-0.010371366
0.0363701
-0.08511056
-0.009060097
0.107068315
-0.55572003
0.061454978
0.15959379
-0.0363866
0.053889573
0.056779753
-0.06351152
-0.11722955
-0.04799806
-0.17136136
0.12187529
0.21996354
-0.0508787
-0.006215426
0.068505116
-0.039464984
0.056329597
0.20283718
0.28738627
0.20507029
0.0003053005
0.5637053
0.110477045
0.17264807
-0.095779754
0.3475754
0.14688933
-0.07023992
-0.41824088
0.4957605
-0.006035994
-0.4127334
0.04269886
0.051024336
-0.03425985
-0.100423224
-0.008685776
0.09252373
-0.036929406
0.19317354
-0.07812171
-0.34768695
0.020546181
-0.069934264
-0.29821277
-0.23341313
-0.0073256055
-0.054457746
0.018614206
-0.13962008
0.027415892
-0.37572348
-0.050066568
-0.12041729
-0.0021120713
0.10279304
0.15109068
0.11023547
0.44527274
-0.14486392
-0.043267377
-0.16097854
-0.008620509
-0.017870521
0.26854184
-0.5039444
-0.119985834
-0.50128937
0.1222739
-0.02359639
0.07129251
0.017949626
0.14827497
-0.15104933
0.021040186
0.047512222
-0.07604438
0.075807415
-0.053000726
-0.2812479
0.05386126
-0.042757623
-0.0034472786
0.11047664
-0.24424593
-0.0684077
0.088429175
-0.028667204
-0.025334345
0.064145625
-0.20824377
-0.095727496
0.13366434
0.074149676
-0.026415175
-0.032689434
0.098323524
-0.037842978
-0.028571254
-0.092917725
-0.042178806
-0.020356424
0.040345132
-0.013874712
-0.118932106
-0.059240982
-0.027365664
0.052661743
0.008417872
-0.08613974
-0.019344179
-0.06396948
0.046350133
0.056763865
-5.0868657e-06
0.103722386
-0.21678527
-0.09768351
-0.009167345
0.08033649
0.094406135
0.08438227
0.22630733
-0.14517657
-0.007395235
-0.13697559
-0.059589945
0.10078383
0.006305345
-0.16571002
0.011307205
0.07076526
-0.00774919
-0.034378853
0.11359181
-0.08085849
0.0045423727
-0.002498552
-0.11849805
0.071392775
-0.03890124
0.112385035
0.1520344
0.24075717
0.13877568
0.065662935
0.0051331506
0.09159994
0.049709845
0.029256342
-0.027509741
0.007143509
0.114424475
0.03990652
-0.12121909
-0.061315034
-0.2673536
-0.10775896
-0.21656229
0.05236032
-0.2318766
-0.014741806
0.08387212
0.074385054
0.05542671
0.0037695544
0.008791354
-0.15124875
-0.16772741
0.14530118
-0.07063286
-0.22049496
-0.002992151
0.064386755
-0.0036813375
0.22226158
0.031837106
-0.112162955
0.025949597
-0.010334928
0.12640345
-0.011209886
-0.013019819
-0.03370945
-0.20924975
-0.031365942
0.18301287
0.21756119
0.11101346
-0.028853364
0.14770918
0.07581787
0.059485696
-0.062049355
-0.07847573
0.04770057
-0.007990954
0.0069821705
0.009370011
0.24229082
0.13117385
0.16689715
-0.1241785
-0.06655201
0.020258129
-0.13455056
0.17909995
-0.13287862
0.037407044
-0.07720675
-0.05981293
-0.11348887
-0.06465397
-0.053921994
0.05274803
0.014136275
-0.010788791
-0.014483342
0.011795712
8.672923e-05
-0.09537602
-0.03725152
0.025834544
0.063226596
-0.027992709
0.009696008
0.11882936
-0.13613246
-0.15104224
0.04031347
-0.042570047
-0.053025547
0.19105196
0.040970325
0.22378275
-0.07411517
0.050651006
-0.040763907
0.020819537
0.1654058
0.07897771
-0.036096912
-0.00064594584
-0.050884943
0.11476191
-0.016285796
0.118784584
-0.13273832
0.07680682
0.054758474
-0.012946687
0.09841936
-0.080028355
0.06107123
0.11630886
-0.026575968
-0.081628524
-0.17468123
-0.024502909
-0.11128621
0.23996621
0.097730525
-0.020018764
0.087665536
-0.055202395
-0.028782928
-0.15575363
-0.112708054
0.009424977
-0.15197831
-0.16747534
-0.06025274
-0.14960358
-0.021777563
0.065014556
-0.13562728
-0.0012318663
-0.032365214
0.2307864
0.13720365
-0.16694288
0.021390805
-0.08445832
0.00420408
0.10081209
-0.07072959
-0.05932344
-0.044067286
0.112248264
0.004695696
-0.16274261
-0.10952762
-0.017571023
-0.024916332
0.1572814
0.1452271
0.13400787
0.019844785
0.021366186
-0.019600995
0.04968412
-0.20089455
-0.13855548
0.13875285
-0.13659294
0.17803013
0.24824245
-0.048119552
-0.06262785
-0.056656525
-0.10931108
0.15767159
-0.09646563
-0.20505475
-0.00419167
-0.16477153
-0.20096795
0.029304536
0.09089391
-0.020823702
0.27804628
-0.056637324
0.0017642117
0.015924964
0.07544114
0.06576312
0.00023832219
-0.16332792
-0.12507506
0.08705331
-0.21877505
-0.017729344
0.10371155
-0.14705394
0.1598195
-0.20609383
0.12704775
-0.05230733
-0.15642858
0.13220537
0.0950265
-0.045078464
0.12649766
0.045058914
-0.11011354
0.09992619
0.0719292
-0.10017373
0.05874767
-0.068759374
-0.18866882
0.11245727
0.18056858
-0.028549291
0.11661123
-0.15690973
0.084729925
0.040029164
-0.05581386
-0.1397958
0.12784141
0.077280775
0.059685506
-0.0379029
0.015970554
-0.14164887
-0.055542596
0.10385231
0.035618268
0.05912937
0.09527061
0.027818142
0.05784509
-0.034535646
0.028715022
-0.00021278024
0.022787267
0.1832289
-0.018104449
-0.07560749
0.001964907
-0.078689046
0.024168331
-0.001968093
0.05900726
-0.09999085
-0.008897241
-0.13775423
-0.035239335
-0.022810927
0.028359164
-0.10656867
-0.037162848
0.27267104
-0.20780279
0.21581954
-0.00014322417
0.1442029
0.017632732
0.038232967
-0.07617674
0.062444914
0.0035847167
-0.023086775
0.055373915
0.07656276
0.13158588
0.06918215
0.023923256
-0.060939204
-0.054672
0.16285805
-0.0012570573
-0.07044908
0.008715522
-0.022890821
-0.1172901
0.07559774
0.03250419
0.104095675
0.038107943
-0.0461811
-0.057112455
0.057723794
0.014410447
0.032898806
-0.15885498
-0.07054864
-0.20793426
0.16054896
-0.06497646
0.002621661
-0.067397185
0.11704736
0.017435674
0.031170014
-0.036636677
-0.15428694
-0.005060613
0.120299175
0.059133776
-0.06463224
-0.05334345
0.100583315
-0.040766127
0.05841478
0.0152936615
-0.040275387
-0.024205431
-0.038233165
0.061499298
0.108173765
0.09375903
-0.0010189355
-0.0665601
0.15510105
-0.077689394
0.072556034
0.08105959
0.07944224
0.0013043699
-0.0073232544
0.014720777
0.16809107
-0.00017748254
-0.0765801
-0.13322394
-0.057477478
-0.16356821
-0.053293474
0.110996604
-0.11973915
0.031913117
-0.06762761
0.006768855
-0.16922915
0.20271683
0.09479221
-0.10938306
-0.0036573638
-0.081760824
0.02198432
-0.06984676
-0.0057292953
-0.051924195
-0.08072195
0.052802093
-0.14509673
0.026282059
0.071045004
0.009160433
-0.27202913
0.29422483
0.25047883
-0.117559955
-0.031067166
-0.017533008
-0.057876017
0.0008031192
0.110146224
0.040191274
-0.20164764
-0.10771926
0.06741527
0.10360734
-0.00082017307
0.047252297
0.13365084
0.15748279
0.00088010984
0.17982061
-0.08884896
-0.003851358
0.031895876
0.07544698
0.09075565
-0.16021642
-0.107674345
-0.03436121
0.12810288
0.16707653
0.1816127
-0.04782257
0.09733195
-0.023597272
0.0022743715
-0.13589178
0.062012754
-0.11067939
0.010572681
0.007535513
-0.061578795
-0.12855533
-0.010763498
0.046859715
0.05074686
-0.21774402
0.21704476
0.019221887
-0.007889573
0.009386354
-0.20024179
0.010162913
-0.0205841
-0.2154689
0.14905623
-0.023449555
0.15527639
-0.007819417
0.12933113
0.0027048201
-0.036623854
-0.2429972
-0.044177532
0.047300816
-0.08435057
-0.05236877
-0.043933026
-0.19433004
-0.041357096
0.20319077
-0.059442457
0.07891545
0.0951719
-0.016202802
0.16154563
0.07009191
0.022978654
0.100521125
0.008560063
0.1833909
-0.14795098
0.18729043
0.19300902
0.1100023
0.09610816
-0.055301454
-0.0070977565
0.100883216
0.028851693
0.055273995
0.066218905
0.04979133
0.21737474
-0.0072746025
-0.13807808
0.09259325
-0.011061876
-0.02233957
-0.021734599
-0.0319033
-0.013299478
0.24246788
-0.24634783
-0.112468734
-0.022817917
0.14245066
0.005121144
-0.26699582
0.06474409
0.019667437
0.019348234
-0.0033489307
0.101282746
0.0848774
0.24418412
-0.19065985
-0.11375437
-0.19232486
-0.09568717
0.03734839
-0.038671765
-0.01010579
-0.14915875
0.07583937
-0.0704149
0.11758565
0.0747655
0.04876098
-0.01279223
-0.049961686
-0.18197638
0.045804378
-0.06227188
-0.29633638
-0.053848434
-0.103009626
0.04609335
0.010756046
0.06802431
-0.084110916
-0.15031153
0.032727066
0.027189646
0.055597246
-0.08182591
0.13695551
-0.13008206
-0.14092323
0.057907242
-0.16510423
-0.013249552
-0.2238936
-0.02525481
0.041323036
-0.02176357
0.08054843
0.0834472
-0.026665637
-0.025480283
0.1341111
0.03349734
0.0919339
-0.029898575
-0.050363664
-0.11650417
0.067014135
-0.021537937
-0.11146952
-0.046565767
0.11363242
0.044504803
-0.22888595
-0.014461327
-0.03264746
-0.01348771
-0.08885398
-0.16677561
-0.12149895
-0.10570524
0.027883867
0.123808786
0.08436946
0.012855588
-0.017935675
0.008750611
0.07313116
0.016440427
0.040927075
-0.1373316
0.121711686
0.021562062
-0.12134381
0.078870796
0.10008931
0.15422153
0.02612469
0.025664706
0.015195536
-0.07323832
0.030718965
0.02898668
0.12581436
-0.081679694
-0.13926189
0.012124324
0.14964849
0.0197993
-0.109999344
0.07899533
-0.10438279
0.053123314
0.138247
0.034510408
-0.22527161
-0.087039
-0.060963895
-0.037677668
-0.26724955
-0.09634312
-0.1710809
0.059289955
0.14928634
0.061790057
-0.027790211
0.057053268
0.07972343
-0.046150308
-0.082294635
-0.18461001
0.08129756
0.013895943
0.017005049
-0.20810582
-0.0075689713
0.015659913
-0.17721243
0.11650663
0.04913047
-0.0663902
0.21975186
0.07749881
0.16663478
0.015819281
0.041538242
0.15300675
-0.062497392
-0.005728999
-0.07939956
0.10672388
0.10503374
0.032613695
-0.10047054
-0.049922973
-0.09463477
-0.07738492
0.14882891
-0.0002931618
-0.024518332
-0.10276502
-0.14614384
-0.016170077
-0.015410716
0.00670282
-0.038307693
-0.08400824
0.079971075
0.05093279
0.016989592
0.009791368
0.044747334
0.05066615
0.027283955
0.05546386
0.07677389
0.042753786
0.032301247
0.21484226
-0.088974774
0.022609536
-0.08587752
-0.011084232
-0.019394582
0.15131089
0.09132943
0.024586773
-0.086409934
0.008145538
-0.06745622
0.14670308
0.15396819
-0.14974497
0.19917259
-0.11552289
-0.108985394
-0.066486746
0.26876792
0.092875645
-0.035165388
0.1993913
-0.015868539
-0.07666548
0.00094702694
0.022691695
-0.030743914
-0.084130295
-0.030670654
0.2821256
0.080174655
-0.079625405
0.11336246
0.060101647
-0.032807797
-0.1002651
0.14372742
-0.1080126
-0.15801716
-0.04424198
-0.12688956
-0.018773915
-0.12226587
-0.09115688
-0.07387485
-0.16400823
0.09446918
0.16265808
-0.00049495936
-0.06865162
0.11651407
-0.062087342
-0.096019104
-0.09640049
-0.13984674
0.10010324
0.0009064038
-0.08833109
0.29549506
-0.014573119
-0.1588901
-0.050249584
-0.06920698
-0.1800618
-0.17366968
-0.04716209
0.16014415
0.08132093
-0.04985059
0.044061806
0.07544769
-0.022133995
0.004350771
-0.08324943
-0.07977972
0.059343796
-0.04493407
-0.070870765
0.12267299
0.009193701
0.06506992
-0.07085674
-0.10000846
0.022053648
-0.0007381128
0.09211287
0.108523905
-0.10916676
0.13520867
-0.111363634
-0.10141599
-0.03595213
0.019353582
-0.021557353
0.10092445
-0.13243589
-0.085913755
-0.043713268
0.06985783
0.016113184
0.00019620819
-0.033592936
-0.014356587
-0.010978053
-0.005805983
0.0022555338
0.0070513366
0.014428695
-0.01985836
-0.05824281
-0.027789494
-0.021741623
0.02190697
-0.0035076747
0.0021873948
-0.022275206
-0.009000931
0.0014367416
-0.024420943
-0.027859328
-0.0270732
0.009673072
-0.01975858
-0.006040024
-0.005454181
-0.0120514305
0.007628346
-0.001912235
-0.031798556
-0.03979315
0.0018334128
0.0005315942
-0.023552664
0.019198285
-0.012099927
0.011508916
0.033759963
0.0031400851
-0.4316902
-0.0046382924
0.02990986
-0.026687445
0.006673125
0.04467514
0.0074093672
0.010808283
-0.0059017106
0.00394614
-0.016527358
-0.004025909
0.033296116
-0.00048763742
0.016204366
-0.21868794
0.017203454
-0.01891798
-0.011624826
-0.0072621186
0.010669092
-0.06556097
-0.014069744
0.0046238233
0.02496073
0.01373383
-0.023963781
0.014940585
0.021589104
-0.024960449
-0.15146507
-0.0020246534
0.016430996
0.0037192178
-0.008518459
-0.0060605374
-0.0072756708
0.015866296
0.015234534
-0.012864252
-0.010256035
0.005094738
-0.010029495
-0.015010321
0.017633887
-0.0019519709
0.022914276
-0.03816889
-0.029856406
-0.014482376
0.011260945
0.0092985565
-0.012408729
0.053580247
0.021942742
0.025296511
0.00177202
-0.0046864077
0.012898496
0.04501382
-0.022523236
-0.013766329
-0.0050081573
-0.07070396
-0.004188992
-0.040241122
-0.018810533
0.0031172854
-0.0033479847
-0.0214914
-0.032674976
-0.0039516864
0.006426998
0.0055940896
-0.03610589
0.0075575416
-0.0024401506
0.07928638
-0.00516938
-0.02444447
-0.007924508
0.028505055
-0.040162638
0.01170448
-0.42453188
0.013881779
-0.008946207
-0.0058872807
-0.005634168
0.029047424
-0.02427629
-0.010223338
-0.0043334053
0.064027674
-0.057911705
0.0033640626
-0.024740748
0.0023737918
-0.015095611
-0.018009791
0.012047493
-0.00095317437
-0.024047349
-0.016778601
0.041134063
-0.015812963
0.02120599
0.008576995
0.0009035546
-0.014044885
0.022237753
-0.061975118
0.006262996
-0.0037301318
0.0084975725
0.02924086
0.02690182
-0.016434072
-0.037186526
-0.0034034438
-0.007717945
0.0329087
-0.01037384
0.04107232
0.0131325135
-0.022253407
-0.02056241
-0.035667796
0.0041447664
0.02282143
0.0010285164
-0.020055277
0.004458883
-0.03607163
0.0011776263
0.011240572
-0.007562356
-0.007567884
0.0072341915
-0.033919387
0.05990179
-0.022719085
-0.03050588
-0.008871846
0.013664205
-0.00858505
0.031191727
-0.0018520274
-0.016957413
0.6048888
0.033836465
0.002481923
-0.011442012
-0.031966556
-0.018613504
0.02394393
0.006351616
0.0005653295
-0.0019302391
0.008786392
0.008952064
7.887562e-05
-0.013108928
0.15249057
-0.0027117312
-0.022574957
-0.012399862
0.01508341
-0.011373916
-0.016787153
-0.012839484
0.011996177
0.0019612506
0.0011888654
-0.009777368
0.0037932068
-0.020281529
-0.016111173
0.024994466
0.0018753776
0.283315
-0.01858904
0.006943533
-0.010128839
-0.0556964
0.010533201
0.29441193
-0.014731195
0.008218002
-0.0017281662
0.0020435087
-0.017187808
-0.0070318626
-0.004346256
0.0053449613
-0.019990949
-0.013089599
0.012370408
-0.013709095
0.00019535306
0.00011620774
-0.00291943
-0.010629216
0.000563124
0.0010574624
-0.003251975
0.02432492
0.0133737605
0.013011601
-0.032326635
0.03338583
0.018362522
0.019876901
0.006931775
-0.0075836284
-0.017036643
0.021116199
0.015057563
-0.00011288672
-0.030053128
0.022635179
0.009745526
0.024806732
0.007043033
-0.14454648
-0.009119285
-0.0045682294
0.030125286
-0.01833404
0.01809724
-0.009966075
0.0032217542
0.0041988376
-0.002362414
0.023573145
-0.008683986
0.0022652373
-0.024801837
-0.008880971
0.004958922
0.013213219
0.0026713808
-0.026159842
-0.01137656
-0.009597817
0.0068757907
0.012105999
-0.002531069
-0.0028044698
0.0089041125
0.3233377
-0.0026061998
0.020574573
-0.0004930304
0.0054167374
-0.00047328186
0.013300911
-0.005243002
-0.007749753
-0.004971696
0.013119055
-0.004434381
0.008503825
0.013971591
-0.008470621
0.010783969
-0.012764715
0.002604543
0.0028241072
0.027800139
0.01843123
-0.007713082
0.011216618
-0.000206552
-0.0025183219
0.017133787
-0.0059566884
0.0065228813
0.006433482
0.0102043515
0.009866866
0.007948269
-0.020230198
0.023320017
0.0014300372
-0.021304836
-0.0104322545
-0.019053923
0.028130192
-0.0009464187
-0.021788364
0.024194025
-0.02708585
-0.0032825428
-0.012365182
0.001367691
-0.01518181
0.012267515
0.02111649
0.026897147
0.038311776
-0.004177215
0.00767759
0.029998576
0.0050978665
-0.022713114
0.008851353
-0.0074270135
-0.005047714
0.011091805
0.0054933224
-0.019540997
-0.027710378
-0.022511061
0.017198391
0.029436436
-0.009011546
0.020866798
0.009140265
-0.01585432
-0.022687085
0.03536519
-0.0056840316
-0.008404216
0.0011575124
0.015120763
-0.010367915
0.0051165335
0.001560693
0.001119904
0.007331476
0.0032851282
-0.014350645
0.0052128374
-0.008974819
0.007937217
0.017034907
0.017724933
0.0061920523
-0.004732538
-0.019538209
-0.019927515
0.017896013
0.012520872
-0.014909451
0.023433665
0.01921011
-0.00046721566
0.02900983
-0.00020944943
-0.013028812
-0.0014416669
-0.018265573
0.009281395
-0.023619194
0.013203821
-0.0019285046
0.025426105
0.00914933
-0.013098278
-0.010965667
0.001253545
-0.009359569
0.009130794
0.011283443
-0.002213214
0.0021368498
-0.016003523
-0.016245505
0.009999621
0.023753138
-0.021061867
0.0025344281
0.011958994
0.03948307
0.017272534
-0.007126708
-0.016385563
-0.0036208392
-0.08521739
-0.011891966
-0.0024662232
-0.007526861
-0.021185048
0.015007819
-0.0016695597
0.011197836
0.0155415395
-0.0015650649
0.04146491
-0.008190173
-0.043404642
0.0018800185
0.014440281
-0.006086003
-0.016709192
0.014383065
0.005559663
0.002659003
0.016199052
0.0043872646
-0.015155575
0.001096485
-0.5677154
-0.035887804
-0.005171139
0.030520072
0.3386199
-0.008137596
-0.0183949
-0.002078369
0.008052273
0.01103872
-0.007596949
0.012080561
-0.0074985544
0.00928259
-0.009963594
-0.0109281605
0.0032566977
-0.010763289
0.0059132124
0.55784374
0.016452549
0.17456886
-0.034015868
-0.0045921514
-0.021608645
-0.014974141
0.0031305167
-0.00073576986
0.0076046376
0.031955168
0.00046654546
0.020319311
0.006963275
-0.016882848
-0.0010941781
-0.007301455
-0.01808882
-0.0062186033
0.007905069
0.02267875
0.0016795419
-0.022820193
0.0004314314
0.009422046
0.037688613
-0.025792593
-0.0070342016
-0.02118914
-0.0022022426
0.0018817639
0.0047508716
-0.090344444
0.010752061
-0.005221196
0.005266799
0.014561932
0.06931588
0.0014369757
-0.017376015
0.015753092
0.016279753
-0.019295353
-0.012552005
-0.016997445
0.017329048
-0.018385168
-0.014025211
0.021301981
-0.008358996
-0.004749111
0.01053118
-0.0009616743
0.012587109
0.0019809378
0.017316967
-0.000696372
-0.0064491993
0.03560436
-0.027824128
-0.012233883
-0.006713289
-0.002011566
0.005935724
0.0012879296
0.014314741
0.010532472
-0.014495402
0.020234441
0.0045891395
0.014522268
0.010303053
0.02071303
0.0029346787
-0.17456052
-0.024143042
-0.01728854
0.041876547
0.57959723
-0.03584723
0.0028647438
-0.0057015237
0.010144009
0.0042391224
0.0025140527
-0.00014681814
0.0052736476
0.010501639
0.031907532
0.018160565
0.009616112
0.021765284
-0.0030284221
-0.008009532
-0.011507444
0.024522485
-0.018154364
0.029548764
-0.02958042
0.042240344
-0.038388137
0.012078869
0.17031477
0.010177178
-0.006923501
0.03180047
-0.0037364454
-0.009890035
0.028065238
0.047210105
0.027037337
-0.004029278
-0.0040512388
0.1922952
-0.0035820336
0.0038157322
0.0027355938
-0.016789153
0.015390761
-0.01849635
0.012077682
0.0015018921
0.026798476
0.0024698223
0.0039763367
-0.0017669286
0.012018224
0.16301298
-0.0021462936
0.0021425127
-0.22498302
-0.0015819584
0.0097254515
-0.0090176435
-0.0043853484
-0.0050094724
-0.018243833
-0.0049996073
0.00041427903
-0.0040677194
-0.0044988478
0.009130547
-0.013737745
0.008036561
-0.013759468
0.008811081
0.0023697654
0.017731287
3.1402953e-05
-0.0029591818
-0.0007717956
0.0036426617
-0.0069341147
0.0019862554
0.00028571574
-0.006191061
-0.0131285265
0.002388285
0.012154366
0.00024561273
0.006115348
0.0020786216
-0.019303242
-0.015584747
-0.01217548
-0.100066006
-0.33073777
0.004044315
0.010885637
0.013855528
0.016454663
-0.0093263015
-0.008372184
-0.010180215
0.0049273125
-0.03526367
-0.00865611
-3.1181233e-05
-0.0040563
-0.008154282
0.005217559
0.0464057
0.009667289
0.011007182
-0.017430361
-0.02782666
0.017834162
0.02720436
0.029330911
-0.006183787
0.04882056
0.025419634
0.021845903
-0.0008945773
-0.094592325
0.0037549825
-0.016296113
-0.020190176
0.055658475
-0.016861796
0.015934646
-0.016543943
-0.020889955
0.006031301
0.011068912
-0.028072232
-0.0023485045
0.05928269
0.010492984
0.024213646
0.017120818
-0.0071449606
0.017600272
0.029485429
0.0013789885
-0.0724839
-0.039593864
0.036109123
0.033302113
-0.069095455
0.010952868
-0.01781362
-0.005089679
-0.014695287
-0.012260979
-0.020450398
0.018196577
-0.02254405
0.016848681
-0.001820013
-0.057821278
0.022108657
-0.014294689
-0.023312306
0.015058018
0.014753618
-0.01969248
-0.046372287
0.013259416
0.067677416
-0.022704607
-0.0379559
-0.02322936
-0.0045725205
0.012696924
-0.004440725
-0.0015152006
-0.015335653
0.0023551192
0.013669214
0.0015952749
-0.012432619
-0.011295685
-0.014713634
-0.0018711587
-0.0139422985
0.011191448
0.018988209
-0.008842322
0.021696163
0.009670879
-0.004728956
0.020408751
-0.0077425707
0.008566548
-0.0056495834
-0.024888087
8.098273e-05
0.026789429
-0.010461269
-0.025350975
0.59741396
0.0039570527
0.002361828
0.009097436
0.010597436
-0.015722126
-0.019214798
-0.00041562348
-0.0051783836
-0.013947607
-0.018077036
-0.0071681035
-0.0034810205
-0.038741548
-0.006005946
-0.014397529
-0.0015177861
-0.0026035772
-0.010160983
-0.00025300984
-0.009959658
0.01579926
0.012972707
0.016524294
0.0041477806
-0.016318318
-0.01989371
0.007795122
-0.005714343
-0.0030680308
-0.004671618
0.0038859092
0.02061365
0.0205476
-0.0017285624
-0.004390703
