768,
-0.037793163
-0.026119085
0.04108424
-0.16938141
0.1054992
0.21339156
0.057953663
-0.114709504
-0.17197977
-0.07164248
-0.014267244
0.03385582
-0.13732436
-0.08359445
-0.05633608
0.05428825
-0.08784489
-0.280793
-0.059749603
0.2686945
0.14448196
-0.10410096
0.03987267
-0.13281204
0.034614112
-0.088611014
0.23509102
-0.17883424
-0.07477963
-0.009813354
0.30741343
0.0422107
0.28051904
0.14418086
0.14903457
0.07944175
0.110500194
-0.18709426
-0.0062642354
0.030520603
-0.0038575605
0.24875902
0.009421862
0.04558653
0.06560727
0.29384357
-0.03640539
-0.040070523
0.1317917
-0.15526874
-0.013649139
0.020015653
0.12436673
0.11980583
0.06090331
-0.14024286
0.24954438
-0.16993938
0.21082552
-0.013295135
0.027155202
0.06658384
-0.10191746
-0.003316
-0.06667822
-0.034720823
0.21030264
-0.015747115
-0.030187627
-0.054252967
-0.13126314
0.03279341
-0.18872514
0.1473305
0.12877594
0.071613
-0.13381198
-0.17362407
0.24163258
-0.00705181
-0.04488426
-0.2331719
-0.08361128
0.05277224
-0.042533863
0.058654524
-0.24204813
0.015621126
-0.007428197
-0.017088575
0.07620191
-0.31844154
-0.10358744
-0.08787677
-0.23982958
-0.03080606
-0.38566774
-0.14434119
-0.22107722
0.19645339
-0.1369609
0.15876958
-0.11191765
-0.19708045
-0.073617175
-0.07874624
-0.22562513
0.020450382
0.37559995
-0.062802374
-0.2268975
-0.26733896
-0.16626684
-0.18922935
0.043652352
-0.12395695
-0.19512212
0.035833154
-0.12845254
0.01861429
-0.0528451
-0.0073408447
-0.011993923
-0.054916948
0.17161185
-0.17907114
0.04592772
-0.026315885
0.027487375
0.11720987
0.363087
-0.017592259
-0.02292703
0.07206973
-0.03963938
0.19736953
-0.073847145
-0.060359556
-0.02402969
-0.10533743
-0.06941885
-0.019037299
0.055953406
-0.113940686
0.106121734
-0.14977358
-0.06814774
-0.06409933
-0.05975929
0.07335516
-0.11115309
-0.12946789
-0.23841375
0.04473962
-0.26874062
0.120278046
-0.07886849
-0.07176176
-0.18480791
0.033141363
0.04762002
-0.23057766
0.1070225
0.020125743
-0.31816489
0.112203605
-0.027222492
0.15989384
-0.008191087
-0.09338908
0.092065
0.08193511
0.041408755
0.10316567
0.08338391
0.2692904
-0.41089705
-0.001710382
-0.0057411725
0.18235417
-0.046518162
0.21874604
-0.09220162
0.099719256
-0.19045022
0.16370688
0.088272795
0.066919856
0.08943091
0.16087848
-0.15074952
0.06567496
-0.022551775
-0.026296709
-0.120157346
-0.038183562
0.27581936
-0.04822932
-0.21878946
0.033210732
0.09071252
0.37993917
-0.05023282
0.026665036
0.19921343
0.059813652
-0.0012927146
-0.1455147
-0.07303006
0.27659386
-0.00529671
-0.015770156
-0.01896255
-0.11623803
0.1556642
-0.043829676
-0.034288418
0.17013708
-0.14474602
-0.07266461
-0.10678351
-0.083237454
0.23567256
-0.13767827
0.07951232
-0.035229273
-0.063560784
0.20119138
-0.12814178
0.13186204
-0.07967102
-0.1381031
0.25029534
-0.040645696
-0.18409292
-0.14672467
-0.251683
0.023864461
-0.09292363
-0.1524548
-0.10604172
-0.081377774
-0.052931666
0.35780895
0.025758168
-0.09778357
0.0861824
-0.18773231
0.12787576
-0.03677097
-0.05186599
-0.25703263
-0.018956654
-0.14548378
-0.37341
-0.11348873
0.16878913
0.38832897
-0.061440125
0.026720963
-0.10441779
-0.20530462
0.012844222
0.31503636
-0.13822168
-0.09217708
0.06450469
-0.11015467
-0.125363
-0.124052644
0.096837856
-0.11276324
0.06289957
0.21302985
0.016996296
0.121226124
-0.055943515
0.019238457
-0.067434676
-0.1505278
0.06421109
0.15653388
0.081352726
0.16555817
-0.13631208
0.14047456
-0.053333096
0.04624562
-0.09211514
0.3159869
0.052612107
-0.05826517
-0.14117092
-0.10243776
0.22666436
-0.41238073
-0.07737273
-0.018299598
0.13444303
0.017855704
-0.15869454
0.21398242
0.07140509
-0.028888067
-0.011002884
0.13951479
0.0026764341
-0.10681003
-0.16840303
-0.09815533
0.18400405
0.1753247
-0.15568371
-0.11848141
0.2610342
0.0048341774
0.027284162
0.1965252
-0.20412432
0.05063196
0.100124575
-0.00851027
-0.00503567
-0.122734606
0.36350557
-0.1049264
-0.11706252
0.14434482
0.1102032
-0.28797835
0.039270703
0.07273152
0.049887996
0.0042319023
0.18043682
-0.015127599
0.3425411
-0.082871266
0.09497285
-0.07045026
-0.020289429
-0.15630978
0.15751342
-0.025555354
-0.015552074
0.1666287
0.09426964
-0.088714495
0.10953005
-0.08032712
-0.012344424
0.06139283
-0.071483485
0.26436725
0.16450231
-0.079060756
0.18002157
-0.035292
-0.15524884
0.08946337
0.065698706
0.1313525
0.08922759
-0.18789497
-0.14056343
-0.046585053
-0.08649123
-0.17071524
0.08998826
0.042261895
0.10187812
-0.18098165
0.10321862
0.51813316
0.045572218
0.16334412
-0.19426799
0.06815391
-0.32467994
-0.050600566
0.10053319
-0.053701106
-0.050304256
-0.12618557
0.17889485
0.099759765
-0.02119181
-0.11019444
0.11913832
0.22022557
0.19966125
-0.08303408
0.31050867
-0.025609538
0.009829187
0.139395
-0.30065215
0.018779177
-0.04373756
0.01907724
0.013077111
-0.2341562
-0.20709181
-0.030423852
0.123275585
-0.11091726
-0.01720234
-0.08210367
-0.013821868
-0.108672604
-0.197806
-0.18481016
0.0625893
-0.45981166
-0.029442227
-0.019767419
0.18883926
0.03088302
-0.08882148
0.2843015
-0.03732802
-0.11270073
0.28955507
0.030042991
0.17060266
-0.22214119
0.075974755
-0.037987333
0.23201242
0.027793229
0.06916824
0.27824733
0.37235856
0.04095095
-0.20839022
0.12415514
0.24428415
-0.005310573
0.11302993
0.1862415
-0.08896265
0.22006519
0.14475524
0.040549513
0.07268986
0.10028241
-0.14411001
-0.12337626
-0.31265885
0.079058364
-0.054127485
-0.12234938
-0.07760049
0.2872769
-0.03549437
-0.11133426
0.09187984
0.0053758975
0.023520479
-0.021885287
0.008652991
0.3602022
0.17942733
-0.19728425
-0.017226603
0.055583008
0.006010207
-0.2772335
0.0015020393
0.22360903
-0.13292237
-0.037386563
0.04948709
0.28557357
0.007731334
-0.21202998
-0.010835093
-0.06560506
0.17726265
0.06582901
0.012759555
0.0333057
-0.15283053
0.30245587
0.046608217
-0.09708437
0.16135533
0.044325273
0.0536473
-0.20214619
0.09487547
-0.07224081
0.046560194
-0.27809587
-0.08011551
-0.07853416
0.3033466
0.20319669
-0.2530586
-0.11511058
0.2708939
0.01758818
-0.031536434
0.17130257
-0.062245328
-0.24283955
-0.06278668
-0.07252678
-0.112511665
-0.023076408
0.15598094
-0.038626533
-0.22532451
-0.074914575
0.08410463
-0.16204895
-0.053838734
0.04276929
-0.23402648
0.1107767
-0.10693218
0.094183885
0.012115732
-0.046591755
0.23296124
-0.31267977
0.14989342
0.086126335
-0.14945967
0.054706115
0.026098216
0.17275453
-0.10568734
0.05736997
-0.19889927
0.1274832
0.05087129
-0.026670413
0.05417261
-0.2578581
0.18086559
-0.002285164
-0.019478489
0.063624166
0.15052631
-0.045092747
0.22471784
-0.00039842704
0.10846148
0.020766027
-0.08872558
0.12292661
-0.083144374
0.18802336
0.13415802
0.2210801
-0.07764638
0.07927992
-0.25584012
0.038265806
-0.13989604
0.1699121
-0.068661116
-0.009562015
-0.16257046
-0.029754506
0.20463818
-0.08298109
0.0945885
-0.076369
0.21732664
0.031329565
0.005221932
-0.2452357
0.20358543
0.06336141
-0.0040683346
-0.005072693
-0.06076394
0.1856542
0.16451752
-0.16488871
0.12030803
0.07990619
-0.15985666
-0.037475668
-0.06797486
-0.2604498
0.10304351
-0.030882841
0.107567474
-0.21279188
-0.0576554
0.11752872
-0.18577261
0.15313508
-0.05597268
0.23172839
0.15602724
0.10936703
-0.03645339
0.06932876
0.06621883
-0.15257092
0.04318211
-0.00078585185
-0.17004779
0.018892977
0.008319487
-0.054794166
0.14193843
0.016550088
0.22421153
0.24818024
-0.05983047
-0.22947045
0.041978087
-0.07538912
-0.011696792
-0.16223612
0.18985349
0.049532264
0.118544415
0.10842889
-0.08397253
0.036968768
-0.11290943
-0.019742817
0.101079784
-0.070814565
0.06288506
-0.25581068
-0.14911056
-0.00016412875
0.018243507
-0.001779926
-0.017906457
-0.27959394
0.12420689
-0.054170217
-0.17104603
0.124448776
-0.10025519
0.1326867
0.07485981
-0.15960233
-0.057678785
-0.02763806
-0.21751766
0.069584206
-0.093359746
-0.19131497
0.023776129
-0.0553895
-0.076783024
0.03494596
0.044319198
-0.06903421
0.011453442
0.03582645
-0.107051946
-0.07842547
-0.1207398
-0.011779996
-0.35592812
-0.033827588
0.14022078
-0.12438058
0.04954797
0.028877264
-0.0034134793
-0.01733727
0.075489044
0.17076308
-0.42659876
0.09838436
0.030682033
-0.102034435
-0.26152512
-0.17972232
-0.059728283
0.20982184
-0.13474947
0.01188695
0.06860139
-0.006170162
0.15631673
-0.007232621
0.18061872
0.025669448
-0.23034361
-0.03658688
0.17588188
0.018148433
-0.030244611
0.081747636
-0.049635217
0.037602164
-0.035996683
-0.062167104
0.03031717
-0.062190045
0.20636438
-0.32177418
-0.079897985
0.023682604
0.13785581
-0.15825227
-0.09075631
-0.12603517
-0.10713221
0.17086454
-0.1995295
0.12793025
-0.07250341
0.07777831
0.27631357
0.06555219
-0.027902
0.015803317
0.13653637
0.004192757
0.14696784
0.1152524
-0.21424487
0.036591727
0.16489545
0.29579458
0.25474235
-0.12139269
-0.13259612
0.27996317
-0.16889602
0.17461874
0.062317554
0.17750083
0.346668
0.12271273
0.041274376
-0.03534995
0.055876322
0.09985695
0.005470974
0.25901282
0.083104305
-0.35031503
0.08769934
-0.0135098025
-0.040141057
0.15676856
-0.029846773
-0.0821434
-0.08403887
0.083680816
-0.009303892
0.102290556
-0.17785224
-0.085714385
-0.25414503
0.07204049
0.0058383415
0.10835409
-0.004315423
-0.30440256
0.054966137
-0.038734466
-0.21631777
-0.15060088
