768,
0.02070035
-0.26381752
-0.109437965
0.28752035
0.27741742
0.04697851
0.06232049
0.02534832
-0.1447841
0.23507045
-0.22111419
-0.04685695
0.046959087
-0.082560815
0.04996879
0.09571232
0.008569051
0.36251146
0.0260797
0.14226137
0.30309707
-0.051855896
-0.04197253
0.045346443
0.09475846
0.034636382
0.11646519
-0.1334133
0.10428165
-0.16626956
0.00832749
0.11973997
0.18912467
0.27689803
0.07897856
0.23170735
0.000312129
0.014473449
-0.22102973
-0.024565676
0.003090758
-0.10433604
0.2853953
0.022545315
0.10485215
0.2518228
0.12639603
-0.02664931
0.24421635
0.26389793
-0.14345007
-0.1386418
0.14751926
0.08803791
-0.054780703
-0.43308225
0.09917608
-0.09138685
-0.09274197
0.052407157
0.116073124
0.1792314
0.0383317
-0.078103304
0.21527658
-0.11032295
0.11937896
-0.20410016
0.05800078
0.113317944
-0.2911891
-0.029082214
0.086461134
-0.21789859
0.26646724
0.22349393
-0.22235467
-0.06103744
0.10540464
-0.037540305
-0.18499506
-0.2852002
-0.21575433
0.11257941
0.12662187
0.046150286
0.096950255
-0.028112585
0.08423471
0.11108661
0.15709656
-0.29016504
0.21689186
-0.08963806
-0.10959007
-0.040129654
-0.26342067
-0.015940242
-0.15414432
0.10543685
0.061346583
0.09905253
-0.08611199
-0.12660624
-0.041402433
0.14454742
0.025375245
-0.1839261
-0.20458862
-0.12890305
-0.022538885
-0.088399075
-0.009953114
-0.31460136
0.0609507
0.06189194
0.057863254
-0.072395496
-0.36916256
-0.12763222
0.2069409
0.007317911
0.050612427
0.051220894
-0.05698296
0.06826477
0.1270456
0.11092178
0.010224787
0.067222774
0.21907592
-0.16246189
-0.009073791
0.09692653
0.20232728
0.044096738
-0.054290734
0.014336729
-0.21533726
0.046317317
0.010951103
-0.06587605
-0.12037778
0.07907843
0.31283185
0.11936858
-0.108467385
-0.02433056
-0.16461235
-0.0720509
0.0033333327
-0.07864571
-0.05848645
-0.115690194
-0.0808161
-0.012152059
0.026456723
-0.06656649
0.2146631
-0.012059148
-0.04176125
-0.016156502
0.0658578
0.037369292
-0.1294411
-0.40530923
-0.04097866
0.068414204
0.084612004
0.051244408
0.004814133
0.059477147
0.0642849
-0.23250113
0.035881765
0.2860114
0.029894272
-0.13618329
0.11231023
0.07582704
-0.033895604
0.1005958
-0.073661596
0.00055960653
-0.15348554
0.0011810969
-0.16001557
0.04925687
-0.11972455
0.14270708
0.11016513
0.2206279
-0.019822426
0.08536839
0.11511053
0.09296021
-0.09397602
-0.02618078
0.24155748
0.06958228
0.28420478
-0.039788462
-0.14994161
0.1268043
0.09740732
-0.21301882
0.009231792
0.038562004
0.030902475
0.075958766
-0.08275622
0.048161056
0.08463799
0.054261222
0.012080411
0.23679526
-0.027818918
-0.14129707
0.08738051
-0.022424245
0.17605244
-0.090712346
0.29320657
-0.26775014
0.043815695
-0.3009077
-0.29701447
0.40858486
-0.12158685
-0.015656207
-0.13927561
0.12341883
-0.04618031
0.1023501
-0.11940974
0.012814962
-0.02374557
0.2729956
-0.21250857
0.031799182
-0.056706034
0.001841093
-0.104608186
0.18422002
0.11357772
0.12216599
-0.0976722
0.10433003
0.075183704
0.17550379
0.18600707
0.18153498
-0.3129533
0.00063638756
-0.07383489
-0.19081278
0.038167797
0.051013313
0.08734302
-0.11234989
-0.013049827
-0.05772775
-0.20746545
0.17040235
0.05265846
-0.12080126
0.054514036
-0.065734446
0.15276594
-0.18349901
-0.1408767
-0.001989921
-0.116169564
0.13560148
-0.054605935
-0.17119253
0.01653528
-0.1665559
-0.04943265
0.11096335
0.062021215
-0.013028008
-0.20029381
0.07942502
0.0036409337
-0.14590439
0.030574003
0.2633954
-0.05956436
0.20202518
0.093331635
-0.30697048
0.1586764
-0.14571838
0.22000374
-0.3711374
-0.4775166
0.061319616
0.4000365
-0.0050657103
0.012353624
0.056722857
0.026670922
-0.15771909
-0.22767408
0.514864
-0.011186908
-0.037112236
0.01657592
0.3128353
-0.05507599
0.06958675
-0.3734361
0.12697531
0.04255162
-0.02677292
-0.028197529
-0.021563917
-0.08318336
-0.097636886
0.27934948
-0.0116877835
0.058900706
0.27292907
-0.05610526
-0.34703133
-0.08979953
0.017078413
0.030847799
-0.03954773
0.11399625
-0.20446007
0.060839206
-0.21919906
0.23393412
-0.21988167
0.1401213
-0.19098051
0.14741442
0.12699358
-0.06893795
-0.21087012
0.033930402
-0.105372205
-0.32014525
0.04090979
0.21741408
0.05213009
0.022838943
-0.11526866
0.056609686
0.055165175
-0.002600664
-0.23580575
-0.12052114
-0.04599558
0.04972265
-0.081279404
-0.06028178
-0.15129124
-0.055785336
-0.100772835
-0.0011012299
-0.22228268
0.12319743
0.057879873
-0.013330787
0.08638116
0.2209117
0.0129802525
-0.053897653
0.07447413
0.10145077
0.31643027
0.07178739
0.019141933
-0.09755438
0.019596808
0.21428815
-0.06250634
0.25420865
0.059234247
0.21797225
-0.12541834
0.17063326
-0.14692456
0.01599873
0.052731108
-0.07835726
0.09164404
0.10236842
-0.026702005
0.043985087
-0.019529175
0.18789123
0.06458127
-0.10764794
-0.10023477
-0.32269463
0.16616078
0.107775405
-0.27181318
-0.0042293156
-0.083085254
-0.15175298
-0.065333635
-0.10925155
0.23732165
0.033939235
0.076885484
-0.006080852
-0.34186614
0.081138305
-0.28294665
-0.0073636035
-0.01889806
0.22516106
0.064313956
-0.147935
0.234564
-0.0010510761
0.0261119
0.11488345
0.16924712
-0.025724154
-0.34989038
-0.21188392
0.08822699
0.050411634
0.17346334
-0.3287121
-0.09626494
0.0645014
-0.06354933
0.21295393
0.08849865
-0.33802563
-0.038338777
-0.11176771
-0.101730905
0.10843677
-0.072990365
0.13542713
-0.007796479
0.037134185
-0.122677505
-0.2435656
-0.15228164
-0.020301191
0.12123306
-0.1761461
-0.13238728
-0.12879483
-0.17173421
-0.15775746
0.041172974
-0.094110295
-0.07858202
-0.23423764
0.09221096
0.2995743
0.15244445
-0.08458979
-0.007015019
0.0022847878
-0.023423057
0.023270262
-0.09368109
-0.19493802
-0.019752502
-0.018099425
0.0067349225
-0.1578778
0.20407733
0.30700004
-0.18920289
-0.21014121
-0.37085068
-0.09353942
0.054188155
0.026568487
-0.09092545
-0.049421195
-0.056853015
0.046363883
0.03545174
0.045635518
0.14354531
0.096249096
-0.03859535
-0.12051174
-0.012625273
0.26946735
-0.145198
-0.07824692
0.0042380854
0.14835392
0.14930531
0.10212158
0.07590143
-0.07013751
-0.018594017
0.02654764
0.064542755
0.03171241
-0.21614878
0.2038788
0.005149096
-0.14207454
-0.1855798
-0.11536628
0.49884805
0.19929866
-0.10643428
0.06412264
0.124164954
0.18597583
0.09274517
0.0033107176
-0.15515439
-0.018443353
0.23465495
-0.03578894
0.07725544
0.066453926
-0.044483665
0.087830685
0.0004026958
0.07230502
0.24782036
0.2663824
0.030957777
-0.06298841
-0.111105
0.2456787
-0.1295095
0.17812532
-0.22892717
0.12617221
-0.055409543
0.015039258
-0.075683266
0.19727977
0.006227917
0.062125243
-0.102955945
-0.0072768624
0.2374397
-0.042388037
-0.04145384
-0.0057536857
-0.05038299
-0.14245918
-0.0030712637
-0.0054985285
0.06786444
0.018405298
-0.059205733
0.1609597
0.15716876
0.15352693
-0.040080547
0.06000444
-0.032522943
-0.1780893
0.11148186
0.17438014
-0.060998593
0.17137763
0.027945207
-0.15594813
0.028430589
0.166638
-0.1231426
0.31407118
0.13613993
0.29604283
0.08851088
-0.015014522
0.00934505
-0.16911268
-0.12242071
-0.11155396
0.08284823
-0.13361825
-0.084777184
-0.022230664
0.026612435
-0.2664601
-0.18149945
0.24212389
0.074901395
-0.079803005
-0.03671476
-0.13481303
-0.06218084
0.03303719
0.10476929
0.140005
-0.29966038
0.09956282
0.049664885
0.17953509
0.055614397
-0.13624017
0.20637846
-0.0052754497
-0.09917595
-0.103059046
0.08289246
-0.005451409
0.147635
0.29406592
0.023214243
0.019129096
0.0058556506
-0.087962285
0.12904856
-0.02422269
-0.08033734
0.40498677
-0.09103694
-0.17973302
0.020829454
-0.050140493
-0.046692614
-0.11741067
0.025107276
-0.039374683
-0.12054315
0.020934504
-0.02999223
-0.13352895
-0.12862381
0.0072520683
0.0658821
-0.01916152
-0.10735452
0.115993835
0.015388816
-0.1727894
-0.02295249
-0.046649277
-0.04454727
0.02998479
-0.052566804
0.07686195
-0.009525116
-0.09644662
0.16238953
-0.18769
-0.072339125
-0.09397457
0.012919434
0.18841693
0.08299826
-0.008553483
0.013990113
0.32501134
-0.07871157
0.0062341434
-0.07298151
-0.053465232
0.1334106
-0.33629513
-0.198976
0.010472931
0.2143827
0.077760726
0.15493199
-0.02902763
-0.07187962
-0.10737682
0.14472163
0.14716142
-0.08585183
-0.44842398
0.02117421
-0.3716636
-0.24145797
-0.14217088
0.13480812
0.08122014
-0.03089071
0.040743608
-0.029901076
0.06979806
-0.036974546
-0.037134577
0.037101246
-0.059365537
-0.28095224
0.22835837
-0.019966844
0.1403578
0.062638834
-0.10259444
0.057585314
-0.09128863
-0.070999146
0.057102602
-0.08390356
0.14026473
0.05943988
-0.023486111
-0.08654586
0.12698172
0.11778328
-0.048983507
0.19986941
0.04280747
-0.037111614
0.05372356
0.27627707
0.01891204
-0.18418871
0.076992445
0.16566347
-0.14811367
-0.08476583
0.062371913
-0.07385549
0.14416125
-0.2607831
0.05156598
-0.03949869
-0.023345836
0.096516274
0.02638021
-0.18166788
0.14150713
0.03295153
0.12515031
-0.11125113
-0.12599376
-0.115008116
0.09325791
0.033566896
0.07687151
-0.035820853
-0.052912556
0.14747337
0.22290972
0.08158255
0.055414066
0.11556228
0.060992945
-0.10956688
-0.028580636
-0.02032779
0.13382916
0.182282
0.0131893
-0.18770574
-0.063402764
0.18365784
0.15444356
-0.005864244
-0.12320456
-0.014037902
0.1326876
-0.18228194
0.13229541
-0.1739553
0.30188808
-0.091365375
0.07283259
-0.052669518
