768,
-0.060439337
-0.022395613
-0.043744877
0.0033351416
0.09319515
-0.04667991
0.025648212
0.013052534
0.038581565
0.096690126
-0.095632136
0.0245746
0.17747997
-0.037064835
-0.013357562
-0.006248009
-0.071555674
0.1273672
-0.048322372
0.0068673254
0.015859796
-0.11559097
-0.08703448
-0.05632266
0.07187427
0.12315826
0.03869139
0.012113235
0.004531652
-0.0071375133
0.009121665
0.06517838
0.123721756
-0.15571652
0.018170636
-0.0310075
0.07205119
-0.028431175
-0.10922275
0.05920612
-0.022664202
0.017853847
0.2390825
-0.083142936
-0.10015823
0.007180066
0.1001158
-0.035504803
0.0322433
0.29806274
-0.07317703
-0.016177617
-0.043680962
0.06408731
-0.04240707
-0.18553004
0.08904372
-0.025176499
0.043186102
-0.051153056
0.018586367
-0.008809907
0.10540544
-0.029874144
-0.11492315
-0.12901881
-0.015097448
0.0062126988
-0.04062068
0.080198534
-0.080039054
-0.005895917
-0.11685373
-0.09520823
-0.026935799
0.03441383
-0.07955977
-0.07508117
-0.0643403
0.0016954069
-0.13503902
-0.19473538
-0.17980157
0.05019549
0.07330669
0.012085014
0.14025848
0.059855476
0.070644185
0.05943864
0.09555869
-0.0039431984
-0.004342522
0.07078661
-0.20832717
-0.018118419
-0.26466715
-0.022139609
-0.13622275
-0.09050152
-0.11418494
-0.07017862
0.025645649
0.0037701172
-0.020461543
0.1700911
-0.01915721
0.066958055
-0.1371634
0.07164349
0.0109593915
0.08216698
-0.104194574
-0.16234443
0.046163525
0.05658701
0.011308292
-0.054245394
-0.17894207
-0.017237285
0.23282024
-0.11400682
-0.013997253
-0.026599564
0.084628575
-0.07532749
-0.2582639
-0.02189131
-0.01167471
0.00988996
-0.043791477
0.041390356
-0.003808547
-0.026623132
0.19740197
0.05332244
-0.12726074
-0.020567285
0.071527556
0.031153638
0.03279269
-0.1097276
0.032945473
0.004533707
0.013697028
0.026969088
0.012993494
0.025438404
-0.11762652
-0.11182058
0.009054763
0.06858787
0.017590309
0.014499229
0.009034315
0.060028594
-0.03243614
-0.055773675
0.07116141
0.011037095
0.110270046
0.07285494
0.0064716577
-0.038900115
0.0056063165
-0.08333751
0.17230187
-0.001545934
0.04122353
0.0074454364
0.20948969
0.089659244
0.15611361
-0.05891614
-0.102969706
-0.08649298
0.08500992
-0.018554088
-0.093809746
0.05178167
-0.062063523
0.14384313
0.026888315
-0.010992709
-0.020219084
0.014319435
-0.031573813
-0.044959467
-0.085976504
-0.11553926
0.0606814
0.14454712
0.120438956
-0.06879952
0.14322747
-0.024095554
-0.043923035
-0.04103073
0.08200803
0.040151056
0.120751485
0.083181456
-0.06384206
0.06711302
0.027295476
-0.20918293
-0.10532194
-0.01919533
0.09433073
-0.00346029
-0.05797328
-0.0022250195
-0.030333368
-0.0104245385
0.020646803
0.06265183
-0.029835112
-0.21449876
0.029245876
-0.16951159
0.065785915
0.005244908
0.09251784
0.00088709994
0.012511486
-0.16230318
-0.11620543
0.05314106
-0.026903948
-0.0330633
-0.092605636
-0.16302851
0.06463254
0.029968344
-0.02133177
0.027231004
0.02914134
0.097212344
0.06388478
0.0028731774
0.00252002
-0.020918466
-0.02541583
-0.01424583
0.18495063
0.08192211
-0.035837535
0.09452645
0.036821485
0.1460258
-0.010109629
0.01782006
-0.12706016
-0.0018764734
0.11486034
0.03817723
0.064163744
0.1910143
-0.028464964
0.021438556
0.10366482
-0.006052025
-0.11520049
-0.08875531
-0.082108386
0.04150863
-0.121023044
-0.00048807813
0.07928886
-0.083882906
0.02578834
0.007124809
-0.17714718
-0.0063457424
0.023082802
-0.106053844
0.04594226
-0.25532743
0.087955885
0.0026562102
-0.018330006
0.083640665
-0.049709022
-0.029967967
0.08138565
-0.00632041
-0.017477827
0.20685697
0.11862911
0.0132295005
-0.053520303
-0.030957466
-0.07204695
-0.03174284
0.0039967503
-0.21203715
-0.24227305
0.12232322
0.1646753
0.018930962
0.015159819
-0.008965658
0.09433525
0.068774976
1.8478502e-05
0.2402644
0.09960935
-0.16035755
-0.08729045
0.16605535
-0.19404286
-0.0721758
-0.27925554
-0.031911157
0.05819896
0.10803888
0.0019362796
0.029367045
0.022544913
0.0038918366
-0.014378321
0.04043472
0.028912438
0.07145627
-0.11058083
-0.025583573
0.13633512
-0.014538649
-0.027890073
0.14471377
0.09964614
-0.017553275
0.10844163
-0.13643485
0.13153508
-0.13515031
0.0069515062
-0.036810268
-0.07286244
-0.0032897547
0.0031324085
-0.0068691396
0.01726555
-0.008708809
0.0006211024
-0.096028104
0.12729023
0.093796365
0.020816285
-0.18299645
0.14973308
0.027482225
0.014978851
-0.21655942
-0.04724645
0.030900912
-3.313293e-05
-0.064009555
-0.11724861
-0.09830657
0.013433218
0.06505389
0.06014254
-0.05019361
-0.019457968
0.040993754
0.022686819
0.09836382
0.15899913
0.094121754
-0.035041284
0.20398012
-0.057167362
-0.53464645
-0.05943256
0.00678021
0.003167662
-0.09668563
0.028302228
-0.02862381
0.10185528
-0.011520766
0.0747563
0.04687361
0.053621244
-0.033723857
0.026611336
0.11738415
-0.061335232
-0.10836537
0.2019145
-0.09655129
0.06593517
0.079066865
-0.019120628
-0.013210413
-0.0034727184
-0.14038733
-0.068276554
-0.1193947
0.03211039
-0.14503038
-0.00777156
-0.08824803
-0.08697472
-0.019848019
-0.05173527
0.003247423
0.13615645
0.04283682
0.024847595
-0.22946908
0.13067566
-0.098781526
0.0056067975
0.008401282
0.0056706024
0.07436358
-0.14534411
0.36002767
-0.045275792
0.07968304
0.054893155
0.03631507
-0.07791453
-0.24178313
-0.08823811
0.077802956
-0.10069811
-0.03722083
-0.16410428
0.045268442
0.09837711
-0.080534086
0.07978234
0.05172531
-0.2732353
-0.18603684
0.06459844
-0.042901378
0.13938473
0.10986881
-0.0032180261
-0.08094188
-0.013882505
-0.15978599
-0.2565295
1.2506993
-0.14986046
0.078840256
-0.02671514
-0.049633417
0.025374563
-0.007985984
0.043883506
-0.016628087
0.008455044
-0.033777736
-0.017463578
-0.0030527548
0.24630974
0.08421168
0.08033251
0.01571029
-0.0030900817
-0.03432335
-0.0037722543
-0.06698594
-0.0710972
0.015505459
0.026587082
-0.09676418
-0.06774862
-0.009656917
0.050808396
-0.20076251
-0.11451076
-0.022049602
0.092946924
0.07877722
0.028877363
0.075443186
0.03460087
-0.15729132
0.01871008
0.07382698
0.029475976
0.0027928366
0.079057924
-0.12863117
0.027927497
-0.061446365
0.09209209
-0.054640573
0.040438175
0.06840833
0.06058721
-0.0050607966
-0.05338667
-0.012447579
0.1713305
0.006961683
0.07619311
-0.13170028
0.06620094
0.17051671
0.058558006
0.04000373
0.03956956
0.0111358855
-0.123962946
0.2548537
0.11640553
-0.04606898
0.14085615
-0.012102056
0.09635633
0.07141959
-0.097547315
-0.122136
0.0065399036
0.028109252
-0.015226966
-0.022914264
-0.14606696
0.0350406
-0.1359844
-0.09997096
-0.0041409214
0.09768724
0.23192285
0.02405514
-0.1364647
0.010535984
0.123876736
-0.060101803
0.16992317
0.02544664
0.08891348
-0.007783029
-0.0022758178
-0.027553732
0.07648461
-0.012042896
0.041603707
0.038906172
-0.04204294
0.21426632
-0.059678566
0.0074023404
0.057015847
-0.034552287
-0.00050072564
-0.08571587
0.13642944
-0.00047545595
0.083640955
0.06055975
0.00066650816
-0.009462664
0.10898763
-0.053549763
-0.31167886
-0.14102209
0.031183371
-0.035354078
0.0125220325
-0.07002345
0.16664258
-0.042726476
-0.06593926
0.0012662726
0.081586264
-0.026701212
0.017165288
0.029317545
-0.0053477697
0.05998704
-0.10219434
-0.0166308
-0.17743443
0.2305388
0.042360526
0.045242105
-0.0494134
-0.0042586317
-0.04347445
0.06140605
0.090572104
0.092508614
0.009790988
0.13502942
-0.106355466
-0.005805074
-0.17013595
0.03295606
-0.06723254
0.035094213
0.04072907
-0.08321775
0.10789674
0.1211285
0.17688452
-0.048269454
0.22994283
0.039099593
-0.077836916
-0.06237279
0.0005583662
0.02737956
0.030217662
0.024978958
-0.013326895
-0.0015931373
0.047160085
-0.13617632
-0.069861315
0.2428142
-0.06094357
-0.08204761
-0.00883869
0.04858587
-0.0581213
-0.054598436
-0.07569324
-0.1417914
-0.18861203
-0.08233923
0.16278334
-0.0021869172
-0.08312902
-0.0038711042
-0.21023944
-0.10707603
-0.039411526
-0.054827128
-0.06514429
-0.15584743
-0.0057965606
0.05901755
0.068199925
0.03705963
-0.009499103
-0.12396024
-0.001369804
-0.024526745
0.08760253
-0.013960936
-0.028455362
-0.06372444
-0.07773422
0.028811673
-0.1333921
0.010284414
0.023863617
-0.0034245339
-0.013393274
0.07499772
0.056294337
0.023092097
-0.1407071
-0.053066164
-0.089017026
0.16450903
-0.16873555
0.007647346
0.016800752
0.09415339
-0.05347921
0.15154278
0.041694462
0.04000335
-0.03390631
0.0464645
-0.0051127463
0.020434074
-0.24217267
0.00028541847
-0.2035628
0.014950566
-0.10190678
-0.06113016
-0.031008707
0.071208134
0.16110887
0.012217687
-0.02685314
-0.10514236
0.024073593
0.01772493
-0.07486127
0.021776143
0.20048614
0.13162903
-0.045496326
-0.08620755
0.027144054
0.0043852143
-0.10884042
0.014611451
0.009489666
0.0010424679
0.14333484
-0.0055635925
-0.013065979
-0.02775956
0.072913826
0.028282605
0.05418209
0.06716491
0.03685489
-0.0413238
-0.11554546
0.020621624
-0.086547494
0.07860979
-0.09378198
0.007959874
-0.023653703
0.020950252
0.05285081
-0.12779835
0.041463908
-0.16318673
-0.05513262
0.077448055
0.04310968
0.027890733
0.08789573
-0.013014626
0.08320485
-0.06108062
0.032461587
0.04925358
-0.13431625
-0.014282186
0.14200212
0.15403691
0.10680164
-0.09759516
-0.044949144
-0.15369876
0.10877136
0.0024608483
0.06518517
0.047943585
-0.048636913
-0.11968353
-0.08380722
0.033037536
-0.102740735
0.13198033
-0.19802344
0.014415078
-0.07736775
-0.020903347
0.049828023
-0.11265999
-0.18578984
-0.024693353
-0.108079776
-0.0915934
-0.08637873
-0.014856818
0.106844984
0.06329443
0.06177772
0.121512696
