768,
-0.012379296
0.014348222
-0.0044527324
-0.045072738
-0.01240529
0.08091055
0.155593
0.05403776
0.06750899
0.030687397
0.3024735
-0.009818165
0.08117414
-0.17205375
0.05229543
0.1354616
-0.21003646
-0.21952108
0.049703334
0.02313847
0.022931844
0.002224863
-0.070906185
-0.035156444
0.20410748
-0.12485707
0.13383754
-0.19213927
0.019043779
0.053138975
0.049102847
-0.16615224
-0.0754993
-0.053072628
-0.020855907
-0.19295
0.22115313
-0.19901508
-0.13764964
0.16515434
0.010706844
-0.07183089
-0.14752644
-0.005049029
0.10965726
0.23185188
0.0131124295
-0.03172047
-0.023690684
0.18010287
0.018338865
0.098530956
-0.14693959
0.221675
0.12269299
0.09875518
0.247721
-0.1015829
0.11976532
0.035988748
-0.029132519
0.15158747
-0.11415251
0.18912488
-0.3242286
-0.0063471473
0.16376716
0.12220355
-0.0861179
-0.013036979
-0.052969817
-0.10828918
-0.1817748
0.0048571206
-0.06885697
0.01194344
-0.05593659
0.0070199906
0.104598984
0.16985619
0.038501352
-0.09475821
-0.12970383
-0.068997696
0.02899078
-0.017656181
-0.23230842
-0.82934076
0.11314697
-0.1687792
-0.031707413
0.1016525
-0.036213405
0.063446715
-0.08697436
-0.0060940227
0.14906256
-0.05009112
-0.21104838
0.066510335
0.028092675
0.1158744
0.19580097
-0.1624612
0.13696064
0.12521335
0.03335763
0.14559692
0.12056818
-0.26126656
-0.11684373
-0.14144322
0.069536835
-0.2955495
0.072842576
0.06602232
-0.023664823
0.27203813
-0.11844831
0.10308055
-0.07621222
0.07358071
0.17828897
0.30658296
0.0755433
-0.23774813
0.16169547
0.0026795575
0.072205
0.034931894
0.08483936
-0.036620066
-0.05343849
0.051748697
-0.11685531
0.17397839
-0.24470322
-0.08354719
-0.34163013
0.018376809
-0.05881843
0.04862901
-0.23429053
-0.09569517
-0.044188183
0.02976631
0.2690903
-0.002194591
0.16594344
0.0668149
-0.016379697
0.060249288
-0.31729773
-0.13450651
-0.10723448
0.11292773
-0.17713878
-0.052137975
-0.25409576
0.10667464
0.31835744
-0.09365395
0.12744707
0.017572591
-0.23657884
-0.077754974
-0.09674659
-0.1238214
-0.23487899
-0.21386082
-0.112356395
0.016578935
-0.046550676
0.20708878
-0.029475143
0.09789171
-0.06120889
0.035287265
0.035705503
0.18173358
-0.11351187
0.19124521
-0.037715457
0.038816903
0.13485382
0.09975368
0.07388479
0.055447336
0.0040234313
0.16805531
0.034927677
0.07262303
-0.08708303
-0.08337155
-0.18134488
-0.057459503
0.12239978
-0.18634854
-0.23672165
-0.1952053
-0.06142633
0.24561952
-0.064235985
-0.05183968
0.09910897
-0.10095105
-0.066365235
0.030682353
-0.11143174
0.2727044
0.16730812
0.040085237
-0.089661546
-0.22507271
-0.159027
-0.11117645
-0.03757684
-0.0045636245
-0.101690605
0.022615632
-0.06478169
-0.058231384
0.18412037
0.1592724
0.07223112
-0.008240955
0.063501894
-0.0065254318
-0.1548029
0.122386396
0.13906586
-0.10959109
0.21397743
0.028402578
0.13976261
-0.011510991
0.04868854
-0.047400273
-0.035374776
0.08729072
-0.18667996
0.008716171
-0.19849251
0.036718562
-0.11307488
0.006498353
-0.101044744
-0.14648342
0.16499484
-0.034259144
-0.17418118
-0.17964822
-0.0047325417
-0.012874089
-0.08938927
0.11376282
0.3003842
0.10216453
-0.073336326
0.06574543
0.12904471
-0.019826153
0.04955567
0.18150364
-0.27041656
-0.13421118
0.65606785
-0.032256044
-0.003997939
0.091273904
0.26121956
-0.13429195
0.19111726
0.14293905
0.12402167
-0.03237359
-0.07088953
-0.07639657
0.18776739
0.008035767
0.05524508
0.13889255
-0.0785988
0.1757006
-0.09125435
0.12744184
-0.09590819
-0.17723696
-0.008901862
-0.027369034
0.09942422
0.11945573
-0.2737533
-0.043033563
0.29472783
-0.2675935
0.08632969
-0.15584458
0.056865692
-0.075607516
-0.024506105
0.08967165
0.036124106
0.0040310193
0.21818857
0.04247129
0.11454656
-0.16826382
-0.059011262
-0.11175647
0.045981098
-0.004730815
0.4867049
-0.039340485
-0.22350262
-0.011149764
-0.2915264
0.07922922
-0.07210862
0.21013841
-0.08038412
0.09503273
0.03422834
-0.1323431
0.23086424
0.050848577
-0.20079389
0.19655547
0.02793312
-0.12390945
-0.07424601
-0.01775264
0.1675119
-0.015975852
0.13732706
-0.15928447
0.38926706
-0.0042313756
0.017542815
-0.0446935
0.0008881458
-0.114534736
0.25587294
-0.08043434
0.35012236
0.1748172
0.021464078
-0.2667714
-0.20561911
0.01590557
-0.12838177
0.1799881
-0.088451885
-0.024350675
0.1353669
0.008506456
0.11357571
-0.12906808
-0.10530546
0.056471657
0.024469305
-0.060273115
0.02808783
-0.12912345
0.014083346
-0.34086218
-0.018941125
-0.050269302
0.12974405
0.012473411
0.20904478
-0.07433034
0.21350309
-2.9878829
-0.051381767
0.14264284
-0.079322554
-0.06763872
0.2539637
0.18843143
0.009990267
0.18879008
-0.011036488
-0.0625463
0.08269697
0.107457496
-0.026098464
-0.32314596
0.04206796
0.05812962
0.29191267
0.033064738
0.16791181
0.0029781412
-0.20476753
0.09564134
-0.13595691
0.17567277
-0.030254837
0.048722286
-0.033768218
-0.09519132
-0.102288626
-0.08767771
0.017230265
-0.057167575
0.14701511
-0.15486047
0.101670206
-0.04247444
-0.11333911
-0.14779708
-0.09414818
-0.2755535
-0.21300893
0.030041499
0.1437531
0.052278116
-0.24965179
0.1337471
-0.21917081
-0.009117103
0.26619965
0.11913051
0.021140175
-0.08644971
0.012353553
0.029133094
-0.058175456
0.01774842
0.14167318
0.17458537
0.13772792
-0.18140376
0.01593653
0.20347804
0.066218294
0.14351435
0.04297328
0.07412017
-0.025264941
-0.13974743
0.20339009
-0.11828464
0.15120709
0.118904464
-0.27604988
1.6105671
0.032740686
0.15665676
-0.16812178
0.08754006
0.14450803
0.22068103
0.07442191
0.014011987
-0.14879185
0.022442786
0.16477516
0.04735482
0.20962463
0.3032043
-0.029832037
-0.13446727
-0.19306432
-0.072618924
-0.14449021
-0.12947859
-0.003493295
0.28816634
0.08844808
0.044275377
0.011326684
0.14317428
-0.09367175
-0.04816156
-0.096564986
-0.19664937
-0.05874775
-0.18242086
-0.3688499
3.849068
-0.09892496
-0.035064396
0.049440473
0.08361198
0.25125688
-0.10279339
0.09682589
-0.29162392
0.07839953
-0.09004293
-0.06306072
-0.13141532
-0.00076966395
-0.066267416
0.36277008
-0.041937668
0.010638003
-0.114313185
0.1313123
-0.077927865
0.07331934
-0.046777677
-0.004307079
-0.114151895
0.047490697
0.043709252
-0.15839574
-0.08276612
0.063536294
-0.047261577
-0.08803583
-0.06689825
-0.049939387
-0.2167595
-0.04501134
-0.07713526
-0.0012026398
-0.06287112
0.024191612
-0.05802047
0.061375327
0.105893284
0.01987229
-0.10490675
-0.13099317
-0.26912096
0.04507244
-0.03676442
0.07567295
0.12888579
-0.09252044
0.013375332
-0.12862481
-0.11480045
-0.124745816
-0.10491914
-0.046325516
-0.3042556
0.035528425
-0.1124172
-0.07524049
0.00812914
-0.25517014
0.030016549
0.23826511
-0.17992716
-0.10315137
-0.023548879
0.014136236
0.20478395
-0.17341174
0.15418142
0.048663426
-0.07973765
-0.0075500472
0.25583315
-0.20868734
-0.15328352
-0.08147009
0.25861508
0.36969972
-0.17247802
0.14723909
-0.014825506
0.08156072
-0.029887633
-0.11907155
-0.019520711
0.1372966
-0.08700264
-0.043824572
-0.290165
-0.15796266
0.0047715004
0.029768972
0.0006366691
0.086674936
0.13762408
0.047473636
-0.08916109
0.14308746
-0.110196225
-0.07419107
0.08455382
-0.07840133
-0.014910395
0.24917349
0.09851246
-0.013346638
-0.13149254
0.14435078
0.047063954
-0.119192004
0.22154796
-0.14149557
0.15481792
0.028138483
0.27679157
-0.056556005
0.29770026
-0.15242396
-0.14211588
0.04824487
0.051145304
-0.24876912
0.14711161
-0.03684957
0.034200326
0.03485591
0.09649086
-0.002944817
0.0010233298
-0.117957816
-0.30175903
-0.104043625
-0.087887235
-0.079002656
-0.12622295
0.14096871
-0.017599506
0.24898699
0.10703741
-0.08296666
-0.067199945
0.10821366
-0.089861244
0.12027996
-0.068952076
0.11849982
-0.18197033
-0.113189705
-0.026780136
0.07915636
-0.04583228
-0.052018117
-0.07990913
-0.0022927145
-0.13758327
-0.02559659
-0.13734768
-0.12316564
0.026384871
0.12720288
-0.022807391
0.09698167
-0.0073101753
-0.0056895143
-0.04923707
0.032313805
-0.19533867
-0.0474555
-0.17259648
0.10745659
-0.052414704
0.1020686
-0.026180135
-0.029487887
0.25587824
-0.11691446
-0.01725394
-0.053564128
0.10267063
-0.08423278
0.026397143
0.11933875
-0.096088514
0.020718312
-0.1392841
-0.22855234
-0.259889
-0.25050443
0.12404864
-0.13548246
-0.0062826155
-0.28457576
-0.12420433
-0.029676188
0.0455433
0.0053763413
0.16632947
-0.14238225
0.02087739
-0.12926506
0.015561043
0.17643307
-0.21712452
0.09718853
0.09867221
-0.10299756
0.15900327
0.18162842
0.24923293
-0.019130666
0.07608617
0.09927537
0.16312788
0.10649947
0.084540606
0.07134929
-0.0019355789
-0.051919125
-0.17568202
-0.036662873
-0.059382882
0.11216486
0.1388577
-0.13169019
0.017795127
-0.075413555
0.2323692
-0.08131513
0.0117390575
-0.17309639
-0.11894987
0.032129575
-0.0723168
0.095462985
0.009683969
0.0022046748
0.024560478
0.13155876
0.14927791
-0.06846727
0.07249494
0.20334163
0.19862089
0.08637972
-0.032466084
-0.13583177
0.042324252
-0.34868926
0.23828438
-0.22847907
0.13375962
0.27762222
-0.031244786
0.054983433
0.07570824
0.2661578
-0.06643114
0.04605071
0.28558397
-0.09830001
-0.051376987
-0.028475657
-0.059317537
0.0097746905
0.0666077
-0.15685478
-0.1546169
-0.24600223
0.087476574
-0.048798453
0.10549711
0.05380186
0.032799352
-0.105523825
-0.0004606939
-0.18872131
0.11710211
0.05202264
-0.053094923
-0.0055921255
0.033713493
-0.05203929
-0.1518982
