768,
-0.014248298
-0.24037582
-0.018260201
0.11563233
0.18061133
0.046921365
-0.0092596235
-0.05987045
-0.1053774
0.10199987
-0.10119312
0.054955386
0.0887791
-0.03420426
-0.030978145
-0.14948133
0.013923843
0.22173761
-0.044307757
0.11177702
0.25232768
-0.011090553
-0.027366733
-0.054365512
0.03549898
0.061449174
0.10569153
-0.06352246
-0.014585293
-0.08527899
0.06996647
0.1542481
0.2633742
0.07891956
0.101575024
0.15565524
-0.050725397
-0.015324545
-0.13633786
-0.0920839
0.02864094
-0.17764693
0.14693299
0.019221874
0.07178679
0.17266886
-0.019915631
-0.08359062
0.030713009
0.036970127
0.0013168715
-0.08671353
0.18195868
0.019383468
0.020336935
-0.18607259
0.20406123
-0.16115695
-0.059954368
-0.011291064
0.13674276
0.083487265
-0.061339855
-0.06633444
-0.049145296
-0.108769126
0.18336037
-0.13512906
0.0010018105
0.0032065131
-0.19655249
0.105779596
0.07386955
-0.27339533
0.09785168
0.117966115
-0.10856013
-0.009728917
0.077969454
-0.04467399
-0.17721769
-0.20315407
-0.17076531
0.14861138
0.013822825
0.06691754
0.039435837
0.0055667777
-0.016153157
0.02472925
0.12141601
-0.26158273
0.032155864
-0.047482863
-0.12163214
0.018285897
-0.16366155
-0.029313143
-0.195083
0.1037921
0.024132209
0.072393514
-0.13222149
-0.07901969
-0.05095397
0.18760075
-0.02975483
-0.108565405
0.053903542
-0.1506142
-0.044048194
-0.107879356
-0.06838912
-0.121217914
0.100241505
-0.0053891856
-0.027070416
-0.00243648
-0.26482445
-0.16700982
0.20207874
-0.049376085
-0.02927452
0.026284862
-0.0019441303
0.010653413
0.13434638
0.028597115
-0.070986494
0.0051817093
0.2477591
-0.053750347
0.020403648
-0.02790895
0.06322651
-0.07958132
-0.06265635
-0.015171603
-0.09701505
-0.0416217
0.0015324315
0.050058555
-0.035749376
-0.059782576
0.2169202
-0.06401172
-0.04431929
0.0104923425
-0.1850699
-0.14278464
-0.010944382
-0.13038258
-0.043887123
0.00199508
-0.14633438
0.0026062587
0.05627808
-0.096564025
0.084043875
0.043906953
0.01844411
-0.01752678
0.026204892
0.034146786
-0.07804325
-0.2266488
0.119142465
0.032380622
0.16212372
-0.097061634
0.017783348
0.1329494
-0.026416846
-0.11230215
0.18677495
0.12897371
-0.14029296
-0.12576385
0.14387724
-0.010032487
0.11551221
0.10278972
0.0026186905
0.013347683
-0.07388697
-0.014570292
-0.055756416
0.031092292
-0.027501985
0.19117971
0.12605435
-0.030750874
-0.1007118
0.12219643
-0.035658833
-0.0007595138
0.13450618
-0.00019804099
-0.078055106
0.019774036
0.035104346
0.060223427
0.022163587
-0.077322714
0.102957584
-0.007989512
0.028711835
-0.12399923
0.012019633
-0.042812034
0.022157516
0.079834856
0.0677382
0.01687705
0.044684064
0.044787545
0.03511731
-0.0047099926
-0.02223545
0.0248258
0.06330088
-0.09441232
0.23063534
-0.12694724
0.10820952
-0.2291339
-0.06040365
0.18327087
-0.078674994
0.09752971
-0.07392873
0.055534687
0.033530653
-0.07615049
-0.15087795
-0.08082147
-0.0027233756
0.19146793
-0.10116778
-0.03449463
-0.046803027
-0.055361725
-0.12290681
0.14332063
-0.02760225
-0.0594383
-0.07796309
0.022823488
0.09509098
0.09170231
0.037661508
-0.07000061
-0.14474484
0.060294162
-0.23190638
-0.020716386
0.08938627
0.090741396
-0.081853524
-0.04521391
0.053022917
0.011568854
-0.008901427
0.21518146
-0.047645763
-0.2033302
0.08567016
-0.14218903
0.06727105
-0.063950144
-0.06362067
-0.04872372
-0.16071746
0.07082525
0.011335187
0.024009304
0.032794062
-0.035681583
0.018947873
0.0038684905
0.08945188
-0.08002538
-0.075262524
0.10542634
-0.014724026
-0.12308666
-0.07570815
0.055754606
-0.061589867
0.19988964
-0.056239516
-0.18867955
0.11946534
0.008841204
0.23194401
-0.27609208
-0.19260886
0.0075464686
0.25553605
0.018195394
-0.12454418
0.10093143
-0.060132463
-0.088085145
-0.15199128
0.27325112
0.052733127
-0.044541657
-0.054814413
0.08871036
0.078203134
0.08078829
-0.25303257
0.026313834
0.11039092
0.06396103
-0.014986
0.03676129
-0.031416968
-0.084120646
0.13107668
-0.14205234
-0.011909859
0.08204184
-0.028560577
-0.11410297
-0.06871107
0.034084275
0.022687394
-0.10678405
0.012530184
-0.0075026243
0.10857109
-0.011812609
0.09356468
-0.15835701
0.097566865
-0.20601544
0.006343549
0.06778016
0.03555559
-0.09038395
0.0049844617
-0.043017127
-0.1751559
0.116816655
0.17125472
0.021236422
0.15469432
-0.03638511
-0.05467178
0.0479344
-0.009600505
-0.04767731
-0.03172692
0.012567637
0.023316573
-0.028313061
-0.090862535
-0.12313646
-0.007358958
-0.1024559
-0.016827373
-0.18038829
0.008707424
0.036197178
0.07806465
0.05068094
0.1931983
0.036952224
-0.021559706
0.025777373
0.17925622
0.51816833
0.011918979
0.066540465
-0.0044646785
-0.054187145
0.007584699
-0.068693206
0.108279325
-0.012214275
0.007248299
-0.08878321
-0.010531379
-0.024265973
-0.013967577
0.1440794
-0.089060254
0.0945823
0.0021040584
-0.028208056
0.0630297
0.010181372
0.020220712
0.10443288
0.0339444
0.04945032
-0.26358372
0.13320835
0.037959315
-0.16859002
-0.04419926
0.044793196
-0.19558863
-0.11277679
-0.004687393
0.01426958
0.0783011
0.098647244
-0.06805632
-0.30411476
-0.043298278
-0.19367109
-0.013257619
-0.07111886
0.10487501
0.0102394
-0.1035482
0.07671944
-0.007990264
-0.051494163
0.12843016
0.06718292
0.041801922
-0.32845533
-0.09159525
0.07808818
0.10153681
0.15357819
-0.22901088
0.0717887
0.0027641626
0.033786237
0.08484683
0.04012882
-0.08622083
-0.07549857
-0.011055897
-0.0070233964
0.05499415
0.12333907
0.13726099
0.11258667
0.0002650685
-0.056655962
-0.0662628
-1.0272231
-0.077230394
0.1678932
-0.052714277
-0.24424772
-0.06482573
-0.051639814
-0.025703823
-0.026059562
-0.07478504
0.03044143
-0.05250855
0.028184962
0.08427855
0.10984083
-0.080949806
-0.019608928
0.032088656
-0.009332935
0.013916612
-0.097575024
0.07968321
-0.024880514
0.0041992753
0.03336668
-0.099238046
0.13627766
0.19871977
-0.07465245
-0.07650967
-0.119695984
0.06442817
0.13620646
0.00933229
-0.05604802
0.040549368
0.07825423
-0.0017846598
0.06308173
0.09938097
0.21103886
0.08678416
-0.094504125
-0.06313412
0.029678918
0.13250625
-0.052078843
-0.0704914
0.025092434
0.12328615
-0.025620393
0.043929953
0.017321717
0.03539001
0.06292119
0.11032226
0.042824168
-0.010024746
-0.20447822
0.13860746
-0.06273186
-0.12111545
-0.06220728
0.07966449
0.27083308
0.1358161
-0.091516934
0.020990252
-0.0026567855
0.13452023
-0.052934088
-0.018119395
-0.03978221
-0.08957683
0.13386865
-0.0010504761
0.0061707017
0.07520494
-0.18223718
0.112588815
0.04219674
-0.039165806
0.098351575
0.20630895
0.054309383
-0.051437408
-0.10173404
0.0038731764
-0.054252062
0.16440773
-0.15612753
0.052014466
0.04396105
-0.004895885
-0.07046066
0.015479157
0.04152827
0.09873562
-0.0850988
0.022773042
0.18298995
0.09366931
-0.12105668
-0.039726373
0.046606816
-0.007891219
0.027458534
-0.08199817
0.09485831
0.06328077
-0.07945031
-0.052167125
0.05857777
0.10733455
-0.076497994
-0.05165286
0.079137675
-0.09477042
0.032924104
0.12739983
-0.10056142
0.18656021
-0.04123626
-0.030632846
-0.05608157
0.033581242
-0.13898861
0.3292356
0.036747873
0.022723561
-0.024372008
0.013562534
0.24990033
0.015858397
-0.08931035
-0.023854978
0.111365825
-0.0054924795
0.01986479
0.05069523
-0.17187476
0.047838245
-0.13962905
0.18403219
0.008519508
0.061667085
0.040277287
-0.08152664
-0.021760121
-0.09567758
0.094278604
0.12356721
-0.13710433
0.055497266
-0.05075484
0.06522413
0.10790945
-0.14946659
0.20060061
0.052465238
0.07940749
-0.05837861
0.07736021
0.040875595
-0.036344524
0.10594013
0.020918475
0.07627831
-0.0011682704
0.040177744
0.07759017
-0.04356237
-0.1915461
0.17234254
-0.05680522
-0.05257749
0.050097458
0.003983082
0.013472417
-0.06451243
-0.024936836
0.02484757
-0.20315763
-0.048054356
-0.080258824
0.010339593
-0.11784604
-0.07082388
0.010015725
-0.10619813
-0.03715081
0.15137097
0.0010197097
-0.064576186
-0.016170926
-0.05301648
0.16087031
-0.0014864677
-0.118516006
0.01657738
0.028471613
-0.08705099
0.12906446
-0.07882264
-0.07456884
-0.11563739
-0.13754049
0.17425264
0.008172887
0.060157202
0.07433046
-0.004983459
-0.0548195
-0.019466287
0.016358647
-0.13070075
-0.04319913
-0.21077007
-0.0464205
-0.013043017
0.093133345
0.10044732
-0.018335
-0.030376565
-0.043372363
-0.057467986
0.08195688
-0.13097917
0.059693452
-0.14305018
-0.044781834
-0.17810011
-0.10935344
-0.13295151
0.16934192
0.013751524
0.07258215
0.006458753
0.042188305
0.026498102
0.06605525
0.036486164
-0.032404352
-0.05143692
-0.054558717
0.025486043
0.05582465
0.093120396
0.15972066
-0.06508913
0.1554761
-0.01328764
0.036950182
-0.054684527
-0.032538064
0.091841765
-0.08062783
-0.030222725
0.003615277
0.060545743
0.03907433
-0.1290523
0.0017031563
0.046937138
0.056967515
-0.12964362
0.0846116
-0.056635533
-0.05945883
0.09069278
0.012856024
-0.079376884
-0.025619738
0.027549718
-0.043511234
0.101457536
-0.007035385
-0.0027978832
-0.043922354
0.02445764
0.13727665
0.06991503
-0.104350485
0.09244169
0.025649073
0.061489504
0.056433957
-0.15274398
-0.12801558
0.050945573
-0.0029582924
0.07899072
-0.018067613
-0.11257148
0.039542124
0.030602748
0.010980446
0.0219531
-0.34567392
0.051018782
0.0366993
-0.09123729
0.025556384
-0.0086281905
0.1096343
-0.07529829
-0.13970761
-0.048765585
0.15821135
-0.15517138
-0.026043126
-0.11033324
0.017672285
-0.029571244
-0.028129058
-0.04820308
-0.0980784
0.16571157
-0.092071205
-0.023179052
-0.03592412
