768,
-0.13346902
-0.1202367
-0.01996724
-0.017336693
0.06325311
-0.05416638
0.00018873428
-0.057989575
-0.10391355
-0.016142935
-0.12597749
0.086662285
0.0921364
0.008045323
-0.039815225
-0.19364144
0.032401394
0.05758923
-0.004749351
0.09393137
0.23291768
-0.07562335
0.015088123
-0.12575112
0.013310201
-0.0052891155
0.08489152
0.021458972
0.03396291
-0.0897886
0.11006464
0.15352774
0.24673478
0.050606582
0.13427404
0.21351427
0.09312528
-0.056890436
-0.093041725
-0.08011713
0.029756285
-0.056769624
0.2041823
0.03298217
-0.028124087
0.20894177
0.09906363
0.05308992
0.00963701
0.032391656
0.039470598
0.031546995
0.089039035
0.058653597
0.1407859
-0.104030095
0.21215725
-0.11903005
-0.1701849
0.027255952
0.13215576
0.10494248
-0.06478363
-0.04697557
-0.10866045
-0.08438939
0.12860486
-0.08804988
0.021630004
0.024049236
-0.112848125
-0.0008669694
-0.029956972
-0.19084945
0.17855364
0.05305095
-0.060801763
-0.07660309
0.03932995
-0.053595226
-0.24170087
-0.20689993
-0.14977497
0.07784717
-0.08403174
0.14259033
0.063032165
0.010528815
0.0030017137
-0.019676948
0.19674365
-0.3169214
0.012899073
-0.12929314
-0.16742365
-0.10181138
-0.26076987
-0.041614823
-0.18922557
0.17898972
-0.028075542
0.102702856
-0.17000304
-0.036102567
-0.012642777
0.054607384
-0.019606514
0.044414274
0.05985779
-0.025697926
-0.07538079
-0.15619102
-0.053291503
-0.10199727
0.09490468
-0.045058724
-0.06753181
0.08498515
-0.07909465
-0.13045174
0.13381489
-0.045056332
-0.065451816
0.011496983
0.008608609
0.013414834
0.04824337
0.06272314
-0.08779483
0.085619636
0.16624053
0.021914482
0.06318703
0.020887095
0.07530118
-0.08717926
0.0014010313
-0.022480806
0.020742701
-0.037144754
0.007993166
0.079027735
0.020631198
-0.07431427
0.15987618
-0.13507918
-0.064496495
0.0023508454
-0.17144142
-0.11438715
-0.08849853
-0.18694952
-0.0694494
-0.038416926
-0.09828265
-0.057355937
0.03753789
-0.08798988
0.09024551
-0.010538607
0.040090702
0.04767645
0.04063017
0.097637
-0.09394321
-0.10461317
0.073281735
0.045111176
0.13585125
-0.026799718
0.016347764
0.041815832
-0.03534993
-0.120210476
0.19963364
0.13901281
-0.23988505
-0.14486228
0.17418388
0.041003365
-0.045468297
-0.018346893
-0.03366823
0.031625215
-0.01522044
-0.05150127
0.037997596
0.058116265
0.025550038
0.13155448
0.05908128
0.04197239
-0.1081375
-0.003858018
-0.058006745
0.07429438
0.21007922
-0.07673519
-0.099711075
0.09958497
-0.06756862
0.07182657
-0.06135967
-0.058962375
0.14892806
-0.008324626
0.0103344
-0.14299539
-0.10371359
-0.043824922
0.022364918
0.09493213
0.10996361
-0.051379375
0.09172885
-0.02105733
0.0595611
-0.059628807
0.021033883
0.008666478
0.07591134
-0.06208211
0.31072336
-0.11697781
0.12099349
-0.112680644
-0.07655264
0.14199732
-0.05245886
0.11131928
0.035100397
0.08441999
0.015635336
-0.06270854
-0.18693013
0.028847758
0.015125427
0.06683224
-0.14088428
-0.06440538
0.016480688
-0.069936655
-0.1052284
0.10599688
-0.012430913
-0.036099136
-0.016647145
-0.030952442
0.11122544
0.046197377
0.12787515
-0.04682208
0.06464939
0.047515947
-0.27325767
0.0024900523
0.09269995
0.13519084
-0.10517111
-0.058188543
0.041597463
0.0029952824
-0.024613755
0.1896992
-0.04541391
-0.14783023
0.13225026
-0.046627704
0.10458167
0.033755433
-0.09673069
-0.07691629
-0.13840486
0.074599355
0.005603028
0.009511953
-0.03192108
0.012007791
0.039806377
-0.05565339
0.035813794
-0.05906795
-0.018604485
0.08607497
-0.009560588
-0.071545936
-0.06729814
0.015599522
-0.038285464
0.15817599
-0.0050844853
-0.10914241
-0.023307882
0.043788303
0.19882682
-0.19520599
-0.1730869
0.027715404
0.13330343
0.06372632
-0.022458028
0.06690669
0.014678009
-0.054995008
-0.14394169
0.21564059
0.058272522
0.10123783
-0.055200513
0.01331087
0.0962341
0.047776565
-0.11961889
-0.02189164
0.05205809
0.01049749
-0.044855397
-0.017575532
-0.03665466
-0.12992154
0.0182981
-0.08776396
-0.08444204
0.020850636
0.0861289
-0.17407954
-0.1483567
-0.06638104
0.0030998995
-0.1336052
0.021139473
-0.04344065
0.12151596
0.068255186
0.0073385593
-0.07371612
0.045614216
-0.22032784
-0.064779
0.060602747
0.011598258
-0.114881754
0.039496556
0.021010652
-0.113452286
0.14535218
0.13355893
-0.09382009
0.15400814
-0.08105265
-0.014301152
0.053737342
-0.003306602
0.0073470934
0.06581584
-0.028997129
0.05667067
0.04507657
-0.10982494
-0.09308309
0.053765584
0.009019581
0.041752845
-0.12007985
-0.043048196
0.0030408397
0.06521747
0.073037155
0.19854076
0.09247207
-0.04102106
-0.047521427
0.09320402
0.51583785
0.025789723
-0.01773996
-0.06720239
0.027390331
-0.16661698
-0.10146178
-0.08930966
0.046422478
-0.013573593
-0.052672032
-0.09961143
-0.013511228
-0.0051429668
0.25835094
-0.02094408
0.09193535
0.021311292
-0.06540082
0.056844886
-0.04175002
0.025446074
-0.01859348
-0.02527921
0.12323341
-0.1451907
0.011224472
-0.041910872
-0.18565924
0.024837315
0.07794412
0.021073293
-0.04967094
-0.006129081
-0.037421223
0.08135606
-0.08972915
-0.13969117
-0.13151489
-0.113373145
-0.21750937
-0.0015227017
-0.029212475
0.13268383
0.026936702
-0.15463609
0.07013424
0.010817184
0.012088342
0.1480852
0.019024134
0.17349625
-0.1285438
-0.049489312
-0.05609443
0.0879767
0.13847232
-0.1662121
0.15967377
-0.07593452
-0.020020936
0.0400682
0.024844993
0.040367972
-0.01550285
-0.025833221
0.0566587
0.04958091
0.11021633
0.040875006
0.080080375
-0.026516628
-0.015514408
-0.12584466
-0.64300424
-0.15155669
0.06973454
-0.08536182
-0.14885107
-0.062139288
-0.043589957
-0.04710739
-0.0499593
-0.032153357
-0.06445779
0.012132868
0.045714736
0.12711543
0.10680826
0.018982846
-0.050696492
0.076436594
0.0022098075
0.024033424
-0.03402781
0.10773575
0.13368404
-0.0058948416
-0.00966565
-0.09242034
0.13320334
0.060381256
-0.071782075
-0.040979236
-0.04833623
0.06451257
0.077872105
0.00988785
-0.14325677
-0.0065831216
0.051521193
-0.027227208
-0.022762978
0.16781305
0.15553412
0.16536681
-0.102730945
-0.07433172
0.10468619
0.047295913
-0.03630144
0.03246252
-0.056582034
0.17942338
0.05120973
-0.027070217
-0.0011782484
0.07727776
0.09229321
-0.008331856
0.111133516
-0.09452218
-0.28465813
0.13684194
-0.072529346
-0.026194355
-0.0022308743
0.04189787
0.18148592
-0.02215089
0.00268519
0.0283238
-0.045254968
0.13663073
0.016238777
-0.06768086
-0.012463767
-0.13431029
0.18853457
0.07613166
-0.078289896
0.116764225
-0.121666744
0.12530735
0.105088316
-0.06999752
-0.0046069887
0.1867172
0.06746612
-0.06457568
-0.046973374
-0.06774885
-0.04814112
0.12815468
-0.0677022
0.04465156
0.025796782
0.04982188
0.039662816
-0.044977527
0.0603461
0.014087601
-0.120711416
0.039348114
0.14750138
0.032538135
-0.13575846
-0.05386125
0.096532986
0.035217468
0.005041261
-0.16060811
0.15142906
-0.08385462
-0.033034317
-0.032607343
0.10862606
0.06544919
0.011385315
-0.16708592
-0.021735627
-0.026034372
0.07495531
0.17830373
-0.095813885
0.13398997
0.029929858
0.04128228
-0.01960036
0.07783075
-0.104769595
0.24292427
0.0803369
-0.10715999
-0.013444626
0.026836218
0.24329282
0.10686988
-0.08221568
-0.039511707
0.15411541
0.02861646
0.051983315
-0.023145586
-0.11742101
-0.0040887627
-0.12477777
0.23536083
-0.02599887
0.14662221
0.019637939
-0.07302971
0.09622731
0.0041149626
0.07547561
0.034101337
-0.0959156
-0.048016403
-0.051606085
-0.004281498
0.026087863
-0.11142729
0.115032814
0.034309942
0.012598674
-0.03733506
0.009995244
0.0053822417
-0.06556679
0.1189706
0.12967753
-0.036408775
-0.10188991
0.16222925
0.107187234
0.021730123
-0.17490786
0.13707075
0.003401346
-0.09345087
0.007980616
-0.024191462
0.050147682
-0.14882588
-0.14045121
0.090521514
-0.16655374
0.015465373
-0.030381154
0.02604305
-0.0962611
0.074833654
0.044562157
-0.0395732
-0.08826856
0.0823377
-0.03787248
-0.07295923
-0.01622661
-0.053539786
0.099625215
-0.031983104
-0.07718585
-0.02526404
-0.0011288692
-0.09985949
0.07771742
-0.095708884
-0.05955411
-0.06547966
-0.09012539
0.19446164
-0.0056166314
-0.07076501
0.014887573
0.00051736215
0.015042956
-0.024762712
0.04241014
-0.047017246
-0.06790738
-0.09914355
-0.14640139
0.13536496
-0.070676796
0.028077375
0.04360832
0.003759434
-0.0580501
-0.06438795
0.14663206
-0.37683314
0.04158531
-0.10798312
0.03735349
-0.1525627
-0.118940234
-0.011442699
0.08103722
-0.0017857165
0.0021858113
0.03557943
0.032201473
0.01833965
0.07512007
0.026710633
0.008656206
0.017837312
-0.15176292
0.03254776
0.046049424
0.104609214
0.06838929
0.008264484
0.1479929
0.08794594
0.01043967
-0.10920542
-0.018853137
0.12338435
-0.13758229
0.0025092773
-0.0030158802
0.010947895
0.03997925
-0.08175757
-0.048746396
-0.098902
-0.047759335
-0.08959817
-0.02133201
-0.1725166
-0.037161577
0.027263815
-0.042080503
-0.13692239
-0.01729346
0.118797466
-0.041110292
0.119364925
0.032235105
0.11523215
-0.07692785
0.025177827
0.09996531
0.039759703
-0.05457593
0.017691685
0.104936786
-0.03483537
0.04666798
-0.07559822
-0.07532742
0.070070125
-0.0042544226
0.051569346
0.038216323
-0.16121261
0.12865435
-0.017207747
0.088561215
0.035819493
-0.3698967
0.04553859
0.17706193
-0.09603174
0.09251284
0.010374156
0.14967097
0.037136953
-0.104844704
-0.013105022
0.19383463
-0.28895184
-0.06629687
-0.067224
0.013239363
-0.056639884
-0.040382866
0.05623742
-0.14396173
0.20088057
-0.099709705
-0.14375445
0.042126805
