768,
0.11853152
-0.1395849
-0.17365293
0.16457175
0.25432995
0.063298784
0.19645154
-0.01786609
0.19180557
0.07352033
-0.13222602
-0.044769537
-0.17639543
-0.11364853
-0.10303957
0.105778225
-0.054977875
-0.13497755
0.45076776
-0.2140211
-0.025584016
-0.083325185
0.15639512
0.12961164
0.03376634
-0.15060657
0.031558692
-0.05197211
-0.016230298
0.254953
-0.09535596
0.020853624
-0.028468804
0.049824383
-0.18762775
-0.4282031
0.3485769
0.109249815
0.22714832
0.06982069
0.043772716
0.15649244
0.29089645
0.059538834
-0.2098493
0.037391856
-0.15639323
-0.17950106
0.032475434
0.191423
0.23575935
-0.019650135
0.018094417
0.1182256
0.093082406
0.11303913
0.29874215
-0.06791152
0.06595334
0.087039635
-0.04404254
0.15612255
0.053040713
0.24553874
-5.372884
-0.013567778
-0.111166276
0.16766465
-0.14037344
0.08644266
0.16291434
0.08134684
-0.17937139
-0.12610887
-0.17123948
-0.18565467
0.32383683
-0.12378709
0.08747868
-0.25483
-0.20500182
-0.03745712
0.24408169
-0.0075537013
-0.3099531
0.096317284
-0.04909743
-5.059435
0.14568312
-0.16848004
0.13859503
0.20037927
-0.04781121
0.13942653
0.09866135
-0.23711541
0.41108388
-0.28826657
-0.19607462
-0.26616767
0.27204368
-0.13801289
0.11771281
0.17050914
-0.04785423
0.23047122
-0.17608437
0.29667065
0.24571462
-0.108833194
0.044485778
-0.098285034
0.06958689
-0.15051642
0.16426046
0.15163109
-0.1984182
0.11631923
-0.37671238
0.16892718
-0.14224534
0.06397979
0.2500407
0.22424202
0.25026304
-0.29438806
0.21918802
-0.061618652
-0.08056279
-0.053099718
-0.17217968
-0.09510517
-0.010157919
0.12850912
0.33228508
0.09958811
-0.16687062
0.09913163
-0.46778324
0.07418024
0.22734933
0.101382576
-0.08573851
-0.1329271
-0.20497057
0.4772764
0.1494347
0.11460087
0.22882731
-0.094565675
-0.18660574
0.10605048
-0.25641838
0.13167036
0.1063968
-0.08346347
0.022218276
-0.24288706
0.11766335
0.1010709
0.23559506
-0.04331677
0.09826671
0.099432915
0.06573425
-0.001046792
0.06390503
-0.18828866
-0.34691343
-0.30514967
0.04406128
-0.027270822
-0.08764436
0.041478287
-0.16176434
0.11468171
0.12629649
0.08461012
0.025958808
0.022162285
-0.19655542
-0.033446822
-0.16536418
-0.05936734
-0.0199461
0.19626191
0.22261941
-0.049294133
-0.055518135
0.016890114
0.08030604
-0.06707448
-0.16783583
0.14990619
-0.28328368
-0.25854325
-0.06558721
-0.1553485
-0.2996302
-0.10191314
-0.1740441
0.09919225
-0.12826927
-0.05212273
-0.21875599
0.15090661
-0.3962762
0.09930716
-0.1861203
0.12573229
0.20921414
-0.4612405
-0.17341717
-0.26816234
-0.47155622
-0.12845926
0.09025316
0.11443466
-0.08911139
0.09317156
-0.016034449
0.13741702
-0.17073411
-0.015722616
0.08134356
0.074076846
-0.01596963
0.0010360461
-0.2768924
0.13431334
-0.12846127
-0.0010992895
0.20264587
0.18290459
0.01372213
-0.16993712
0.09463678
-0.026735915
-0.12177323
-0.062878095
-0.12863138
-0.10866169
-0.15917481
-0.24079616
-0.21525112
0.0032312665
-0.030136148
-0.14210209
0.19008228
0.019082097
-0.16575891
-0.03748645
0.05823242
0.030681698
0.030119294
0.0938332
0.077550374
-0.08826978
0.117909044
-0.025481543
0.07728558
-0.08663464
-0.020934258
0.078173235
-0.21169308
0.14179936
-5.006742
0.07956058
-0.06631687
-0.08262704
0.2056165
0.12971824
-0.14639446
0.3802298
0.054799974
0.12654276
0.061508592
0.0131763145
-0.060746443
0.16968347
0.17900954
0.05746849
0.05031937
-0.034885097
0.39505488
0.031162418
0.0074812593
-0.1861121
0.22445968
-0.29852614
-0.037867658
-0.09820532
-0.010035994
0.043279205
0.27209365
-0.31198302
0.039739605
0.024557069
-0.042273887
0.13329165
0.042422365
-0.17546692
0.25207764
-0.13082394
0.07155046
-0.062824525
0.090871036
0.1045181
0.288045
-0.047884718
-0.109860145
-0.44170135
0.11090591
0.09252047
-0.5345091
-0.07344888
-0.08565209
0.031553276
0.05682426
0.42299375
-0.20040882
-0.08287168
-0.01940827
-0.17825606
-0.0008541645
0.24002346
0.13926092
0.02753272
0.1191288
-0.097420774
-0.013956194
0.14313678
0.3271468
0.075017594
0.13202292
-0.3332727
0.07558354
0.104756765
0.034648515
0.079619296
0.13846102
-0.21972801
0.19916639
-0.07918014
0.06367927
0.24789602
0.1346759
-0.10615285
0.20198679
-0.063479654
-0.0665998
-0.017281359
-0.06508347
-0.02024851
-0.046537735
0.045561627
0.035878938
-0.14702354
0.0880131
-0.0011346301
0.0062414682
-0.21616152
0.0768014
-0.10450377
0.13024545
-0.4020714
0.042750772
0.10748859
-0.28647712
0.06037678
-0.026630973
0.32671413
-0.011471174
-3.6675353
-0.10671388
0.14779171
0.23509909
-0.042789064
0.16061358
0.25314325
0.03920184
0.2796127
-0.18619487
-0.13863437
-0.07754654
0.4324472
-0.24824888
-0.22028925
0.057548363
-0.46694162
-0.058066785
-0.005030954
0.21218836
0.45301846
-0.11298139
-0.13472787
-0.000453693
0.13293906
0.046551056
0.16477987
0.020073615
0.20282412
-0.02142544
-0.060267612
-0.058560103
0.10090092
0.24088563
-0.04793359
0.21121442
-0.13781752
-0.035449956
0.15226592
0.038028136
-0.21638823
-0.32028311
0.02224808
-0.016563792
0.008108561
-0.13295986
0.15965377
-0.13495097
-0.11743722
-0.042767905
0.23167743
0.054045852
-0.05284507
-0.059007883
0.1488238
-0.17986017
0.06556357
0.2838083
-0.26918966
-0.03334779
-0.29571116
-0.08764634
0.020737445
0.008848411
0.10410614
0.108049296
0.19674058
0.23346215
-0.21972522
0.06521268
-0.3656518
-0.15250807
0.26916537
-0.117677055
3.3952992
-0.20178221
0.077566005
-0.18503301
0.2981371
0.022479435
0.35113648
0.20669702
0.1164795
-0.19617853
0.31410655
0.08210317
-0.36309648
0.103355624
0.17305443
0.0029167451
0.057416245
0.0042603
-0.17309384
-0.057440046
-0.01667829
-0.16858555
-0.119918935
-0.1382456
0.057312988
-0.11930399
0.021087639
0.005439657
0.048565716
0.1268618
-0.26263526
-0.058547523
-0.108267024
-5.3287706
3.6359262
-0.00086797366
-0.01788082
-0.11507599
0.26177076
0.1708656
-0.1690088
0.121575296
-0.15840232
0.037276506
-0.05036085
-0.13232571
-0.057637878
-0.16489628
0.09738315
1.0551589
-0.50187874
0.087086536
0.18707995
0.12847896
-0.13868369
0.041349124
-0.3373101
0.08523209
-0.11828226
0.022241784
0.22072883
-0.2291656
-0.015633298
0.17530033
-0.12268082
0.1451252
0.0037300645
-0.20028284
-0.09812285
-0.0028269954
0.07274091
0.113720946
-0.04226097
0.1465925
-0.11320939
0.12854709
0.15075995
0.035271738
0.09992097
-0.73179287
-0.13702442
-0.0567103
0.16948551
0.14914833
-0.016458156
0.099878125
0.06782987
-0.10086147
0.037939716
0.15235068
-0.01037114
-0.02873457
-0.28350058
-0.09388072
0.069564916
-0.04938434
-0.048377287
-0.25955442
-0.21566391
-0.07308942
-0.16995578
-0.16858907
-0.0432541
0.09605928
0.11832281
0.22733746
0.003061531
-0.1591654
-0.2691347
-0.11475309
0.037065595
0.048320476
-0.22908409
0.10243195
0.193616
0.3499413
-0.017128922
-0.011458927
0.005561052
0.13877942
-0.3370103
-0.056061752
0.05649371
-0.28915894
-0.24305448
-0.06323419
-0.14923908
-0.12515406
-0.14190172
-0.09653254
0.13467571
-0.044285454
0.042932443
0.26133275
-0.2201698
-0.05150889
-0.13407813
0.071825646
0.28492826
-0.059898987
0.08819281
0.21001117
0.029942252
0.14190936
-0.078632526
0.18414117
0.09120021
0.015204185
-0.02265748
-0.1715436
-0.03344227
-0.020949071
0.096437775
-0.17011389
0.066446364
-0.16229446
-0.030613312
0.012395521
0.44665205
-0.028591242
0.022681657
0.34809104
0.14412786
0.077819236
-0.019306492
-0.079623476
-0.22504535
-0.1451807
-0.07075872
0.08415679
-0.16814722
-0.0031648066
-0.12182451
-0.48992074
0.14664815
0.14596839
0.13076442
-0.035961512
-0.059108183
-0.06702567
-0.3870796
0.24766223
-0.16333577
0.08383402
0.0131231975
-0.09370204
-0.17288682
0.2970295
-0.09809875
-0.13739964
0.092236325
0.021169122
-0.09031637
0.47396255
0.045817263
0.16265067
-0.13395378
0.0008896236
-0.025153877
0.012018805
-0.009956404
0.04723962
-0.14438516
0.22466412
-0.04887635
0.09662963
-0.03850144
0.11964798
0.08595881
0.019155419
-0.21637022
0.025495443
0.3929783
-0.19520713
-0.13933891
0.047906607
0.052695762
0.06736508
-0.021153163
0.06347678
-0.3760452
-0.23545204
-0.018258544
-0.032090478
-0.10587129
-0.34785596
0.27149564
0.42840308
0.17656502
-0.06303089
-0.23519203
-0.029773228
0.30289856
-0.15046017
0.33314264
0.07589839
0.040729873
-0.13969333
-0.12740976
0.1434867
-0.05193225
0.24116437
-0.013544361
-0.13319932
-0.13488407
-0.0792362
0.062525004
-0.1573294
0.2475551
0.11702061
0.038604114
0.027188634
0.12239801
0.102714
-0.080788024
-0.031271152
-0.21161272
-0.13651335
0.15206936
0.17141423
0.008484415
0.14864969
-0.03866902
0.17088166
-0.31473914
-0.13483019
-0.13789614
-0.24123402
-0.014802409
0.14984943
-0.2251218
0.04074782
0.107889846
0.14991464
0.20147243
-0.032098815
-0.05191649
0.0047425027
-0.07482659
0.10052361
0.3107484
0.10691661
-0.29546395
-0.044170488
0.05981349
-0.29557014
-0.02134816
0.09762616
0.08728274
0.03265825
0.00068228185
0.15466855
-0.11356591
0.07954006
0.117434196
0.17217878
0.0018172734
0.20684448
-0.12658012
-0.18131909
-0.04294127
0.17621909
0.1906252
-0.05560754
-0.010109601
0.03741692
-0.040142275
0.09240582
-0.03961347
-0.11413895
-0.027399724
-0.21048124
-0.14106518
-0.5154929
0.008061397
0.11103432
0.21017995
0.10480434
0.10999834
0.22353917
-0.14268291
