768,
-0.034779474
-0.030762188
-0.007299864
0.041465383
0.07056981
0.00435255
0.011018201
0.0027519076
-0.26871425
-0.06610413
0.050483093
0.13054374
0.02533642
-0.02051489
0.0126481345
-0.15760323
0.07403783
-0.010204752
0.030746603
0.2045819
0.23595499
-0.037974935
-0.039533354
-0.006273455
0.011444671
-0.03595908
-0.018501583
-0.16783758
-0.02108364
-0.24700011
0.046127055
0.17623776
0.28166017
0.046185732
0.14217237
0.16701886
-0.034834567
-0.06791026
-0.11298197
-0.04981911
-0.013818166
-0.124568574
0.020120552
-0.075896844
0.09539877
0.18163742
-0.051010773
0.009177263
0.027695984
-0.041401036
-0.08380608
0.02642964
0.059995376
0.08992701
0.13861604
-0.040413707
0.20594953
-0.07950962
-0.013214945
-0.08673477
0.009725163
0.060362045
-0.101304606
0.0002003306
-0.018728266
-0.011907613
0.25221986
-0.1099931
-0.037373688
0.00096787605
-0.20479518
-0.052057978
0.021443537
-0.05565828
0.24690594
0.10670312
-0.11917826
-0.040672157
0.17314626
-0.032253843
-0.14313349
-0.20509277
-0.12985353
0.17002401
-0.0802436
0.04888119
-0.053848147
0.022602156
-0.004325909
-0.061664715
0.18161581
-0.22283286
0.027513882
-0.04640383
0.04144895
0.08819742
-0.17002527
0.0002391393
-0.17340676
0.16306347
-0.10881316
0.017691437
-0.108959585
-0.07550111
-0.094674945
0.05562814
0.016302336
-0.010070186
0.20192517
-0.11368699
-0.03139451
-0.17671745
-0.18290839
-0.07768786
-0.013154439
-0.10156565
-0.07723001
0.07090945
-0.16078144
-0.059852228
0.10625778
-0.113673076
0.018955298
0.034290522
0.055115413
-0.03601139
0.1731614
-0.052721985
-0.08107973
0.060583808
0.14292265
-0.0014411876
0.0069435374
0.010319635
-0.049919
-0.07423625
-0.04515648
0.025625275
0.008137354
0.019057566
-0.07146608
0.12519014
-0.06742016
-0.121224575
0.18512313
-0.2221255
-0.11592344
0.06762308
-0.044547696
0.06358308
-0.11620102
-0.21830197
-0.09758997
-0.0650796
-0.15173659
-0.06752621
-0.043359082
-0.1002494
0.07387233
-0.06855377
-0.024077713
0.053641148
0.15592521
0.07741884
-0.15522301
-0.0923205
0.07017979
0.13848159
0.057511732
0.01897414
0.051081143
0.12406234
-0.048050303
0.0975929
0.17229694
0.15471555
-0.3308503
-0.12945198
0.0447848
0.118310064
-0.047735944
0.05847519
-0.00955886
-0.020350477
-0.09635049
-0.023457715
0.051927883
0.08148756
0.04338113
0.18523799
0.10927748
0.08210741
-0.08009371
0.014122639
-0.123479225
0.10315636
0.22444746
-0.024780357
-0.06834804
0.09256962
-0.09147964
0.21708368
-0.0089266235
-0.07582056
0.17129916
0.00081600103
0.059623275
-0.01436378
-0.01763968
-0.05265416
-0.09677515
-0.032039717
0.03889698
0.0530205
0.12100954
0.11980871
0.15609857
0.062491514
-0.004517032
-0.09595721
-0.057404477
-0.17926395
0.32891092
-0.18350567
0.034118727
-0.19436176
0.013768488
0.22486824
-0.03186203
0.103733376
-0.016102295
0.06492015
-0.02240146
-0.09287544
-0.11012929
-0.11212028
-0.0016342913
0.09521417
-0.047397427
-0.10522995
-0.031966027
-0.2857059
-0.1584094
0.10471585
-0.01272593
-0.10441043
0.05572716
-0.056328867
0.04906103
-0.072545595
0.10064949
-0.20107004
0.104063116
0.014479494
-0.30583072
-0.04919768
0.08872168
0.14389162
-0.13975681
-0.09474008
0.014953011
-0.011872909
-0.0016491205
0.28171012
-0.08187632
-0.1359002
0.04114832
-0.092965186
-0.04816058
0.048421156
0.03611618
-0.09797226
-0.0072118673
0.109347805
-0.060720474
0.039256208
0.084000885
0.04176263
-0.03746907
-0.0071857115
0.007535525
0.05920325
0.13463253
0.06559846
0.01221575
-0.011239759
-0.12528124
-0.11211494
-0.059985533
0.24383216
0.044324044
-0.14783514
-0.008201106
0.071704224
0.19743316
-0.2780829
-0.133534
-0.1979194
0.15607773
-0.05872214
-0.1795235
0.047214374
0.037731625
-0.04891357
-0.13046059
0.2275006
0.04633816
0.0071879644
-0.17916363
0.04878581
0.10497732
0.060878452
-0.15929015
0.03141918
0.1882634
0.18807718
-0.15790507
-0.018138979
-0.06113186
-0.088165276
-0.0037001278
0.0051125386
-0.043265074
0.024190666
0.23209442
-0.06418801
-0.0955644
-0.0005973717
0.034243364
-0.26929247
-0.05102054
-0.032542996
0.18573444
0.045804303
0.057292674
-0.042592436
0.24344967
-0.0033166166
-0.03651406
-0.023794264
0.06898602
-0.067724526
0.14187282
-0.08133283
-0.109588765
0.16673367
0.016834142
-0.0033105423
0.053817645
0.004214936
-0.106468804
0.06639227
0.07285944
0.023765504
-0.0011113064
0.0035158996
0.056373656
0.025027696
-0.027838731
-0.14381626
0.03341297
-0.0073744077
0.015579706
-0.06607933
0.06630547
-0.09941167
0.00919872
-0.0076462263
0.25486887
0.13536185
0.069912545
-0.05542919
0.1433308
0.5939026
0.03876058
-0.024070198
-0.06918174
-0.012136462
-0.22516279
-0.12408032
-0.08548333
0.052872576
0.07708941
-0.16098231
0.083277695
0.0015999133
-0.0441846
0.17794572
-0.0385453
0.041958727
-0.055339653
-0.0028861554
0.11664799
-0.009145796
0.008179044
0.032654386
-0.09418762
0.116364606
-0.07220752
0.046615534
-0.17460252
-0.18097089
0.09051863
0.06386659
0.14105506
-0.13720697
-0.042580232
0.055908896
0.0507478
-0.0071406015
-0.14353135
-0.046458624
-0.19340616
-0.18451656
-0.017455362
0.07013201
0.07531064
0.031677984
-0.12784997
0.0953822
-0.014107243
-0.04181157
0.15304826
-0.0004094788
0.11090017
-0.34676316
-0.013947017
-0.124946535
0.100029446
0.18392964
-0.07613548
0.13622119
0.14786848
0.012548788
-0.08212318
0.018628903
0.16400151
-0.04320911
0.032182097
0.057419334
-0.017982768
0.16530113
0.09052303
0.114982516
0.051480714
-0.03230015
0.069278665
-0.702985
-0.15964787
-0.006160061
-0.121306024
-0.120195135
0.016629852
0.016797991
-0.10616074
-0.093676805
0.0339591
0.056137957
-0.12344514
-0.016083188
0.009285888
0.0974776
-0.05855656
-0.093294814
0.041572385
0.023347246
0.06500565
-0.14127085
0.03920743
0.05906052
0.0269629
-0.060963795
-0.105967194
0.23148122
0.11213646
-0.09002779
-0.06426531
0.11115987
0.104892224
0.0015677672
0.008176061
-0.09618
0.04323636
0.0061484277
0.040573478
0.03843653
0.17912596
0.10063704
0.01927854
-0.17934877
-0.038194437
0.030306559
0.15302168
-0.1336925
-0.0223685
-0.12510914
0.12351734
-0.021667311
-0.0024752258
0.06832871
0.049161226
-0.018518697
0.09450432
0.1341242
-0.09685311
-0.20728491
0.061378136
-0.009534169
0.010058982
0.027511323
0.11023567
0.28347862
-0.093657985
-0.07644077
0.054346155
-0.047441237
0.045584455
-0.0033288402
-0.0111467885
-0.07888701
-0.11171111
0.042245504
-0.00868603
0.011166402
-0.053247817
-0.23399998
0.18403722
0.12937775
-0.038702793
-0.10713036
0.09173892
0.1745598
-0.011796312
-0.051261667
-0.112732165
0.02956194
0.094758414
-0.16324638
-0.02526737
0.020272082
0.08521413
-0.081208274
-0.098696485
0.040866215
0.035222773
-0.11358971
0.044306442
0.0741743
0.19637868
-0.13735045
-0.050062615
-0.010757803
-0.053312562
0.046606176
-0.017439628
0.21321452
-0.062243953
0.03037925
-0.023086155
0.081701554
0.057515685
0.07421005
-0.07005563
0.08678766
0.07297116
-0.056262016
0.083062254
-0.03465289
0.11656092
-0.08503538
0.08623979
-0.03205309
0.06467048
-0.1301847
0.3353303
0.0038531038
-0.10023896
-0.055052094
-0.037385263
0.18373457
0.085452154
-0.025766727
0.021771712
0.105965145
-0.011338652
0.11839164
0.05758849
-0.1946833
-0.07463387
-0.17717895
0.2427352
0.11888034
0.028969899
0.1494932
-0.115033105
0.124222346
-0.025907043
0.18010466
0.0024514284
-0.032769427
0.022056414
-0.106705695
0.066122614
0.024614284
-0.11830473
0.07363564
-0.01900694
-0.04085679
0.03252497
0.06745193
-0.015834244
-0.07652691
0.13815922
0.031922076
-0.055594236
-0.07576644
0.018310161
0.09240221
0.104429625
-0.104631335
0.14190789
0.06829824
-0.06747222
0.01975982
-0.005346843
0.029362665
-0.08199663
0.0758324
0.06704998
-0.22439198
0.039483298
-0.121162124
-0.09582063
-0.074377514
0.03335518
0.0677556
-0.08029427
-0.0025854036
0.07640521
-0.03885898
-0.15629652
0.007604094
-0.042080067
0.121182546
0.09516873
-0.099610105
-0.042789876
-0.017825445
-0.1842081
0.08459201
-0.07826659
0.002034332
0.001540041
-0.13280825
0.14727382
0.027389586
-0.061562672
0.022569984
-0.05090163
-0.117779374
0.070955195
-0.051704306
-0.15475136
0.039367404
-0.17536902
-0.10795005
0.02955865
-0.07101427
0.06464126
-0.09934687
0.011156909
-0.114214696
0.06306192
0.08310625
-0.33658463
0.10344706
0.11175055
0.13187239
-0.18373679
-0.21697497
-0.006401128
-0.011092976
0.030224824
-0.040320236
0.020225333
-0.037595782
-0.004611989
0.0147468755
0.07925116
0.09436007
-0.027996313
-0.1508745
0.16910839
0.112838
-0.013889872
0.08931473
-0.0056477827
0.014861149
0.024619041
-0.08069736
-0.06105722
-0.030897483
0.2124412
-0.1816715
-0.035566863
-0.020225978
0.04035971
-0.025339438
0.04515536
-0.07402509
-0.08640147
-0.013124589
-0.049280837
-0.039875794
-0.091353066
-0.10964932
0.11052876
0.13001028
-0.1389093
-0.1537138
0.009297918
0.02018884
0.25827348
0.005547079
0.18070225
-0.14265877
-0.0243303
0.05922386
0.13570333
-0.0032317147
-0.01122806
0.13834028
-0.011956496
0.05824191
-0.22630851
0.03439636
0.17900938
0.021569952
0.01958005
0.042937443
-0.116592765
-0.0077726874
0.048058357
0.073036395
0.033793222
-0.20216279
0.12525928
0.05869839
-0.1684329
0.11045053
-0.16078836
0.14216694
-0.02137595
-0.10487007
0.08410274
0.1953565
-0.07169607
-0.034983855
-0.16553096
-0.027250404
-0.10011011
-0.044993974
0.039643336
-0.1520506
0.114362836
-0.11648133
-0.10828794
-0.040428802
