768,
-0.04778893
-0.03507091
0.027041748
-0.04541224
0.046715256
0.079309404
0.056042317
-0.07711011
-0.21662019
0.001598966
-0.03463341
-0.00467759
-0.041598663
-0.04860779
-0.08922949
-0.13127655
-0.0041763433
-0.07594447
-0.05954307
0.2600168
0.1332939
-0.15283933
-0.07728425
-0.098993376
0.07738885
0.017695457
0.06351365
-0.16481756
-0.048327938
-0.0024719315
0.16946878
0.11635254
0.27224404
0.13427371
0.099511154
0.11973985
0.09143604
-0.07126388
0.0129746515
-0.05747948
-0.010709073
0.028523715
0.083284065
-0.06621476
0.08465771
0.19167048
0.045492683
-0.02219611
-0.1109983
-0.096489936
-0.03801607
-0.05177157
0.15423073
0.0404169
0.039508846
-0.13996856
0.23537254
-0.1199457
-0.0049100253
-0.09200077
0.014537543
0.03076381
-0.14165194
-0.03938729
-0.12414351
-0.0008333663
0.17391437
-0.088498116
0.047750954
-0.08432414
-0.15890864
0.047251776
-0.11884213
-0.02799514
0.16465804
-0.016501196
-0.028003288
0.01966722
0.16212542
-0.03127581
-0.098047964
-0.25275034
-0.18945804
0.08336931
-0.06782672
0.10886625
-0.057581674
0.005179346
-6.601658e-05
0.0078042313
0.15156712
-0.1854906
-0.10863802
-0.052802905
-0.24450813
0.027525412
-0.3124141
-0.082584366
-0.28284737
0.06268019
-0.070090644
0.07118197
-0.018706128
-0.14196937
-0.1487647
-0.0499454
-0.10859212
0.04214306
0.12006649
0.028711118
-0.08248423
-0.18906434
-0.20083354
-0.09573178
-0.043201376
-0.08782014
-0.10667053
0.10040797
-0.13191658
-0.06596999
0.076705925
-0.08775974
0.0059216395
-0.037339237
0.06329567
-0.097028784
0.034430698
0.038161222
0.037384935
0.062854916
0.24733685
-0.0025645802
0.046371248
0.011491949
-0.05687477
0.14370677
0.027264357
0.051374506
-0.056325566
-0.031695064
-0.09747125
0.13768102
0.03697079
-0.14340493
0.084928714
-0.012236866
-0.054376144
-0.03361718
-0.023532093
0.047810726
-0.18036877
-0.16813454
-0.11695422
-0.03873684
-0.2408748
0.05436387
-0.0024469318
-0.12549338
0.00841876
0.06315093
0.02398368
-0.099352814
0.076378584
0.047932412
-0.26527005
0.0180153
0.026709393
0.13747007
0.09986447
-0.12697232
0.072465785
0.10158073
0.12183687
0.038947053
0.11567568
0.1974476
-0.2575348
-0.026631543
0.029064495
0.14594969
-0.10863563
0.13611168
-0.16410235
0.032243267
-0.08361013
0.09853023
0.095554404
0.014948915
0.12193031
0.14982158
-0.0049869535
0.083670385
-0.014277482
-0.0959628
-0.101805694
-0.001022994
0.28088892
-0.055905785
-0.1440617
0.10544756
-0.07740163
0.24949984
-0.0053774873
-0.04858638
0.13274838
-0.0035554704
0.08569622
-0.048875708
-0.04983182
0.1483226
-0.04705945
0.10344414
0.058321577
-0.05809506
0.091269456
0.021085512
0.044846732
0.032149866
-0.088519074
-0.09970605
-0.046855893
-0.13870217
0.2777726
-0.09487547
0.0072293524
-0.100919805
-0.073682606
0.12025376
-0.06143531
0.08445792
-0.06878778
-0.089994885
0.11597732
-0.03490702
-0.19028823
-0.027456138
-0.14092562
0.075428
-0.005091927
-0.1588705
-0.07765914
-0.06624624
-0.018592205
0.16437419
-0.031202141
-0.010870066
0.14164199
-0.035283748
0.061787423
0.0077266935
-0.06621552
-0.17574221
0.0030832163
-0.02300651
-0.29596972
-0.059987623
0.18489248
0.25389504
-0.071413785
-0.06518715
-0.037329707
-0.1274198
0.058001317
0.23643933
-0.076099366
-0.12430743
0.11126582
-0.12826765
-0.10289543
0.008991819
0.011829945
-0.09329118
-0.041639246
0.22872259
0.047048222
0.035214182
0.021861237
0.09041036
-0.03373421
-0.093208306
0.07540063
0.14577998
0.02905381
0.16009153
-0.008614884
0.045898065
-0.026650507
0.009196508
-0.07298258
0.19299448
0.09999724
-0.022361038
-0.062904164
0.008840625
0.1684845
-0.2741224
-0.07243257
-0.023306126
0.13802451
0.0063104928
-0.17486027
0.070670314
0.08297848
-0.0027133739
-0.022776093
0.20257823
-0.0362645
0.026586574
-0.12654722
0.029764365
0.14108153
0.10507426
-0.21667689
-0.061807986
0.24502319
0.023820508
-0.05755146
0.108246125
-0.011788805
0.02619881
-0.0073753744
0.0050104796
0.009252344
-0.04667156
0.2309072
-0.09665936
-0.0901187
0.002301399
0.107200354
-0.21395738
-0.0073968614
0.04093586
0.17395547
0.047981974
-0.07662858
-0.013919503
0.15275998
-0.10925429
0.07190647
-0.00063949055
0.09132587
-0.10749439
0.06734646
0.029377822
-0.055998668
0.17059822
-0.008554968
-0.029082125
0.1660821
-0.13013743
-0.0038212577
0.08364654
-0.009522748
0.16839868
0.046155155
-0.035247765
0.105905995
0.0021997197
-0.1681264
0.03262316
0.051874448
0.06715278
0.07142366
-0.056146923
-0.0137123065
-0.009820463
-0.036285777
-0.13543247
0.056175716
-0.0010715728
-0.047960732
-0.17749229
0.05345828
0.3959679
0.035935145
0.091750436
-0.060297817
0.015565792
-0.21598142
-0.08996898
-0.008379422
0.014499213
0.021524755
-0.07744956
-0.032308508
0.047287982
-0.00701004
0.09582163
-0.00628297
0.07160276
0.036932524
-0.12079759
0.16257341
-0.0059492015
0.07822823
-0.019423747
-0.18357638
0.076241456
-0.08328673
-0.0063518872
0.02676576
-0.17743948
-0.0560736
-0.10596356
0.10652615
-0.016428307
0.010748404
-0.03634274
-0.03493889
-0.098305106
-0.062298376
-0.14288136
-0.056264825
-0.2722119
-0.08365348
-0.021518445
0.017861525
-0.00011754172
-0.066485144
0.18208665
-0.13211374
-0.0373647
0.20941013
0.05317203
0.17721292
-0.15634045
0.052659344
-0.061114833
0.23067962
0.07738619
-0.023864614
0.0979025
0.12295398
-0.030846504
-0.16019905
0.0052450728
0.13546076
-0.03754792
0.050344236
0.057620678
-0.019129323
0.15038575
0.05580846
0.08586868
0.008374969
-0.017243443
-0.082822725
-0.13918217
-0.121577404
-0.06108328
-0.0081879385
-0.092745386
-0.059171513
0.11495474
0.009038515
-0.044815257
0.0027939752
-0.0262053
0.016949374
-0.022009814
0.04521119
0.23408292
0.122093506
-0.12861751
0.0556457
-0.052276887
0.010616346
-0.13469164
0.03455699
0.1627328
-0.0030373384
-0.019479048
-0.057335086
0.2224046
0.054489654
-0.13115163
-0.119795166
-0.019510554
0.10071678
-0.025487771
0.0049522216
-0.05466826
-0.105403386
0.11118731
0.019123083
-0.08003608
0.11402199
0.05784897
0.0059763505
-0.16896653
0.008286745
-0.004058901
0.14063743
-0.21402545
-0.036226176
0.039750934
0.25411683
0.0727296
-0.1239618
-0.06846547
0.14638744
0.057414215
0.0013926824
0.23248073
-0.06675341
-0.14939415
0.043932404
-0.0014943113
-0.05044908
0.017761225
0.2305534
0.17427826
-0.17231059
-0.09430129
0.04089953
-0.15818883
-0.04016439
0.059053235
-0.2145968
-0.01752179
-0.14605361
0.039387684
0.07032103
-0.087067485
0.18364748
-0.11944423
0.189669
0.06521184
-0.14410329
-0.13883507
0.09587432
0.14568612
-0.034845408
0.020753376
-0.15637635
0.16604532
0.12554342
-0.06966527
0.05126846
-0.069120556
0.07642214
-0.024277119
-0.11523558
0.11524679
0.13186423
-0.0485884
0.05539712
0.05002979
0.099008046
-0.00014131922
-0.06140244
0.0064963903
-0.067874126
0.08138149
-0.007866464
0.22991431
-0.06980361
-0.071540855
-0.13492623
0.010421718
0.015332522
0.03372344
-0.04143213
-0.023044629
-0.08594086
-0.045466803
0.1253823
-0.09357028
0.15459816
-0.035221457
0.17518796
0.02764001
0.093677185
-0.14783555
0.16530035
0.07904616
0.06785939
-0.017084882
0.0082779145
0.22227333
0.0898205
-0.03104066
0.06409981
0.078546524
-0.077533424
-0.008374739
0.06379119
-0.21239853
0.060896993
-0.022241639
0.162068
-0.13514028
-0.03725728
0.08453324
-0.18883926
0.16846599
0.008615672
0.1429862
0.017905943
0.051447738
-0.005414908
0.00854451
0.0889457
-0.043694828
0.0342644
-0.019269383
-0.08736707
0.088744156
-0.022000067
-0.051402513
0.10111765
-0.07873145
0.13185528
0.1740291
-0.063701995
-0.14133187
-0.010183225
-0.009112601
0.04920502
-0.17780705
0.09700781
0.0031251574
0.06960274
0.049896322
-0.04603601
0.042422965
-0.10576806
-0.077839024
0.07911977
-0.097606294
0.060480975
-0.13494477
-0.04309221
-0.0032465188
0.014538962
0.021883506
0.022762775
-0.17919278
0.052268244
-0.091755964
-0.12875724
0.02602788
-0.034576476
0.09645158
0.04879626
0.02765681
-0.021993484
-0.032046627
-0.1434386
0.1174515
-0.12389794
-0.1234932
-0.096897684
0.0002762565
0.10662072
0.04936121
0.050255146
0.038956143
0.00269119
-0.042815767
-0.09897284
-0.06155628
-0.09241676
-0.03969596
-0.14245005
-0.0929507
0.13969731
-0.10935859
0.025685472
0.011829059
-0.06642773
-0.019470498
0.113119476
0.114532605
-0.28027475
0.06893239
0.06639463
-0.05357459
-0.19719666
-0.15517157
-0.13438708
0.08446021
-0.09273431
-0.06580161
0.14102246
-0.07561874
0.07294643
0.027154945
0.08756005
0.06566573
-0.10920188
0.08057516
0.1274201
-0.02837816
0.017100872
0.12976514
0.02127984
0.08163633
0.03678955
-0.059500825
-0.046180185
-0.030043285
0.16035765
-0.21419105
-0.082315594
0.021657385
0.10805141
-0.024811437
-0.031437676
-0.10330255
-0.079260014
0.13361412
-0.1525531
0.026841266
-0.055912085
0.030947478
0.16159706
0.052504104
-0.01951414
-0.033503123
0.13607071
0.062280744
0.1091735
0.040115833
-0.05803233
-0.14884202
-0.0039072856
0.12423013
0.23705491
-0.08188427
-0.059350807
0.19696867
-0.27093354
0.12762208
-0.06376928
0.121367484
0.20602936
-0.018785197
0.042808156
-0.024378018
-0.024176285
0.053807158
0.030220887
0.11283969
0.094414406
-0.28141925
0.13277102
0.006107005
-0.07175039
0.13775097
-0.019116184
0.06447677
-0.060740724
-0.035773065
0.04254145
0.11798828
-0.16513562
-0.11313343
-0.21335632
-0.028692624
-0.026755702
0.016085263
0.035795268
-0.13950779
0.13757789
-0.022638565
-0.10686945
-0.001867046
