768,
-0.072581775
0.1233303
0.028655231
-0.14709382
0.12297206
0.10359821
0.19318211
0.027429506
-0.08040722
0.13491479
0.16596906
-0.09899367
0.14428812
-0.34759068
-0.026156953
0.15270963
-0.17470972
-0.420438
-0.19111793
0.11449653
0.12878859
-0.08642844
-0.009901723
-0.05010318
0.111418456
-0.057535846
0.20481716
-0.21330428
-0.14226663
0.056776244
0.091842696
-0.0902761
0.10440327
-0.042727645
-0.101830035
-0.13649574
0.29182392
-0.121728964
-0.21068911
0.11081472
0.0379123
0.17296088
-0.057224035
0.10814788
0.09063718
0.3531499
-0.001268311
-0.0869612
-0.0009539041
0.20564689
-0.15349914
0.068851575
-0.11461468
0.045634992
-0.004425084
-0.025044657
0.36877412
-0.24420005
0.31386045
-0.16493179
-0.004350294
0.0021746384
-0.28117856
0.1598617
-0.15256867
0.124795094
0.15876538
0.15691139
-0.0049847644
-0.018253667
-0.25485173
-0.108608484
-0.35899287
0.13636468
-0.14538123
0.026180515
0.023767173
-0.13898908
0.09541422
0.08139765
0.10190035
-0.35129854
-0.05587132
-0.105699
-0.02133211
0.029706726
-0.37627786
-0.003916884
-0.07014265
0.017878586
0.06742804
0.10428321
-0.13381043
-0.046144664
-0.14139116
-0.12467841
0.013648587
-0.16937268
-0.3204919
0.25405112
-0.060605973
0.1859483
0.008402935
-0.24492697
0.020611625
0.04872971
-0.09492166
0.20362008
0.38812172
-0.35726282
-0.1708238
-0.3585557
-0.13766614
-0.38864586
0.29591838
0.008454989
-0.19436432
0.2636932
-0.1214983
-0.052198336
-0.25585076
0.07832269
0.1825732
0.35807732
0.079578824
-0.34753886
0.29658437
-0.077440105
0.005925496
0.22933711
0.13805012
-0.03249805
-0.08337252
-0.11568372
-0.4346023
0.16482893
-0.25075313
-0.023934497
-0.18328398
0.1029838
0.039653573
0.18615109
0.00543994
-0.18086022
0.040005844
0.15673232
0.43272197
-0.0535107
0.09468414
0.104234666
0.1053615
-0.061935358
-0.5950702
-0.084068485
-0.27221534
0.06118939
-0.38298294
-0.026328236
-0.3421896
0.26513156
0.17628768
-0.2594674
0.24820407
0.2074072
-0.31520712
-0.00019297781
-0.20895241
-0.002753366
-0.17009278
-0.29839692
-0.04397167
0.2276538
-0.19341421
0.080618024
-0.14888805
0.32757664
-0.10059004
0.026723763
-0.07533941
0.09982015
-0.090746544
0.24045263
-0.12515529
0.23813508
-0.15998812
-0.026570065
0.17728835
0.05484794
0.055183217
0.11632654
-0.14298989
0.17240159
0.07500953
-0.024480086
-0.078125745
-0.17807382
0.14221531
-0.07376919
-0.51434183
0.04117442
-0.025488144
0.39994684
-0.07059796
0.08679296
0.1754016
-0.08618642
-0.05747826
0.01708755
-0.296469
0.5796523
0.34526765
-0.13752793
-0.09361898
-0.18603253
0.049500484
-0.048003606
-0.12621745
0.07632037
-0.1214266
-0.08420992
-0.17825593
-0.1535333
0.46875423
0.08245714
0.047191273
-0.02233081
-0.12948377
0.03149392
-0.22708218
0.27505657
0.21027815
-0.42906553
0.27319166
0.078624025
0.004748966
-0.039838593
-0.18274479
0.0768174
-0.086005256
-0.031789303
-0.3373847
0.20633192
-0.25299358
0.28417766
-0.039966617
0.012311643
0.30566713
-0.16733928
0.3020094
-0.14562467
-0.25892812
-0.4044112
0.21003927
-0.19087783
-0.44705522
-0.048108727
0.24074066
0.16077483
-0.10616311
-0.10368791
0.08329437
-0.098596156
0.01989772
0.3330789
-0.1788954
-0.16053504
0.27205166
-0.044192236
-0.1861226
-0.020513633
0.44122136
-0.18845426
0.116276056
0.57576627
0.22290942
0.02932656
-0.019364513
-0.06878875
-0.11926535
-0.11662124
0.069607094
0.1102948
-0.06458069
0.25300294
-0.2132064
0.22803693
0.061241094
-0.20945752
-0.031080516
0.13171755
0.14633067
-0.004355675
-0.41041514
-0.13529345
0.35640854
-0.4790191
0.07692222
0.037034262
-0.021489367
-0.073138
-0.16353352
0.12939174
0.0907715
0.027906314
0.11994312
0.14856176
0.040957097
-0.23865002
-0.20723143
-0.14019337
0.05531222
0.2633216
0.39310345
0.0009473534
0.19944856
-0.08468512
-0.25906524
0.16888388
-0.17933697
0.27250424
-0.135999
0.0025097134
-0.029313436
-0.42382807
0.453753
0.09384112
-0.16904117
0.11403488
0.1757422
-0.272603
-0.053225376
-0.010723482
0.206166
0.12079186
0.28688616
-0.112026095
0.5932915
-0.11035324
-0.049653467
-0.09956407
0.030657606
-0.25834614
0.16312559
0.1107856
0.3300664
0.15819596
0.15291782
-0.30356297
-0.0021153912
-0.13553339
-0.029228259
0.16439562
-0.037829135
0.16930196
0.22069094
-0.028537374
0.22642684
-0.11835583
-0.15985817
0.1105522
0.066316806
-0.0698303
0.025147704
-0.24418478
-0.09799826
-0.46249488
0.033248276
-0.16813678
0.23202194
0.07432546
0.12920476
-0.054153863
0.26574674
-0.95750827
0.004312456
0.1759746
-0.15824811
0.038593747
0.20798618
0.13187514
-0.032549877
0.06400247
-0.18731716
-0.16766873
0.15610461
0.26330417
-0.06430331
-0.10053235
-0.18621825
0.36738533
0.2644889
-0.047900204
0.28792974
0.04912445
-0.2260937
0.14920552
-0.3087618
0.06833185
0.008039846
0.18035266
-0.03604822
-0.18859582
-0.23581846
-0.13736396
0.26523185
-0.14961469
0.14595112
-0.18878366
-0.12569892
-0.00938139
-0.01200106
-0.30173627
0.092240274
-0.3261478
-0.2525121
-0.03161167
-0.010016142
-0.10122818
-0.3676886
0.2097384
-0.08332426
-0.02505702
0.26293755
0.1347016
0.020690484
-0.09496012
0.0009941688
0.012161267
-0.08916991
0.05720247
0.120058924
0.065831155
0.11391413
-0.27983552
-0.33338964
0.22723472
0.02221747
0.11084249
-0.077016756
0.03859202
-0.004265703
0.08202197
0.25027695
-0.047154717
0.17489901
0.21388045
-0.21351753
0.8253277
-0.13388816
-0.005292712
-0.1513677
-0.09832174
0.11863187
0.3215449
0.20621608
-0.073973976
-0.088197894
0.07107554
0.12843007
0.19721289
0.20283948
0.41598773
0.110777445
-0.2761731
-0.20180456
-0.19555612
-0.18509233
0.021626746
0.061559517
0.33491266
-0.030758506
0.33320487
0.17916904
0.26364398
0.074063025
-0.16097301
-0.0016221952
-0.18502441
0.08383244
-0.14934567
-0.012755992
1.896013
-0.06180433
0.21688253
0.3179817
0.024530554
0.30034038
-0.012045903
0.050719526
-0.40126652
0.1725642
0.07209582
-0.08310082
-0.16689818
0.055889245
-0.15848874
0.4573521
0.006872763
-0.01698676
-0.06125304
0.22299731
-0.08709476
0.08533433
0.29893544
-0.06481318
-0.21674949
0.03473097
-0.07739247
-0.27101555
-0.14836527
0.031070203
-0.20641968
-0.38447583
-0.098275565
-0.03950749
-0.29131716
-0.058726452
-0.18349373
-0.10942399
0.07816674
0.054705575
-0.024470232
0.22829466
-0.05233947
0.08893185
-0.17800303
-0.009935529
-0.23818538
0.065233484
0.010456019
0.074112564
0.26345378
-0.1045281
0.14334765
-0.25574246
0.08966848
-0.22640999
0.14558384
0.12365133
-0.4128877
0.2777913
-0.0016030598
0.07235955
0.12592724
-0.0477736
-0.12487813
0.3784647
-0.14119852
-0.20961462
-0.0034676115
0.12118766
0.20152885
-0.2735051
0.27657783
-0.027737118
0.16752097
-0.2124263
0.26043907
-0.43969306
-0.14857158
-0.22592637
0.26583147
0.3038885
-0.15673552
0.24919207
-0.16793878
0.32951075
-0.03831194
-0.0029394943
-0.2783746
0.40952325
0.033940934
-0.06479184
-0.06709066
-0.090760455
-0.0648354
-0.13072674
0.018161839
-0.0054516313
0.20615035
0.18801841
0.08560733
0.11948016
0.02782628
0.021156846
0.09605576
-0.001956123
-0.23847604
0.3801945
0.028292332
0.05045258
-0.17199358
0.21992889
-0.046297025
-0.23680487
0.39731708
-0.1761118
0.2609154
0.0069325995
0.3177796
-0.108443536
0.23930922
-0.031968523
-0.3437625
-0.006132736
0.024781683
-0.1997142
0.15536529
0.1840902
-0.1289955
0.18141007
0.13682437
0.09887968
0.058535077
-0.09204254
-0.25285074
-0.05914992
-0.18252099
-0.134337
-0.19270167
0.24092917
0.012571502
0.44026053
0.26148126
-0.15635788
0.056859
0.03243022
0.03365352
0.11618504
0.048457157
0.01335334
-0.1935939
-0.36032805
-0.053994466
0.14228822
0.098678
-0.24495551
-0.14658765
0.039760873
-0.22432551
-0.21914825
-0.061113242
-0.13699412
-0.1083156
-0.0018463178
-0.35419744
0.19484752
-0.0038158938
-0.06573644
0.10037439
-0.08202115
-0.35587284
-0.14578709
-0.16898309
0.024015209
0.015522068
0.10083747
-0.12486913
0.055025395
0.15982653
-0.05414113
-0.051729515
-0.18101558
0.08986537
-0.27888006
0.041144084
0.13101324
-0.3030885
0.03431161
0.0005958726
-0.12222382
-0.35272032
-0.18858719
0.3226501
-0.5529714
0.11962685
-0.10999294
-0.08837497
-0.28935182
-0.106790416
0.08220442
0.35642883
-0.3754943
0.17317873
-0.059274778
0.01728016
0.38903224
-0.04861262
0.15226248
0.11535075
-0.2333046
0.18418434
0.2920357
0.14198914
0.0064191953
0.11666265
0.17976765
0.2853289
0.1244651
-0.13507599
0.11889247
-0.1242294
0.119142525
-0.40550098
-0.28780475
-0.20043945
0.3116667
-0.07732274
-0.20660102
-0.118770316
-0.22503506
0.3337108
-0.1725938
0.008407203
-0.15548092
-0.04819655
0.1898775
-0.12561879
-0.051469613
0.25204018
-0.048312515
-0.07740044
0.19909503
0.123318896
-0.16817558
0.14430559
0.35765362
0.44447514
0.020249518
-0.066881984
-0.24438493
0.21983851
-0.3915984
0.1989134
-0.29174286
0.26812807
0.572912
0.07318828
0.060888994
0.027293218
0.3586142
-0.11160997
-0.035284717
0.33065856
-0.058971584
-0.056295615
0.2529094
-0.20486048
0.13821809
0.21362138
-0.09145255
-0.1304044
-0.27130172
0.187523
-0.025978163
0.22343974
-0.19172207
0.09642163
-0.17467953
-0.03792749
-0.23514652
0.060950115
0.15815811
-0.1688434
0.17189112
0.09759239
-0.010861767
-0.26863983
