768,
0.014063201
0.015263322
0.014808725
-0.15053526
0.021918286
0.10254084
0.115929484
-0.09262134
-0.14912735
-0.03375564
0.1605349
-0.021731826
-0.063592255
-0.14094192
-0.030837687
0.040657777
-0.09343829
-0.27491242
0.016038122
0.23359637
0.079442486
-0.052196193
0.017641274
-0.104178235
0.052733462
-0.055723876
0.15245734
-0.14189781
-0.09147797
-0.04700932
0.17827933
0.045004077
0.1732599
0.064485244
0.034032945
0.12313176
0.19487435
-0.06770459
-0.022845289
0.083937064
0.0013427004
0.19344227
0.022099202
-0.05355802
0.04365155
0.37554568
0.066522546
-0.023737682
-0.018189093
0.19559632
0.0011086726
0.15361601
-0.09193289
0.015461333
0.039039645
-0.067149
0.15821639
-0.1169002
0.18121338
0.02710931
0.03612485
0.104537226
-0.18831411
0.054473367
-0.15488127
-0.06576835
0.1534433
0.056419477
-0.08042751
-0.08712826
-0.11349285
0.10304014
-0.28189176
0.076636404
0.037255604
-0.048046816
-0.08789094
-0.13372599
0.24555665
0.07357992
0.018184217
-0.26806363
-0.05082726
0.003704049
-0.08666674
0.020543443
-0.29984358
0.0025616349
-0.00808519
0.032070015
0.09541389
-0.1094512
-0.023711804
-0.030276317
-0.2092334
-0.02861975
-0.022849621
-0.11383541
-0.25158316
0.12835646
-0.12010098
0.08945398
-0.14504692
-0.17502975
0.04630162
-0.0298715
-0.096882775
0.1783502
0.17997023
-0.12197698
-0.102067724
-0.18996602
0.06061222
-0.2358416
0.14264348
-0.09574141
-0.23684607
0.10880569
-0.02610612
-0.011155899
-0.20179987
0.07740309
0.035300463
0.08154505
0.10542137
-0.12138589
0.10031293
0.08166369
0.07074786
0.13246544
0.27123192
-0.085981265
-0.011653972
-0.16075292
-0.22392252
0.10547247
-0.17424604
0.014319154
-0.04612064
0.050680052
0.047582667
0.045320503
0.019948615
-0.15579477
0.07944674
0.018747622
0.16276217
0.011975025
0.0038914036
0.008390036
0.02946208
0.056882374
-0.20153941
-0.0509814
-0.26457694
0.08949487
-0.24438085
-0.031455588
-0.12264804
0.099572636
0.19336295
-0.18997565
0.18346307
-0.009803309
-0.21307552
-0.02730762
-0.03573048
0.12918416
-0.016510967
-0.21193974
0.072996855
0.09887617
-0.04148958
0.059086595
0.0029006475
0.24313001
-0.30575892
0.059686087
-0.023427587
0.10097629
0.016359089
0.16506355
-0.11612137
0.15519387
-0.13532072
0.06227471
0.18862802
0.12525764
0.06652306
0.15721004
-0.17302813
0.13320819
-0.004852704
-0.03540743
-0.06765887
-0.078224845
0.23680909
-0.091423005
-0.13201497
0.014368603
0.036150567
0.24040115
-0.013655718
0.0582311
0.17157815
-0.02020784
0.05664175
-0.09372949
-0.13046166
0.22770317
0.0394824
0.044587977
-0.08071577
-0.17154214
0.055468056
0.0205215
-0.138522
-0.0051317574
-0.22651187
-0.12082874
-0.025945429
-0.04339532
0.32987645
-0.07911082
0.022783533
-0.07608104
-0.042013127
0.07101097
-0.076923065
0.0664453
0.08799788
-0.22190313
0.25158042
0.0071943686
-0.10751357
-0.014290152
-0.1171433
0.09938694
-0.037888344
-0.026659232
-0.21293667
0.075437106
-0.08552114
0.31175983
0.0058989907
-0.10131798
0.15805027
-0.11556456
0.26234457
-0.12866262
-0.12831733
-0.336374
0.021296285
0.0013727824
-0.30037847
-0.09456429
0.012383743
0.27464387
-0.1507341
0.0054805507
-0.043610193
0.008704483
-0.079126336
0.15018694
-0.12365568
-0.066474505
0.15789948
-0.11195742
-0.17877351
0.0415322
0.14852366
-0.09677951
-0.03955194
0.3738002
0.10491615
-0.09212714
-0.11254585
0.013487525
0.13217796
-0.16217412
0.024845587
0.15857589
-0.020581407
0.23889674
-0.10058153
0.18694283
0.020495255
-0.10318533
-0.035994314
0.26336685
0.16091521
-0.019179529
-0.19863997
-0.12178187
0.26370597
-0.40656716
-0.005102325
0.042533055
0.15695642
-0.00019140587
-0.16525199
0.1724559
0.11386109
0.04859573
-0.023956701
0.106795706
-0.023797782
-0.037767716
-0.10225871
-0.0017657398
0.0920986
0.11445092
0.01539504
0.033044185
0.14467943
0.08257312
-0.039595913
0.05713503
-0.2497555
0.051707756
0.051404744
0.020051913
0.1225088
-0.24616769
0.25060213
0.030352566
-0.104395986
0.026459137
0.15302695
-0.15355198
-0.028554227
0.030447256
0.07694223
-0.041723397
0.170372
-0.0356744
0.28016955
-0.108502865
-0.041976783
-0.1361462
0.014169664
-0.22099747
0.1188679
-0.050659284
0.050117385
0.26280707
0.07534389
-0.1932137
0.010128168
-0.019130005
0.05970368
0.0947929
-0.091395125
0.10901574
0.15220466
-0.1016901
0.13467534
-0.004108659
-0.1471717
0.05473224
0.056425065
0.05899357
0.009775124
-0.14009255
-0.15586495
-0.20266856
0.064712
-0.017270846
0.2431814
0.03549838
0.10295888
-0.13851017
0.10868051
-0.19614226
0.08054303
0.06642471
-0.08803722
0.049979337
-0.1561761
0.0058082836
0.023626626
-0.04709971
-0.07912587
-0.16858903
0.12666315
-0.002014157
0.055942696
0.02215856
-0.021621132
0.1565564
0.15352866
0.0011795572
0.327925
-0.06846678
-0.10633468
0.11532256
-0.29728878
0.06298051
-0.080130324
-0.025765594
-0.030582255
-0.13502945
-0.16674988
0.0150585715
0.0653593
0.11685797
0.031412803
-0.21275969
-0.15570597
0.07782946
-0.20519115
-0.2127885
-0.028241573
-0.22530128
-0.093370974
-0.17359014
0.023024032
-0.08883307
-0.08016651
0.26559952
-0.07084928
-0.10249819
0.21408604
-0.032614306
-0.03330512
-0.09194868
-0.05434754
-0.06171604
0.19056775
-0.028145595
-0.004752335
0.153989
0.20240718
-0.097157694
-0.15658931
0.14740232
0.111812346
0.020325525
-0.034838304
0.123512134
-0.10091905
0.06038746
0.2765662
0.17696732
0.10071193
0.08828783
-0.15772425
0.42521983
-0.26111013
-0.030033775
-0.13564049
-0.1574917
-0.013188478
0.15886682
0.08436533
-0.036832068
-0.01437817
-0.08221616
0.099100485
0.0932552
0.18883517
0.18216039
0.25693405
-0.1844187
-0.13454549
0.02454003
-0.12668614
-0.13422956
0.0066608335
0.2970993
-0.052563507
0.024933523
0.019131076
0.20614475
0.13828662
-0.08054147
-0.10080008
-0.1679769
0.05647121
-0.15705605
0.005593299
1.1573807
-0.12654485
0.15889633
0.09053511
0.0063959523
0.075976424
0.0437461
0.07933115
-0.07405012
0.061836556
-0.074066855
0.039043564
-0.16337028
0.05599814
0.12948707
0.24396278
0.012040708
-0.09241917
-0.056373063
0.28217927
0.02894602
-0.106853485
0.15703064
0.036483686
-0.20615964
0.01845311
-0.022318708
-0.102763526
0.0012435424
0.011202586
-0.18841267
-0.20743468
-0.018252943
-0.051085737
-0.12368886
-0.07976196
-0.027894517
-0.20409858
0.07223929
0.0359096
-0.023570843
0.22288232
-0.06884829
0.17342696
-0.16367058
0.18107952
-0.10091327
-0.09979082
-0.02121883
0.051214915
0.08779008
-0.172961
0.056262847
-0.20561346
0.041595526
-0.27072495
-0.008020053
0.11722524
-0.28388736
0.2900438
0.0822704
0.007931202
0.08343872
0.09615357
0.09142965
0.28500688
-0.08748777
-0.014905319
0.03297338
-0.016465852
0.13612536
-0.15499143
0.08382293
0.054370943
0.15621275
-0.092352964
0.15073515
-0.22264192
-0.01665187
-0.14177288
0.20205636
-0.01379535
-0.18889488
0.098407716
0.0092567
0.21074246
0.015954314
0.14245363
-0.079266995
0.22735539
0.09636276
-0.16323392
-0.038910057
-0.06490538
0.009943544
0.011070646
-0.021462763
0.024794994
0.21311012
0.108588785
-0.16734345
0.1463746
0.08427917
-0.114960775
0.056707796
-0.07822592
-0.27152935
0.2901367
0.07328101
0.019528635
-0.19823924
0.109480694
0.033818148
-0.263107
0.1820876
-0.17047237
0.18626517
0.0037955546
0.17832454
-0.11544746
0.008614412
-0.009607981
-0.1862058
0.08525214
0.015915714
-0.08840652
0.022455428
-0.0017601033
-0.08257216
0.07056379
0.03744207
0.16018867
0.18485922
-0.07038703
-0.16383477
-0.048770253
-0.12786835
-0.122960016
-0.13221021
0.20407255
0.057702664
0.22993173
0.27390674
-0.08414356
0.08708759
-0.12009446
-0.060854368
0.039320495
-0.038074736
0.06008797
-0.18549956
-0.17821316
-0.053946182
0.040313184
0.034532417
0.06278516
-0.19412601
0.046819557
-0.021931307
-0.25509232
0.057596777
-0.115771785
-0.024296029
-0.026686965
-0.16587265
-0.039495908
-0.10563324
-0.1355318
0.12318791
-0.09211651
-0.1952046
-0.02650277
-0.17705444
-0.08577294
-0.05786585
0.06996838
0.04798591
-0.17822605
0.08477148
-0.011636568
-0.06958298
-0.045156043
0.05332322
-0.14366272
-0.018780516
0.15839747
-0.18893446
-0.029777043
0.04280204
-0.13343118
-0.12609924
-0.08907665
0.109260336
-0.34430975
0.18683988
-0.011313819
-0.06074688
-0.2291651
-0.116153665
-0.09812001
0.19630624
-0.14316793
0.11507238
0.0875672
-0.10301393
0.19805548
-0.111300215
0.14717439
0.12579319
-0.11090708
-0.06451234
0.19909677
0.103401005
0.046277512
0.014520361
-0.009978933
0.010188927
-0.009183661
-0.20643839
-0.08405421
-0.048113532
0.1053298
-0.46758792
-0.056050804
-0.13101949
0.06432
0.047657546
-0.1297478
-0.14331864
-0.19850895
0.058417816
-0.23688118
-0.052584894
-0.117608264
0.02995167
0.18941578
-0.013924761
-0.063419364
0.16929778
0.119732015
-0.013819007
0.09951666
0.06572888
-0.15892948
0.039572634
0.25569007
0.2551755
0.20939568
0.017830469
-0.15050584
0.32910463
-0.17617127
0.22002058
-0.026603106
0.31115136
0.39065892
0.12545425
0.086970225
0.05058735
0.1565773
-0.042364433
-0.011565947
0.25144795
0.030508885
-0.23868518
0.09391847
0.031228233
0.01423085
0.083153486
0.0022947611
-0.14855215
-0.014300347
0.16424769
-0.044593442
0.16903839
-0.20010825
-0.030175991
-0.20964347
-0.04513596
-0.13002613
0.029543106
-0.032468975
-0.1159749
0.22942634
-0.0116863875
-0.10165817
-0.13517515
