768,
0.15029159
-0.15426147
-0.14663069
-0.09912773
0.033802647
-0.034447547
-0.07063537
-0.09360734
0.081109494
0.031160973
-0.1992686
-0.03724502
0.003049506
0.049891587
-0.0535598
0.037407774
-0.19088934
-0.08153925
0.04911587
0.14187366
-0.112115644
-0.096721396
0.05310626
-0.21880236
0.09357757
0.012167289
0.012163302
0.08575752
0.045797538
0.058133483
0.095063835
-0.04795696
0.08814029
-0.033661075
-0.050119847
-0.09278428
0.008160358
-0.023286624
-0.020331338
0.03151827
-0.03758143
0.14843382
0.1524572
0.045548014
0.4081646
0.011043596
0.051662646
0.12372379
0.120229915
0.024490736
0.1105359
0.046241328
0.036931664
0.019054785
-0.030505823
0.33486858
0.10186689
0.15184404
-0.035591118
-0.27863213
0.104952365
0.112033576
-0.10403826
-0.09276777
-1.8325205
-0.054568864
-0.02043001
0.088477515
-0.006211975
-0.05023273
0.054956514
0.09083523
0.056526225
-0.035795823
0.023925183
0.044579215
0.16909765
0.017922929
-0.10836025
-0.056982014
-0.22838108
-0.10004805
0.00717397
-0.0060911714
-0.011297645
-0.07754041
-0.2809908
-2.1906426
0.004357595
0.09961939
-0.041912623
-0.05370946
0.046891112
-0.013217898
-0.003649536
-0.021668492
-0.14719085
0.004248166
0.091317736
0.01196204
0.008209695
1.042847
-0.0020254857
-0.090873584
-0.08691766
0.0027911484
0.0013915788
-0.1085423
-0.015990518
0.04262623
0.3925789
-0.026049463
-0.04782801
-0.02907391
0.02322999
-0.117224135
0.004184394
0.10901454
-0.04291311
-0.040636104
0.021581925
-0.046988767
-0.059541665
-0.10426494
0.07106792
0.036523245
-0.015814783
-0.087465845
-0.017594635
0.19762558
-0.03303428
-0.007487019
-0.03949176
-0.009736036
0.03257403
0.03723964
-0.0006708653
-0.032612562
-0.02011313
-0.2720576
0.061051615
-0.07953676
0.19165628
0.03326052
-0.019458322
-0.014638223
0.032232504
0.020833848
-0.04387887
-0.22511989
-0.002047985
0.28815076
0.19244729
0.13393402
0.063928835
-0.0060582003
-0.10385851
0.021059897
0.0149406
-0.06738358
0.16114534
-0.078595996
0.018318804
0.033991136
-0.00861308
-0.05812528
0.031617604
-0.4340913
-0.03901175
0.12389535
-0.00565046
0.13910946
0.08309417
-0.06000439
0.050174862
-0.07676131
-0.13708936
-0.028940009
0.039279316
-0.091139674
-0.05965503
-0.005902339
0.06193291
0.028136019
0.03715723
-0.07914182
-0.03014483
-0.40424404
0.054046374
-0.089699715
-0.07308456
0.1546935
-0.07584253
0.08959224
0.021924756
-0.19420095
0.042728778
0.15033336
-0.045046452
-0.051040653
0.10532248
0.074611224
0.028941642
0.029405514
-0.088980705
0.058762655
-0.030865476
0.033036113
0.14493716
-0.037645724
0.031709354
-0.057333376
0.07133099
0.16131
-0.067605525
0.026531665
0.017100023
0.02671681
-0.3523188
-0.01864124
0.09391032
0.0427322
0.05296209
-0.047710046
-0.24452664
0.04722963
0.017116895
-0.08712101
0.03615587
-0.09788225
0.0046020215
-0.05563145
-0.1125195
0.027257198
-0.04913699
-0.03889962
-0.023095781
-0.04776643
0.092072934
-0.04438878
0.09941346
0.033751518
-0.07826105
-0.04533371
0.005506541
-0.064580925
-0.05803314
0.24440607
-0.064825416
-0.029166695
0.21491522
0.0050545516
-0.04995978
-0.13718635
-0.09835771
-0.04405299
0.056654587
0.019500151
0.07102807
-0.123177804
-0.0067590876
-0.16385038
-0.029562108
-0.02557072
0.06467716
0.1241402
-0.2889839
0.018542746
-0.0049409284
-0.022842072
-0.5824395
0.15963057
-0.041505832
-0.13678929
-0.035291336
-0.08392224
0.078617476
-0.07288193
0.026076533
0.06537952
-0.04621158
-0.07769687
-0.05875722
-0.13036123
0.0378489
0.06552966
0.00052562007
0.038449626
1.2432039
-0.16872346
-0.04866418
0.06508694
-0.014768146
0.021498866
-0.05952758
0.07275984
-0.027698902
0.030572824
0.112623
-0.0065353126
1.3019084
-0.06842133
0.07515439
-0.01451016
0.09057453
0.03104981
-0.00933987
-0.04217565
0.27221033
-0.0127303945
-0.028184019
-0.26073012
-0.0003904939
0.056256134
0.037281204
-0.11158991
0.03206154
-0.07308968
-0.13719065
-0.019349558
0.10962362
0.048938196
0.04031088
0.056677423
0.16218989
0.03462483
1.9877901
-0.04224128
-0.005131653
0.027143512
0.018561784
-0.0016190041
0.07350844
-0.018012432
0.045452096
0.027392937
0.007674907
-0.0022743447
-0.10711152
-0.062079508
-0.042503767
0.0028938935
-0.01935788
0.021484416
0.102155335
-0.022843827
-0.008829488
0.053485524
0.013249154
-0.19369297
-0.022120869
-0.060763724
-0.0014158367
-0.0057522124
0.02963176
0.0959863
-0.5207569
0.030542566
0.04272376
-0.010562308
0.028084347
-0.021530999
-0.11498682
-0.04647569
0.017402384
0.051881805
0.008612388
0.02507238
0.060428087
0.03793066
0.07692752
0.04406981
-0.054809578
-1.7966255
0.075425304
-0.07822842
-0.044914596
0.10975712
0.024321828
0.041285086
-0.03744935
0.14419515
-0.10926591
0.5994836
-0.14881106
0.1635158
0.20153631
0.035099946
-0.04772746
0.043455206
-0.012481877
0.07754919
0.07369572
1.074735
0.0156118255
-0.039872386
-0.001990269
-0.0026730227
0.010998713
-0.08314208
0.01607917
0.052452013
0.10988536
-0.06811766
-0.020368598
-0.020295028
-0.013170198
-0.044123854
-0.18651633
0.026317267
-0.0612687
0.027344162
0.053595375
-0.059459675
0.3903197
0.15826587
-0.06517289
-0.09371148
-0.3047949
0.017840395
-0.4215625
0.17981489
-0.04198225
0.10799913
-0.0011228586
-0.00740314
0.034601822
0.09940607
-0.21297397
0.018392747
-0.11407101
0.20903051
0.17431735
0.050760005
-0.0799916
-0.103533134
-0.10400224
-0.08129252
0.34892187
-0.07230543
-0.016341552
0.108868554
-0.11154417
-0.17093347
-0.07690369
-0.05336088
-0.06748951
2.0303164
0.000645209
-0.069553606
-0.0013824739
-0.021472458
-0.001205278
0.045172118
-0.07953797
0.21916224
-0.056810733
0.059378296
-0.029172303
0.06375701
0.071048595
0.116237246
0.0243402
0.027757136
0.5668511
0.03648345
0.040159862
0.05053864
-0.04833814
0.050671466
0.03161785
-0.051933978
0.020695582
-0.07721067
0.07946914
-0.06324283
-0.037378013
-0.021110859
0.06319938
0.1734027
-2.5205765
0.21177047
0.028418835
0.064493544
0.080466524
0.02293529
-0.06163676
-0.11941124
0.1337874
0.05811654
0.034846682
0.017042538
0.035011083
0.005676711
0.040852945
-0.060686167
0.07826102
0.31945726
-0.12310357
0.054829802
0.045111712
0.052039955
-0.08533898
-0.13484165
-0.019340111
0.1313414
0.073293045
0.034276206
-0.02307667
-0.04586353
-0.050098695
0.10567195
-0.75933784
-0.057566028
0.055519864
0.16429378
0.03631879
0.28490245
-0.04555417
-0.0008173131
-0.09221207
-0.064715564
0.037048865
-0.005723814
-0.025431566
0.066861786
-0.6426344
-0.0031501313
-0.20527098
0.0021944311
-0.020980468
-0.091642424
-0.030087015
0.0817643
0.09828911
-0.09059149
-0.024150953
-0.04931842
0.15120086
0.12661093
0.20758672
-0.04652109
-0.03727775
0.0796493
0.09890308
0.15172516
-0.020750238
0.0152699845
0.111505866
-0.021963518
0.030089045
0.07208969
-0.04315172
-0.08006029
-0.80447906
0.0911373
0.040216416
0.11543773
0.025981568
0.2778057
0.03312781
-0.09278378
-0.03376011
0.08589452
0.036744572
0.14380942
0.07239381
-0.009894238
0.06465586
0.06060562
-0.09326272
0.022820419
0.06743167
-0.044509254
-0.007928419
0.10316824
0.07019518
0.07059479
-0.2027979
-0.06104907
-0.10397767
0.20163853
0.06385286
0.013908082
-0.09113222
-0.0174816
0.064112656
0.0652195
-0.18673512
0.022862265
0.00321862
0.035237998
-0.08941557
-0.21010853
-0.0900388
-0.05661955
-0.099445865
-0.014682767
0.039857272
0.011010994
0.17209929
0.046670426
-0.005629742
-0.19008465
0.13280292
-0.32030517
-0.014956228
-0.007713566
0.12908053
-0.043831084
0.021284027
-0.1045663
-0.014429724
0.057551146
-0.09325669
0.19227599
-0.07724812
-0.08902277
0.042407658
0.022994997
-0.0019078327
-0.022443308
0.028628847
-0.45097402
-0.09353033
-0.031222459
-0.06055393
-0.3898222
0.018279035
-0.06516813
-0.11335878
0.13012221
-0.08871423
0.11156649
0.030342575
-0.48259726
-0.027106123
0.019638069
-0.059593562
0.014362093
0.3186614
-0.059499692
-0.25899026
-0.07796472
-0.124040306
0.100334875
0.07583162
0.13693172
-0.09900701
-0.1024769
-0.0852138
0.07997057
-0.11994741
0.06807585
-0.0041704085
-0.09720474
-0.03742682
0.104865395
-0.043525856
-0.07901286
-0.1223838
-0.026699563
0.021289336
0.06227149
0.0068230648
0.088807166
0.03488082
0.021422368
-0.06768938
0.0066964435
0.40764853
-0.028848283
0.012700529
0.009043589
-0.6832809
0.0063665947
-0.066787615
0.114090785
-0.039717596
0.1706605
-0.117463134
0.10563488
0.073396996
-0.003479019
0.07453785
-0.3856258
-0.044885226
0.030625248
0.00900789
0.028741393
-0.06998314
0.06472445
-0.015348463
-0.07733546
-0.04892824
-0.06909064
-0.029373001
-0.030747276
-0.10846129
-0.017820377
-0.1120803
-0.0030387572
0.024801308
0.30278954
-0.005284587
-0.099425115
0.16498451
-0.058344323
0.09935078
0.06359227
0.13843831
-0.013337611
-0.05687054
-0.07548631
-0.04567176
0.005628738
0.018177293
-0.0069523538
0.06356329
0.031752817
0.45836505
0.14198652
-0.023373447
-0.13330266
0.2802683
0.010543916
0.011103787
0.08928196
-0.0091980565
0.03256698
0.09263401
0.018974105
-0.006626251
-0.113807894
-0.0268317
0.1012242
0.04716171
0.057349365
0.034456804
-0.08789397
-0.03422162
0.08215851
0.21674243
-0.022302385
0.04054359
-0.932933
-0.011651717
-0.14209872
-0.1089681
0.05710775
0.00033940433
0.21028578
0.015713431
-0.07950618
-0.07276309
0.07604675
-2.6844158
-0.45136943
-0.03128634
-0.10521071
0.045585807
-0.046443168
-0.052194957
-0.038906883
-0.04077784
0.12215801
-0.0132018365
0.028308056
