3072,
-0.062416323
-0.18282636
-0.020162573
0.010771597
0.022323234
-0.056929465
-0.038720436
-0.15506026
0.09069657
-0.031780366
-0.02192871
-0.122690655
-0.26259267
-0.1247129
-0.13965751
-0.00036575654
-0.08449494
-0.15884104
-0.022521058
-0.09020676
-0.23867299
-0.035605703
-0.0346891
-0.043409288
-0.122008294
-0.010875761
-0.18305016
-0.23825859
-0.1277697
-0.04979692
-0.05639014
-0.0011452672
-0.07523322
-0.1723395
0.0009148627
-0.06699006
-0.0025908004
-0.027329298
-0.1533646
0.046596024
-0.13393675
0.0154927885
-0.0832926
-0.010506414
-0.18107182
-0.23869948
0.057025146
-0.21207534
-0.009924366
-0.09875701
-0.07397449
-0.061532117
-0.17061196
-0.20661606
-0.16111039
-0.05585337
-0.18980181
0.022068486
-0.01693534
-0.202837
-0.028692214
-0.174326
-0.17491443
-0.04377699
0.028642891
-0.067239344
-0.06534726
0.023797385
-0.01179052
0.03415407
0.016608424
-0.12532935
-0.051137444
-0.42665038
-0.33808693
-0.18558909
-0.017539931
-0.04953132
0.0021444396
-0.09163893
-0.26108834
-0.45783332
-0.02257947
-0.024845967
-0.09960095
0.023495054
0.026214564
-0.21685351
-0.058541667
-0.28084096
-0.10182484
-0.06953303
-0.24135944
-0.13772306
-0.012691966
0.01883441
-0.117306225
-0.043309007
-0.13245581
-0.10694185
-0.07142479
0.08322931
-0.13856114
0.05555389
0.016660506
-0.030335143
-0.19641829
-0.15904199
-0.22209565
-0.07536916
-0.3119664
-0.13395959
-0.2018008
0.008766731
0.0019808672
-0.016766591
-0.12871785
-0.11316403
-0.20573735
-0.037348427
-0.031631764
-0.050006285
-0.038687985
-0.2514231
0.0070379926
-0.29280093
-0.18128777
-0.03388343
-0.10304069
-0.12736988
-0.1977379
0.0052416236
-0.18956168
-0.022432638
-0.07675741
-0.037059337
0.051871736
-0.021759339
-0.048434045
0.07649587
-0.011014429
0.07361199
-0.096569605
0.021807076
-0.19651148
-0.014617189
-0.16906251
0.03961428
-0.048126608
-0.18287146
0.02308267
-0.0043818126
0.040425144
-0.0045149913
-0.015216586
-0.07996154
-0.1887489
0.047668826
-0.17995347
-0.37350062
-0.21167593
-0.048258185
-0.018724991
-0.14822908
-2.6846988e-05
-0.026899649
-0.10220298
-0.31680754
-0.0033671332
-0.036581486
-0.053280484
-0.21599074
-0.30272368
-0.07950315
0.0028083976
-0.13305707
-0.017018266
-0.1656502
0.0078076525
-0.13764957
0.005988514
0.10266383
-0.19896682
-0.028969122
-0.07643656
-0.16047744
-0.01638918
-0.0775207
-0.11071655
-0.19917537
-0.053094927
-0.12365166
-0.055308815
-0.005262753
0.018680964
0.022786835
-0.008235331
-0.17919722
-0.10026574
-0.14286682
-0.038378306
-0.04936826
-0.07766675
-0.055073146
0.0008185408
-0.04938366
-0.2275322
0.006780314
-0.00757036
0.02094819
0.0050466713
-0.07826315
-0.12873702
-0.20227088
-0.018271426
-0.05937735
-0.0096706115
0.03551267
-0.20627317
-0.009493083
-0.27230296
0.035588704
-0.12092671
-0.019090349
-0.0509409
-0.18888727
0.010714599
-0.20559725
-0.0144853685
0.005341359
-0.06624367
-0.10234862
-0.022627542
-0.10483003
-0.12541176
-0.11962509
0.055039488
-0.043309536
0.0617115
-0.20412831
-0.65628284
-0.007830347
-0.2588614
-0.05777373
-0.18259998
-0.030527053
-0.057578076
0.039346088
0.0043585263
-0.1626726
-0.11086688
-0.14307918
-0.014667165
-0.06607951
-0.120591156
0.004079709
-0.17396657
-0.051894195
-0.12415775
-0.24889348
0.0009415335
-0.1964362
-0.013669998
-0.11798518
-0.10757456
-0.19872499
-0.06269157
0.1251965
-0.09793992
-0.19199713
0.013569773
-0.04701865
-0.074337885
0.015448335
0.06625726
-0.20435862
0.025396777
-0.07309576
-0.107177086
-0.18466328
0.040859316
-0.09612192
-0.21588351
-0.053565465
-0.037496205
-0.019223128
-0.15553693
0.02369078
0.011372442
-0.1230339
0.016435245
0.016514182
-0.064937934
-0.1843364
-0.030246729
-0.21150671
0.036153134
-0.15997191
0.025892984
-0.076955654
-0.057111654
-0.09015649
-0.104422696
-0.05232206
-0.037507806
-0.19692999
0.040845435
-0.043851096
-0.0061891563
-0.12925382
-0.19882597
-0.02423351
0.03892245
-0.04218373
-0.10571421
-0.11923386
-0.046960462
0.030262755
-0.08417388
-0.17923373
-0.06123525
0.027761273
0.036344327
-0.021965701
-0.104052216
0.026471572
0.05769293
-0.06146196
-0.01965559
-0.057409316
-0.0045564533
0.032712035
-0.00079180335
0.028476031
-0.17675392
-0.048954986
-0.18975486
0.028362023
0.018995976
-0.09690251
-0.013863153
-0.22709337
-0.29986417
-0.18656194
-0.076656096
0.01715854
-0.15284237
-0.08408561
-0.040311787
-0.034619313
-0.15224102
0.07522767
-0.32267514
-0.1654806
-0.13510025
-0.03171414
-0.027864125
-0.12696365
-0.074091494
5.8929505e-05
-0.0016771376
-0.032120526
0.011758459
-0.009022251
-0.033148006
-0.17791446
0.05407666
-0.13085674
-0.103698395
-0.39333525
-0.014573969
-0.057059743
-0.20327418
0.009530788
0.04493483
-0.0011671897
-0.030102668
-0.017748442
-0.061852522
-0.20842907
0.012498658
-0.16012599
0.019359732
-0.06750339
-0.10021787
-0.22214359
-0.012314964
-0.09519735
-0.026452802
-0.062560104
-0.119079016
-0.019878883
-0.10114498
-0.18624394
-0.12980132
-0.16380122
0.020403018
-0.3237272
-0.11590086
-0.009685127
-0.24573164
0.0049160314
0.033982225
-0.0010260657
-0.09858127
-0.051038843
-0.061868142
-0.12796287
-0.11697233
-0.07201171
-0.059788723
-0.018957594
-0.1868712
-0.12659712
-0.053978313
0.06417697
-0.18673962
-0.24057709
-0.013393073
0.01844208
-0.22928187
-0.26636365
-0.16923124
-0.06284896
-0.04133464
-0.020960435
-0.046196684
-0.008618587
-0.0292659
-0.011578326
-0.1506877
-0.029919377
-0.1860633
-0.13074401
-0.18878813
0.057511326
-0.022961333
-0.10972611
-0.2054377
-0.2138007
-0.08351092
-0.20805515
-0.22758943
-0.17651232
-0.062421575
0.045379974
-0.15188637
-0.031168517
-0.25098768
-0.14359891
-0.2132425
0.061529465
-0.06281797
0.1581249
-0.17391756
-0.021454267
-0.05678522
-0.07940817
-0.15190618
0.0081543205
-0.23173209
0.018028166
0.0016714139
0.0508932
-0.0020970607
0.029190572
-0.039721575
-0.18210417
0.009032028
-0.19575372
0.017526608
-0.0074379575
0.05985647
0.08014704
-0.15010826
-0.23404902
-0.02130617
-0.20474896
-0.019758819
0.016532505
-0.058402095
-0.04339484
-0.15112893
-0.01776198
-0.016085152
-0.11809459
0.05061987
-0.09643789
-0.001454699
-0.1771485
-0.034756716
-0.19985741
-0.028709259
-0.19875425
0.13837299
-0.032823086
-0.08354458
0.027002942
-0.09687947
0.025682379
-0.010884145
-0.06528221
-0.014680962
-0.106059454
-0.090943396
-0.024065778
-0.0006336698
-0.26069307
-0.1735374
0.0047281175
-0.18815489
-0.032975383
0.013066981
-0.009995453
-0.15381123
-0.062264126
-0.03460645
-0.23664111
-0.030327186
-0.20316657
-0.14566843
-0.1310106
-0.17730185
0.03307756
-0.19068554
0.026478205
-0.05486589
-0.04032905
-0.088480115
0.015853157
-0.18631002
-0.03183555
-0.2094694
-0.22958158
-0.020605996
-0.14984448
-0.020689897
0.0003449241
-0.16132759
-0.1595683
-0.012537072
-0.33417374
-0.026073087
-0.18082218
0.037055902
-0.24076077
0.011198929
-0.15157175
0.030414987
0.016920725
-0.20573822
0.026696999
-0.14371388
0.023343489
-0.043581538
-0.037654683
-0.17822859
-0.18483746
0.008225483
-0.08665606
-0.17362094
0.024500528
-0.17466818
-0.124104045
0.08445017
0.07419154
0.023296649
-0.0104257185
0.07626167
-0.1895782
0.01903684
-0.106994845
-0.019798346
0.050818484
-0.09388567
-0.25593233
-0.06708313
-0.16290788
-0.020085754
-0.18167745
-0.34596816
-0.18765146
-0.15754284
-0.22004567
-0.13390234
-0.26764053
-0.17236587
0.040416855
-0.44050756
-0.051902555
-0.08146663
0.007855
0.0026807413
0.006105129
-0.09648948
-0.016172344
-0.16169144
-0.17855935
-0.17083496
-0.08872649
0.08281399
0.010352322
-0.22839224
0.030851765
0.0053566843
0.15313818
-0.1755739
-0.113925494
0.090110354
-0.15562555
-0.13809633
-0.0019261134
0.014931664
0.14308837
-0.12541
0.10931887
-0.22696237
0.017871762
-0.16245607
-0.02421621
-0.1236578
0.005799821
-0.022838904
-0.046976663
-0.094361946
-0.18191631
-0.024602879
-0.19362691
0.028366271
-0.23301643
0.00746054
-0.087581344
0.006429176
-0.1776236
-0.048259515
-0.07629222
-0.5222029
0.003918223
-0.19489373
-0.026020216
-0.10740374
-0.018065734
0.10537631
-0.05174803
-0.016888473
-0.16355002
-0.01716144
0.0449359
-0.18667813
-0.026211642
-0.009276246
-0.11426542
-0.010437839
-0.113223694
-0.0765522
-0.00026064774
-0.16454247
-0.12853427
0.048995737
-0.02711808
-0.0512952
-0.001130976
-0.028249985
-0.15469204
-0.1273403
-0.21123855
-0.06285731
0.015420998
-0.05874065
0.01952543
-0.05468149
-0.02815188
-0.043580364
-0.028753644
-0.058718406
-0.23431094
-0.09161288
0.06774368
-0.0071508256
-0.15378125
-0.10341378
-0.1847525
-0.086732045
0.147431
0.018263938
0.0076639787
-0.03314671
-0.23932207
-0.18227127
-0.002190037
-0.040680304
0.02037201
-0.045409597
-0.005245178
-0.19588293
-0.1638187
0.042806454
-0.28765482
-0.1976351
-0.17784522
-0.2362375
-0.2095552
-0.030483816
-0.0540118
-0.032811787
0.08869291
0.09861048
-0.07462152
-0.20900963
-0.18878259
0.038062103
-0.012123221
-0.035124842
-0.032183543
0.00021756461
-0.08448974
-0.1010013
-0.09724264
-0.15203382
-0.0036353837
0.031256802
-0.17162614
-0.13269891
-0.22136599
-0.17563426
-0.042243134
-0.029551014
0.005625404
-0.035593357
-0.03384674
-0.12699959
0.008849382
0.12222833
-0.12899442
-0.09081844
-0.007969844
-0.033386517
-0.03964368
-0.14524859
0.05147812
-0.14570709
-0.08757832
-0.06395998
0.024810094
-0.2869741
0.011557613
-0.1861502
-0.0177353
-0.032536633
-0.06900016
-0.18883902
0.03275362
-0.22258557
-0.12666483
0.033088464
-0.22218414
-0.0010831302
-0.01781032
-0.015746016
0.017567415
-0.021128789
-0.16957541
-0.06432417
-0.010850702
0.012627469
-0.075786784
0.049188476
-0.054171864
0.020721225
-0.12238856
-0.04615999
-0.20796293
-0.018642757
-0.05409532
-0.09721233
-0.15989937
-0.060009353
-0.14537163
-0.00012109525
-0.20419608
0.10631357
-0.07503781
-0.015478956
-0.15027438
0.046738107
-0.00037632964
-0.105675876
-0.11314885
-0.07286261
-0.21043056
-0.1497491
-0.024660392
-0.014105954
-0.0279735
0.023646502
-0.122898065
-0.18051215
0.02179781
-0.06639114
-0.076111466
-0.093942
-0.052387614
-0.055707887
-0.15540807
0.0028837838
-0.06310159
0.0223819
-0.057335015
-0.083162
-0.04947265
-0.17801382
-0.029846981
-0.123400494
0.025169319
-0.028847307
0.006002849
0.014945384
-0.18100603
-0.07791798
-0.011420601
-0.2040372
-0.06721975
-0.02284412
-0.1297424
-0.29197532
-0.23368266
-0.0416921
-0.07309358
-0.072027065
-0.07037228
-0.18059884
-0.23210028
-0.18260266
-0.013480829
-0.019479716
-0.0798585
0.018404813
-0.03784556
0.02789771
-0.0195992
-0.09833734
-0.005162844
-0.061609846
-0.21841352
-0.2548626
-0.023587389
-0.21560179
-0.1557227
-0.011895661
-0.22023661
-0.159729
0.033315666
-0.19979157
-0.079320505
-0.013963061
-0.18482119
-0.01299319
-0.112373635
-0.01845043
0.0128894895
-0.039480876
-0.036361206
0.01730278
-0.24756747
-0.10223378
-0.20958178
-0.13996729
-0.23259003
-0.008307886
-0.0047170212
0.0066664577
-0.14569803
-0.08900765
-0.021051934
0.034135543
0.013209383
-0.29094186
-0.19076702
-0.11798365
-0.2651918
0.07991808
-0.031608257
-0.008663202
-0.06754598
-0.074002564
-0.13622387
-0.11148902
-0.006640887
-0.037224412
-0.02147723
0.024320211
-0.059229497
0.033417426
-0.05069146
-0.11173223
-0.0978478
-0.19700728
-0.04842627
-0.24577811
0.03681758
-0.14828533
0.05750772
-0.090547055
-0.15123636
0.016433448
-0.037954886
-0.13194627
-0.14127372
-0.05455896
-0.03099678
-0.09019332
-0.029980576
-0.09408905
-0.16262868
-0.0150993215
0.024571557
-0.075356625
-0.12833843
-0.048890874
-0.18874806
-0.12081258
-0.21129923
0.031794384
0.0469231
-0.007760389
-0.303436
0.071181476
0.018138241
-0.019729612
-0.038524363
-0.08451105
-0.14136979
0.024844892
-0.0347937
-0.04578119
-0.13086756
-0.15830566
-0.061882194
-0.074941956
0.13716023
0.053911474
-0.034451947
-0.121448345
0.01564142
-0.06672509
0.040631566
-0.10419587
-0.028688855
-0.06457821
-0.0052073714
-0.06161251
-0.00938766
-0.042740386
-0.16761856
-0.08218053
-0.13006312
-0.08750393
-0.21452409
-0.026789516
0.047685705
-0.115357794
0.07940223
-0.25729802
-0.10561825
-0.121078625
-0.006040183
0.017421462
-0.109919876
-0.12813917
-0.09717257
-0.1467416
-0.08126153
0.008729125
-0.0042961715
-0.04938474
0.043686245
-0.01016039
0.06092638
-0.06248723
0.0022814006
-0.2041481
-0.006421938
-0.09389347
0.010905212
-0.07938615
0.008142192
-0.009299342
-0.32519782
0.06978914
-0.040215023
-0.12469159
0.08257462
0.048397772
0.004871596
-0.2258491
-0.15302737
-0.041944243
-0.011726095
0.02575754
-0.07592493
-0.0018661133
-0.000107739026
-0.02490622
0.053648096
-0.02852877
-0.015786093
0.01150772
0.0029926086
0.0071213823
-0.109032676
-0.07404065
-0.1663928
0.013604914
-0.17851947
0.0024528678
-0.009922619
-0.15995122
-0.081770554
-0.025272466
-0.022900108
-0.06385903
-0.049296215
-0.17601177
-0.02437049
-0.19766912
-0.11641721
-0.2683006
-0.023985645
-0.1798261
-0.16493437
-0.085796386
-0.00389794
-0.14675003
0.031938624
-0.20512608
0.018651951
-0.12522626
-0.11368907
-0.1402718
-0.0041481666
-0.2156459
0.021751394
0.009806383
-0.038737178
-0.20322585
-0.013070642
-0.062731765
-4.000944e-05
0.026122319
-0.012785024
-0.10641258
-0.081420705
-0.030597162
-0.034502137
0.08647552
0.057869747
-0.15240997
-0.17009367
-0.06315103
-0.009718085
0.076044604
-0.035290387
-0.1427016
0.002801062
-0.010266111
-0.121045545
-0.005718807
-0.20890112
0.013445041
0.0080683725
-0.23266843
0.037377547
-0.11246443
-0.05801459
-0.15860382
-0.044672225
0.028622769
-0.1835791
-0.030904338
0.004089366
-0.029447872
-0.0769212
-0.041639075
-0.047988623
0.016228683
-0.21227667
-0.003797253
-0.2112577
0.014545422
-0.02397826
-0.12159523
-0.15668531
-0.1735252
-0.021660272
-0.027110256
-0.006432678
-0.03721011
0.010366522
-0.061603945
-0.025836775
-0.09391407
-0.19018471
0.025511524
-0.05100321
-0.19301166
-0.001393693
0.0059881415
-0.09440064
-0.019892769
-0.043030303
-0.00030794562
-0.14813983
-0.041391566
-0.053742472
-0.06661124
-0.038227595
-0.06842862
0.06545537
-0.06629897
0.0019387822
0.258047
-0.07445992
-0.037259847
-0.2224191
-0.14567441
-0.021092242
-0.19616383
-0.03958572
-0.12391453
0.026161462
-0.067794904
-0.10945783
0.008645002
0.01741216
0.0408338
-0.021659452
-0.105950244
-0.20548297
-0.078087255
-0.19069526
-0.19937573
0.03481017
-0.054243267
0.067102775
-0.12350329
-0.089180805
-0.14887457
0.0052463403
-0.016467389
-0.08175527
0.07110467
-0.17083845
0.009312013
-0.2475688
-0.09813147
-0.06757624
-0.035211254
-0.0066702273
-0.109750085
0.12895946
-0.0063982434
-0.18019883
-0.04588837
-0.1238384
-0.024660818
-0.09138538
0.007024007
-0.015719935
0.08240514
-0.17291324
-0.106517985
-0.20547774
-0.21036859
-0.05461206
-0.20566791
-0.05936874
-0.023299484
-0.033251557
-0.0010368942
0.020128775
-0.017227259
0.044422816
-0.02085768
-0.0076627648
-0.14925839
-0.016126066
-0.006411687
0.0049295304
-0.16206457
-0.06298462
-0.16729806
-0.027424617
-0.22044665
0.038820088
-0.20695749
-0.05386055
0.04447133
-0.10939683
0.022403618
0.011904497
0.0353198
-0.07186407
-0.04603725
-0.09316511
-0.26065412
-0.035059102
-0.18936457
-0.12814464
-0.04774568
-0.03129567
-0.041453324
-0.037585285
0.052103993
0.01492635
-0.21913242
-0.02195198
-0.040745243
-0.22725849
-0.10099283
-0.03497492
-0.036501672
-0.017384073
0.0003436023
-0.08862888
-0.18062045
-0.07243746
-0.026911082
-0.15669404
0.026455194
-0.13999437
-0.1918702
-0.040001873
-0.16361913
-0.031329796
-0.36358637
-0.0012600623
-0.10214976
-0.012660198
-0.00056695135
-0.21089959
-0.079113424
-0.002729476
0.047268704
-0.0921521
0.006171645
0.034736834
-0.006777745
-0.2377727
-0.26470718
-0.07592212
-0.18254441
-0.07160021
-0.0045103626
-0.06233724
-0.0026557785
-0.11309128
-0.053627938
-0.084538616
-0.0023427852
-0.013607114
-0.15012474
0.069765754
-0.08591733
-0.45414254
-0.025765795
-0.1451993
-0.10306222
-0.05408369
-0.04960819
-0.053595945
-0.008455892
-0.14677261
-0.20099504
0.023652852
-0.1860882
-0.06537336
0.18157919
-0.007671671
0.100170635
-0.05520268
0.02884715
0.00829678
-0.2269368
-0.06978421
-0.1052497
0.016628461
-0.19462937
0.017263245
-0.14679562
-0.035366606
-0.021965494
-0.13339545
-0.23251289
-0.08515462
-0.015694138
-0.079913236
-0.03857186
-0.08010258
-0.029499328
0.03369614
-0.037695885
-0.19440001
-0.027727738
-0.033475287
0.035988145
-0.13285883
0.013703223
-0.23589028
0.04946677
0.0035651044
0.021569842
0.053516265
-0.10889789
-0.19605374
0.044279784
0.022122752
0.010484582
0.028263424
-0.05292236
-0.20815954
0.06269466
-0.096094646
-0.11465013
0.097887
0.004524354
-0.010161322
-0.1773255
0.057019044
-0.18256047
-0.1884012
-0.1898782
-0.18395199
-0.025722455
0.026484758
0.028483735
-0.032599542
-0.12279869
-0.21967751
-0.03557068
-0.018787332
0.018736783
-0.19948551
-0.110376224
-0.18859188
-0.031185713
-0.18890245
-0.18088642
0.009222017
0.04721462
-0.01905032
-0.026034225
-0.2150502
-0.047156136
-0.20142962
-0.051765423
-0.032221988
-0.13912724
-0.21793662
0.01562363
-0.08545992
0.04601406
-0.04349646
-0.017042212
-0.22334324
0.02144338
-0.05520484
-0.09995221
-0.02505465
-0.22092177
-0.152915
0.04189389
0.054390334
-0.031752266
0.03561063
-0.17541575
-0.001992227
-0.009951819
-0.02305848
-0.006378283
0.03713754
-0.23327911
-0.11377531
-0.188445
0.10316415
0.0010384759
0.0024661967
-0.06444686
0.011772412
-0.097143576
-0.24868892
0.023800042
-0.19195701
-0.18614794
-0.06905511
-0.17330873
-0.17594592
-0.042185437
-0.22343422
-0.044153504
-0.21038249
-0.025459781
-0.016549857
-0.17317277
-0.17357063
-0.15468852
-0.15205237
-0.08812588
-0.20206256
-0.12583797
-0.08631452
-0.16719861
-0.3121457
-0.14190853
-0.11146804
0.0036978216
-0.13732027
-0.23917463
-0.18926756
-0.115008175
0.012350633
-0.022849962
-0.042273976
-0.15435939
0.004528968
-0.20315696
0.022263477
0.03236793
-0.17761141
-0.053950332
-0.049831353
-0.15124027
-0.18396984
-0.19412646
-0.027994985
-0.24131495
-0.08312177
-0.0037643544
-0.033045784
-0.008635423
-0.06093428
-0.19424918
-0.2657618
-0.06309929
-0.21702386
-0.2304592
-0.0284725
-0.06612238
-0.036592923
0.021774799
0.033436205
-0.123101495
0.030458624
-0.14410512
-0.19219735
-0.029348603
0.019525534
0.020137012
-0.06101798
-0.12862706
-0.20728621
-0.08081591
-0.03022265
-0.38943118
0.023023825
-0.042334575
-0.021773428
-0.1027409
-0.24012968
-0.1438079
-0.20818175
-0.092450514
-0.15871252
-0.051386014
-0.17889965
-0.03307396
-0.1628369
0.010713538
-0.027746595
0.009788569
0.017133497
-0.15324838
-0.13038082
0.05441586
-0.115838766
-0.03151513
-0.032996222
0.019859266
-0.06486117
0.018882474
0.0796061
-0.027764693
0.019333927
-0.17792374
0.026408438
0.002637482
0.0062635033
-0.03594286
-0.05591276
0.005298094
-0.016325347
0.03753611
-0.0731601
-0.00969854
-0.04560103
-0.029656578
0.0127051445
-0.20582278
-0.20892496
-0.17036894
-0.29789168
-0.16052414
0.06320556
-0.016231366
-0.110809445
-0.025786603
-0.031425003
-0.26894307
-0.22429715
-0.07576799
-0.18307501
-0.049045913
-0.023830721
0.019647274
-0.29943138
-0.30896398
-0.06407912
0.021730464
-0.057761308
-0.058610696
-0.048128776
-5.526903e-05
-0.08121046
-0.03776952
-0.017829794
-0.024509097
-0.35307306
-0.061001737
-0.004933669
-0.045753367
-0.09506577
-0.034812324
0.010213604
-0.19639781
-0.08484972
-0.011061057
-0.06766721
0.029101584
-0.123352826
-0.12220335
-0.17665596
0.035569247
-0.15312794
-0.0695734
-0.011423491
-0.19998284
-0.17655917
0.007373691
0.06922322
-0.016566945
-0.0814802
-0.10823634
0.017952628
-0.030576246
0.03657037
-0.014483327
-0.049215335
-0.06220164
-0.1271849
-0.002303505
-0.07967499
0.10446865
-0.17989509
0.04468009
0.02184847
-0.051091388
-0.040904846
-0.016144196
0.017994253
-0.0156069165
-0.011038486
-0.15234977
-0.030044058
-0.031390607
-0.03812875
-0.16978072
0.05494653
-0.0059524295
-0.26964957
-0.056221183
-0.0065317093
-0.020198101
-0.20603584
-0.12060506
-0.047024123
0.007195394
-0.028406145
0.031155657
-0.17204922
-0.13825259
0.06470985
0.026789866
-0.17395087
0.124263756
-0.02811329
-0.06422546
-0.06758152
0.050481338
-0.19691725
-0.2078496
0.0061070933
0.043453146
-0.11825911
-0.08062761
-0.21382622
-0.0777791
-0.09762263
-0.116517514
0.006512153
0.004959993
-0.2268067
-0.10589967
0.049597964
-0.019159574
-0.18864919
-0.11146986
-0.17986216
-0.0018189262
-0.073451154
0.090069786
0.00092177256
-0.12862831
-0.18990669
-0.12373837
0.022639515
-0.053305145
-0.32797435
0.012053802
-0.10532133
0.10254194
-0.1758924
0.019446772
-0.19877367
0.028836805
-0.017420566
-0.074578
-0.19528306
-0.17072329
0.03247045
-0.17453319
-0.12594183
0.02421409
-0.035663407
0.009281937
-0.17543885
0.009245275
-0.21721998
-0.14110006
-0.14590324
-0.01421619
0.0101465415
-0.13504139
-0.02872662
0.015045627
-0.0440422
0.04992797
-0.25945148
0.0083779665
-0.025444483
-0.09349526
-0.018206153
0.051736075
-0.06113764
-0.08707401
-0.06778352
-0.027600046
-0.23146695
-0.12426904
-0.02640352
-0.072827145
0.055487502
-0.03567654
-0.021528248
-0.13976312
0.036556162
-0.025369266
-0.089745864
-0.19203347
-0.023232186
-0.17758039
-0.09399613
-0.044687238
-0.19027637
-0.18896556
-0.106339164
-0.010331598
-0.19841012
-0.071341924
-0.18673724
-0.11168498
-0.04220284
-0.17058115
-0.2719002
0.1870931
-0.11976157
0.016825981
0.031038549
-0.025653435
-0.18438362
-0.45597872
-0.13676807
-0.09074783
-0.20564531
-0.004294119
-0.18333554
-0.1764071
0.01964792
-0.08712826
-0.05996831
-0.2035621
-0.029396238
-0.018235868
-0.11862663
-0.045690335
0.02309017
-0.1882613
-0.06794163
0.023603868
-0.015375316
-0.069827236
0.14227602
-0.028182369
-0.013077262
-0.2378406
0.030001689
-0.02627967
0.013716433
0.0021631336
-0.027282614
-0.022122636
0.028783226
-0.36028874
-0.14760038
-0.12512141
-0.002873847
0.036803026
-0.094718
-0.1884944
-0.2682551
-0.20934762
-0.2394668
0.017239453
-0.039514504
-0.05550552
-0.06470405
-0.19573745
-0.018435044
0.030456258
-0.18133283
-0.13809916
-0.03429857
0.048202176
0.0456216
-0.020196632
-0.04758363
-0.07213556
-0.011200294
-0.20650606
-0.017399693
-0.11984039
0.11306251
-0.024083378
-0.05169921
0.003602889
-0.2371972
-0.22038634
-0.01872939
-0.1066548
-0.042406786
-0.004901834
-0.02649936
0.006069853
0.02662368
-0.11447007
0.023981685
-0.0066671865
-0.1451228
-0.057664134
-0.052992508
-0.1950793
-0.03720255
-0.02935865
-0.027455788
0.01920359
-0.20506926
-0.18506575
-0.19818261
-0.044539213
0.04298951
-0.05165999
0.0026748176
0.016026424
0.019674368
-0.031124735
-0.25079408
-0.061874676
0.0104375845
-0.20453976
-0.17627579
0.019128714
-0.05964526
-0.030101232
-0.056015
-0.18534662
-0.307696
0.04054814
0.08915592
-0.058156133
-0.05650111
-0.18912898
-0.031110268
-0.1594369
-0.018841026
-0.061544098
-0.09522813
-0.21414588
0.063551955
-0.21707328
0.016263023
0.009874075
-0.03323633
-0.06466203
-0.17801952
0.013524393
-0.18102671
-0.10835064
-0.17856087
-0.163258
-0.23546176
-0.13336559
-0.057853684
0.0126117775
-0.1766727
0.0010730989
0.0016591703
0.0014936813
-0.055924878
-0.0053848117
-0.16940834
-0.08139879
-0.17897588
-0.03787719
0.025393175
0.004289529
0.020472156
-0.019907158
-0.100095354
-0.014185176
-0.13123727
-0.16367078
-0.16445051
-0.2421573
-0.03388567
-0.10878355
-0.18931016
-0.25857008
-0.16059627
-0.03740976
-0.10772095
-0.0976547
0.006140911
0.0006506041
-0.028616797
0.0116391815
-0.050599933
-0.14699396
-0.05791191
0.030181393
0.080025576
-0.110467695
-0.08306826
0.040066555
0.011955034
-0.12750286
-0.08884917
-0.05762855
-0.22246443
-0.12972414
-0.029378003
-0.17404418
-0.014152314
-0.07967256
-0.18505977
0.012514206
-0.16742857
0.018839257
-0.19218558
0.06701644
-0.0603551
-0.12767996
-0.1213488
-0.022724673
-0.023616808
-0.023387399
-0.022553809
-0.14600018
-0.17076641
-0.05518124
-0.0043436754
0.016207831
0.0069034444
0.13202463
-0.028566787
0.021021977
-0.1836115
-0.14589718
-0.006445395
-0.20586959
-0.036341492
0.020103695
-0.1359153
-0.11914081
-0.15680057
-0.0033287723
-0.08854808
-0.008908496
-0.20181468
-0.063228585
-0.044823512
-0.13126104
0.001866307
0.011719903
0.018467674
-0.02434749
-0.15518995
-0.0026552668
0.03839421
-0.031883173
-0.008797556
-0.27349195
-0.22001688
0.010798828
-0.072562054
-0.10026703
-0.15273114
-0.019541206
-0.033122145
-0.0021120023
-0.04013135
-0.09692184
0.03142485
-0.18481945
-0.20001645
0.026330618
-0.23209107
-0.05910592
-0.1153935
0.02437921
-0.016050586
-0.2618633
0.24831893
-0.013201072
-0.06581802
-0.044406153
0.0044944226
-0.039803553
-0.25063625
-0.15677938
-0.25221163
-0.02339241
-0.17942722
-0.16447689
-0.04996513
-0.15232088
0.17157574
0.02109131
-0.07031911
-0.0029096515
-0.14099178
-0.07559661
-0.111298054
-0.059118807
-0.023410713
-0.3429321
0.09120933
-0.053888198
-0.17385677
-0.09565005
-0.15483762
-0.07242153
-0.05787044
-0.100633174
-0.0783678
-0.13995302
0.04189262
-0.2074582
0.0358956
-0.023816131
-0.1749693
0.005313226
-0.11201781
0.011115951
-0.0021960575
-0.1383952
0.0061225514
-0.22385089
-0.18264318
-0.19391885
0.0026866873
-0.053018946
-0.060435046
-0.02449216
-0.023436984
-0.026841637
-0.033820547
-0.19298549
-0.257118
-0.14604087
-0.17306526
-0.04880641
-0.074416466
-0.18572345
-0.12810926
-0.0919838
-0.16484164
-0.26516443
-0.16565698
-0.052720904
0.031986706
-0.042492036
-0.031385522
0.023754284
-0.19580382
-0.041560244
0.063006476
-0.012453775
-0.1710168
-0.09334282
-0.0058802674
0.03433451
0.005189139
-0.072854474
-0.012164772
-0.08827759
-0.04458394
0.012947728
-0.117734954
-0.07839714
-0.12462746
-0.0021903599
-0.22053318
0.04411328
-0.09361822
0.022805559
-0.1903907
-0.06899417
0.022214755
-0.08284325
-0.0052535753
-0.26471156
0.023319574
-0.001459295
-0.13214812
-0.11911637
-0.0114442
-0.122260496
-0.18238163
-0.037335943
-0.12492949
0.0005998763
-0.036545254
-0.19981317
-0.07886749
-0.019218462
0.018300137
-0.1239783
-0.038512714
-0.047411073
-0.18504559
-0.046710357
-0.0419193
-0.24539885
0.028413333
0.10668518
-0.08526638
-0.04283783
-0.08665482
0.01642384
-0.006031603
-0.16774234
-0.08786494
-0.08442362
-0.043700024
0.011585425
-0.0025800487
-0.08028836
-0.04691898
-0.01073297
0.000553035
-0.13247876
-0.1508514
-0.073830955
-0.026437534
0.011805595
0.011371123
-0.078324296
-0.21936235
-0.042241734
-0.18559636
0.015970238
-0.029940901
-0.22911207
-0.18344826
-0.12956735
-0.025676418
0.024261167
-0.05982078
-0.021899255
-0.08941925
0.12953094
-0.21137378
0.11935784
-0.14209983
-0.0210576
0.005717524
-0.009913425
0.024671514
-0.0024894779
-0.21668465
-0.08919268
-0.15833846
0.028728658
-0.20913279
-0.068878055
-0.048115768
-0.00497662
-0.1776826
0.13042739
-0.0030869013
0.035898693
0.10771203
-0.1653196
0.08517152
-0.11479576
-0.07964914
-0.009732877
-0.12057745
-0.0023222105
0.07216353
-0.025533807
0.04524206
-0.083246425
-0.17447671
-0.017590284
-0.03560065
0.001700728
-0.014780649
-0.06414282
-0.04033689
-0.096015304
-0.061024718
-0.022164335
-0.0007280399
0.16515659
0.0053239483
-0.06683535
-0.008752245
-0.07559594
-0.030385362
-0.019398365
-0.17732532
-0.002800639
-0.0008448442
0.008742412
-0.0042211907
-0.06832117
-0.08620272
-0.10617428
-0.013723461
-0.1655824
-0.059604026
-0.00076984515
-0.081423126
0.006778245
-0.10352193
-0.1392634
-0.18812653
-0.08297004
-0.22352992
-0.2038007
-0.07721936
-0.049093075
0.039195407
-0.099216476
-0.5167138
0.13753407
-0.10166938
-0.08821567
-0.008636946
-0.06471222
-0.076249115
-0.21548404
0.018863702
-0.09360771
-0.23144293
-0.011745934
-0.09375322
-0.1428748
-0.015996575
0.023192981
0.023139901
-0.04830496
-0.17393863
-0.06701205
-0.21289192
-0.038068473
0.0019053068
-0.2041027
0.0013216427
-0.24574874
-0.15584105
-0.18454824
-0.19672018
-0.17628957
-0.017324183
-0.028852327
0.019245062
0.019332012
-0.10124026
-0.023784092
-0.007356823
-0.07005132
0.0001643031
-0.07605662
0.030264355
-0.22006714
-0.0960474
-0.113542184
-0.23314968
0.00075501367
0.0011506634
-0.17537738
0.011790314
-0.1489528
-0.20146525
-0.087921344
-0.050215904
-0.25912344
0.03578468
-0.16368997
-0.02548753
0.027952883
-0.021890882
-0.12773013
0.100244634
-0.15625682
0.022361731
-0.018794287
-0.20187277
-0.0039207856
-0.19654013
-0.014619498
-0.05153814
-0.006778361
-0.30084157
-0.14015415
-0.2067287
0.012272482
-0.019873982
-0.025185999
0.01254385
-0.10282018
0.07154755
-0.0005062025
0.007959972
-0.3279184
-0.008030874
-0.038667798
0.017339772
0.06243579
-0.039123736
0.062833376
-0.06958542
-0.023728624
-0.19686973
-0.27051535
-0.2344545
-0.025576754
-0.15272973
-0.03798545
-0.14847781
-0.025405947
-0.03664031
0.08872073
-0.17223005
-0.24852762
0.0034966534
-0.2144785
0.06711592
-0.16791447
0.011977832
-0.23883002
0.0052618464
-0.042149726
-0.04549811
-0.03424341
-0.19750611
0.03464006
-0.0645173
-0.027744867
-0.0060885847
-0.15524016
0.023429457
-0.013612517
-0.17336923
-0.04296292
0.007391518
-0.049152754
-0.17018321
-0.20029552
-0.17233773
-0.023948224
-0.22382426
-0.21815695
-0.17929861
-0.38028625
-0.14961484
-0.07542578
-0.033440415
-0.21994388
-0.036850054
0.018951094
-0.23432143
0.061711103
-0.08761428
-0.21406074
0.04996654
-0.105701074
-0.13049358
0.01697943
0.011678154
-0.00178326
-0.017348047
-0.011137714
-0.12329573
-0.12281687
-0.01295885
0.030096337
-0.057881385
-0.019433346
-0.051775847
-0.06616344
-0.08984267
-0.0272521
-0.049549095
0.011665144
0.039884113
0.19219336
-0.11568819
-0.005474155
-0.114121266
0.09987467
-0.009522082
0.00049247564
-0.11200786
0.036896326
0.013066844
-0.11181322
-0.2962219
-0.1845322
-0.060517304
-0.17103352
-0.07414469
-0.034233924
-0.16681816
-0.08683723
-0.19002444
-0.035991978
-0.0464593
0.05025814
-0.0012954172
0.045169305
-0.027902694
0.007895587
-0.10818732
0.014072424
-0.08721312
-0.17498493
-0.22497813
-0.12380477
-0.040176142
-0.13871261
-0.04849995
-0.10951508
-0.13450569
0.089656495
-0.044637498
-0.16547157
-0.19892856
-0.06361331
-0.11238036
-0.18510188
0.23890762
-0.06492153
-0.08887484
-0.21313232
-0.1869657
0.020342717
-0.1772386
-0.13707823
-0.004532704
0.026355432
-0.19561917
0.008608854
-0.07239188
-0.24259274
-0.057914935
0.03854292
0.008040972
-0.08004371
-0.11323443
-0.20254123
-0.010211963
-0.10039438
-0.21990414
-0.27325755
-0.0007410834
-0.028584186
-0.21725671
-0.009523888
0.040494855
-0.12825696
-0.1436491
0.015793419
-0.01885674
-0.0024020602
-0.20856087
-0.02261876
-0.00432148
0.040165946
-0.032194763
0.09920077
-0.22201315
0.01649742
-0.24800625
0.0038761995
-0.04207692
0.01455035
-0.22758524
-0.3309419
-0.055560082
-0.16039822
-0.05635883
-0.030998927
0.003182531
0.0441929
0.032443695
-0.04215152
0.010114153
-0.075300105
-0.21267892
-0.13788453
-0.15713912
-0.016512463
0.05334849
-0.030979132
-0.23437704
0.019562492
-0.23678975
-0.03630613
0.09745355
-0.04578868
-0.035847034
-0.0475561
-0.094966
0.008508417
-0.13755283
-0.03931043
-0.030194752
-0.07843377
-0.009968445
-0.050149914
-0.015745675
-0.11997704
-0.123545684
-0.21630375
-0.14925963
-0.22158702
-0.040560804
-0.15947063
-0.18671387
-0.26131225
-0.06120562
-0.1790604
0.00025633202
-0.06807424
-0.11838738
-0.21433389
-0.031779382
0.07737231
0.07785122
-0.16415043
0.09816933
-0.009703414
0.008382738
-0.07085447
-0.005623959
-0.018960837
-0.13807777
-0.044007327
-0.048927434
0.00758099
-0.19138055
-0.043261666
-0.27485117
-0.0981748
-0.12423235
0.04233056
-0.009672035
-0.05079681
-0.22452176
-0.17553537
0.010287269
-0.011936499
-0.038931735
-0.028573815
-0.036554582
-0.059624527
-0.15052763
-0.054912128
0.03795874
-0.15190053
-0.108879976
-0.034566477
0.014067826
0.035626754
-0.114015214
-0.15062684
-0.0077279615
0.016119294
-0.19720034
-0.061924722
-0.03758199
-0.29072478
-0.23627909
-0.06686626
-0.20261686
0.051911533
0.04410647
-0.066986315
-0.008720593
-0.14896764
-0.13763647
-0.18221912
-0.20042472
-0.060102917
-0.032133818
-0.09889116
-0.06325455
-0.019224757
-0.17248717
0.08988781
0.16299634
-0.047713757
-0.008880039
-0.069622956
-0.008884436
-0.11813694
-0.099647164
-0.06967124
-0.07407359
-0.049750634
-0.018525578
0.011356229
-0.13134144
-0.07961566
-0.008792444
-0.027827125
-0.18860544
-0.1713879
-0.16562545
0.02144024
0.024822664
-0.010037272
0.027928594
-0.04008671
-0.1647014
0.044298135
-0.004275036
-0.004947041
0.15915613
-0.15919445
0.013394728
0.02314139
-0.010554023
-0.26424253
-0.18557279
-0.20166232
-0.12871253
0.13265258
-0.10908537
-0.08247728
-0.14603269
0.017150618
0.006971077
-0.048891094
-0.13183975
-0.06760173
-0.042216595
-0.04155423
-0.031489182
0.009001407
-0.02815637
-0.13543099
-0.07886944
-0.13114813
-0.15102968
-0.06896111
-0.017389832
-0.066262364
-0.11854783
-0.21606836
-0.04070486
-0.08756573
-0.020257784
-0.0177446
-0.053449444
-0.19135241
-0.058537178
-0.051146343
-0.039210245
-0.26044384
-0.09874996
0.045986667
0.00013761022
-0.048097022
-0.07467142
-0.17760915
-0.050598472
-0.12576663
0.021879582
0.046296153
-0.018345598
-0.15709907
-0.36949843
-0.024429446
-0.22004016
-0.02693077
-0.17261887
-0.012180481
0.012620868
-0.0074603907
-0.06293564
-0.18143323
-0.047979884
-0.07425216
0.05182867
-0.047888733
-0.14221677
-0.19772698
0.010693323
-0.10265813
-0.03596102
-0.1358278
0.02305145
0.03093738
0.12718338
0.036128417
-0.14717588
0.017350925
0.011563449
0.020512553
-0.21203831
0.0019721058
-0.3881139
-0.11015529
-0.02581581
-0.03003383
-0.14244974
-0.4508517
-0.008374508
-0.14400622
0.010739637
-0.21841513
0.07084611
0.046691097
-0.027584437
-0.033116978
0.04382959
-0.04159312
0.0002976349
-0.16538025
0.042153873
-0.09763897
-0.28096294
0.045012984
-0.04869243
-0.17664899
-0.1328628
-0.23098308
-0.08902344
-0.022086278
-0.0037985502
-0.05761986
0.05354969
0.023733823
-0.09642279
0.0108659845
0.026632806
-0.041572463
-0.17521642
-0.29911312
0.037517615
-0.13838612
-0.11972235
0.026493762
-0.081385605
-0.027307944
0.034330647
-0.1859469
-0.22473605
-0.12312677
-0.03833397
-0.016489709
0.033057127
-0.04775398
-0.011412452
0.0057340865
-0.07409662
-0.053140167
-0.015822707
0.1688585
-0.1191567
-0.011037746
-0.023351355
-0.10884151
0.009915497
-0.022823052
-0.082430266
0.008190264
-0.13388808
-0.1848909
-0.16052325
-0.021323064
-0.17272824
0.04073853
0.023998767
-0.010077969
0.027515458
-0.06858776
-0.10162361
-0.016465845
-0.0020029526
0.04050004
-0.18612215
-0.14031443
-0.18326429
-0.12685804
-0.18610828
0.003715224
-0.011810522
0.05470631
-0.1887842
-0.01467361
0.013745018
-0.017085303
0.13191365
-0.21990861
-0.06760171
-0.012072417
0.08752692
-0.08740117
-0.22151652
0.19891046
0.039525036
-0.20298703
-0.10913781
-0.021561733
-0.30865484
-0.057208158
-0.03269713
-0.10933458
-0.1685291
-0.2000719
-0.06536717
0.0382042
-0.055826806
0.0015285594
0.0036241487
0.002898711
-0.03855152
-0.08730489
-0.06612299
-0.014349405
-0.16107662
0.00026576046
-0.23793463
-0.19873865
-0.17334014
-0.22660148
0.015174321
-0.04409709
-0.15619361
-0.20429365
-0.12881607
-0.011651742
0.013082507
-0.03912192
-0.11162342
0.03436795
-0.0040218686
-0.051841673
0.015792757
-0.16234985
-0.05115557
0.015919179
-0.016600031
-0.111017846
-0.12550028
0.00383422
0.035910048
-0.27586508
-0.22759435
-0.039638147
0.074641444
-0.040806327
-0.2217009
0.022623755
-0.13311563
-0.19410428
0.03243811
-0.11074667
0.010919187
-0.0054971706
-0.053739328
-0.0566697
-0.08206694
-0.10827819
-0.017938662
-0.029392695
-0.1667137
-0.0138383
-0.243065
-0.022833372
0.0069803926
-0.009530299
-0.051190514
-0.12849578
-0.14205872
-0.09484333
-0.15883893
-0.18160099
0.0308911
-0.16739157
0.037968807
0.016185906
-0.1313428
-0.16326495
-0.019939119
-0.07706842
-0.0053946497
-0.06565094
-0.11215952
-0.023813905
-0.058200106
-0.10653366
0.054732747
-0.23916653
-0.012263716
-0.1345105
-0.07962107
0.030105377
-0.2036769
-0.08982246
-0.025920263
-0.09773178
-0.012851659
-0.066260114
-0.18699183
-0.20732929
-0.0062115393
-0.21248658
-0.005318749
0.084689215
-0.030226193
-0.0018729549
0.008762113
-0.07542117
-0.02657511
-0.045386266
0.037562963
-0.09227091
0.00078216026
-0.008368515
-0.20166504
-0.077748165
0.02912824
-0.19075745
0.0047000595
-0.0052587492
0.012724479
-0.030441139
-0.0014728236
-0.04096449
0.04616396
-0.21045554
-0.03820582
-0.01678388
-0.19671711
-0.037924543
0.0010588891
-0.21398772
0.0098176235
-0.023439746
-0.04017657
-0.16670461
-0.0302424
0.03460772
0.022851564
0.050601676
-0.08791417
-0.024964415
-0.005554689
-0.20446418
-0.025602216
-0.3174009
-0.21534967
-0.21122417
-0.018148582
-0.18979391
-0.0582651
-0.007747327
-0.113003805
-0.11100347
-0.016545579
-0.03897745
-0.04224118
-0.014899353
0.0003675594
0.010918466
-0.03812825
-0.06630145
0.015676511
0.007500448
-0.028719408
-0.20613126
-0.12160583
0.07201683
0.017516004
-0.100802965
-0.0004794479
-0.025524933
-0.20803319
-0.19571012
-0.020151699
0.029270492
-0.16626202
-0.2956079
0.06254852
-0.12608318
0.018078128
-0.017112084
0.26505628
0.006503712
-0.2599588
-0.016287671
-0.23555523
-0.028395146
-0.0073657325
-0.045519073
0.0075427443
0.077830225
-0.1826492
0.020818051
0.0015655936
-0.038533207
-0.044786524
-0.09379478
-0.2030609
-0.120216526
-0.015517541
-0.16767254
-0.1671949
0.029173207
-0.017702404
-0.113777
0.060587987
-0.04767989
-0.084262066
-0.067260675
-0.18519717
-0.2189055
-0.11626315
-0.035364103
-0.023435127
0.034118507
-0.08647956
-0.013774737
-0.015242191
0.00042945883
0.008312485
-0.025558714
-0.085695215
-0.11946933
-0.0071855085
-0.11412595
-0.15705553
0.022376832
-0.18066527
0.014573059
-0.046040703
-0.06459463
-0.03430675
-0.007260466
-0.021777077
-0.21243489
0.0764898
-0.02542339
-0.07348521
-0.23418434
0.035116136
-0.0019101464
-0.19585377
-0.07450491
-0.18149757
-0.01743009
-0.19797549
0.08454494
-0.009801361
-0.013586959
0.02574325
-0.11746286
-0.16371343
-0.028983913
-0.1298948
0.018696146
-0.20516568
-0.043004643
0.095886655
-0.09526819
-0.048840795
-0.0070215384
-0.05311513
-0.16333295
0.030345904
-0.03863311
-0.117987014
0.010927234
-0.23896983
-0.016534366
0.05321082
-0.1361818
-0.03281343
0.009839184
0.0071315933
0.011293803
-0.022303522
-0.0075786104
-0.10165063
-0.03201892
-0.12164196
-0.21089515
-0.08466736
-0.040236805
0.040586587
-0.09746976
0.100467995
0.02603887
-0.00056633714
-0.03945501
-0.19430599
-0.14256835
-0.06684669
