3072,
0.03961948
-0.08812532
-0.14024909
-0.033150904
-0.01605977
-0.0147047825
-0.19732018
0.12343803
-0.003439988
0.0073190243
-0.038716752
0.1870614
-0.068038024
-0.09193191
-0.07458716
-0.014410524
-0.024129888
-0.06571946
-0.3744228
0.022726871
-0.29659784
-0.07734
-0.04813894
-0.18861754
-0.16998482
-0.04716999
0.080883145
-0.29275262
-0.2864911
-0.0005601374
0.03281822
-0.11158618
-0.25764984
-0.09743911
-0.08999391
-0.0051366617
-0.017961808
-0.63832545
-0.34291783
-0.2528897
-0.22006576
0.014786518
0.108038664
-0.015758812
0.073521346
-0.10604419
-0.15773453
-0.012602953
-0.09319603
0.1406964
-0.17187528
-0.087254465
-0.0015532443
-0.33230603
-0.1717131
-0.09747514
0.004899208
-0.056943357
0.023989199
-0.061746784
-0.012162789
0.050121058
-0.2032459
-0.03185517
-0.03370839
-0.026090534
-0.17773446
0.04731307
-0.12631099
-0.27077603
-0.014589163
-0.124219336
-0.23234084
-0.053331148
0.015780399
0.022596441
-0.03405185
-0.16084738
-0.22970912
-0.28385004
-0.11500418
0.1438969
-0.13109086
-0.4007247
-0.38511655
-0.32078722
-0.09307599
-0.0067645786
-0.027580276
0.12241992
-0.22927047
-0.10292898
0.036139164
0.106077015
-0.11496166
0.0001942967
-0.23267022
-0.13972348
0.014945546
0.00022102727
0.059733775
-0.7461664
-0.2889486
-0.23410696
-0.27360344
0.004171715
0.05690274
-0.25788975
-0.29624775
-0.017538523
-0.017849669
-0.099394456
-0.23890097
-0.09721177
-0.33065644
-0.0059363823
-0.2216924
0.035001744
-0.0077890465
-0.2628543
9.029861e-06
-0.16576426
-0.058549758
-0.007627686
0.010052636
-0.34741384
0.013643291
0.054595456
-0.0032541049
-0.2779553
0.103678204
-0.08803577
-0.13015081
0.01371938
0.043001156
-0.2736846
-0.19759998
-0.3142358
-0.075272664
-0.048632264
0.04390743
-0.15865758
0.09622931
-0.01772118
0.0073561235
-0.043564904
-0.027640112
-0.015098347
-0.112182036
0.026562057
-0.12083741
-0.2301662
-0.03569923
0.054819696
-0.10746546
-0.06197554
0.010284143
0.0025954188
0.0099548185
-0.24840008
-0.33632472
-0.059863318
0.0012276939
0.0037713828
-0.124292456
-0.006932342
0.05861984
-0.03280116
-0.05639988
0.10236201
0.037441913
-0.46636546
0.007956854
-0.057150595
-0.17401548
-0.0875736
-0.029089762
-0.07337871
-0.08096665
-0.2702257
0.060315665
-0.23575017
-0.14087382
-0.035934582
-0.12930389
-0.3424713
-0.22493441
-0.09456123
-0.07211439
0.080190234
-0.06616366
0.08277521
-0.2045928
-0.09598706
-0.113875106
-0.046654485
-0.24533497
-0.08998572
-0.13100518
-0.07929699
-0.2758166
-0.14999323
-0.09758574
-0.072057985
-0.09891534
-0.0543851
-0.054602895
-0.0066816793
0.037876174
-0.0016026067
-0.23247565
-0.0063925306
-0.20082505
0.035837207
-0.070575096
0.0048892116
-0.07198463
-0.03461264
-0.19100825
0.075361185
-0.13742153
-0.29635054
-0.039971538
-0.24044983
-0.12744059
-0.08082326
-0.011886553
-0.059790198
0.0009065301
-0.012271723
-0.045045655
-0.09606042
-0.14012972
0.07726608
0.08421487
-0.01765005
-0.2572599
0.10606376
-0.07214847
-0.0020552264
0.09818718
-0.034614313
-0.18814346
-0.15622187
-0.32367787
-0.083122
-0.17564775
-0.24841647
0.106757425
-0.16211237
-0.09848001
-0.14097835
-0.012525792
-0.07137966
-0.12458456
-0.21301565
-0.06618341
-0.1995424
0.00021829791
-0.2628359
0.028980872
-0.11408828
0.19716375
-0.033202164
-0.04244148
-0.39018908
-0.16303505
0.057958517
-0.035804193
-0.23010656
0.07920724
-0.2595826
-0.034294624
-0.21189097
-0.28694496
-0.024612995
0.10507926
-0.27885303
-0.05083805
-0.3244393
-0.4615237
-0.14747144
0.20983626
-0.19970413
-0.33597088
0.03521559
-0.10583897
-0.026382716
-0.0735048
-0.2121624
0.12847522
-0.372319
-0.21005812
-0.15202555
-0.08475556
-0.07974821
-0.28365347
-0.20402107
-0.12595312
0.03150014
-0.23897019
-0.30757606
0.06040391
-0.05899627
0.010006134
0.043759372
-0.06693599
-0.01000944
-0.07765805
-0.114359215
0.054817885
0.04009385
-0.25247294
-0.19766955
0.021179782
0.012287858
-0.3140969
-0.19938555
0.06669596
-0.09090076
-0.2092784
-0.29224753
0.10717083
-0.14529909
0.009043322
-0.08071954
-0.004071527
0.026146268
-0.09348139
-0.1255896
-0.0011633513
0.059085835
-0.011390245
-0.016265418
0.05149505
-0.020700883
-0.02087327
-0.15478683
-0.13533117
-0.23916951
-0.3060593
-0.011757167
-0.3939464
-0.1431883
0.09491702
-0.29708552
-0.20200643
0.034117315
0.098193265
-0.0330232
-0.028689757
0.03334015
0.033330273
-0.36164647
-0.32598343
-0.32950234
-0.33267713
-0.48494694
-0.07517917
-0.009555979
-0.03574144
-0.025630174
0.01964219
-0.3314901
-0.02399464
-0.079369314
-0.26260257
-0.24539495
-0.02514456
-0.032925718
-0.20007838
0.080284745
0.0019149042
-0.05273112
-0.2598906
0.010817253
-0.09445142
-0.07365126
-0.038592197
-0.3144324
-0.14674671
-0.084260084
-0.2143246
-0.15200996
-0.09929687
-0.019453008
-0.16869368
-0.056846205
-0.1751455
-0.07522809
-0.03824686
-0.2307254
-0.2110492
-0.1688049
-0.35618222
-0.011637138
-0.106973164
-0.008660631
-0.08457926
-0.17810903
-0.36270136
0.041525606
-0.25856614
-0.01856924
-0.24196604
0.09261474
-0.17728959
-0.023012614
-0.025377871
-0.049393214
-0.29057387
-0.16733113
-0.37909284
0.032310247
0.005624631
-0.0656761
0.0004087662
-0.3783555
-0.055436995
0.105592564
-0.26467544
-0.04907853
0.17506444
-0.2964465
-0.016155452
-0.01814974
-0.22053954
-0.09844494
-0.049064506
-0.21669954
-0.16018967
-0.009193428
0.0007673563
-0.11683718
0.060084388
-0.043356683
-0.08713856
-0.24646652
0.07783801
-0.1428419
-0.024040317
-0.044358365
0.12518175
-0.28987044
-0.106724136
-0.28476703
-0.22435038
-0.14097522
0.0054347524
0.027936962
0.047997843
-0.13645314
0.06396391
-0.24070778
-0.1489058
0.07235214
-0.26677367
-0.15943776
-0.44094703
-0.039369985
0.050630134
0.05370968
-0.2908899
-0.2937276
-0.08379796
-0.0053561153
-0.18559907
-0.068770885
0.0027538282
0.077779256
-0.16908126
0.008425145
0.07490401
-0.16057721
-0.03442998
0.04987194
0.035731502
-0.072070025
-0.15777802
0.03706755
-0.040143143
-0.0922783
0.08940357
0.028996853
-0.032888826
-0.24363959
-0.45052233
-0.1362027
-0.028501872
0.04099915
-0.0046958947
-0.078070834
0.08661378
-0.16013919
-0.32501033
-0.35200292
0.011751568
-0.06505716
-0.0978942
0.040376242
-0.19285373
-0.00445719
-0.032929398
-0.046250116
-0.019119762
-0.06860862
-0.26823574
-0.2645788
-0.18470493
-0.06097029
-0.071362294
0.03405758
-0.10130503
-0.29988793
0.33231008
-0.10099519
-0.0063203904
-0.34458578
-0.32801044
-0.108380385
-0.063893385
0.0965327
-0.096305795
-0.19729468
-0.34639063
0.060966197
-0.2088543
-0.07338109
-0.1127744
0.02330047
-0.28617924
-0.01971024
0.008441598
-0.17918845
-0.23517796
0.01861157
0.03076633
0.17745657
0.064373635
0.045754932
-0.25429466
-0.08823252
-0.16612516
-0.02699251
0.012181796
-0.026345748
-0.33155596
-0.021735067
-0.054526333
-0.041473877
-0.06867035
-0.34108123
-0.40492487
0.08212245
-0.018695073
-0.02268205
-0.058728933
0.011281903
-0.1631433
-0.03578296
-0.12685029
-0.019496325
-0.29555744
-0.045754503
-0.0001540394
0.03338805
-0.108796164
-0.0029553014
-0.087005004
-0.10845343
-0.0007467605
0.026372189
-0.045055524
-0.00531612
-0.16200718
-0.01964846
-0.0019605856
-0.20365809
-0.25777766
-0.027923504
-0.09548805
0.02968661
-0.3121747
0.045300115
-0.28422484
-0.03345983
-0.08686267
-0.17257412
-0.047218606
-0.009628301
-0.07722444
-0.07499312
-0.0638904
-0.26513782
-0.02807302
-0.10813698
-0.13445143
0.077459805
-0.016275652
0.007025166
-0.08775602
0.03161671
-0.15447924
-0.023938801
-0.20678438
-0.046256322
-0.061365817
-0.07404368
-0.050940864
0.010000452
-0.00021319778
-0.058780346
-0.23400806
-0.09173361
-0.3211267
-0.052155063
-0.031621937
-0.15029989
0.0030833029
-0.2495368
-0.020340212
-0.22308797
-0.39540207
0.2136503
-0.026573507
-0.17727982
-0.021479111
-0.056888495
-0.1717212
0.019177211
-0.12733537
-0.030220404
-0.026608376
0.11419881
0.036039844
0.021339878
0.022177614
-0.3409693
0.072554015
-0.14067999
-0.079513155
-0.04645313
-0.045074474
-0.025653709
0.015447976
-0.16764207
-0.5198692
-0.058341593
0.029683474
-0.30899587
-0.33671933
0.0865981
-0.44579208
-0.0048582144
-0.028537754
-0.04125254
-0.06871178
0.13541104
-0.03286194
-0.25796548
0.04109589
-0.19495343
-0.129694
-0.0339242
-0.32684729
-0.37358934
-0.0225801
-0.20518424
-0.06690173
-0.22697467
-0.12050343
0.13320006
-0.09886144
-0.06763866
-0.02529748
-0.041128334
-0.4340654
-0.21122316
-0.34211928
-0.20582402
-0.11212475
-0.12265198
-0.34160838
-0.010050166
-0.0022784467
-0.36532345
-0.28874898
-0.060900375
0.02198598
-0.009146058
-0.12472518
-0.32952812
-0.04081621
0.01816074
-0.021838296
-0.12542154
0.01628901
-0.08068768
-0.091717355
0.06655812
0.112266585
-0.022661895
-0.25812244
-0.102791466
-0.054176047
-0.23707311
-0.20437446
-0.10684729
-0.06137333
-0.04725881
-0.2884874
-0.0030519152
-0.103952855
-0.2567846
-0.044312693
-0.09408975
-0.100808226
-0.26592156
-0.042024918
-0.3416726
0.08028712
-0.0999137
-0.2138409
-0.16941902
-0.23843259
-0.10868247
-0.07106306
-0.12460474
-0.12087467
-0.12186997
-0.3811491
-0.034557793
-0.20688
-0.2749682
-0.34186733
-0.2684444
-0.17795852
0.0090425275
-0.054249525
0.0107349595
-0.28156278
0.036111705
-0.11139501
-0.33296892
-0.023640968
0.039505698
0.04505334
-0.04328085
0.11483631
-0.2406687
-0.10201945
-0.070001684
-0.08457504
-0.16076042
-0.029343344
-6.4815846e-05
-0.19977401
-0.1902049
-0.24737273
0.0701902
0.06934162
-0.16316344
-0.20242214
-0.021789882
-0.09024833
-0.03176002
-0.3464329
-0.2572299
-0.1875874
-0.2518578
-0.036265407
-0.12800017
-0.1880446
-0.10177959
-0.049293388
-0.16290893
-0.29686397
-0.07862822
0.04907112
-0.06353285
-0.31950447
0.00073314516
-0.26994568
-0.11345749
-0.10392087
0.0636414
0.001450093
0.019490462
-0.22619024
-0.049758036
-0.018109173
-0.0011944339
-0.3280053
0.06727428
0.1266733
0.0027786137
0.0070032934
-0.03273829
-0.021994067
0.06208705
0.056801572
0.006550543
-0.16648726
0.035745
-0.19274044
-0.012053131
0.04479014
0.010789509
0.14438625
-0.32289565
-0.25351256
-0.07054966
-0.108752824
-0.18520674
-0.12472453
-0.107733615
-0.39151075
-0.0042196424
-0.030394213
-0.04675788
0.28649792
-0.17514235
0.081997015
-0.12650132
-0.0076122773
-0.01391349
-0.5197155
-0.016631715
-0.16721423
0.049862523
-0.14687456
-0.18884757
-0.2230688
-0.11159287
-0.024955593
0.08341774
-0.095875844
-0.0053787995
-0.025256027
-0.03600647
-0.08729539
-0.26399523
-0.14977616
0.032208063
-0.06443345
0.008425843
0.053095136
-0.15098047
-0.117454134
-0.07808781
-0.27636606
-0.22384095
-0.0626811
-0.3219995
-0.112194866
0.012229042
-0.25203195
-0.027168814
-0.27737314
-0.11305857
-0.2511782
-0.2583905
-0.0046627424
-0.37146047
0.11141476
-0.15636037
0.035785757
0.11722022
-0.014826739
-0.34144604
-0.120569766
-0.1748205
-0.02547548
-0.3499789
-0.28085095
-0.07505188
0.08743723
0.0029966806
-0.11920703
0.027814236
-0.14431907
0.021529827
0.07908632
-0.04155372
-0.10372253
-0.04218192
-0.039809667
-0.2528432
-0.3419216
-0.03253673
-0.07544921
0.060809333
0.15230249
-0.13399553
-0.11952021
-0.38209283
0.114726566
0.034324847
-0.16166438
-0.09919707
-0.01511792
-0.14283168
-0.0047895815
-0.017477991
-0.016305417
-0.38739374
0.06494676
-0.08805717
-0.1570249
0.08120143
-0.19572839
-0.21457317
0.16288735
-0.42657554
-0.36769992
-0.09545034
-0.2688132
0.072995186
0.010366874
-0.03376465
0.011055457
-0.015500105
0.022358997
-0.29848358
-0.116884276
0.023610985
-0.046681557
-0.19290444
-0.0540656
-0.1501828
-0.001619468
-0.0005526904
-0.04203895
0.12010772
-0.25199112
-0.071855985
-0.005526449
-0.12097058
-0.23317191
-0.037257303
0.03335903
-0.1939829
-0.103459716
-0.011023723
0.06878797
-0.30379093
-0.038271792
-0.10646604
-0.01599171
-0.28011867
-0.33193034
-0.1335084
-0.29200327
-0.018530155
-0.0069579757
-0.28062728
-0.18136868
0.005856309
-0.0393535
-0.17934509
-0.067017846
-0.020032248
-0.17756158
-0.043125357
-0.1793478
-0.043008305
-0.12847738
-0.21381259
-0.044809964
-0.04221896
-0.08299111
-0.060957287
-0.16098008
-0.15074442
-0.007837801
-0.10333218
0.08879062
-0.04699146
0.04689803
-0.124810226
-0.10197865
-0.08820557
-0.08172902
-0.09335562
0.029123457
-0.16080458
-0.30372596
-0.28063264
-0.04890873
-0.34562486
-0.2536282
-0.30198464
-0.06615853
-0.0137761375
-0.06407643
0.010080784
-0.06835322
-0.3854792
0.054236237
-0.019165032
0.07108159
-0.01901653
-0.16302367
-0.3485905
-0.2716879
0.10367677
-0.1127346
-0.15415087
-0.08042685
-0.10602373
0.039135043
-0.05022816
-0.09291761
-0.10138749
0.0031490428
-0.10373317
-0.0328328
-0.009676333
0.00494669
-0.23506485
0.006119929
-0.043588124
0.053344168
-0.16755323
-0.2957678
-0.0077432017
-0.2647836
-0.06419683
-0.14474133
-0.07273028
0.018601798
-0.044605028
-0.18893263
-0.16930327
-0.19118206
0.114139944
0.042174652
-0.32643062
-0.09658977
-0.28667092
-0.09982879
-0.27518144
-0.05479512
-0.033891395
-0.36124766
-0.12429184
0.043002218
-0.15329903
-0.033026792
-0.04159792
-0.06748395
0.07513315
-0.11030814
-0.36118972
-0.16094309
-0.043780502
-0.087044284
-0.053428978
-0.5744529
-0.3420835
0.033313155
-0.13482039
-0.21161477
-0.07614651
0.096828856
0.05498768
-0.26183027
-0.17051603
-0.3781386
-0.30438814
-0.37152213
0.036134478
-0.18059841
-0.035823252
-0.15185067
-0.01916804
-0.24267496
-0.2411152
-0.27292213
0.11549852
-0.31132898
0.10753848
0.0011151507
-0.2405785
0.023920288
-0.21428141
0.10293337
0.10177933
-0.14830646
0.009887083
-0.029328424
-0.08949506
0.015822984
-0.12262499
-0.23377536
0.07179538
-0.026583267
-0.06667915
-0.17601177
0.032027643
-0.040981345
-0.03664636
0.044741612
-0.04437728
-0.13207914
-0.07316189
-0.11362759
-0.10087223
-0.10354187
-0.2859065
0.18065804
-0.024502212
-0.022292642
-0.057245072
-0.16755652
0.03454307
0.0864878
-0.11591957
-0.10685246
-0.08072066
-0.011313415
0.0041288547
-0.15291473
0.06622031
-0.10343699
0.107369475
-0.020243062
0.08579054
-0.0065411404
-0.090825975
-0.3977857
-0.11641159
-0.113969244
-0.23275185
-0.12635247
-0.12918806
0.1063085
-0.002335618
-0.040276803
0.055971783
0.20824699
0.08791037
-0.055173732
0.16597426
-0.019577734
0.066803806
-0.16029964
-0.103136644
-0.3001212
-0.1859956
-0.47083834
0.01213311
-0.14480235
-0.12697464
0.0068045254
-0.25437796
-0.017760193
0.1073715
0.05423916
0.041156303
0.06989073
-0.15440391
-0.066646084
-0.04857868
-0.121325955
-0.24560082
-0.06019337
-0.15182903
0.034435943
-0.11798709
-0.16721223
-0.0027817644
-0.007087042
-0.14359045
-0.23905008
0.099372625
-0.05562177
0.2089111
-0.26260126
-0.010655844
-0.14048366
0.0035161304
-0.0501027
-0.048418965
-0.10391658
-0.021296177
-0.3227176
0.035734177
-0.016041616
-0.028018454
-0.15333818
-0.33830905
0.0029845436
0.013538697
-0.23775654
0.053850833
-0.10969138
0.099783815
-0.06741487
-0.23119073
0.039129823
0.015855327
-0.19246997
0.0032147332
-0.12099819
-0.16687644
0.07116634
0.024081359
0.00030673872
-0.46913004
0.032597832
-0.1188813
0.1327515
-0.3223493
-0.017689344
0.026529266
-0.00042761766
-0.0005425092
-0.18242039
-0.13389266
-0.24797282
-0.13147327
-0.29645076
0.119547375
-0.009883887
-0.026087867
-0.031012537
-0.03904616
0.071597636
-0.13017
-0.034799516
-0.113110945
0.0141857425
0.05366756
-0.3811404
-0.12782565
-0.1306175
-0.27523416
0.049766693
-0.16767988
-0.14042366
-0.046692945
0.08964933
-0.009789927
-0.13018157
-0.37762114
-0.07296854
0.0065180543
-0.18396403
0.037604555
-0.017255854
-0.10576364
-0.1743106
-0.025040956
-0.06392273
-0.28844392
-0.3023406
-0.03411772
-0.11764164
-0.07000338
-0.02914373
-0.2062455
-0.07766555
-0.09696807
-0.00095295534
-0.09247694
-0.022146601
0.12454161
-0.31610838
0.010416671
-0.024234535
0.015034982
-0.18643929
0.107578814
-0.17622179
-0.15718296
-0.036379337
-0.09657933
0.18234843
0.031106543
-0.0478764
0.09950424
-0.090684585
-0.05815518
-0.187847
-0.22603576
-0.07553379
-0.032372095
-0.021811686
-0.044020567
-0.13365552
0.038917147
-0.12272612
-0.27709296
-0.13408309
-0.038793888
0.066508055
-0.3297045
0.04185215
-0.09289077
-0.27283916
0.047332227
-0.15657872
-0.30020368
-0.06398155
0.19506018
0.20717664
0.026909288
-0.024716003
0.009221488
-0.12077087
-0.46694383
0.048717037
0.012545425
0.095096216
0.16313963
-0.2517606
0.00857319
-0.30541727
-0.007157093
0.034118984
-0.09730234
0.016006572
-0.08020546
-0.30697525
-0.028526733
0.006472218
-0.10144839
-0.048314746
-0.1628553
-0.07448979
-0.12270832
-0.017602919
0.15665944
-0.070716046
-0.025810031
-0.15275212
-0.0150165735
0.044499554
-0.19247611
-0.07354084
-0.113688245
0.0036882986
-0.040558346
-0.043088656
-0.052308716
0.009868293
0.11401282
0.059222203
0.0017678014
-0.036173087
-0.054878313
-0.086259015
-0.0089513445
-0.25533396
-0.037683282
-0.13575116
-0.36266124
-0.25091222
-0.12929046
-0.07406642
0.10427086
-0.09208873
-0.06665156
-0.11301562
-0.25842845
-0.05822989
-0.06805303
0.008940998
-0.04194751
-0.22692478
-0.013381774
-0.12781097
-0.15997434
-0.19373143
-0.1264477
-0.28227913
0.018516975
-0.3502208
-0.28772873
-0.021165146
-0.104797624
0.16818091
-0.008411706
-0.056045935
0.040203687
-0.16629697
-0.046074763
-0.19338655
-0.2537708
-0.021710394
-0.016918208
-0.09726277
0.0615611
-0.11151053
-0.055620503
0.013452795
0.037200615
-0.040380113
-0.29791996
-0.0632066
0.09001203
-0.13418671
0.18005498
-0.19191377
-0.0010489996
-0.090254
-0.05304772
-0.12797533
-0.027882528
-0.107772574
-0.34785253
-0.3572868
-0.02804888
-0.21819383
-0.22433259
-0.2214851
-0.047329355
-0.018937472
0.011949303
0.056318324
-0.29201943
-0.030058721
-0.31457222
-0.10973755
-0.2773545
-0.175664
-0.25142357
-0.32533866
0.020874497
-0.10089236
-0.022607543
-0.12964359
-0.1319903
-0.073021196
-0.05100022
0.08999019
-0.023121057
-0.12721296
0.018163567
-0.0070225955
-0.0687389
-0.20158298
0.025442652
-0.3105777
0.029719047
-0.2753161
8.043349e-05
-0.05748587
-0.29514506
0.07311749
-0.14303033
0.05860585
-0.32518443
0.12803458
0.019022709
-0.030684616
-0.17363861
-0.11881265
-0.22323936
0.10099835
0.047985062
-0.26371536
0.008490644
0.046046536
-0.22395834
-0.2769089
0.017958757
-0.39370266
-0.5729961
-0.13508281
-0.16771498
0.0822213
-0.17941514
-0.020756852
-0.08823546
-0.3674516
-0.31497988
-0.10312046
-0.42530584
0.008091185
-0.0946825
-0.41660565
-0.22273716
-0.04578404
-0.32193562
-0.38653988
-0.31860104
-0.022809027
-0.05933835
-0.0632267
-0.10651427
-0.17184204
-0.029184233
-0.038651828
-0.035478134
-0.3763973
0.0068459744
-0.050811727
-0.050644126
-0.007985297
-0.1595708
-0.3315197
-0.29384616
-0.44249523
0.028838178
0.13393275
-0.11764591
-0.1331115
-0.25074357
-0.25749835
-0.0729393
-0.30614537
-0.17407465
-0.11989307
-0.12746927
-0.16746058
-0.08386308
-0.013046479
0.06857622
0.06899614
-0.41384682
0.037551
-0.35496396
-0.36879754
-0.020173777
-0.16683227
0.045324974
0.02939891
-0.38499358
0.068464406
-0.025997408
-0.09220382
0.08242876
-0.16671212
-0.085362196
-0.10896086
-0.23617029
-0.20440032
-0.13166904
-0.038867816
-0.1625497
-0.27595627
-0.22383338
0.033046056
-0.21385054
0.0037445412
-0.08337786
-0.25147468
-0.11482089
-0.13659185
-0.08837084
-0.10061571
-0.08351475
-0.050894532
0.09304795
0.034060515
-0.04198708
-0.1355268
-0.29726455
0.0374964
-0.28669202
-0.07150203
-0.0131916525
-0.09752117
0.04591222
-0.095236875
-0.18172716
-0.11171607
-0.009818058
0.03263423
-0.06589673
-0.39262897
-0.111144364
-0.28501785
-0.10455211
-0.03913824
-0.057387352
-0.119385935
-0.06054523
-0.09257593
-0.00559854
-0.23080073
0.0015735459
0.015324861
0.050039776
-0.07019081
0.08290037
0.015875548
0.013244884
-0.20591153
-0.14140154
-0.009445306
-0.069818385
-0.021192797
-0.018296558
0.05626651
-0.07677816
-0.093877375
-0.33734906
0.0020176852
-0.10105405
-0.23179352
-0.0897969
-0.10042348
-0.11321964
0.08373759
0.016708503
-0.010302289
-0.24723509
0.060905803
-0.0135812955
-0.29851025
0.015209336
-0.24261945
-0.02306372
-0.009925315
-0.09902336
0.066531934
-0.049630053
-0.09805648
-0.22009163
-0.048936553
-0.28846174
-0.0058604563
0.05479588
-0.003959399
-0.037122432
0.03095086
0.06916414
-0.33681697
-0.034894414
-0.08019132
-0.055637784
-0.22013561
-0.22144426
-0.3455018
0.004779212
-0.03307775
-0.2969509
-0.34371316
-0.37126896
-0.25035447
0.12137857
-0.29986143
-0.28472447
-0.35572422
0.08658237
-0.056063894
-0.015887087
-0.32229233
-0.24468414
-0.11406557
-0.1272357
-0.06711924
-0.05610726
-0.04968805
-0.023992216
-0.33727956
0.06245754
-0.12005382
0.06586394
0.020286059
-0.008222148
-0.03869405
-0.12765478
-0.19235885
-0.27451026
-0.33178717
-0.09126918
-0.14412446
0.0031994486
0.0501186
-0.3054396
-0.37896007
-0.16866103
-0.24841167
-0.042055625
-0.22949444
-0.18271059
-0.059797697
-0.007625803
-0.023311395
0.019097049
-0.085472584
-0.19380885
0.04651381
-0.11334682
-0.07076686
-0.0029032016
-0.21660161
0.042139903
-0.1030768
-0.11863359
-0.15730849
-0.34398136
-0.15955397
-0.034042254
-0.30969504
0.033487853
0.05347149
-0.17744587
-0.03103837
-0.17774515
-0.14791894
-0.015325804
-0.1478951
-0.26815003
0.05886556
-0.092524625
-0.092317246
-0.028526355
0.03524613
-0.05615397
-0.0706393
-0.15822183
-0.08660295
-0.026616752
-0.31860927
-0.2094492
-0.09404581
-0.23647673
-0.010920469
-0.07211695
-0.12614718
-0.015833855
-0.6623572
-0.129165
-0.02546867
-0.1531633
0.06841384
-0.17808807
-0.17291221
-0.12586546
-0.12828775
-0.22854023
-0.22275642
-0.19223689
-0.012016561
-0.022150043
0.029330118
-0.13344042
-0.023874521
-0.38428146
-0.14231376
0.027018467
-0.41322374
0.18050106
-0.12680705
-0.19551486
-0.05726655
-0.0033231073
-0.31925723
0.16395117
0.01278856
-0.047328327
0.033498105
-0.27557662
0.0049198465
0.10441377
-0.1061121
0.05218448
-0.018956639
0.015441437
-0.09478114
0.0637712
-0.15495798
-0.30287436
-0.028980248
-0.022196148
-0.2002159
-0.033412814
-0.20015569
-0.107295446
-0.12755673
-0.14374039
-0.030745551
-0.05947155
-0.17514813
-0.30603346
-0.35324216
0.06738714
-0.053253513
-0.2570886
-0.2218437
-0.16617231
-0.02210767
-0.2493847
-0.036338303
0.042374
-0.077404
-0.10321242
-0.25759208
0.11725556
0.094919614
-0.13522784
-0.016317215
-0.08583585
0.073336065
0.13935031
-0.061226673
0.024733601
-0.18558554
-0.15556057
-0.2879316
-0.11932445
-0.33190033
-0.16069736
-0.3154464
0.16908245
-0.22386792
0.050575018
-0.16378504
0.0026455016
-0.304065
-0.030193431
0.03929702
-0.39535558
-0.25656003
0.16168125
-0.32994357
-0.08241884
-0.017358078
0.07702903
-0.09411687
-0.23640062
-0.04128537
-0.070930816
-0.038022477
0.08758767
-0.107255064
-0.0661514
-0.24832945
-0.046741575
-0.032077614
-0.05905611
-0.10466549
-0.079507835
0.08579643
-0.24266282
-0.015155157
-0.24448608
-0.08099179
-0.23170151
-0.08371516
0.02002808
-0.25661853
0.13567378
0.020559324
-0.014450119
-0.03055568
-0.040163692
0.06517201
-0.25682437
-0.34078413
-0.06534851
-0.1754504
-0.0068664914
-0.14323072
-0.05394831
-0.18487577
-0.15209639
-0.10385071
-0.255668
-0.10314431
-0.09162989
0.06363876
-0.038216535
-0.29454014
-0.103003085
-0.049868498
-0.049393643
-0.012549842
0.014969964
-0.03078093
-0.20787841
-0.01773556
-0.27429414
0.08573452
-0.30314866
-0.07621779
-0.07335542
-0.23747145
-0.01227565
0.080083996
-0.08164345
-0.024504647
-0.2772006
0.03761684
0.117860034
-0.120371446
-0.1672809
0.014340393
-0.088648506
-0.06471285
-0.14874153
0.05794875
0.04129163
0.036522094
-0.23458521
0.0046355957
-0.07021404
0.013382596
0.11323351
-0.32278192
-0.0042373226
0.029296704
-0.014458082
-0.010216111
0.03845183
-0.02473774
-0.3206766
0.01834672
0.14353621
0.08583269
-0.108315416
-0.30006823
-0.26441425
0.13941692
-0.060117558
-0.08083189
0.029402122
0.09664846
-0.3296102
-0.039443962
-0.05696088
0.09629757
-0.056509107
-0.035592396
-0.21549983
-0.19848405
-0.144476
-0.09460905
0.045493614
-0.016788272
0.10675384
-0.18415657
-0.1037779
-0.14601494
-0.31704423
-0.069838785
-0.22738206
-0.069645725
-0.301844
-0.110370584
0.071267605
-0.25258544
0.07124375
0.09672223
0.021535682
-0.4642356
-0.123955265
-0.28362063
-0.40780196
-0.11239126
-0.3528236
-0.3465163
0.010853113
-0.009904429
-0.026365256
-0.14303741
-0.09307692
0.051674686
-0.1294378
-0.29758513
-0.10937783
-0.16021544
-0.04484491
-0.0025191943
0.077870905
-0.06941831
-0.056228343
-0.19084182
-0.17901126
0.051542994
-0.03034662
-0.12901646
-0.17323886
-0.2794364
-0.037782926
-0.1181778
0.08856737
-0.014379606
-0.19677797
-0.32652038
-0.26117057
-0.0018909869
-0.121800326
0.007926676
-0.076995745
-0.024141358
-0.0181645
-0.21567678
-0.041598864
0.07119311
-0.026300952
-0.25258002
-0.19467841
-0.27721554
0.062226646
-0.105409935
0.088107124
-0.2852776
-0.22738338
-0.063987605
0.06981669
-0.20781551
-0.005727149
-0.03527466
0.22416744
-0.09037163
-0.1528562
-0.05553935
-0.07288679
-0.2310542
-0.2642828
0.059704255
-0.19036865
-0.07380326
0.10585827
-0.13429685
-0.02853021
-0.020740151
-0.11043299
-0.07286592
-0.026777444
0.083399676
0.117122
-0.054242
-0.22552858
-0.048407894
-0.117699064
-0.12139187
-0.023877446
-0.14598237
-0.06950763
0.012117891
-0.17441852
-0.03280971
-0.24103136
-0.18467928
-0.07287866
0.14362401
-0.13776018
-0.0024719227
-0.14514758
0.14785822
-0.11115682
-0.15798533
-0.052218296
-0.25550807
-0.12366087
-0.20786081
-0.46211848
-0.17539683
-0.07304293
-0.04575862
-0.09110013
-0.0403011
-0.27200192
-0.1405869
-0.041283686
-0.3046121
-0.31983688
-0.14501782
-0.012758849
0.013689634
-0.053688075
0.0053515923
-0.39450225
-0.2187321
-0.27454856
-0.19957006
-0.050893757
-0.013148601
-0.10119792
-0.07039552
-0.15162134
-0.42944464
-0.20682974
-0.1837008
-0.14083506
-0.05687545
0.020877752
-0.06642715
0.025883095
-0.06617708
0.04925817
0.09763447
-0.24784872
0.0021180206
0.02612958
-0.19891709
-0.094593905
0.13457946
-0.2401687
-0.1543394
0.083081245
-0.043157607
-0.009106228
-0.007941176
0.09881503
0.07413237
-0.010932533
-0.3731056
0.017114388
-0.13047446
-0.10505252
0.039717063
-0.23815657
0.0060977214
-0.28741637
0.00016701645
-0.004467737
-0.030421251
0.03674979
-0.2287462
0.028352365
-0.0016498733
0.06385249
-0.045069546
-0.22576721
0.029687723
-0.36254054
-0.018830271
-0.21860658
-0.04876777
-0.07077654
-0.31572133
-0.322918
-0.18616867
0.1626587
-0.047667623
0.089193
-0.039961647
-0.0428818
-0.025795268
-0.021281704
-0.03649393
-0.03194887
-0.31390697
-0.013616888
0.15344068
-0.3475135
-0.115659356
-0.22099456
-0.088236995
-0.1325804
-0.018821191
-0.15334903
0.02460724
-0.24909118
-0.094266154
-0.15547916
-0.19731718
0.048804637
0.0077316794
-0.06808227
-0.3055881
-0.04448713
-0.267982
-0.212754
0.024431586
-0.14733891
0.028805077
-0.03190734
-0.335765
0.022853123
-0.19097395
0.02055943
-0.05920245
-0.34641093
-0.44222152
-0.08039768
-0.032382183
-0.083965905
-0.07631625
-0.029672844
-0.33729824
-0.0059458907
-0.0017918866
-0.09200486
0.06981084
-0.036368474
0.024714956
0.035049494
0.051563654
-0.119516335
-0.001022419
-0.07642896
-0.11530236
-0.0048343856
0.106993385
-0.048775427
-0.00022636466
-0.122100435
-0.015905125
0.0054457365
-0.09731837
-0.31004402
-0.01617183
0.121366695
-0.028024402
-0.28047392
-0.011955548
-0.06380201
-0.098718055
0.012272539
-0.10735139
0.09976029
-0.18489636
-0.20066378
-0.20676106
0.017541924
-0.0013496262
-0.13591515
-0.017619012
0.047063857
-0.11773616
-0.088174835
-0.07718502
0.0076755504
-0.16638814
-0.0056965435
-0.10827705
-0.28437534
-0.32384592
0.029763754
0.036223833
-0.10622865
-0.026212167
-0.108672194
-0.17996037
-0.084003635
-0.0032699816
-0.16620044
0.10883011
0.04409797
-0.36404836
-0.31555548
-0.0506934
-0.06730356
-0.056058742
-0.19019002
-0.10462713
-0.14336203
-0.08401324
-0.37902427
-0.24473418
-0.16165015
-0.00990926
0.013224612
-0.27179757
0.110915594
0.13669941
0.12736309
-0.11080866
-0.17842178
-0.088271804
-0.102090135
-0.036310766
-0.062288187
-0.061612565
-0.28972402
0.003135581
-0.04343247
0.09072505
-0.14452697
0.002689232
-0.024819909
-0.09531994
-0.015518218
-0.5732958
-0.0214692
-0.02178322
-0.078589156
-0.15631707
-0.09034954
-0.0686433
-0.15563793
-0.12125143
-0.17159389
-0.1078978
0.01465052
-0.4019146
0.10564416
-0.1764031
-0.14403379
-0.0367057
-0.19029102
-0.09212388
-0.3190754
-0.115427665
-0.06099417
-0.19849268
-0.05395834
-0.10948102
-0.03673374
-0.22288547
0.03770946
-0.3285405
-0.0027256578
-0.40291286
-0.0042830915
-0.17677332
0.032257
-0.028180927
-0.05374087
-0.2645309
0.059695818
-0.08878558
0.026706297
-0.18198165
-0.076795794
0.028894894
-0.010396216
-0.23489417
-0.19034329
-0.2653794
-0.0072066174
-0.017660918
-0.21875685
0.0039376444
-0.049824394
-0.052692365
-0.27111432
-0.12970662
-0.15521681
0.048950724
-0.17081992
-0.07251908
0.12933584
-0.025920138
-0.15284759
0.058611754
0.07152991
-0.06383802
-0.033156894
-0.057418533
-0.15817478
-0.076868966
-0.15673445
-0.11436617
-0.16019137
0.23774284
-0.013081307
-0.19682495
-0.25607282
-0.048978537
-0.0020417173
0.013792511
-0.3156761
-0.023335239
-0.22559817
-0.084045604
-0.26628485
-0.08650783
-0.410356
0.036226306
-0.07899572
-0.22386809
0.007243324
0.009352184
0.025609862
0.24597561
0.08436131
-0.22585088
0.05162542
-0.019019516
-0.23251326
-0.061125852
-0.362372
0.060612455
-0.052490093
-0.31717554
-0.008629036
-0.09224338
0.14088385
-0.23946258
-0.34323645
-0.13813046
-0.35677695
-0.2782082
-0.053969778
-0.1113282
0.016162856
-0.15826152
0.01600024
-0.20129517
-0.42603827
0.10222789
-0.08948208
-0.08962697
0.0061265775
-0.28918558
-0.3524666
-0.18030457
-0.38398802
-0.08004622
-0.083707474
-0.1782521
-0.31056252
-0.3441123
-0.06199399
-0.09126321
-0.21743786
-0.084557466
-0.01711725
0.13578105
-0.035314344
-0.089594394
-0.14498436
-0.12531093
-0.022701895
-0.050699946
0.07249867
-0.25710064
-0.004477235
-0.002760189
-0.10615463
-0.16972464
-0.04284714
-0.19140074
-0.08418757
-0.02262728
-0.09225965
0.1403785
-0.12611282
-0.46403036
0.0077271266
-0.09384343
-0.022156753
-0.20374581
-0.14913365
-0.07093533
-0.10696634
0.046410654
-0.06294701
-0.09822056
-0.017156018
0.111704536
-0.033751953
-0.043997664
-0.1529822
0.010384517
-0.24726212
-0.17137344
0.024057105
0.073138654
-0.02994661
-0.0018847969
0.07282459
-0.37579373
-0.2876986
-0.026453549
0.11770707
-0.055388145
-0.21076536
-0.02337449
-0.007722924
0.08592398
-0.07472499
-0.1294811
-0.10077352
-0.052566797
-0.23155311
0.03231578
-0.06717592
-0.15388519
-0.333483
-0.0045723617
-0.03152358
-0.13789868
-0.11514194
-0.028537903
-0.26336727
-0.008652196
0.14218932
0.039571356
-0.074631095
-0.23812956
-0.2882378
-0.24872997
0.029018981
-0.03638843
0.09831741
-0.19204511
0.055905975
-0.05521107
-0.061508782
-0.2795214
0.015249745
-0.17872411
-0.11454011
-0.045735296
-0.17050894
0.0329722
-0.18412247
0.0073658396
0.015169325
-0.26681
-0.01138876
-0.010817375
-0.039703555
-0.11716412
0.083131306
0.07326394
-0.054014906
-0.11518124
-0.04031981
-0.18619105
-0.15006465
-0.3365441
-0.00056018727
0.017093526
0.095953226
0.098696575
0.014311166
-0.072249375
-0.20228556
-0.23681583
-0.005445187
-0.18419379
-0.10040755
-0.22229275
-0.056411006
-0.3017344
-0.29375225
-0.10211938
0.06285524
0.084239654
-0.24461035
-0.12752354
-0.07885438
-0.13635138
0.08133645
0.062343657
-0.114915304
-0.08379433
-0.0075565823
-0.112523764
-0.11029751
0.034457143
0.0031589884
-0.09711769
-0.013309188
-0.016994663
-0.3009139
-0.03674257
-0.30755794
-0.031401232
-0.04372552
-0.085669115
-0.076213375
-0.029893383
-0.08602748
-0.07374452
-0.008441909
-0.02334195
-0.20084365
-0.119272605
-0.12627725
-0.03188507
-0.22140498
0.0026669991
-0.060239606
-0.119827874
-0.0142299775
-0.36946416
-0.017129004
0.078017265
-0.007937052
-0.12144222
-0.09325092
-0.054816306
-0.032889664
-0.10181331
-0.0995861
-0.10329693
0.012647369
-0.08366714
0.013097858
0.17844531
-0.20460773
0.07933461
-0.1074948
-0.09207536
-0.0891658
-0.1878501
-0.10378372
0.11564174
-0.06303269
0.013273341
0.022982473
-0.022964094
-0.20958623
-0.008139691
-0.12445015
-0.16551533
-0.020948386
-0.06252823
-0.04419125
0.03884922
-0.12822704
-0.05415997
-0.27871644
0.038481206
0.0065997974
-0.5029688
0.008997622
-0.10335497
-0.2874322
-0.31697777
-0.034170154
0.014280816
-0.23515552
-0.10193414
-0.023126457
0.11116003
-0.08763568
0.06347262
0.06363312
0.114509374
-0.37508574
-0.3086211
0.11693721
-0.07907738
-0.28011283
0.07716614
-0.06039219
-0.24627835
0.12611458
-0.001974237
-0.104588225
-0.19270751
-0.079071105
-0.25122696
-0.55788356
0.006958691
-0.017554889
-0.079524815
-0.11283527
-0.22098568
-0.11676657
-0.31005657
-0.01988067
0.11073397
-0.2686123
0.057208743
-0.03817611
-0.11489039
-0.03518808
-0.21899718
-0.23103414
-0.046324223
-0.081867576
-0.16114643
-0.113637276
0.008353743
-0.23875415
0.13551387
-0.0061798263
-0.34135973
-0.32615304
-0.042899854
0.058970932
0.11023967
-0.43856272
-0.0015261034
-0.007207717
-0.036509782
-0.13537054
-0.039878473
-0.25886166
-0.124225594
-0.049304742
-0.007791709
0.014817039
-0.42886832
0.04629702
-0.02608281
-0.32758874
0.077980995
-0.24949378
-0.15375991
0.029056799
-0.014826394
-0.15074664
-0.010935032
-0.2364752
-0.15432888
0.090133525
0.0916822
-0.13715804
-0.118865736
-0.027066529
0.013445937
-0.29505715
0.0060706367
-0.15091619
-0.097936705
0.06832801
-0.46511292
-0.35198084
0.07223819
-0.049567144
-0.011753656
-0.15450342
-0.19685295
0.02553917
-0.012189495
-0.2229033
-0.013217607
-0.37924108
-0.09610323
-0.022509424
0.04412762
-0.14406341
0.030030603
0.006082961
-0.25031427
-0.10277567
-0.014631447
-0.0017248619
-0.033632655
0.0011668556
-0.046250816
-0.051560607
-0.016907142
-0.08705332
-0.16629227
0.22063155
-0.3827199
-0.12698443
-0.21226086
-0.22133464
0.07953809
-0.30280563
-0.21025908
-0.3047785
-0.011151591
-0.2658065
-0.072422735
-0.184024
-0.16941848
-0.17555888
-0.122936636
-0.0101021
-0.12800622
-0.04351851
0.062027678
-0.08807428
0.009743476
-0.013674234
-0.23732212
0.07400076
-0.023421405
-0.03931027
0.093985006
-0.3697101
0.07213517
-0.032378867
-0.063105404
-0.050577786
-0.17386003
-0.4004133
-0.02097647
0.031150062
-0.047414437
0.1203076
-0.011359125
0.12639378
-0.058155302
-0.0349855
-0.118372366
-0.08145643
-0.17793548
-0.11703897
-0.031211538
-0.25077936
-0.034555893
-0.043667883
0.060120758
-0.008322472
-0.07427879
-0.12933287
0.012507658
-0.2582577
0.004161482
-0.031150533
0.050456263
-0.25386193
-0.26080325
-0.063828126
-0.031210491
0.07666825
-0.12650132
0.077586904
-0.0381018
-0.17496586
0.0046448973
-0.064773016
-0.14006455
0.03862107
0.007856033
0.052126125
-0.05174997
-0.041952446
-0.01913904
-0.3707859
-0.015007548
-0.12845364
-0.029143903
-0.16233517
-0.214132
0.034356482
0.11892959
-0.07100055
0.0045483075
-0.04244687
0.10149418
-0.021808697
0.013178185
-0.038863134
-0.20159528
-0.22386374
-0.41809604
-0.2771521
0.11003526
0.08151768
-0.05557394
-0.04263907
0.12618957
-0.08929543
-0.12487565
-0.2894079
0.11510869
-0.09528388
-0.10172473
-0.1290052
-0.099777795
0.088026166
-0.12620215
-0.017729687
-0.33385032
-0.2165872
-0.17908089
0.124823876
-0.09990701
-0.1275036
0.0075941933
-0.1630436
-0.033474334
-0.20747809
-0.033119056
-0.33829376
-0.09900259
-0.020449733
0.079931475
-0.04541609
-0.09554629
-0.10485845
-0.15685117
-0.08444907
-0.0260683
-0.07894003
-0.082610145
-0.033435564
-0.15435058
-0.14471355
-0.017167712
-0.023016201
0.029628323
-0.08209865
-0.13304299
-0.09248721
-0.001699188
-0.0033438269
-0.31931546
-0.055408724
0.12634116
-0.35249242
-0.060355913
-0.38347992
-0.016409116
-0.2990772
-0.012925716
-0.09403215
0.19588771
-0.06756936
-0.13008581
-0.14598423
-0.10484855
-0.14889003
-0.01798372
-0.10248255
0.09235198
0.030760104
-0.034612965
0.058165535
-0.1852729
-0.08013319
-0.16565979
0.232547
-0.09115296
-0.374689
-0.057351224
0.01136756
0.017122008
-0.13306384
-0.054535575
-0.05743947
-0.10958447
-0.32420906
-0.17627361
0.039125238
-0.17247581
0.059372563
0.18077442
-0.13535774
-0.13037786
-0.06435576
0.100915916
-0.079624586
-0.05991047
0.07703752
-0.26985025
-0.18411107
-0.041941293
-0.045565587
-0.05427832
-0.26300308
-0.018377805
0.004566066
-0.005588717
0.08674289
-0.11706339
-0.028086074
-0.34301966
-0.17676064
-0.230082
-0.048534673
-0.028734058
-0.06894746
-0.07697342
-0.1088802
-0.082331955
-0.2472867
-0.202133
0.080287345
-0.1762149
-0.048719715
0.17654063
-0.092233896
-0.49688253
-0.14126518
-0.21680975
-0.014905624
-0.018111695
-0.02147219
-0.14501427
-0.2913235
-0.117692366
-0.27952862
-0.24739648
0.038144525
0.05202172
-0.15094653
-0.017646516
0.09871063
-0.0808928
-0.17999175
-0.012433574
-0.18796667
0.06813625
-0.024250703
0.07813377
-0.04194228
0.039525494
0.13367286
0.1623069
0.017956832
-0.08853717
-0.078313276
0.12906367
-0.03246258
-0.012198661
0.102745004
-0.017439187
-0.027068775
-0.15268366
-0.23054199
-0.1990685
-0.08894712
-0.14036979
-0.06472502
0.04292099
-0.22125204
-0.10395708
-0.22776733
0.03193309
-0.2214082
-0.41144803
-0.004474674
-0.03582455
0.007450439
-0.14859267
-0.007990508
0.035496466
-0.06664231
0.08711845
-0.0031424677
-0.39835432
0.053000785
0.041602228
-0.027224176
-0.28278843
-0.00258711
-0.072336905
-0.2616927
-0.34860817
-0.108768895
-0.01882114
-0.03183583
0.00021272452
-0.15421723
-0.3792425
0.0388259
-0.17650549
-0.2892934
0.025367383
-0.032817032
-0.042266533
-0.09014025
-0.4800986
-0.13124163
-0.30109507
-0.056179196
-0.022230107
-0.26343003
0.018176552
-0.0313007
0.11890869
0.023323808
-0.110655464
-0.32564446
0.05317758
-0.18437321
0.027715657
0.19369671
-0.065917805
0.0006079027
-0.003441232
-0.045910053
-0.34014902
-0.16725649
-0.059835367
-0.24074681
-0.31565994
0.004968817
0.019948652
0.022379147
-0.0038929123
-0.05356298
-0.08206606
0.05096251
-0.33224708
-0.24582057
-0.017194396
-0.24903017
-0.07680877
0.014269624
