768,
-0.046645105
-0.10990055
-0.27257013
0.15499462
0.0976148
-0.24267413
0.16664098
0.17415488
0.18232955
0.071083724
-0.18765548
-0.049555555
0.10335298
0.2169261
-0.16182774
0.038626283
-0.03911616
0.23062834
0.15292503
-0.10322051
0.08114019
0.013819066
-0.001806169
-0.029646976
-0.24134476
-0.013231928
-0.2071229
0.09728033
-0.0048263785
0.0133337015
0.025183702
-0.013850939
0.1586444
-0.17938258
0.0049989494
-0.044017408
0.21377054
-0.027572116
0.02347534
0.016257726
0.08538984
-0.1314178
0.03665502
0.06354174
-0.17329352
-0.3127717
0.060762916
0.15422776
-0.06638632
0.1471547
0.24128327
0.036907196
-0.06838928
-0.104751915
0.14492841
0.08311918
-0.2133874
0.033495042
-0.06937816
-0.069432475
-0.07519988
-0.010935523
0.18572678
-0.21190995
-0.39096215
0.08482767
-0.15331677
0.11962411
-0.19298781
-0.07592224
0.28689113
-0.10405796
0.043813623
-0.08803581
0.10241673
0.1358427
0.019973485
-0.22582275
-0.19397497
-0.037615206
-0.0043178783
0.20578633
0.035219107
-0.101431936
0.016486157
0.06267284
0.25071213
-0.015814532
-0.15148471
-0.0021676216
0.007306547
0.10321879
-0.071201324
0.048543166
-0.07689957
0.006100507
-0.044881348
0.10419776
0.27540115
-0.13834453
-0.15978618
0.021069663
0.15637743
0.15512888
-0.018609928
0.059735745
0.26547727
-0.051591177
-0.1999311
0.23214044
0.04489339
0.04572425
0.092504814
0.17909378
-0.05014414
0.15814885
0.02462564
-0.11860467
0.10601736
-0.1665194
0.2605332
0.12637572
0.19932167
0.17969975
0.27137402
0.13657333
-0.029675417
-0.18605547
-0.12305255
0.08858994
-0.024939356
0.13135865
-0.050991904
0.087640144
0.27341887
0.015242286
0.14187053
-0.12874004
-0.23541956
0.01031244
0.123326406
0.05572355
0.07807411
-0.13215886
-0.2896768
0.06141284
-0.0051441994
0.14312033
-0.22535993
-0.14486608
-0.13377087
0.12375301
0.20242025
0.18884183
0.074498385
-0.030416833
0.10066029
-0.014598129
0.1690121
-0.19317833
0.03186358
0.08518586
-0.04995647
0.08544664
0.060868364
0.058473814
-0.054049592
-0.14978638
0.03846715
0.09846463
-0.23694123
0.011825057
0.052717384
-0.018729746
0.012018997
-0.09490578
-0.15321076
0.05620718
0.020626701
-0.057167415
-0.015878405
-0.03736629
0.0706698
-0.01944256
-0.122657284
-0.042203676
-0.1353073
-0.09406409
-0.0900399
0.02919063
0.20907123
-0.23428413
-0.123591445
-0.14506465
0.18681237
-0.08562919
-0.2922756
-0.0069232476
0.15759051
0.05303309
0.1514235
-0.08344935
0.017208397
0.13312489
0.12606019
0.050882
-0.22798495
-0.0019042715
0.051292874
-0.177044
-0.054751106
0.0038874869
0.056077946
0.0796378
0.07350158
-0.13192253
0.06590154
-0.061787628
0.20751196
0.02983832
0.05970902
-0.058735803
0.09668941
0.06379833
0.11787815
-0.0035595747
0.11807796
0.0054176557
0.15647496
-0.12297878
0.20457397
0.027300846
0.2153104
-0.11097677
0.12113423
0.018815378
0.14312567
-0.035198443
0.14576592
0.012121529
0.20972264
-0.007584294
0.12800598
-0.18499702
-0.09036067
0.11040984
0.08375823
0.17637502
-0.14093338
-0.04459274
-0.008755191
0.20834374
0.15021728
-0.081231736
-0.06970592
0.15196745
-0.1375043
-0.08677924
0.23159027
-0.077274695
0.02249234
0.1756324
-0.15182544
-0.114552304
-0.28733805
-0.12182009
0.14882311
0.10652808
-0.12947214
0.113628365
-0.36036554
0.089070216
0.0115616
-0.10584725
0.11427704
0.028571602
0.17015389
-0.056327194
0.0482827
0.16016614
-0.07667138
-0.11674665
0.15663935
-0.21909931
0.11274194
-0.020154722
-0.14089985
0.23459382
0.06453014
-0.06027961
-0.12190584
-0.063196555
0.062331833
0.0011731572
-0.33251143
0.13410375
0.100726604
0.24872993
-0.14790235
-0.12361036
0.122493275
-0.24585873
0.07748324
0.011314819
-0.09836187
-0.20710649
-0.06667102
0.17929149
-0.28182852
0.07283929
-0.18232697
-0.20555286
0.11688971
-0.071076736
-0.4506872
-0.18665387
0.22079696
0.1288436
0.035436835
-0.07160992
-0.3233956
-0.046525847
0.14189838
0.09217602
0.044605464
0.09891859
0.18468417
0.08410633
-0.01790555
0.039992433
0.1472467
0.08567158
-0.014752621
0.0063064024
0.0076518473
-0.012122532
-0.23180965
-0.03410039
-0.021264208
0.0072028916
-0.22954375
-0.040890913
-0.0087612625
-0.0695273
0.041799866
-0.13394192
-0.015761428
0.09217385
-0.00090727
-0.21286194
0.09618016
0.03443716
0.102523424
-0.2632751
-0.06357626
0.016987272
-0.32421333
0.28496823
-0.22375885
0.05374365
-0.21845949
0.07212876
0.26935118
0.2395276
0.26345658
0.051689297
0.031074356
0.019459417
-0.03694497
-0.015042172
-0.17357977
0.13154608
-0.14216435
-1.2829995
-0.18172449
-0.21909997
-0.1443478
0.13410698
0.26381016
0.088685565
-0.13577242
-0.00030492572
-0.1356549
0.22612531
-0.17767684
-0.11166949
0.025650758
0.084247105
0.047099896
-0.1408136
0.0028839544
-0.19116977
0.06299612
0.2038815
-0.021875663
-0.12601343
-0.021485271
-0.071363114
0.2034823
-0.12331953
0.07607063
0.19128306
0.2704888
0.060912266
0.07431607
0.015868971
-0.08861039
0.038556788
0.43028572
0.015355486
-0.117438406
0.22373126
-0.05076352
0.16264144
0.015239314
0.021835985
-0.13107915
-0.030123787
-0.004893268
0.22778237
-0.1135485
0.060989596
-0.099982165
-0.1538187
0.07510685
0.3012797
0.031461123
0.05101764
-0.1505191
-0.2492664
0.21779238
0.017069291
-0.19073378
0.08202299
0.17979811
0.05883038
-0.078000136
0.015013089
0.11364811
0.013778251
0.14143656
0.0632515
-0.12104216
-0.08601293
-0.035023093
-0.03081928
0.07069793
1.1304549
0.06662012
0.012980044
0.15429707
0.11083809
-0.03193109
-0.22844571
0.15751702
0.31179056
0.011689872
-0.11666062
0.06631385
-0.01480392
-0.10173224
-0.20323487
0.0380878
0.15078151
0.04497102
-0.27316672
0.039840847
0.038330875
0.046647586
-0.08564557
-0.11725712
-0.08117234
-0.13430448
-0.22710408
-0.12535648
-0.07412629
0.015674746
0.1355702
-0.140512
-0.15143166
-0.049571164
1.4896032
0.042734824
-0.04136287
-0.02090365
0.06341674
-0.1403287
-0.06379422
0.17027617
0.038541235
-0.12515809
-0.09435881
0.08216314
0.12015207
0.17628299
0.09590839
0.12566228
-0.19220749
0.11375328
0.051611856
0.12616436
0.038992956
0.088228375
-0.10838572
-0.14849679
6.6314475e-05
-0.077564165
-0.0063029765
0.15600863
0.18852264
-0.16829415
-0.08956555
0.27002424
-0.11344211
-0.05949806
0.088727996
0.04107324
0.11490355
0.104743555
-0.03962135
0.04245265
-0.13513887
0.14180844
0.057557102
0.047731917
-0.18115962
-0.16362442
-0.26370803
0.109607935
-0.12799753
0.045317214
0.037697095
0.0039600283
-0.035139382
-0.1575465
0.0087410975
-0.09203278
-0.05776954
0.01203834
-0.012094929
0.19991101
0.1289446
-0.10110187
-0.22755961
-0.1515002
0.1746884
-0.028941093
0.07099457
-0.17859375
-0.14881596
-0.18845434
0.16607451
0.03235834
-0.18973507
-0.24710974
0.10224448
-0.03485876
-0.0449668
0.14402527
0.016580373
0.082169995
-0.09802358
-0.296227
0.15859833
0.07173137
0.028512098
0.018698372
-0.02062219
-0.07502103
0.025783163
-0.07077459
0.021522637
0.22910447
-0.086382
-0.1286615
0.11657132
-0.1938555
0.11100269
-0.059276465
-0.16057181
0.017637076
0.016795633
-0.04740742
-0.10866326
0.18590394
-0.07729003
-0.06003561
0.01376363
-0.023847887
0.12234303
-0.16363868
-0.11910966
-0.034663077
-0.097505644
0.3160519
-0.16558456
0.032260854
-0.10310182
-0.08476769
-0.1940059
-0.020051192
-0.22758384
-0.124667734
0.18933988
0.15264979
-0.1298945
0.035823353
-0.23359272
0.2127411
0.14823192
-0.15297887
-0.02417747
-0.1292473
-0.025154855
-0.08685492
0.017695876
0.19299337
-0.26344123
-0.0829486
0.19863077
-0.25697628
-0.09651907
-0.18942931
-0.22585861
-0.120873295
-0.13587192
-0.15571706
-0.1538689
0.13236606
0.13065045
-0.17807883
0.19846708
0.12240422
-0.090830386
0.007847772
-0.060225006
-0.1484654
0.22021435
0.03867502
0.10557112
0.20231056
0.010333347
-0.039311197
-0.25853482
-0.005210795
-0.084177256
-0.097600274
0.05633919
0.23896033
-0.09764988
-0.07570501
0.2680933
-0.030667499
-0.20390075
-0.15001912
0.11130588
-0.06166318
0.09755969
-0.022336045
0.053332496
0.13491029
0.03629234
0.033832166
0.07079333
-0.002201364
0.2534775
0.017548634
-0.09411168
0.14941089
0.25454038
-0.073730916
-0.052943643
-0.20348157
-0.007645314
0.084054925
-0.05772505
0.19311953
0.39951393
0.10298696
0.22905259
-0.10511601
-0.17754334
0.12690826
-0.034128506
-0.31649065
-0.13638951
-0.07321927
-0.02700129
0.041068677
0.011429809
0.20258047
0.16231202
-0.077365495
0.3030101
-0.058596462
-0.059156362
0.04503232
-0.029409127
0.096739754
-0.08403896
0.15168719
0.052729458
-0.0642635
-0.13393244
0.13587312
0.017234977
-0.1444086
0.035125002
0.032919683
0.008847597
0.08584197
-0.17052692
-0.10479103
-0.034623824
-0.0359237
0.05604
-0.17123885
-0.041188683
0.20853086
0.10225931
0.15869074
-0.15678126
-0.09473378
-0.058939766
0.22240344
0.2215645
-0.019327411
-0.12897025
-0.22393613
-0.044446617
0.07584822
-0.24911276
0.13488723
-0.13735881
0.08653948
0.0059651583
-0.18353091
-0.058970332
-0.07380284
-0.3137416
-0.17683236
0.08592696
0.01898411
-0.19905962
-0.025257805
-0.19546947
-0.1444458
-0.04022426
-0.052308377
0.011810822
0.12978305
-0.054837815
0.18505475
0.107403144
-0.010936067
-0.07737872
0.0014461204
-0.12349323
0.02415234
0.21143907
-0.15099628
0.120326705
0.2115391
-0.07117108
0.055353828
0.0141466
0.043370344
-0.18957502
