768,
0.04502327
0.032263055
-0.08854542
-0.008162474
0.1177165
-0.23887631
-0.07587444
0.029564159
0.046482466
-0.002777336
-0.0038145091
0.020842737
0.009267736
0.03588847
-0.14091346
0.06138546
-0.06896163
-0.012951075
0.061895672
-0.017779535
0.02135994
-0.05501719
0.021974908
0.0011829777
0.049435712
0.041929886
0.07189817
-0.020239253
0.065098286
0.109638356
0.040017404
0.03582199
0.06442176
-0.031552475
0.020920774
-0.059029862
0.019308189
-0.03758474
0.047847107
0.12949966
0.06565979
0.16015132
0.0036071811
0.013143806
0.0871571
-0.05141831
0.10630246
-0.042858407
0.0986176
-0.02909367
0.09412632
-0.00586612
-0.029510537
-0.07021307
-0.0024058002
-0.09226565
0.05370483
0.013924823
-0.010657408
-0.06518095
0.022840558
0.12672524
-0.046832122
-0.039237924
-1.0288007
0.04952778
0.010584925
0.02504156
0.006046475
-0.16819263
0.0676374
-0.05606917
0.023983786
-0.08178759
0.18518637
-0.053801425
0.005116594
-0.03419905
0.033592712
0.009657175
0.07004995
-0.085121006
0.13116872
0.020364521
-0.096870795
0.013110848
-0.09111643
-0.22846234
-0.04309346
-0.052250758
-0.023869542
-0.09107244
0.0014824708
0.02001842
0.016284766
-0.18391106
-0.07857508
-0.15803377
0.04335362
0.082149595
0.08925803
0.006241085
-0.0050751497
-0.07819671
-0.041822053
-0.07075215
-0.0623708
0.072956055
-0.029112704
0.010279797
0.05462314
-0.05449598
-0.020812904
0.027418578
0.043914717
-0.112056464
-0.04148266
0.044149376
0.041487608
0.033087965
-0.049593136
0.025346667
-0.08074966
0.03512011
0.024999877
0.084419765
0.003958917
-0.026386335
0.046669975
-0.018600887
-0.027607162
-0.065402806
-0.058141593
-0.06274844
0.00553345
0.10983067
0.11806526
0.008825198
-0.011783368
-0.04163173
0.022896534
-0.15753205
0.052934434
-0.029923102
-0.045316704
-0.027484622
0.012230747
-0.016446223
-0.11546035
-0.09070571
0.023193602
0.087321475
-0.0006444718
-0.04764315
0.025381593
0.011229621
-0.011836824
0.11482568
0.06277832
-0.07432223
0.01860407
0.035351854
0.08304635
-0.032333016
-0.035074655
-0.056861393
0.00638519
-0.035449024
-0.0020107604
-0.0029976675
0.18376403
0.16517188
0.046639375
-0.02884076
0.009517869
-0.12772983
0.036274146
0.03307466
0.06716118
-0.11401227
-0.10324203
0.04084811
0.0006945484
-0.022487385
-0.14184481
-0.07620352
0.048271783
0.0065126857
-0.00024099229
-0.046942294
-0.010845183
0.10996309
-0.01995938
-0.00558831
0.015395911
-0.078589655
0.092186056
0.060334567
-0.023314018
0.09841154
0.02798067
0.024934273
0.030177131
0.0063877944
0.026811806
0.08217805
-0.031889446
0.004665843
0.11254079
-0.02047187
-0.019677699
-0.0796512
0.04480005
0.0020877519
0.01055056
-0.034646284
-0.05818488
0.019808456
-0.030192131
-0.0893035
0.0016886719
-0.04583457
-0.05614905
0.0412952
-0.012997912
-0.008959166
-0.097500846
0.00086018536
-0.010314444
-0.02953597
0.08849485
-0.10250689
-0.075624704
0.014877071
-0.089994185
-0.0054271948
-0.013236603
0.012560195
0.041312203
-0.0148462225
-0.0023258121
0.035058517
0.053120535
0.024269428
-0.02671237
-0.08415921
-0.020310933
-0.0012855752
0.07939002
0.100801975
-0.042852063
0.064158335
-0.15676266
-0.046176642
-0.0855204
-0.07362853
-0.0041725673
0.12723553
0.080199696
-0.060142126
0.037472248
-0.048539873
0.0066446946
-0.0555588
0.23944591
0.16572876
-0.27423632
-0.005292367
-0.035117265
-0.10445246
-0.04912223
-0.042224854
-0.07190437
-0.100753166
0.010229805
-0.05957556
0.0028034446
-0.11119441
0.05681764
0.05896435
-0.135137
0.103752844
0.06109004
-0.059417974
-0.012069411
0.015966803
0.008090275
0.08004814
0.21895401
-0.104415886
-0.07453409
0.040669587
0.01706125
0.045916602
-0.015722295
-0.06082004
0.00809872
0.09168954
0.011977043
0.048148766
0.123154856
-0.049317665
0.123760074
0.0033777514
-0.06304606
0.1533268
0.050951496
-0.089270085
-0.04072379
-0.040351592
-0.012391079
-0.16080019
-0.17765518
0.0759034
-0.11404985
-0.09376741
0.027889872
-0.008664101
-0.04435358
0.0100918645
0.016176572
0.07948113
-0.02183437
0.14272612
0.09544808
-0.073991604
0.2519321
-0.0135818105
-0.041486274
0.07839091
0.049194742
0.014428376
0.066613846
-0.0067850426
0.02635005
-0.022225928
-0.025073946
0.030529223
-0.054313596
0.0025677944
0.021976316
-0.07798772
-0.08747218
-0.004383158
-0.0056923097
-0.060136303
0.023536675
0.024780845
0.112997726
-0.06631124
0.011405827
-0.020834174
0.10654442
-0.058886483
-0.010435502
-0.035976972
0.0019855066
-0.015094874
0.16664366
0.03858587
0.00073968706
0.008339053
-0.046112858
-0.0123921065
0.08423954
0.019113712
-0.06405018
0.012610813
0.16068351
-0.06863254
-0.021503754
0.003994639
-0.13236909
-0.77658176
-0.0045845984
-0.02863463
-0.025181662
0.040093612
-0.02161442
0.05941047
-0.012508183
-0.038255874
-0.028660428
0.063848004
0.033283703
0.06188027
-0.008727621
-0.01349764
-0.022980647
0.040298127
0.017356075
-0.04040303
0.010128815
0.19054621
0.04864477
0.028900951
0.043848068
0.025438264
-0.04666062
-0.03584726
0.05249506
-0.06345984
0.030080805
-0.022346536
-0.17123091
0.07511639
-0.057681676
-0.01789647
0.13129212
0.064119466
-0.033117395
0.034110334
0.023311058
-0.0817679
-0.007866307
0.0072086393
-0.1091318
-0.060862683
-0.1029076
0.07062564
-0.034457438
-0.006637485
0.041266993
0.10084533
-0.00596717
0.121861555
0.03234646
-0.009007423
-0.036914274
-0.07652611
-0.099213615
0.10725264
0.1460706
-0.016410118
-0.16554281
-0.053177886
-0.020510284
-0.13012819
0.0702588
-0.034696624
-0.044588417
0.08973007
-0.04374554
-0.11890869
-0.003777718
0.047557298
-0.032944143
1.4793618
-0.022029309
0.024319964
0.026202977
-0.026521597
0.19999237
0.012334987
0.037748437
0.108370885
0.010647376
0.026262911
-0.057881307
0.06416999
0.13091642
0.060774215
0.1535125
0.051786985
-0.016282873
-0.0131893465
-0.040298954
0.06989722
0.05691648
-0.0047023217
0.033006493
-0.02163737
0.05444454
-0.011246348
-0.016313376
-0.097041935
-0.03367296
-0.31121364
-0.0017337746
-0.0065773563
-0.33947828
-0.010747741
-0.0072840136
0.03491575
0.0076205954
-0.009045569
-0.12918271
-0.04191542
-0.06560486
0.0056195534
-0.03328825
0.009627187
0.019119095
0.007995978
0.004894897
-0.1082614
0.021244051
0.062301718
-0.057631053
-0.040646974
0.11759866
0.018409375
0.091126956
0.054443154
0.04037724
0.05271251
0.06444504
0.04355227
0.01827812
-0.027896803
-0.012968695
0.07367363
0.052346304
-0.03177048
0.06889687
0.108203456
-0.07098015
-0.04359365
0.058857385
0.07382677
-0.060255963
-0.0048512095
0.05187543
-0.0179778
-0.09726297
0.101591215
-0.058647655
0.03342705
-0.021911003
0.06345814
-0.060518008
-0.0155839445
-0.044891123
0.12770058
0.12310413
-0.010520775
-0.08997535
0.05191051
0.0771233
0.05472762
0.029924856
0.045540918
-0.069751635
0.0019428764
0.13841875
0.032564905
-0.020783018
-0.08286892
0.08554355
0.037853222
0.007759029
0.0013680394
0.006475174
-0.070810355
-0.11386526
0.09582861
0.09105054
-0.06592911
0.023230752
0.0666529
0.108915254
0.013683433
-0.2445082
-0.08720826
0.040798746
0.012450222
-0.00978755
-0.08481843
0.06154181
-0.02120269
0.007596373
-0.015271877
0.022895953
0.14737329
-0.06702283
0.048007566
0.16407171
0.059616044
-0.074995875
0.03756425
-0.10316765
-0.02825585
-0.020282056
0.04167201
-0.10623019
0.05108251
0.024352605
0.017573357
0.0013916931
0.027037453
0.026374508
-0.031100966
0.01359067
-0.034730185
-0.2780334
-0.02876237
0.030336702
-0.032351572
-0.0121785505
-0.013031875
-0.0050929342
0.08416432
0.06990725
-0.029803267
0.065644324
-0.08071743
0.021696948
0.09671501
0.015085722
0.011788825
-0.1288337
0.024770807
0.026497386
0.055521607
-0.14011511
-0.0066508553
-0.03469965
0.0084467195
-0.01884197
-0.011403034
-0.012642687
0.05014682
0.034162197
-0.054514367
-0.060217086
-0.13389735
-0.20140179
-0.0015776174
-0.010784677
-0.015657185
-0.007032686
0.06027352
-0.08042309
0.087841764
0.05463282
0.02523906
-0.02856131
-0.028283063
-0.07085061
0.055545144
0.105814286
-0.005154965
-0.023809599
-0.14050733
1.0330452e-06
-0.0625796
0.03282913
0.0020821278
-0.01054494
-0.020066116
-0.06492246
0.07589459
0.013186853
0.07500143
0.059477553
0.0651647
-0.032629084
0.1368846
-0.06041846
0.035760652
0.037930734
-0.07255309
0.03728799
0.007761509
-0.07298103
0.0014383517
-0.03236432
0.042221937
0.07646082
-0.02186828
0.022159072
-0.053884454
-0.08756177
-0.021667145
-0.050474618
0.046041526
-0.21063593
0.06756356
-0.074217
0.065668374
0.032802876
0.028213091
-0.049096275
-0.016074436
0.06804774
-0.082288794
0.062946215
0.020253532
0.040095218
0.07498048
-0.1405173
0.11654108
-0.033523478
-0.05101831
-0.041742958
-0.08484698
-0.034366805
0.016062183
-0.08564907
0.01047922
-0.19157131
-0.0030793825
0.14401457
0.02476213
-0.13440038
0.03451637
0.06902473
-0.03594524
0.015276353
0.07017002
-0.014009174
-0.0042376663
-0.07865614
-0.0019765492
-0.114855856
0.0851452
0.12173561
0.11058737
0.07819848
0.059845608
0.007901468
-0.07873012
-0.028580904
-0.17287347
0.14535755
-0.010343931
0.03243846
0.097084336
0.04556922
0.021416971
0.074727304
-0.05229686
-0.04167115
0.010934167
0.0503975
0.06304611
0.06930268
0.09600416
0.0011744044
-0.015224357
0.010817151
0.057317097
0.05607687
0.024948958
0.14738415
-0.18388607
-0.057227917
-0.16117315
-0.0749396
0.0050967257
0.022772467
0.057292685
-0.083043076
0.02582484
-0.019613886
-0.0019871683
-0.07187038
0.015371978
-0.13296735
0.0042592916
0.048104547
-0.04941424
-0.0062924037
-0.04070853
0.030458815
0.009990275
0.09681067
0.029623607
