768,
-0.06543963
0.10812346
0.04286131
-0.27609614
0.08625605
-0.22869101
-0.044614587
0.0007275499
0.10620113
0.1047031
-0.08921228
0.07638225
0.13595484
0.011987983
-0.13395175
-0.012165425
-0.02094809
-0.24327068
0.19702652
-0.11469812
0.060393292
-0.08853124
0.035186425
-0.03214914
0.051021405
0.054987535
0.08870009
0.06739293
0.07102941
0.13408461
0.029301895
-0.009303612
0.025734777
-0.24615507
-0.080972366
-0.062278435
0.005404134
-0.11257304
-0.07373207
0.05154419
0.049480762
-0.018005142
0.030016925
0.057094187
0.04287543
-0.008573493
0.13156907
-0.02383364
0.123082824
0.03233687
0.12840004
0.1894939
-0.15247512
-0.043331318
-0.0570896
-0.11957389
-0.18894614
0.034549657
-0.12351699
0.124589436
0.049256943
0.06695647
-0.053798113
-0.024951585
-0.20267995
0.08807301
-0.12948038
0.09888569
0.09225421
-0.010396911
0.06915601
-0.013474832
0.010623203
-0.08268032
0.107035965
0.027821995
0.14133734
-0.06652402
-0.03560472
-0.077592954
0.09147881
0.05176532
0.10233423
-0.20764752
-0.047198463
-0.013332263
-0.014067568
-0.12060945
0.04610255
0.046384994
-0.014968518
-0.08330714
-0.08446579
0.05519555
0.019518267
-0.2220632
-0.14471889
-0.096407756
0.094091676
0.090519935
0.08362389
0.11908118
-0.034112353
0.059822798
-0.03511885
0.01685802
-0.009284338
0.10221917
-0.06335725
0.14114457
-0.013099472
0.020581419
0.045718078
0.026731972
-0.044943877
0.03208922
-0.027510699
-0.0058821472
0.097392514
-0.030663472
-0.04528586
0.12861557
-0.08266235
-0.049250897
0.04070061
0.16138549
-0.07094967
0.02002111
0.100857034
0.11549895
-0.05719186
-0.11883937
-0.051754396
-0.20848206
0.056135003
0.0796612
0.03487979
-0.017303277
0.14165811
-0.12001455
0.06643482
-0.1345643
0.06086904
-0.04193812
0.043504704
-0.051470734
0.07340298
-0.03863233
-0.06466721
-0.101023875
0.022799607
0.14244768
0.05832821
0.08411243
0.06994601
0.06294855
-0.08780719
0.2292463
-0.05586322
-0.012231396
0.11659168
-0.089668006
0.019553753
0.051064778
0.056921877
-0.0016171046
0.055810597
-0.021496128
0.06529601
-0.024489585
0.21248922
-0.016139103
0.07645173
-0.067567706
-0.009820543
-0.012469172
0.06583401
0.037678376
0.02545548
0.06098719
-0.10574082
0.044545926
0.090533316
-0.02846751
-0.019822095
-0.0042448216
0.15735891
0.020202292
0.049319312
-0.18579997
-0.02589167
0.07756682
-0.06789932
-0.09971787
0.111898966
-0.03136068
0.08063419
-0.016202219
-0.07535653
0.037934836
0.054614577
-0.0060861288
0.033249952
0.15292487
0.0075918254
0.08244416
-0.11887662
-0.06834729
0.12450464
0.032358482
0.15444398
-0.040239867
0.02810103
-0.04295584
-0.044167753
-0.0540792
-0.163309
-0.020178026
-0.07762612
-0.10951066
0.023120167
0.19825104
-0.114874795
0.08380991
0.04757235
0.14156342
-0.08391962
-0.22040251
0.08142127
-0.2366507
0.15032202
-0.106311716
-0.06451052
0.0075338255
-0.114620596
0.13072552
0.082020506
-0.10536435
0.010457582
0.052593492
-0.030427122
0.13871072
0.08678138
0.03492567
-0.12619703
-0.09341979
-0.06190661
-0.05179601
-0.0837093
0.13812317
-0.09091174
0.083815254
-0.17185988
-0.16741444
0.04587474
-0.031890336
-0.016618304
0.14730881
0.13672693
0.088874154
0.06079555
0.045206565
-0.13632773
-0.17152113
0.15913872
0.16269985
0.13218369
0.08159038
0.012533395
-0.19979788
-0.009912084
0.0032168338
-0.02377935
-0.08595594
0.031476274
-0.13268276
0.013461204
-0.12874576
0.086318724
-0.09568915
-0.14261904
-0.010993873
-0.04205123
-0.052197445
0.0446448
0.10004869
-0.061421286
0.10418482
0.08676746
-0.1255707
0.034650527
0.014890624
-0.07833214
0.038069833
-0.048212413
0.08362399
0.13807715
0.06353076
-0.09155324
0.025851356
0.23353106
0.018252563
0.065454446
-0.04463502
-0.05023548
0.1312839
0.086206935
-0.005066472
-0.033171635
-0.09534927
-0.0337986
-0.023804706
0.08799464
0.09280055
-0.010537703
-0.025887776
0.09529971
-0.042998422
-0.014299071
-0.06270524
0.24455285
-0.07383218
0.08090463
-0.046202328
-0.1366195
0.12599674
0.0349478
0.12870355
-0.09109964
0.05826267
0.031882036
-0.013298884
0.01849587
-0.071365066
0.03650919
-0.066097505
-0.1403115
0.04111214
-0.17472643
-0.024709154
0.018768175
0.093453266
-0.040235493
0.0984402
0.04504551
0.043235548
0.04907527
0.026213216
0.07086372
-0.028482284
0.14105752
0.017020127
0.07202064
-0.047622744
0.06679452
0.044086564
-0.027803337
0.15519336
0.17679602
0.16634095
0.04398318
-0.014092952
-0.04294909
0.088630326
0.1346949
-0.060390316
-0.07441585
0.18021098
-0.03161192
-0.06732779
0.048180003
-0.01951413
-0.030109618
-0.45278004
-0.08796938
-0.019377219
0.045120437
0.12833351
-0.21119851
0.037319586
-0.12398407
0.088120356
0.0042601153
0.09111077
-0.04775093
-0.037186414
0.12965535
-0.03413315
-0.061130032
0.059839457
-0.03114947
-0.028857676
0.062121283
0.03384751
-0.046814665
0.02903959
-0.013817949
-0.13374998
0.21972235
-0.18788634
-0.024474474
0.12267447
0.11172421
-0.007604483
-0.16468172
0.118307814
-0.073147014
-0.15157498
-0.054409806
-0.018959528
-0.16833921
0.062832355
0.14949258
-0.02282841
0.109813616
0.024207175
-0.03309459
-0.039272904
-0.18277593
0.030634435
0.0959762
0.12508397
-0.043345895
0.018962838
0.016808122
0.14457896
0.052980773
0.07591527
-0.19501986
-0.18352646
0.033705954
0.049651124
0.13366805
-0.03817359
-0.14326714
-0.033764247
0.0052897194
-0.21060562
0.108039565
-0.0027320925
0.069374114
0.085619286
-0.06299179
-0.01540052
-0.039949507
-0.001116816
-0.06714017
1.5676597
-0.07964493
-0.15760592
-0.08738819
-0.033790637
0.10386896
-0.0009007489
0.12583552
0.27202716
0.04566797
0.018764747
-0.10554915
0.09041081
0.15967034
-0.04074913
0.22226648
0.104842044
-0.009009202
-0.07631457
0.034870226
-0.109141454
0.08668565
0.045822423
0.19742773
-0.060659975
0.11910485
-0.024668753
-0.035136603
-0.17014821
-0.04089766
0.013155209
0.017546145
-0.087812945
-0.051116817
0.11667328
-0.12589686
0.014035465
-0.028532932
0.010002293
-0.10028373
-0.19895644
0.040665727
0.033357944
-0.026439385
-0.051546548
-0.08847071
0.077802606
0.036826614
-0.0906974
0.057760283
0.09888902
-0.04199473
0.031539943
0.12667139
0.019485066
0.075931236
0.041875206
0.07243577
0.17403246
-0.00055925536
-0.008076129
-0.04027715
0.01650707
-0.10654386
0.09539332
-0.08640066
-0.2443431
-0.03143703
0.07935485
-0.10171085
-0.094114505
-0.08787757
0.020218365
-0.00091770093
-0.023392702
0.014755352
-0.13814637
-0.042293362
0.073656075
-0.0918857
-0.09664713
-0.02295341
0.014958979
0.08741492
-0.025831118
-0.048736874
0.109943174
0.07870103
-0.06578512
-0.23327373
0.20313613
0.085261695
0.056641422
0.1342689
0.05460766
-0.04109948
-0.059573915
0.056119137
0.19659905
-0.05914556
-0.08394495
-0.012603512
0.011544914
0.1628146
0.003623346
0.089693606
-0.00973525
-0.20664133
0.08880753
0.015044799
0.17269406
-0.001025546
0.013264337
0.0062774797
-0.079441704
-0.10238524
-0.13776064
0.15791738
0.018258434
0.012518858
-0.03704227
0.06274721
-0.051477555
0.089415014
0.044477038
-0.07865596
0.30288553
-0.07316139
0.13960123
-0.019843085
-0.016109396
-0.10402222
-0.100713074
-0.18258405
0.11609325
0.042720042
-0.020824455
-0.13655311
0.18518922
0.07298795
0.13795814
0.05805358
0.14829186
0.0016976524
-0.024961803
-0.028963815
-0.039752793
-0.070342064
-0.1542734
0.112004496
-0.013881864
-0.037301674
-0.039299
0.038927093
0.07472458
-0.001394683
-0.030996429
0.2124536
-0.12053576
0.04296112
0.00054193597
0.04627335
-0.017688705
-0.07516736
0.12905094
-0.088858664
-0.027766738
-0.091495976
-0.11430944
-0.05980198
-0.026424943
0.02987354
-0.02994011
-0.115511104
0.119752355
0.049861465
-0.11271389
-0.08164082
-0.13615634
-0.1445226
-0.21383235
0.013442817
0.14318268
-0.073092
0.2078647
-0.16179475
0.09270554
0.0060904454
0.0664349
-0.13783565
-0.109834075
-0.015161016
0.013160196
-0.034088194
0.07029266
-0.019570397
-0.21951917
-0.05177828
-0.1284057
-0.05614994
-0.059912775
0.07869819
-0.08554505
-0.27701545
-0.0084081795
-0.03489872
0.03935091
-0.028432354
0.1634986
-0.027579358
0.011226338
-0.14532547
0.12149875
0.110651
-0.109886125
0.011044489
0.038452752
-0.0065643033
0.12855601
0.099657774
0.10760419
0.037734225
0.06469141
-0.0005505775
-0.13828467
0.02927724
0.088371634
-0.24281228
-0.013771729
-0.12817922
0.14186934
0.009127188
0.075242706
0.08476773
-0.0479075
-0.04341455
0.02644502
-0.008516185
-0.057305355
0.13103789
-0.031031365
-0.17714028
0.022004513
-0.0959167
0.14006267
-0.037740674
-0.0057021747
-0.010286879
-0.11901359
0.14073071
-0.033745505
-0.14870109
-0.01940215
0.0004935686
0.11602858
-0.012403876
0.08503239
-0.073767155
-0.094083466
0.07080109
0.058070887
0.070443116
0.09986907
-0.12760207
-0.05533548
-0.019511793
-0.08608639
0.027188865
0.11898377
-0.2336009
0.0045773243
0.017302386
0.18572465
0.11157592
-0.05490601
-0.05419683
-0.010885266
0.14901206
-0.12611224
0.017399333
0.12486531
-0.0070054643
0.09613576
0.044130746
-0.13530834
0.061258234
-0.03455342
0.17606051
0.06964838
0.12508425
0.05533948
-0.10225944
-0.07720012
0.0832049
0.06129798
0.0072153076
0.05491548
0.10650283
-0.21895286
-0.06897176
-0.15742743
-0.00031443124
-0.07568278
0.02849332
-0.032565493
-0.088705555
0.046865772
-0.06209164
-0.07579001
-0.13580178
-0.035299137
-0.1887416
-0.008286019
0.06823341
-0.012271516
-0.07594025
-0.0015925064
-0.07656546
-0.0054236054
0.00972115
0.00938693
