768,
0.10572354
0.11879222
0.006737913
0.05425175
-0.020953309
0.0077268626
0.055386063
0.051742207
0.024585977
0.056503724
0.07260715
0.015075697
0.071181074
-0.026222741
-0.0047718636
0.13389313
-0.04042479
-0.096059084
0.051433332
-0.077727534
-0.038933415
-0.011034431
0.22768071
-0.051514097
-0.098916024
0.0014073843
-0.04144134
0.034522295
-0.009654852
0.0058057266
0.044663224
-0.047319528
-0.009854177
0.01743702
0.1440771
-0.12892374
0.18401137
-0.01771336
-0.21362674
0.064169854
0.07322429
0.086714804
0.07647899
0.05779587
-0.09946162
0.0104996525
0.04192961
0.042791333
0.11133944
0.14214632
-0.043592893
0.17638208
0.01984429
-0.057469133
-0.03515193
0.0478479
-0.051008135
-0.07284125
-0.06420804
0.0011922738
0.055511657
0.046273552
0.07630856
-0.03221719
-0.028232552
0.022414548
0.2864091
0.084060274
-0.106115334
0.056944326
-0.09099349
-0.1057871
0.016902642
-0.045003194
-0.03939287
0.0004211931
-0.042566888
-0.19530845
-0.11876366
-0.1182612
0.023174712
0.1465793
-0.011602482
-0.10423652
-0.037904233
0.056582537
0.18228376
-0.25083268
0.07108191
-0.020790499
0.15471299
-0.067578286
-0.036894865
0.10316658
-0.09995818
0.11642771
0.03813084
0.034293063
-0.091408424
-0.057015717
-0.010627108
-0.098007455
0.15856595
0.17442808
-0.080008775
0.050136473
0.07689006
0.05397464
0.040659573
0.09595472
-0.03021791
-0.014983082
0.019396799
-0.027930958
-0.27262098
0.009811022
-0.022445701
-0.064785555
0.14062096
-0.07417613
-0.037756186
-0.15050445
0.065329865
0.1422479
-0.00045733913
-0.09359499
0.06530151
-0.11248585
-0.08914191
-0.23360771
0.2229768
-0.037233442
-0.12887003
0.04727986
0.12751283
-0.14880663
0.018157516
-0.107497975
0.12594208
0.063951924
-0.18679579
0.15195058
-0.058669966
-0.09148002
-0.19602089
0.012744301
0.033052724
0.016337216
-0.13292566
0.0006100587
-0.016633023
0.097479716
0.1966531
0.081328064
0.16760543
0.09578034
0.061848864
0.20256919
0.06640126
0.10221494
-0.055520218
0.0047801896
0.118566684
0.03936376
0.1323
-0.20744494
-0.01745235
-0.10336776
0.26194766
0.054406088
-0.06434692
0.04304674
-0.0797183
0.1404346
-0.085750595
-0.05130635
-0.15234195
-0.0044695064
-0.056316737
-0.2036172
-0.03850881
0.0718168
-0.016531484
0.030568289
0.047391336
0.03012514
0.0609424
-0.09160524
-0.01477983
0.082294025
0.13076872
-0.19460724
-0.007747181
-0.07855403
-0.01924803
-0.044687763
-0.07340095
-0.13074562
-0.07431328
-0.1709855
0.09172317
-0.057300538
0.11887563
-0.019680385
-0.00013035505
0.059939932
-0.07765691
0.019795556
-0.07774596
-0.040897533
0.14334473
-0.059350114
0.057266183
0.068265446
-0.056204755
-0.20999193
0.03392928
0.027139418
0.053058423
0.052782897
-0.04750552
-0.09233588
-0.04621566
0.033459924
0.06166742
-0.061371982
0.2946015
0.12160904
0.019839501
0.013784677
0.09230697
-0.007209873
0.10696581
-0.06215991
0.18907587
0.10329626
0.015134393
-0.105068624
0.013786384
0.15425137
0.062750354
0.0018912333
0.025627693
-0.05689424
-0.18223742
-0.056574214
0.21062443
0.009266787
-0.19323316
-0.081907794
-0.17453167
0.023179494
0.06907454
-0.08073385
0.05365831
0.1555791
-0.08280191
0.102757104
-0.017343938
-0.06953471
-0.010492838
0.1438372
-0.20757608
-0.12478971
-0.111203946
-0.13338728
-0.24916758
0.20345686
-0.16052462
0.08507866
-0.0035180626
0.05048684
-0.0429423
0.007989096
0.019120999
-0.20168583
0.05472132
-0.1696505
0.10440827
-0.0055981083
0.111473314
0.086738385
0.15058936
0.017928516
0.03534388
0.09266253
0.029167876
-0.050068244
0.035208076
-0.050296213
0.01412259
0.20188117
-0.15055679
-0.0869068
-0.074861005
0.113382965
0.05116543
0.0025277634
-0.16772677
-0.0037808234
0.18030897
-0.13221933
-0.25825077
-0.14690444
-0.052721847
-0.1652893
-0.06272694
0.0945813
-0.012619558
-0.03370938
-0.25697774
-0.15856357
0.11081524
0.12592794
-0.08253078
-0.03644906
0.22242549
0.06890275
-0.051663525
-0.18016604
-0.026625967
-0.032147158
-0.0013191275
0.077324554
-0.005021853
0.052561387
0.07262006
0.09709593
-0.23107418
0.06920147
0.12657483
-0.02326623
-0.13124575
0.012131044
0.01497944
-0.22420861
0.040067907
-0.063698485
-0.14964807
-0.023132192
-0.07289084
-0.019409118
0.17667088
0.08717368
-0.015857382
0.12054927
0.08229553
0.006364265
0.07614383
0.04320153
0.095949225
-0.00916084
-0.050073013
0.011223363
0.12446139
0.10977011
-0.101220414
0.110808596
-0.115488954
0.15086022
0.04668206
-0.13019727
0.06523614
0.05736983
0.023877155
-0.017284803
0.2353883
0.21465267
-0.0817768
-0.026992312
-0.26340973
0.04967765
-0.08619494
-0.1443906
-0.16030036
-0.13838947
-0.039179277
0.13730368
-0.081742555
0.25221825
0.092869565
0.018573059
-0.015000014
0.0031441555
0.013096565
0.009150496
0.037101265
-0.23006652
0.08709866
-0.0035229884
0.09106325
-0.043650378
0.021710025
0.040313862
-0.08257448
-0.009541847
-0.07677664
-0.13306352
0.119647786
-0.020255359
0.05775537
0.17457226
-0.025959976
0.028209597
-0.11304973
0.015725102
0.070587814
-0.07351011
0.0034142046
0.19644685
-0.15030171
0.026287349
-0.0327534
0.10480256
0.14719921
0.15683626
-0.0116915
0.014268886
0.023946712
0.019865818
-0.18308456
0.18304302
-0.13947064
-0.05110945
-0.14727214
0.088898346
0.044508398
-0.018576689
0.006368247
-0.066557
0.36230344
0.03146066
-0.03085076
-0.087272264
0.057619758
0.17560117
0.14485267
0.11058985
-0.24379715
-0.12766328
0.11310595
0.15620348
0.030114464
0.074779354
-0.008232455
0.11665841
-0.004114792
0.16755262
0.13344777
0.15636519
0.16306007
-0.018500287
-0.12662475
-0.062123988
0.08695113
-0.022273714
-0.05869819
0.1802222
0.019207994
0.18094727
-0.10585292
0.20034982
-0.0015849234
0.17373013
0.33995813
-0.008091702
0.0073306407
0.044029508
0.15298688
0.051434953
-0.19630755
0.16560301
-0.152168
-0.045821074
-0.08609113
-0.07738684
-0.01564393
0.16114719
-0.11703229
-0.11466409
-0.38350356
0.17597239
0.1384207
0.033483822
-0.10862809
0.056123756
-0.004418956
0.19475023
0.1995943
0.0020016858
-0.1346773
-0.12654562
-0.03644806
0.14633387
0.037584778
0.07376842
0.43734768
-0.07943918
0.028000452
0.03898937
0.07371567
0.018871166
0.05624789
-0.21735656
0.0024099615
-0.009072584
0.005610171
0.20173557
0.11162216
0.06347751
-0.035720605
-0.11278043
-0.086481795
0.14339714
-0.095219195
-0.07409086
0.008177893
-0.0675625
-0.0229835
0.08332704
0.0149235325
-0.1512876
0.045383044
0.13639979
0.013206276
-0.02357698
0.002854268
-0.088802524
-0.09981131
0.05169122
0.112497926
0.11427621
0.019530552
-0.14810467
0.087839305
-0.31315944
-0.085429385
0.033170503
0.08607137
-0.05148586
-0.014495408
0.041273054
0.08626491
-0.043574125
-0.07518954
-0.029429046
-0.088570125
0.07818342
-0.16987301
-0.11595855
-0.037403457
0.121985406
0.009338596
-0.025382685
-0.03177663
0.046746854
-0.00848092
0.13683747
-0.007853446
-0.036619592
-0.0013173833
-0.055212516
0.07229264
-0.08569053
-0.035945762
-0.01796398
-0.060319383
-0.08548922
-0.19730148
-0.08755595
-0.0444833
-0.078376465
0.12498377
-0.17655864
-0.105568126
0.0056223813
-0.08078049
-0.0685742
0.043504063
0.24314913
0.047379114
0.04244711
0.082059845
0.1092264
0.0062941313
-0.157688
-0.13643257
-0.05939211
0.09017595
0.013574483
-0.1746721
-0.20946395
0.09979019
0.008011803
0.032943778
-0.1690375
-0.067553535
-0.022980465
-0.14037883
-0.08282723
-0.14653167
0.11137798
-0.11879672
0.21450773
-0.06647581
-0.07792992
0.057358403
-0.08552541
0.038438093
0.18680839
-0.18760747
0.14059646
-0.06804603
-0.18403713
-0.1018547
-0.097166546
-0.005332855
-0.0041926373
-0.040709194
-0.013586715
0.12239423
-0.06393625
-0.13515255
-0.00443351
-0.14296971
-0.13663475
-0.08126564
-0.15265356
0.11475236
-0.13937503
-0.054310728
-0.07384409
0.074162036
0.053496737
0.17059271
-0.035187114
-0.13851611
0.09858578
0.012629278
-0.038329333
0.1065981
0.13036418
-0.105417214
-0.18506707
-0.035380688
-0.10340763
-0.09204389
0.020749278
-0.0025714345
-0.019062346
0.07653477
0.030597184
0.11856624
-0.115325935
-0.116409294
-0.00848218
0.011227153
-0.061831366
-0.0016217554
0.09217011
0.06749144
0.031027764
0.012226587
-0.12369368
0.02112555
0.23004073
0.0049124467
0.010135445
0.11690171
0.23345903
0.0056356504
-0.07966476
-0.021609664
-0.04871966
0.056219816
-0.028324595
0.2217701
0.18657541
0.17117627
0.12180217
-0.07974997
-0.052539848
0.011795252
0.10605516
-0.222689
0.042665314
0.042881712
-0.13836452
0.15605952
0.07141808
0.08991924
0.0849559
-0.1326316
0.07540096
-0.13879901
-0.061631132
-0.10172786
0.10787382
-0.0065185865
0.07293732
0.06580732
-0.008580106
-0.12479518
-0.116478585
-0.0070236996
0.17038587
-0.22397837
-0.110905
-0.095627755
0.059915844
0.057450306
-0.025389368
0.06132341
-0.05628157
0.053920396
0.08832953
0.0033276593
-0.0625007
0.19374853
0.11043953
-0.0049803033
-0.020569539
-0.021332407
0.15818454
0.1378426
0.09603595
0.019995473
0.023555465
-0.045321252
-0.17496634
-0.06230572
-0.13424838
0.08024129
-0.06466029
-0.057260316
-0.16656753
-0.10838134
0.00044129166
0.029782962
-0.21044004
-0.004290385
0.08500204
0.04006559
-0.087010026
-0.11929717
-0.112362824
-0.047993205
0.05871836
-0.1285845
-0.119835
0.1081805
-0.07475193
0.088138476
-0.17099193
-0.082373954
-0.12051534
0.20994875
0.05195814
0.026532177
-0.020338012
0.16599968
0.15496846
0.091098726
0.012486117
-0.19829455
-0.037718985
-0.044781797
-0.03274703
