768,
-0.03814336
0.025599178
-0.2010368
0.14348195
0.17296328
-0.10448806
0.23974653
0.31737638
0.26894543
-0.03774242
-0.21719332
-0.13378918
-0.0166858
0.11986407
-0.046542417
-0.037085958
-0.06169386
0.372566
0.27303496
-0.235249
0.040210925
0.013741275
0.14993957
-0.008748243
-0.28816465
-0.04828894
-0.14626671
0.13170415
0.057696495
0.078079924
0.16891883
0.14323367
0.19676396
-0.27083802
-0.017095417
-0.22892511
0.37548986
-0.061329022
0.012291537
-0.00014344636
0.0046831537
-0.14180969
0.11795832
-0.10276371
-0.12250114
-0.25221688
0.09413879
0.24412803
0.08842377
0.28009325
0.20151068
-0.0057479865
-0.018840808
0.04019765
0.05717128
0.1877038
-0.043181866
0.07236312
-0.08245938
0.009969611
-0.18822582
0.07035575
0.3188394
-0.23912841
-0.7563915
0.12948279
0.07343358
-0.01225695
-0.2563713
-0.094662
0.13555427
-0.025063545
0.10825658
-0.12221515
0.06576394
0.0060240896
-0.089593485
-0.35347503
-0.1746962
-0.11653681
0.012474397
0.12593298
-0.05394505
-0.09481635
-0.20751338
0.011186102
0.25761914
-0.51090956
-0.061145082
-0.054759324
-0.0042530773
0.09585324
-0.12925005
0.2400348
-0.0012552473
0.047026783
-0.24121512
0.19283526
0.15342665
-0.14139648
-0.12101203
0.15098907
0.32635194
0.25327924
-0.14150953
0.08570774
0.23136918
0.13640021
-0.14372586
0.12222076
0.09325664
0.04681718
0.07684597
0.08206549
-0.18396677
0.088907845
-0.09897471
0.106292546
0.02441935
-0.14808214
0.23604323
0.112922065
0.17405824
0.07758161
0.43626934
-0.07556657
-0.08855367
-0.118533626
-0.11229817
0.0759999
-0.031415995
0.05979357
-0.1901056
0.30469987
0.43424857
0.016238494
0.007371981
-0.19312303
-0.2540469
0.081005216
0.13215546
0.186475
-0.15463631
-0.1728672
-0.36526668
0.1567714
-0.031229546
0.15664817
-0.03584631
-0.016030071
-0.24348965
0.24982333
0.4324776
0.21961771
0.18951467
0.13433918
0.19931996
0.1635484
0.2750474
-0.02391769
0.30963847
-0.073298596
-0.16255084
-0.0716507
0.12032184
-0.06878012
0.05692214
-0.17021471
0.12268207
0.12963901
-0.1466573
0.084830336
0.15973218
-0.105042405
-0.077610515
0.08341304
-0.3775938
0.18042172
0.12407569
-0.017245464
0.0923642
0.13709226
0.11226541
-0.09176585
-0.13293535
0.09145943
-0.13241039
-0.11059677
-0.068467624
0.107399225
0.22343749
-0.46891084
-0.06749826
-0.08180937
0.22810723
-0.1603293
-0.26326695
-0.19902907
0.32381967
0.035481855
0.21924809
-0.0341149
0.0875671
0.07300895
0.1395443
-0.10720466
-0.19728987
-0.077085905
-0.014804738
-0.20859832
0.067831874
-0.0022850845
0.14290231
0.10805846
0.13177484
-0.21775164
0.06923247
-0.1334861
-0.083663195
-0.07071422
-0.06527843
-0.21721278
0.1435409
-0.092345215
0.12621251
0.15472037
0.19212516
0.1635701
0.019801179
-0.12215934
0.021403242
0.2031534
0.2832887
-0.16873714
0.17956138
-0.15322846
0.06595817
-0.14719306
0.13040586
0.04665022
0.17007898
-0.13723451
-0.0452141
-0.18821372
0.037930265
0.10018391
0.04899678
0.08243404
-0.25882334
-0.20670947
-0.020531733
0.06605082
0.030144889
0.048899226
0.13833505
0.026462149
-0.2998097
0.111377
0.33417377
-0.035645828
-0.030518666
0.15504208
-0.34763134
-0.14911602
-0.3217247
-0.14176814
0.54598117
0.10664655
-0.24089839
0.04635561
-0.4466418
0.07157421
0.020511521
-0.19376968
-0.016300805
-0.026720608
0.24571565
-0.14274186
0.07231287
0.061251223
0.065675
-0.11732009
0.1658377
-0.34023774
0.20873535
-0.031979643
0.0147257615
0.21803059
0.047385383
-0.122817986
-0.14817278
0.065807045
0.33149558
-0.01679538
-0.4982656
0.04597797
0.084361784
0.0911718
0.0020119844
-0.11322834
0.161598
-0.3720596
0.12648918
0.06569482
-0.026315568
-0.2287251
-0.09145321
0.2182998
-0.33228922
0.072912954
-0.06524578
-0.30351672
0.06757317
-0.19243781
-0.4453317
-0.10068688
0.48872435
0.0809381
-0.07354442
-0.08396366
-0.20925146
-0.005847
0.26306117
0.1285599
-0.13729402
-0.05314402
0.46032724
0.025002748
0.08240419
-0.013840329
0.12216815
-0.036007237
-0.06468693
0.07528665
-0.19077535
0.0077333506
-0.25033912
-0.08902029
-0.115313396
0.048967674
-0.18848719
0.052833695
0.17361078
0.0883872
-0.09566448
0.050541136
0.21082853
0.12896673
0.07981583
-0.1671425
-0.04052155
0.037383508
0.06057037
-0.12220903
0.18752405
-0.021690052
-0.50092477
0.19676664
-0.5062756
0.15160307
-0.27060485
-0.08437121
0.25534725
0.1528005
0.18634047
-0.10199194
-0.0057972427
0.24651922
-0.05580605
-0.15157454
-0.10008266
-0.019641764
-0.2209413
-1.0767647
-0.29864284
-0.42761576
-0.112459734
0.3985361
0.24552774
0.191196
0.054408897
0.18443134
-0.042111702
0.11395164
-0.043892544
0.060759053
-0.011300046
0.034082636
0.21713017
-0.1844823
0.020593494
-0.19447716
0.1415406
0.32273322
-0.069913685
-0.057179503
-0.106337465
-0.027934132
0.1428234
-0.13051556
0.23705995
0.12440433
0.18414411
0.062075414
-0.05129158
0.08365776
-0.15651157
-0.010091614
0.40386906
0.16927749
-0.13299608
0.31057066
-0.055125106
0.21672207
0.0042085703
0.1244686
0.07024664
-0.05177658
0.08193665
0.28656325
0.004615052
0.18913296
-0.22936736
-0.19747418
-0.2578184
0.18636313
0.05853971
0.045639455
-0.13393627
0.006509649
0.4422096
-0.072944514
-0.005535211
0.15901607
0.3359769
0.21133864
-0.031201398
0.14178002
-0.116074234
-0.100960955
0.2534617
0.14457586
0.07236061
-0.012401411
-0.32370356
-0.020378085
0.09192475
1.3404064
0.07886745
0.026673606
0.20069908
0.016534977
-0.07336094
-0.24295302
0.2998612
0.25448182
0.12613422
-0.03906051
0.11475565
-0.12231294
-0.20507032
-0.011872316
0.19055746
0.052914217
0.121713795
-0.21320587
0.18319342
-0.07940523
0.05599601
-0.057638768
-0.32463637
-0.02773914
-0.09172259
-0.0945352
-0.14464186
-0.12074724
0.22767697
0.1815341
-0.19707568
-0.27437374
-0.528511
1.1129152
0.07412169
-0.16187863
-0.013519401
0.14742559
-0.09269192
-0.04259407
0.14095993
0.2186162
-0.09895647
-0.15608758
0.1034176
0.18255372
0.14975874
-0.027883627
0.76393706
-0.1490633
0.08258093
0.073295616
0.15545449
0.17723633
-0.106939174
-0.41211903
-0.30346063
-0.20468414
0.011816343
0.18646692
0.20743138
0.17825596
-0.13122751
-0.2093591
0.31380746
-0.123334065
-0.058601417
0.14560825
0.01245532
-0.07077971
0.12438578
0.19909492
-0.09754876
-0.24073459
0.084320374
0.19365834
0.05819235
-0.24836695
-0.3947374
-0.3380261
0.11429973
0.026950648
0.05515772
0.09905552
-0.11750947
-0.051982097
0.06793927
-0.1483088
-0.09263494
-0.06933448
0.023418967
-0.13666007
0.16780978
0.11837865
-0.10927444
-0.13770105
0.013134793
0.13371176
-0.027289271
0.055253934
-0.00985586
-0.21323766
-0.07317845
0.12286551
-0.04111138
-0.18449253
-0.32349995
0.21752793
0.15151076
0.16217367
0.09019858
-0.037093718
0.08949264
-0.064128034
-0.23840366
0.27409688
0.067422874
0.10560541
-0.0021592104
-0.12679015
-0.12053004
0.01593794
-0.32526937
0.040234722
0.24296393
-0.13199064
-0.13999546
0.13744864
-0.079452515
0.08556194
-0.091362976
0.0105208345
0.116835676
-0.13987888
0.04399761
0.017959932
0.17530572
0.12315085
-0.1035371
0.009545634
0.10831377
0.0049891346
-0.14329816
-0.12944107
-0.014551624
-0.12528576
0.10417255
-0.067776605
0.0361763
-0.10469655
-0.014965027
-0.13676727
-0.24408722
-0.2356587
-0.1523337
0.33304393
0.046872247
0.0015761302
0.25426167
-0.37103778
0.39171988
0.15296541
-0.2301124
-0.06789362
0.043814097
-0.20515732
0.0047038826
-0.15344927
0.11340846
-0.2223665
0.029436214
0.352001
-0.27242434
-0.15070526
-0.24957758
-0.061203673
-0.2881481
-0.08796781
-0.36115855
-0.2899439
-0.019701475
-0.09426896
-0.16827838
0.17894533
0.30548242
-0.102858454
-0.007886809
-0.18351407
-0.27881992
0.19622798
-0.025420958
0.21852288
0.45399433
-0.0047587845
-0.05443237
-0.050467584
0.059853096
-0.033782322
-0.12641427
0.08082526
0.12883005
-0.1684394
0.0366123
0.14561911
0.22725247
-0.18357329
-0.27563947
0.12675723
0.018688504
0.11198875
-0.24422888
0.06620369
0.1665887
-0.094392404
0.058943547
-0.057070095
0.0738119
0.40671957
-0.06206769
-0.12242162
0.22239381
0.38538602
0.0894609
-0.06282646
-0.035134073
-0.08783427
0.03461511
0.08490222
0.28438783
0.21721643
0.109028295
0.1271492
-0.38421038
-0.15105493
0.21807896
-0.09262294
-0.44050646
-0.31954768
-0.2306484
-0.05684418
0.24761286
-0.05116733
0.21334621
0.10086934
-0.29482388
0.16395931
-0.062869035
0.03256075
0.14373223
-0.21225715
0.14838108
0.039978594
0.14560285
0.019303752
-0.11265374
-0.4076967
0.036567274
0.06042305
-0.20729987
0.109543025
0.05102629
-0.038509414
0.13629334
-0.35795262
-0.19559129
-0.041738912
-0.027427781
0.23495682
-0.20647247
-0.066376545
0.15881626
0.07073182
0.19729365
-0.21172492
-0.057084836
-0.010427775
0.266024
0.22053991
-0.12878247
-0.17997973
-0.09471401
-0.046447422
0.061831906
-0.21316366
0.099077314
-0.103672005
0.0993578
-0.06260262
-0.32249495
-0.021391714
-0.043291483
-0.27535573
-0.16294873
0.15184647
0.084376544
-0.2629899
-0.19028452
-0.3359284
-0.11183165
0.08099519
-0.20961162
0.07270526
0.032802712
-0.093139745
0.22211361
-0.059391577
-0.17534474
-0.09262144
0.02602991
-0.1991226
0.06935673
0.16676763
-0.12445693
0.28239518
0.23895861
-0.10167402
-0.10009075
-0.17404139
-0.053099085
-0.3020856
