768,
-0.023284795
0.105635814
-0.053138375
-0.09454121
-0.0153254345
-0.085065365
-0.07138027
0.053886823
0.14111926
0.1348051
-0.070363656
-0.0036540981
0.041501377
0.07138317
-0.14332098
0.03332865
-0.02590931
-0.15808122
0.058489684
-0.10051231
0.12790188
-0.058678553
0.05914582
0.037388165
0.043436896
-0.094507694
0.054971088
0.08661973
0.013202811
0.14611332
-0.015087044
-0.067421846
-0.023575086
-0.17650618
-0.05446162
-0.07880296
0.033781815
-0.039341148
-0.0047745174
0.08766585
0.065555446
0.041522417
0.047899123
0.07339104
0.0007829874
-0.12283043
0.06383175
-0.07805656
0.05093012
-0.0019623598
0.14099717
0.031559676
-0.1745818
-0.031093594
-0.050329845
-0.039484333
-0.22179937
0.1114565
-0.06418064
0.06271892
-0.009700016
0.003509546
0.035896342
0.010519454
-0.12272615
0.13057241
-0.2201663
0.13470055
-0.017737856
-0.09035004
0.12919454
-0.11932343
0.023125654
0.037265424
-0.020245755
-0.0036518849
0.19137242
0.010198048
-0.12375601
-0.006223321
0.050597444
0.08911553
0.16011332
-0.18047978
0.103764825
-0.010533184
-0.04238338
-0.039293185
0.030022394
0.029147524
-0.03886764
0.12495157
-0.008501873
0.01769353
-0.0011708271
-0.1035701
-0.008748725
-0.04365528
0.20916283
-0.0056085493
0.073537715
0.10633829
0.07762498
0.0958304
0.01769603
0.012596941
0.09035929
0.048260294
-0.021271618
0.07019689
0.036529273
0.032565497
0.012033781
0.06364922
-0.03753159
0.13871303
-0.06344091
0.06754354
0.018356113
0.0011848677
-0.1158617
0.14508434
-0.008077793
0.031626813
0.070581995
0.09683986
-0.124825545
-0.09735141
0.11281172
0.045657348
-0.04108744
-0.012868348
-0.037624586
-0.18929811
-0.003235934
0.055269185
0.01694415
-0.03588329
0.19810751
-0.04776544
0.05385552
-0.11512292
-0.0010742098
-0.04112597
-0.11458483
-0.031327896
0.09500615
-0.04364696
0.032533396
-0.09817567
0.018068736
0.19490327
0.11079422
0.06958228
0.07494539
0.101005875
-0.123741254
0.17565198
-0.1309237
0.018175347
0.14703514
-0.05712511
-0.022640247
0.08727642
0.072953604
-0.0006596244
0.0078063286
-0.10432759
0.096933655
-0.091572784
0.061430935
0.036245298
0.04437097
0.0041037654
-0.073356465
-0.040210586
0.073482685
0.011705007
-0.045244012
0.022387564
-0.09380119
0.117595054
0.04107899
-0.029245993
0.09884111
-0.027550304
0.11557332
-0.098432556
-0.024202283
-0.21275936
-0.016375076
-0.030259658
0.13791262
-0.10947778
0.073208235
-0.038947858
-0.1427947
0.053123802
-0.06802486
0.034309424
0.048212852
-0.0462887
0.10878651
0.13833489
-0.08347741
0.07581613
-0.07336074
-0.07353532
0.10236318
-0.041680627
0.19457349
-0.06841872
-0.04263411
-0.055937693
-0.043851286
-0.044832617
-0.18166772
0.017205186
-0.011614154
-0.023453698
0.06773487
0.1719887
-0.19677679
0.19962235
0.10349174
0.114219636
-0.034899123
-0.19915982
0.049935456
-0.24480364
0.13672651
-0.07940973
-0.0028037794
-0.06821845
0.039498452
0.13231225
0.1309697
-0.13682987
0.0102963885
0.082580514
-0.073878884
0.20371415
0.08987911
-0.038142566
-0.1760219
-0.033114757
-0.10471193
0.0025044049
-0.068023585
-0.00056717335
-0.12520225
0.066293746
-0.057545755
-0.045159224
0.06520494
0.015389405
0.014348942
0.041551918
0.10605703
0.086650364
0.06744814
0.0745678
-0.1507475
-0.18333909
0.058206905
0.13435264
-0.045742534
0.040817652
-0.05157389
-0.19818528
-0.042028498
0.04880102
-0.013379164
-0.062054116
0.12545061
-0.14730428
0.042519342
-0.11009673
-0.037039727
-0.06978197
-0.022254957
-0.14792697
-0.07860667
-0.06906238
0.06583378
0.07885255
-0.0032098708
0.08373711
0.121710785
-0.15860648
-0.02838718
0.08595097
-0.059069853
-0.051976744
-0.11468215
0.176005
0.16053636
0.049015142
-0.10952288
0.023468608
0.19556653
0.0635443
-0.0073431875
-0.060660042
-0.013395889
0.01868591
0.13913268
-0.11739926
0.0772272
-0.12237842
-0.04955249
-0.0369013
0.1711849
0.029754203
0.00050593674
-0.15346555
0.12841058
-0.071371414
-0.008605179
-0.025769597
0.08002841
0.0213261
0.030746298
-0.080823705
-0.15711915
0.12683463
0.07904364
0.051341116
-0.07123901
0.03530841
0.038481057
0.10735164
-0.023983072
-0.04201275
0.10410562
-0.03788844
-0.20113082
0.043940537
-0.21052943
-0.035870124
-0.034808468
0.09733052
-0.12733583
0.0819076
0.07578976
-0.035344135
0.037165806
-0.03661862
0.04615277
-0.08327227
0.12482288
0.008418384
0.015066077
-0.042363197
0.009778873
0.07130175
-0.04088866
0.14618802
0.016046261
0.20243289
0.006893601
0.03518383
-0.0088695
0.11729801
0.08204062
-0.03293169
-0.093780555
0.0699389
-0.0658473
-0.09228128
0.036988422
0.027057294
-0.060013205
-0.66614145
-0.13551249
-0.03814905
0.0815282
0.17986178
0.050173208
0.073254354
-0.10690746
0.05708887
-0.0580041
0.14274521
-0.13556838
0.020034522
0.1085087
-0.027230466
-0.11941196
0.022707654
0.07795063
0.010062935
0.045494597
0.11588763
-0.09199677
0.019278552
0.00792009
-0.1664522
0.19718334
-0.09386686
0.06260979
0.18843287
0.04977387
0.004783266
-0.014517319
0.1601226
-0.053999122
-0.1283236
-0.063841544
0.017798932
-0.15052666
-0.05483492
0.14883414
-0.002833086
0.15438083
-0.040509105
-0.080390334
-0.09339478
-0.0077679628
0.013051855
-0.012431372
0.074728765
-0.039266765
-0.10265002
-0.009843272
0.14746927
0.07480479
0.11729266
-0.17223877
-0.19388168
0.13027935
-0.15815705
0.039869215
-0.018245906
-0.029529694
-0.004924663
-0.11552229
-0.14105588
0.09514594
-0.044551563
0.04916966
0.04003999
-0.09748949
-0.08957613
-0.082243666
0.055204447
-0.031074507
1.86375
-0.04865025
-0.08729436
-0.021284526
-0.014777193
-0.009595797
0.07980501
0.062222827
0.20582558
-0.007826033
0.010484439
0.02677413
0.012142869
-0.0060046013
-0.07229142
0.115780346
0.12778135
0.00010700246
-0.062273502
0.013371632
-0.09983381
-0.0028097099
0.023926632
0.1931286
0.042059556
0.050546013
-0.1201579
-0.07352266
-0.100500174
-0.026440194
0.09105345
-0.03020087
-0.022817614
-0.0035720945
0.10470308
0.03046097
0.007757902
-0.039705556
0.11586205
-0.11131685
-0.15183985
0.03982109
0.10362878
0.012771097
-0.0905474
-0.12181289
0.12719277
-0.028152628
-0.13009846
-0.03475473
0.045705106
-0.06670327
-0.0017536345
0.08213053
0.01998368
0.04241129
0.02406371
0.09881889
0.21420139
-0.025566282
-0.030577118
-0.03466076
-0.030280877
-0.14539108
-0.025026284
0.0015511439
-0.10239275
0.05428569
0.009581506
-0.07608138
-0.0580023
-0.057791553
-0.0032782005
0.1216502
-0.15720479
-0.012241132
-0.09881961
-0.0054587
0.09871471
-0.20441987
-0.13185512
-0.033032946
0.03585836
0.07405042
-0.0436812
-0.07963599
-0.0017847241
-0.026448341
-0.13513178
-0.18646234
0.15379387
0.057489634
0.043675955
0.043885596
0.13131787
0.009274545
-0.03981031
-0.054717287
0.22750738
-0.060435575
-0.034851916
-0.15526377
0.058720306
0.046979032
-0.01701482
0.110618204
0.003812282
-0.17573659
-0.030729234
0.025425527
0.16317736
-0.029140761
-0.041222043
-0.027672298
-0.117932186
0.030045357
0.060247187
0.16480434
-0.061161272
0.027653433
0.018013725
0.031243816
-0.03970855
0.04263588
0.0020787336
-0.022085795
0.2463011
-0.2509007
0.13875335
0.03266201
-0.04051927
0.0048995204
-0.20661338
-0.14719473
0.12852447
0.023051675
-0.023925807
0.012325577
0.05963143
0.16028638
0.11559678
0.15420252
0.16039993
0.020605639
0.03185576
-0.03839258
-0.13723738
-0.06540722
-0.1608077
0.027513286
-0.14689118
-0.02270875
0.01579756
0.055532094
0.10256763
-0.05909192
-0.04263975
0.17294404
-0.10377836
-0.003721922
-0.010732905
0.05859159
0.06774449
-0.0646177
0.14293435
-0.05810837
-0.051757596
-0.014154944
-0.037520386
-0.021037258
-0.13911748
0.03951848
0.057165235
-0.14560777
-0.010368407
0.08326901
-0.11530518
-0.10489414
0.0039268904
0.015386022
-0.10585349
-0.0026325379
0.19581382
-0.16560593
0.1493072
-0.011159178
0.088530995
-0.0489057
-0.08850883
-0.12097772
-0.08828362
-0.046603315
0.010380428
0.06444478
0.05959495
0.005338019
-0.16817982
-0.040411096
-0.006862521
0.04359124
0.001935123
0.13147521
-0.080319956
-0.035256222
0.00896425
-0.02770606
0.016050223
-0.07151886
0.18234292
-0.08170272
-0.0037245152
-0.15731455
0.11832814
-0.03263329
-0.025787104
0.09531647
0.09427115
0.02489785
0.17948906
0.11485242
0.06788196
0.027612738
0.035543658
0.018555231
-0.027280346
-0.016849207
-0.07641218
0.010185767
0.00782368
-0.056735948
0.09024692
0.037892383
0.18495029
0.04947967
-0.021121014
-0.05587397
0.022428297
-0.062810265
-0.06869802
0.035096463
-0.005691894
-0.09166474
0.0628424
-0.01138371
0.17293696
-0.07157896
0.040680584
-0.10406799
-0.07809647
0.10551331
-0.11657137
-0.1167831
0.082292974
0.037475243
0.14408803
-0.057675548
0.0987264
-0.11110729
-0.055229202
0.01200797
0.015454822
0.06737328
0.040421102
-0.090759605
-0.02859185
-0.047625538
-0.052482508
0.008587422
0.05666034
-0.22503376
-0.047425084
0.09174956
0.16061361
0.10113957
-0.02257736
-0.082903676
0.03127671
0.09865631
-0.09693396
-0.0031986635
0.078145705
-0.104065545
0.08734117
-0.017406475
-0.09919718
-0.0021123379
-0.017693732
0.08442296
0.093386024
0.01885392
0.049875457
-0.054339558
-0.120213196
0.05329123
-0.06469988
-0.022002533
-0.07390376
0.07196147
-0.06646357
-0.122776635
-0.03866741
0.0868104
0.022058826
-0.0012250037
-0.15174462
-0.03028092
0.038718097
-0.035587076
-0.20265104
-0.07066114
-0.036366902
-0.03468606
-0.051784113
0.06940172
0.020051023
-0.113848016
0.01943816
-0.11881927
0.101097725
-0.008776046
-0.04484099
