768,
-0.023140883
0.046085432
-0.05529907
-0.20081061
0.08537401
-0.22550838
-0.04982255
0.010045197
0.06068508
0.08422703
-0.018429533
0.046717044
0.11916001
0.06661194
-0.14380653
-0.01791145
-0.06147632
-0.09321388
0.09454739
-0.061443474
-0.023234555
-0.091360554
0.030221991
-0.057265952
0.013731971
0.07133247
0.12274465
0.0058168676
0.0077105206
0.10568658
0.0880816
-0.032089964
0.000120601544
-0.15314904
-0.0029545135
-0.08598973
0.006339188
-0.09989577
0.0311659
0.08938765
0.072276026
0.071933344
-0.014640354
0.007766979
0.025390359
-0.06410676
0.15246113
0.0055126282
0.088524394
-0.08133937
0.10899849
0.09596134
-0.07361456
-0.024380138
-0.057964854
-0.085335545
-0.059311684
0.0038689717
-0.095313236
0.05123727
0.02261859
0.06995766
0.008423719
-0.008519776
-0.3521969
0.023222705
-0.12662597
0.066879146
0.037884578
-0.03809125
0.10263939
-0.026427893
-0.012850218
0.024807848
0.075863265
0.010886594
0.08914795
0.010364084
-0.0200113
-0.09899755
0.053024493
-0.023094395
0.10628128
-0.08875316
-0.09663397
0.0037425712
-0.021525519
-0.0056220293
-0.019162547
-0.015723981
0.007853578
-0.11899539
-0.10286214
0.03035703
-0.0653306
-0.24666049
-0.113341466
-0.1210326
0.03778645
-0.007437044
0.06609637
0.055712856
-0.0005778244
0.014463979
-0.03922459
-0.010979816
-0.029484672
0.105314784
-0.08288375
0.020338206
-0.016550673
-0.032110386
-0.043865573
0.09308759
-0.0078109666
-0.085230894
-0.0060599553
-0.061316893
0.042006586
-0.041426547
-0.02952394
0.091152504
-0.04035053
-0.07399107
-0.042208847
0.017149424
-0.111051336
-0.092236
0.07036695
0.00070392434
0.039878156
-0.13292553
-0.005080012
-0.119038396
0.076549776
0.06028357
0.06653044
-0.014351884
0.18362817
-0.09629362
0.075971395
-0.05762718
0.012704747
0.045771237
0.0077340007
-0.06048669
-0.010772666
-0.04916047
-0.08976133
-0.08544401
-0.043427076
0.13506846
0.006534302
-0.041349545
-0.012591278
-0.047599543
-0.05142821
0.14336008
0.073791094
-0.015495303
0.012221789
-0.05228181
0.011601083
-0.017355964
0.048323337
0.02252527
0.05990215
-0.005945984
0.06782471
-0.05711594
0.27089843
0.036155358
-0.013953109
-0.042801812
0.09828893
-0.024914013
0.09128079
0.0545388
0.013807484
-0.020842606
-0.08241335
0.010897899
-0.009873166
-0.025534159
-0.046493843
-0.0068056667
0.15071975
-0.004674933
-0.002050019
-0.15616089
-0.04418201
0.04446431
0.02897162
-0.050235957
0.053419445
0.027876329
0.20841475
0.009957646
-0.19372495
0.0642447
-0.028906127
0.0025670566
0.0626964
-0.027002765
0.0020043484
0.063569464
-0.08815325
-0.0271129
0.13341989
-0.0020281554
0.012665206
-0.040488254
0.011865432
-0.022960084
0.025305038
-0.101581186
-0.069829434
-0.014026282
-0.019189881
-0.0981862
-0.055829793
-0.0017420636
-0.033068255
0.14788646
-0.01620755
0.019148469
-0.1068437
-0.11295325
-0.0034120688
-0.17155439
0.18205674
-0.103194796
0.0012235824
-0.01105256
-0.11333527
0.066434644
0.004184241
-0.062150963
0.018480245
-0.005109266
0.01383035
0.045659672
0.114365675
-0.0037787824
-0.06536246
-0.15654622
-0.026208822
-0.025514701
0.01905006
0.103088506
-0.058895323
0.041390706
-0.1282823
-0.092274636
0.042889565
0.018110843
0.03552409
0.16671541
0.06746062
0.015516562
0.09628415
0.03744936
-0.06613701
-0.14764675
0.08057876
0.06030204
-0.32137144
0.010820723
0.023302807
-0.17504221
0.0016535551
0.065200344
-0.08568683
-0.022291005
0.044477567
-0.08603035
-0.006361879
-0.19718769
0.14704247
-0.09895113
-0.13833074
-0.10104675
0.047787473
-0.0802171
0.045990907
0.056649655
-0.033563435
0.05800653
0.20103726
-0.12258011
-0.0071151326
0.0891592
-0.059320293
0.044796422
0.016368523
-0.029505625
0.0541845
-0.009419811
-0.1029056
0.049375933
0.057103533
-0.013808899
0.07568314
0.009915035
-0.034068882
0.11609008
0.08250242
-1.6960106e-05
-0.08958477
-0.026514497
-0.014780001
-0.116683654
-0.084422104
0.03498248
-0.004453657
0.010102404
0.065417
-0.0011526853
0.052373115
-0.012621434
0.11248397
0.056563016
0.102680884
-0.004343416
-0.04864037
0.109885655
0.14436007
0.07895626
-0.067390986
0.073429674
0.02747084
-0.021072725
0.10155931
-0.09811277
0.006318042
-0.03397043
-0.11046313
0.042907536
-0.067512184
-0.024350302
0.033269346
0.021538801
-0.095312364
0.059033137
0.051355228
0.026783101
0.13373333
0.101127066
0.05824877
-0.020333908
0.047138378
-0.010421256
0.090537995
-0.0708008
-0.012997268
-0.035046406
0.03955381
0.04620502
0.035848647
0.15366961
-0.01415689
0.045639437
-0.04976722
0.13675873
0.118066214
-0.07062876
-0.07173551
0.07242399
-0.05743148
-0.055544727
0.004669796
-0.024328103
-0.09825686
-0.6990936
-0.041302267
-0.005425857
0.035534687
0.025486117
-0.14735347
0.04710184
-0.05917083
0.027094027
0.026380032
0.08073072
-0.0024595067
-0.055202466
0.009663924
-0.060093574
-0.09924011
0.027096665
-0.036912944
-0.063806444
0.023186482
0.023469372
-0.017166704
-0.013865152
-0.0016395154
-0.10843707
0.12924054
-0.050208047
-0.009434599
0.074574456
0.11471096
-0.06649342
-0.12146677
0.07299779
-0.053401653
-0.14271894
-0.019262314
-0.02800095
-0.042836647
-0.01985075
0.08278946
0.02174722
0.09370495
0.0025241917
-0.0714105
0.050382927
-0.1523696
0.09422945
-0.0031217327
0.09412414
0.059126046
0.12805475
0.028655289
0.043186188
0.05432192
0.0055199186
-0.023268454
-0.14683232
0.0046069883
0.06957178
0.083552994
-0.006636838
-0.1455087
-0.0112543255
0.05360034
-0.1604906
0.11272692
0.018939288
0.046588384
0.10831614
-0.018909281
-0.08683109
-0.05253983
0.08131598
-0.10232714
1.5943774
-0.03489616
-0.09117478
-0.010551291
-0.034622274
0.081556
0.05959293
0.16593644
0.18947826
0.06664675
0.047134362
-0.08537101
0.00021525407
0.15190166
0.0032558362
0.13784093
0.09119425
0.001983304
-0.007019239
-0.016684597
0.01545916
0.07389885
0.09182223
0.077967204
-0.04513857
0.0960029
0.016683593
-0.049644645
-0.11590076
-0.045042805
-0.1011883
-0.0077806986
0.001365891
-0.09838776
0.057855897
-0.02960431
-0.01650851
-0.0091048535
0.0025534136
-0.03586723
-0.14596602
-0.0053303307
-0.005528654
-0.004241008
-0.048970457
-0.05115894
0.08411302
0.12803677
-0.078832775
0.056958675
0.025504254
-0.07195036
-0.062323816
0.14355955
-0.036391027
0.049328707
-0.017016701
-0.04011031
0.04284975
0.017398475
0.022059636
-0.065679975
0.054349914
-0.018922571
0.065543786
-0.015641017
-0.13118717
0.08731771
0.053770754
-0.050401963
-0.08848938
0.0029284447
0.11216625
-0.020554282
-0.025041297
0.018087978
-0.062445976
-0.044810887
0.056504
-0.07244306
-0.06512517
-0.02992381
-0.018086903
0.10933136
-0.017590234
-0.05049302
0.16808078
0.026551578
0.031051552
-0.12184403
0.117672525
0.06647376
0.09432089
0.09963916
0.06877137
-0.08728817
-0.029116774
0.12232024
0.07135741
0.007586357
-0.073519945
0.040791046
-0.009122083
0.192037
0.001043695
0.121264964
-0.038694195
-0.11276893
0.044565238
-0.0073997234
0.0009905768
-0.019822208
-0.028674973
0.13691399
-0.023979148
-0.25373948
-0.15666531
0.015905596
0.0027359885
-0.036272317
-0.042987544
0.08039086
-0.012198948
0.020454714
0.058048658
0.0023813494
0.27127463
-0.03407913
0.092261136
0.077462055
0.039095756
-0.11821634
0.098082654
-0.12930626
0.11601882
0.0032648474
-0.06299243
-0.1297462
0.12263655
0.04803944
0.08225503
0.09760444
0.07604449
0.008100597
-0.016316356
-0.0038306967
-0.051001027
-0.14307569
-0.11792412
0.0138446195
-0.0014440501
0.023850106
-0.056642395
0.04636203
0.04549736
0.0073944465
-0.02581958
0.1767539
-0.06413122
-0.03331541
0.063067384
0.047110766
-0.011022568
-0.08066743
0.06411343
-0.034971483
-0.08729288
-0.11116937
-0.041301385
-0.06786811
-0.010743088
0.03134904
-0.10217811
-0.15544677
0.080183394
0.09916348
-0.07363111
-0.082097284
-0.13966443
-0.107743844
-0.14157666
0.0255131
0.087005936
-0.12508865
0.10456722
-0.09102456
0.059067897
-0.0030854184
0.034456547
-0.064839035
-0.11774797
-0.06810191
0.009340284
0.0098124975
0.082759105
-0.014449026
-0.15148617
0.021428294
-0.082843155
0.010204538
-0.029760398
-0.01128599
-0.087919585
-0.15100516
0.020197786
-0.011237926
0.048863523
-0.0014813172
0.12615536
0.02761528
0.13384748
-0.124133125
0.08687181
-0.003982129
-0.10243216
0.011050223
0.04256016
-0.06860304
0.120273866
0.054678224
0.06765791
-0.041472536
0.038303144
0.1004891
-0.040382795
-0.06989152
0.051167842
-0.085081816
0.061300192
-0.1446574
0.029051425
-0.048128523
0.12804823
-0.0003328037
0.022831032
-0.036420062
0.0064544086
0.06364596
-0.038119514
0.1438396
0.07603075
-0.031867117
-0.011908218
-0.08170911
0.090789184
-0.09200991
-0.014962807
0.014317498
-0.0071854796
0.10736919
0.055287473
-0.09106539
-0.023539038
0.016327448
0.056825653
0.050404344
0.0483131
-0.12075394
-0.0036935853
0.034872506
0.044196095
0.103801295
0.07767165
-0.108381
-0.036393117
-0.08054811
-0.078488775
-0.019983048
0.10461426
-0.11797652
0.084561676
0.022292811
0.109871246
0.02980451
-0.0017956097
0.0030246635
-0.062425
0.0516167
-0.063408025
-0.001748113
0.17871556
0.085143656
0.025066582
0.04034073
-0.11454795
-0.009751521
-0.051941544
0.08484118
0.014940263
0.042719867
0.079178095
-0.044229243
-0.04761751
-0.0091874795
0.050601076
-0.040434122
-0.044018622
0.10512983
-0.12326474
-0.09035019
-0.1188229
-0.1346373
-0.038575653
0.046565473
0.03669299
-0.06371006
0.054324843
0.0054912614
-0.06391785
-0.046583213
0.008459208
-0.18361723
0.08236782
0.04810972
-0.020647684
-0.053702835
-0.061971627
-0.035291716
-0.012778171
0.088309616
0.08010059
