768,
-0.026485208
0.034666047
-0.050015878
-0.019116856
0.032513104
-0.15945612
-0.02703104
-0.042620957
0.12489676
0.07989449
-0.045803376
-0.016461335
0.17571677
0.10273858
-0.119393565
0.07520305
-0.08327038
0.035676822
0.072554894
-0.0948944
0.088330515
-0.0020600837
0.009284823
0.016262993
-0.040638603
-0.003224576
-0.00039622982
0.11360545
0.022975344
0.23798136
-0.021186534
-0.16755208
-0.09105831
-0.11464868
-0.004159054
-0.05355901
0.11703011
-0.08176268
-0.012338824
0.105147295
0.055938117
0.056683503
0.026153274
0.08374709
0.004808271
-0.20746388
0.12700203
-0.043600917
0.009795153
0.12433117
0.10372462
-0.009850835
-0.24820738
0.026838424
0.047509402
0.029295934
-0.1414895
0.053322233
-0.15363552
0.03361105
0.009557259
-0.04911693
0.025946008
-0.056849737
-0.26704016
0.15112904
-0.19822888
0.085094936
-0.03475091
-0.11370706
0.1476315
-0.16418569
0.031890523
-0.001859594
-0.07160156
0.09148599
0.15421377
0.019401781
-0.14274453
0.027095
0.087968186
0.103735246
0.05395589
-0.19462839
0.04221682
0.014193597
0.026992034
0.015279884
-0.058525227
0.029660452
-0.02620255
0.11294708
-0.005910245
-0.0988678
-0.03034234
-0.10975096
0.013024134
-0.02195622
0.27094084
0.00999014
-0.010847014
0.07838165
0.116566904
0.105628714
0.12100512
0.0048576235
0.10718186
0.008530969
-0.06338058
0.0808238
0.017645082
0.06681815
0.055948745
0.12672442
0.017526288
0.09439164
-0.10840688
0.003812868
0.03404304
-0.0020284036
0.044546828
0.19108142
0.005913113
0.13903247
0.07862904
0.059656393
-0.0810813
-0.15081975
0.12637044
0.07135391
-0.16162652
0.004584756
-0.010031824
-0.15866728
-0.058901336
0.011618214
0.07092517
-0.032050386
-0.16360125
-0.0397109
0.08453068
-0.06728745
-0.047480565
-0.049226504
-0.091509424
0.048546538
5.462223e-05
0.04102651
-0.069116145
-0.06255291
0.023505423
0.18379469
0.13751155
0.06462049
0.029237224
-0.00769934
-0.048356824
0.0891626
-0.059009522
0.05934852
0.24733385
-0.06762163
-0.046638276
0.17710836
0.16962937
-0.05003556
-0.11109918
-0.18660605
0.060119346
-0.0063451077
-0.0014554276
0.024133736
-0.079863235
0.000496438
-0.034915198
-0.11483426
0.1046901
0.014329607
0.008585885
-0.010175483
-0.0605841
-0.02278546
0.04252032
0.009261782
0.0146183735
-0.14395559
0.10434028
-0.12804487
-0.035359103
-0.1390248
0.04222691
-0.076618485
-0.007846039
-0.11567234
0.06870042
-0.18110302
-0.07552558
-0.019265499
-0.056504164
-0.06463463
0.05981908
-0.1208407
0.038362548
0.15738669
-0.062693544
0.004799953
-0.041081846
-0.06804774
0.061574105
-0.11350465
0.25619265
-0.06596274
-0.040436946
-0.027633574
-0.031628806
-0.12310131
-0.119945146
-0.03821689
0.063221216
0.016588105
0.0317914
0.11670474
-0.08982642
0.178426
0.020351963
0.14384252
-0.04054389
-0.15465946
0.032849487
-0.2161081
0.13557537
-0.06040708
-0.012207399
-0.074330114
-0.0012958578
0.18464896
0.13645169
-0.10556558
-0.08414889
0.13468604
0.004551029
0.14873165
0.018880283
-0.06014528
-0.068576105
-0.050646182
-0.06443381
0.074389935
-0.022415083
-0.038584895
0.053513642
0.055164535
0.11065613
0.01673057
-0.028646216
0.03821937
-0.017739693
0.047489442
0.03143946
0.07048586
0.16539726
0.15475616
-0.1352537
-0.17131118
-0.024964998
0.029761048
0.12006318
0.057471786
0.026490133
-0.118702635
-0.14367045
0.031005593
-0.00935448
0.0056831925
0.18218717
-0.10313641
-0.033817973
-0.035846088
0.057616185
-0.15885127
-0.023520315
-0.17266792
-0.019229706
-0.11391422
0.09793686
0.076299995
0.052234214
-0.01173736
0.07064657
-0.23202129
-0.01058442
0.05804877
-0.054317843
-0.0026300207
-0.06382163
0.09462966
0.070975505
0.12991047
-0.17495728
-0.041394632
0.16983724
-0.020215908
0.015847156
-0.039497044
-0.07447527
-0.0210165
0.101154335
-0.079791546
0.006760451
-0.015071238
-0.1197277
-0.09253713
0.23407541
0.069736056
-0.15653223
-0.10757725
0.08337023
0.065773256
0.04604734
-0.10090033
-0.050715655
-0.03934985
0.04869728
-0.07905472
-0.11604577
0.12846775
0.09011718
-0.037000667
-0.06211553
-0.0037156628
-0.030810205
0.13096498
-0.05727373
-0.0008980204
0.1151291
-0.026599582
-0.26230633
0.011645539
-0.1864434
-0.022152986
-0.06644076
0.011810872
-0.1157927
0.08720903
0.1461331
-0.06267866
0.04972275
-0.061619855
-0.0075987047
-0.027895281
0.08925196
-0.009834237
-0.002549629
-0.09944614
0.040430773
0.01939866
-0.04476137
0.09323376
-0.013444172
0.10033868
-0.06535049
0.08681322
-0.011581674
0.07238427
0.076105215
-0.05363952
-0.01838713
0.14343233
-0.002898356
-0.008336786
-0.009981512
0.04278752
-0.07104297
-0.71200573
-0.09246595
-0.11007776
0.024416277
0.1902532
0.27243277
0.114009775
-0.13608755
0.063095614
-0.0817235
0.08486514
-0.12531565
0.05597422
0.16043088
-0.02759273
-0.09918979
0.00040858026
-0.022872074
-0.04904233
0.012659512
0.23581977
-0.12520082
-0.083879955
0.16688377
-0.09735634
0.12660047
-0.11320362
0.058765136
0.20577651
0.11600401
0.08418381
0.05473406
0.10751298
-0.0030289483
-0.13574058
-0.015636763
0.044280976
-0.08735064
0.036840715
0.058319744
0.07433926
0.17990804
-0.044297177
-0.049537055
-0.0682095
0.009571425
0.09705013
-0.031598072
0.084384605
0.010370148
0.05506692
0.029885957
0.11621837
0.025981748
0.10840412
-0.20713222
-0.099095866
0.11011901
-0.010659504
-0.084886804
0.023166465
-0.016406043
0.008053629
-0.18307044
-0.03354828
-0.05470741
-0.06633417
-0.0510414
-0.053110227
-0.1317603
-0.08021733
-0.1585628
-0.045299873
-0.11951023
1.2525707
0.03778735
-0.03591397
-0.0053344825
-0.025421975
-0.07283156
0.059245184
0.12136808
0.15588455
-0.045604162
-0.040341407
0.041961044
-0.05416443
0.094810836
-0.07941889
0.08639594
0.07815522
-0.0062479125
-0.046567947
0.031100245
0.07740523
0.006956616
0.036948096
-0.01503939
0.073381044
0.0022934722
-0.14012557
-0.0971043
-0.0356777
-0.046805486
0.015644293
-0.027419666
-0.03050132
-0.008474452
0.4075634
0.02851253
0.04766559
0.017428055
0.015948407
0.011471949
-0.124657564
0.012543519
0.027213212
0.02541819
-0.1408372
-0.11669388
0.0788293
0.03120077
-0.008501711
0.0058305073
-0.037132893
-0.056795284
-0.039045002
-0.010072086
0.02776844
0.02850309
0.08609939
0.050976984
0.092996985
0.006896958
-0.044948716
0.010430591
0.017041253
-0.1809164
-0.039460585
0.10269064
0.018272286
0.057030085
0.11127501
-0.075907156
-0.015870215
-0.003787362
-0.045782607
-0.048699435
0.00056311843
0.11238177
-0.030087594
-0.024778787
0.093249545
-0.2439804
-0.17284949
0.052383084
-0.10008754
0.18007863
-0.06504352
-0.05886983
-0.040030725
0.048697025
-0.10920746
-0.100799724
0.10562293
0.027434882
0.024605826
0.050555177
0.12424923
-0.011328336
-0.03691011
-0.07496637
0.22574888
-0.05960205
0.05641063
-0.18635428
0.042679388
0.012434782
0.07934782
-0.06332975
-0.025902627
-0.22765045
-0.0076663145
0.013755331
0.14284237
-0.047195736
-0.021271842
-0.017117951
-0.17356303
0.11198138
0.039420586
0.20493123
-0.011485387
0.10091044
0.010328132
-0.0073663834
-0.101842105
0.006162279
0.016097277
-0.00341962
0.14505328
-0.26186705
0.15142608
-0.082067825
0.103659205
-0.038698606
-0.1526365
-0.08470207
0.05060427
0.05429657
0.019737883
-0.07710067
0.05577897
0.06379572
0.16656582
0.038577
0.19053158
-0.11163888
-0.013475514
0.011847342
-0.09203806
0.029143788
-0.11154145
-0.041794233
-0.10158956
-0.04374852
-0.09359116
0.05367202
0.012451902
-0.16215286
0.009383594
0.17432356
-0.08160514
-0.009844622
-0.071117476
0.08270669
-0.030393908
0.034232732
0.07667112
-0.0789662
0.060083516
-0.05171914
0.018105838
0.089304104
-0.09247503
-0.057369873
0.024542347
-0.09839994
-0.15264301
0.09116619
-0.110701226
-0.081242226
0.02993647
0.054551695
-0.09142182
0.042187486
0.16325396
-0.09485322
0.23188177
0.008783697
0.068246126
-0.030348197
-0.019107768
-0.1369239
-0.07964081
-0.022402413
0.07364758
0.15059228
0.056527633
0.0048696795
-0.2514287
-0.006209608
-0.019790748
0.062811494
-0.06415827
0.11882466
-0.106229484
-0.0028327194
0.09455069
-0.1095977
-0.03166885
-0.06668774
0.14818433
-0.13804789
0.015882488
-0.11694729
0.07027363
-0.06480633
0.010506249
-0.0010791557
0.031192727
0.09511912
0.057648636
0.113247536
0.14847049
0.101851955
-0.0030900724
-0.07200299
-0.10780021
-0.09644908
0.041111313
0.24780475
-0.022187272
-0.072286725
0.06803971
0.044665456
0.15010722
0.020508757
-0.044070467
0.04053066
0.040768184
-0.03137174
0.03428591
-0.012574141
0.016192613
-0.071637705
0.007610339
0.08147121
0.109908104
0.0022463244
0.12872997
-0.11698959
-0.052269626
0.1450163
-0.059829094
-0.0960369
0.0616124
0.031981
0.1692777
-0.054980393
0.12152492
0.058107354
-0.02365765
0.046849176
-0.037312593
0.054488573
0.00988909
-0.05345719
-0.10326176
-0.062749095
-0.074234046
0.0018660212
0.099920005
-0.21161152
-0.047291413
0.1428392
0.19795331
0.002103771
-0.11114059
-0.03910252
0.008078153
0.064795904
-0.061594397
0.002319685
-0.083536364
-0.13856335
0.09966383
0.050822042
-0.12981373
-0.11250766
-0.033342846
0.06759707
0.10398908
0.03011286
0.0902396
-0.025073206
-0.14023146
-0.0020587288
-0.050706167
0.009380585
-0.09528739
-0.012270792
-0.13546905
-0.11170655
-0.029623812
0.009269663
0.0035509788
-0.024365796
-0.096732005
0.061074395
0.060387515
-0.05404248
-0.078324884
-0.015683748
-0.10300579
0.028642893
0.12526184
-0.0044143274
-0.036577947
-0.14263687
-0.086258166
-0.046313107
0.1290733
-0.024539668
0.0073244018
