768,
-0.05897606
0.15732403
-0.08401918
-0.043562435
-0.00050543714
-0.15412287
-0.017296316
0.013370298
0.1816735
0.14976366
-0.033649568
-0.12340114
0.11543205
0.11791994
-0.16670309
0.031976417
-0.09725514
-0.13734259
0.052211534
-0.19777817
-0.0168693
-0.0924084
-0.041709308
0.049537685
-0.009489343
-0.061544936
0.05507334
0.101324365
0.09503704
0.27676952
-0.04178016
-0.091992244
-0.13981661
-0.18259884
-0.1035541
-0.14653401
0.18813208
-0.06648774
0.03131069
0.13543437
0.109294936
0.14545846
0.061922953
0.15241587
0.039137647
-0.24481304
0.15264663
-0.07562746
-0.023199132
0.07672686
0.20747884
0.069639474
-0.22475155
-0.018202078
-0.014995946
0.061576307
-0.3088118
0.11688901
-0.16051067
0.07767567
-0.10928686
-0.012519917
0.08133386
-0.08629286
-0.028607666
0.1300921
-0.27984276
0.15582412
0.030729078
-0.20459086
0.2150649
-0.21234982
-0.05245288
0.044004902
-0.006175193
0.032859266
0.22534472
-0.04321045
-0.21840777
-0.031895187
0.07983089
0.17306112
0.1652812
-0.28450212
0.07142508
-0.06952215
-0.011253732
0.023920326
-0.0020332353
0.04575779
-0.04256526
0.1479058
-0.088801764
-0.0076063345
-0.01523099
-0.04353828
0.0017582445
-0.0061476645
0.34525797
-0.0945634
0.14929716
0.06330681
0.037091084
0.18314771
0.15812057
-0.032842144
0.1258424
0.10125299
-0.009544665
0.0864516
0.042912055
0.138282
-0.0068286443
0.17250103
0.0048245452
0.1818939
-0.1251377
0.02768405
0.08003006
-0.049997065
-0.12567466
0.22374904
0.12129603
0.03359912
0.09269302
0.14414233
-0.07784971
-0.15722176
0.14853512
0.0895244
-0.09195052
0.020309595
-0.12433363
-0.16496104
-0.05232659
0.075240195
0.0854755
-0.10623007
0.055421613
-0.019776331
0.1184516
-0.07150672
-0.15208688
-0.039813817
-0.16142417
0.047395974
0.069861144
-0.04364476
0.01696536
-0.12504478
0.08615146
0.35106248
0.15478706
0.062348254
0.09239276
0.09344981
-0.09773514
0.13715988
-0.037938133
0.13528913
0.24809055
-0.10720261
-0.11946765
-0.005298188
0.17759348
0.020856144
0.007681524
-0.2948497
0.014611626
-0.09124105
0.01034415
-0.020166682
-0.0629663
-0.085891366
-0.1005816
-0.083098166
0.17365295
0.019675177
0.008737576
0.010610814
-0.09336806
0.02847935
0.10367606
0.025039257
0.08664663
-0.10049563
0.036332615
-0.12512471
-0.01997899
-0.17000167
-0.02200011
-0.116888374
0.0056390283
-0.13185312
0.07461096
-0.2969274
-0.047990784
-0.004677777
-0.032311667
-0.11173354
0.077221155
-0.13209435
0.15738001
0.19909474
-0.16376689
0.045754924
-0.107099816
-0.013570629
0.15200543
-0.046610788
0.22237684
-0.088787585
-0.01576366
-0.058301434
-0.12643294
-0.21565048
-0.19789274
-0.03567807
0.0041622636
-0.024429567
0.10226868
0.20998095
-0.25577292
0.20885389
0.042149346
0.18362765
-0.014218721
-0.34710497
0.01861994
-0.29539648
0.19801162
-0.14882357
0.02408488
0.018146385
0.0707333
0.19237106
0.18397035
-0.14870632
0.042821202
0.14769204
-0.021433325
0.24381869
0.071242094
-0.092270546
-0.03353885
-0.026057545
-0.14625232
0.14518856
-0.09740657
-0.0015155163
0.02953735
0.040091924
-0.020077424
-0.028166559
0.09867041
-0.006048504
-0.044164013
0.039178126
0.21593326
0.08151045
0.13760692
0.10966006
-0.14788827
-0.20664729
0.0102593405
0.0733691
-0.14546022
0.04698533
0.017577257
-0.22023295
-0.16981193
0.0467672
-0.037761193
-0.1272145
0.256512
-0.17686471
0.0027408088
-0.09821916
-0.04974805
-0.09786223
-0.10375777
-0.20657101
-0.071198665
-0.18428956
0.13924848
0.13719448
0.07159118
0.022213941
0.1902702
-0.2996375
-0.061366916
0.10717215
-0.015570815
0.07719071
-0.18579409
0.21871442
0.079700574
0.13745917
-0.15097971
0.0055604633
0.2730762
0.100498624
0.11201862
-0.043626826
0.00304969
-0.1367571
0.12210236
-0.13316889
0.10925559
-0.09131624
-0.12596592
-0.13700584
0.23598333
0.04208081
-0.13910635
-0.112632334
0.142745
0.0050266604
-0.027020244
-0.015291949
0.041801788
0.039050926
0.08140766
-0.064554155
-0.18042693
0.18637007
0.14221385
-0.03126678
-0.09038061
0.04824156
0.019677624
0.05052973
-0.092910975
0.04490704
0.09820954
-0.00096511736
-0.27770004
-0.019161234
-0.17490973
-0.067203954
-0.08348971
0.11326024
-0.17934631
-0.012529578
0.15127167
-0.069813766
0.032727983
-0.1008665
0.05397347
-0.013614849
0.1632652
-0.035450827
-0.035505127
-0.03891286
0.10043697
0.08368637
0.0024648667
0.1306375
0.099640906
0.18695773
-0.030558972
0.032628506
-0.018792342
0.16221656
0.05861731
-0.09361389
-0.071566306
0.08618193
-0.17878447
-0.023095585
-0.019360404
0.1049722
-0.1950966
-0.6683073
-0.031003235
-0.07367684
0.017335832
0.18995282
0.13343038
0.14003488
-0.0771282
0.22393773
-0.1146986
0.23145589
-0.2038319
0.09912646
0.16645586
-0.07154465
-0.092853315
-0.054217648
0.037356656
0.019262105
0.09378647
0.2401836
-0.056756195
-0.112074554
0.17303407
-0.14403176
0.2566592
-0.102478206
0.049613856
0.28946555
-0.03883742
0.034898117
0.044002667
0.120288104
0.012924399
-0.16703798
-0.028517293
0.08501218
-0.23537052
0.09015727
0.10048957
0.10987639
0.20637837
-0.017597666
-0.07141679
-0.11318305
-0.05396492
0.026909411
0.0014140047
0.078968406
-0.09488585
-0.056908507
0.058890622
0.21258074
0.05603315
0.14634123
-0.20983446
-0.18725313
0.25366458
-0.17770639
-0.07173301
0.03131679
-0.08828507
0.005652808
-0.20369366
-0.14234927
-0.0015182993
-0.07931535
-0.011796928
0.03394324
-0.11362651
-0.1395812
-0.15776661
0.037611183
-0.022412553
1.5685914
-0.04370078
-0.036030285
0.048538268
0.10375803
-0.12936506
0.076197885
0.054782707
0.22594394
0.052966982
-0.09740474
0.087387815
0.001314551
0.13095355
-0.058305524
0.19527103
0.160369
0.00210579
-0.09490436
0.03429767
-0.0006853612
0.040706098
0.07065435
0.10877912
0.0527875
0.09316029
-0.26636657
-0.13619111
-0.048000995
0.03706807
0.1618271
-0.025431648
-0.03677515
0.01683135
0.26462272
0.0377937
0.041851703
0.0038338762
0.012479719
-0.063404195
-0.20055099
0.0772014
0.11594663
0.100909814
-0.13625206
-0.18597485
0.09591775
0.029753285
-0.002650854
-0.050900254
0.03974101
-0.07049467
-0.053847373
0.0626317
0.08287864
-0.018026808
0.0488899
0.2071459
0.16882212
-0.023828067
-0.0717401
0.075184554
0.055531453
-0.17460865
-0.103318974
0.15977131
-0.028675422
0.02939627
0.022830848
-0.10101027
0.00067904097
-0.07677844
0.012931055
-0.049132276
-0.16838217
0.041386016
-0.052228965
-0.024980742
0.11191326
-0.38274562
-0.24657403
-0.033507846
0.006514093
0.14794426
-0.09314457
-0.07203722
0.00188525
0.042378128
-0.06547767
-0.19708811
0.17947084
0.054084986
0.08888999
0.020855447
0.10552881
-0.0002589034
-0.082680814
-0.15178032
0.33121905
-0.03734521
0.02542972
-0.21249817
0.10379866
-0.025095822
0.08921844
0.09920998
-0.03777659
-0.29135206
-0.06272758
0.11978234
0.20133406
-0.042109534
0.0014527695
-0.030870354
-0.1552077
0.06649641
0.0863089
0.2348825
0.015145095
0.06467296
0.03116044
-0.009258775
-0.074609235
0.0022259674
0.028181987
-0.0849718
0.19545902
-0.3468934
0.104573205
0.00582687
0.04010845
-0.078065485
-0.23079786
-0.121479735
0.105542675
0.0641597
0.00219395
0.012143903
0.051646285
0.17362888
0.21395446
0.11127786
0.23443426
-0.07526764
-0.053195145
-0.0016861858
-0.12718388
0.04714799
-0.1768031
0.025268363
-0.19036612
0.02129742
-0.025540795
0.033153467
0.07094488
-0.20562953
-0.01431509
0.2298685
-0.17086676
0.005186761
-0.099808104
0.13970186
-0.011131897
0.04190738
0.1394792
-0.17762876
0.023725245
0.0016116402
0.022906132
0.106597714
-0.1253956
-0.089235425
0.039362386
-0.26118237
-0.09250165
0.118817165
-0.18846089
-0.2002088
-0.009415937
0.05719378
-0.13896626
-0.030914787
0.20881045
-0.1634739
0.23821345
0.07814122
0.057200473
-0.047942486
-0.18131398
-0.09944304
-0.037304156
-0.051731527
0.0639116
0.24322343
0.07664366
0.0047576623
-0.26993468
-0.087931536
0.022282524
0.06568345
-0.055558905
0.17901559
-0.20124586
0.05883683
0.059505343
-0.12284692
-0.005726045
-0.16731845
0.16018097
-0.18006788
0.01605362
-0.14843561
0.0833153
-0.07521318
-0.0032099374
0.035445783
0.017831469
0.150561
0.23516284
0.10905142
-0.01905258
0.104794085
-0.029404536
-0.042305414
-0.019349096
-0.05648563
-0.093416356
0.23317051
-0.10391372
-0.06139526
0.054189306
0.13494596
0.30013993
0.016273288
0.0061673257
0.040027067
0.03783109
-0.0783287
0.0037244994
-0.05958904
-0.00805528
-0.13403176
0.06746959
0.06333304
0.2884093
-0.11218181
0.15116954
-0.15312652
-0.087940186
0.09543403
-0.12262745
-0.16296853
0.1564798
0.0065978738
0.18095629
-0.055034567
0.10326909
-0.038243413
-0.024358548
-0.017133279
-0.063707344
-0.0038072588
0.051030543
-0.071805686
-0.040342636
-0.11263105
-0.04808447
-0.003994117
0.1916233
-0.27677813
-0.03713794
0.20703234
0.23168325
0.09900729
-0.16228475
-0.17567325
-0.0083350465
0.0845449
-0.093052074
0.052710544
-0.014889721
-0.18470748
0.12833162
0.041074943
-0.18583728
-0.16018589
-0.07127102
0.0978494
0.13173549
-0.033925522
0.039634086
-0.05324171
-0.15723512
-0.048225246
0.024858579
-0.026620394
-0.10637882
0.041168157
-0.21135448
-0.17501102
-0.021086881
-0.0030822295
0.053166956
0.08410678
-0.20585023
-0.033137187
0.10612075
-0.080015294
-0.18728314
-0.02083036
-0.118199125
-0.006053693
0.033883274
0.06909124
-0.024600556
-0.07262405
-0.03261872
-0.21715346
0.11779643
-0.09386878
0.04156303
