768,
0.0030234614
-0.0034503634
-0.05022025
0.14456828
-0.061383385
-0.18525146
0.053822998
0.096212395
0.22644995
0.13868244
-0.10454719
-0.044520784
0.1720727
0.13456888
-0.08831684
-0.024468385
-0.031328265
0.12339051
0.05578334
-0.06627967
0.12010461
-0.0059912964
-0.012475112
-0.009132567
-0.1251427
-0.031068731
-0.079012774
0.10679207
0.023926347
0.1913019
-0.07669996
-0.00037170757
-0.022119716
-0.12196515
-0.0061663655
-0.0039684363
0.17010942
-0.080834016
-0.06381058
0.012830626
0.0088126175
-0.012976889
0.040620714
0.1745819
-0.027947998
-0.29885542
0.09165203
-0.020974683
-0.1252197
0.15111269
0.16476974
0.0019634035
-0.25099283
-0.021580607
0.10304481
0.12644976
-0.19508423
0.01284988
-0.1326297
0.034147535
0.01644302
-0.07915818
0.07366121
-0.20386255
-0.12437668
0.13150269
-0.33003128
0.108371526
-0.013657551
-0.09703472
0.14889371
-0.22332501
0.13394344
-0.09991417
0.08902725
0.13626203
0.1055824
-0.07900112
-0.1445701
-0.07290587
0.052865382
0.13180357
0.055875845
-0.1811673
0.04823153
0.046841234
0.18014497
-0.036764055
-0.059849832
0.0610116
-0.13443165
0.19359194
0.010050149
-0.13737746
0.06844397
-0.0020397014
0.105160005
0.03360881
0.2565555
-0.08450975
0.06303905
-0.0819786
0.1334218
0.10928014
0.028844403
0.090364225
0.19853845
-0.023815213
-0.10319613
0.12989792
-0.07141791
0.051516462
0.1154389
0.20000248
0.05665065
0.16427006
0.040950418
0.04307367
0.036972895
-0.12250748
0.23912734
0.11406383
0.17333367
0.18660526
0.09429416
0.111108005
-0.06661188
-0.20707509
0.016007705
0.18722859
-0.119730905
0.04621093
0.028298251
-0.045035627
-0.06881809
-0.08130779
0.06359329
-0.096419334
-0.31459954
-0.019122848
0.08201411
-0.081906736
0.0020192843
-0.09096394
-0.21064109
0.076675504
-0.029241404
0.07062983
-0.20249437
-0.07769162
-0.05265587
0.17891185
0.06493883
0.056637414
-0.048043456
0.009649236
0.03778219
0.116525315
-0.012031919
-0.028669233
0.12801608
0.055859268
-0.05496414
0.16593876
0.16436268
0.036241334
-0.16783187
-0.17917594
-0.027361663
0.03760288
-0.13629743
0.06936988
-0.08302055
-0.018992584
-0.11275579
-0.07596623
0.20022902
-0.06974286
0.047733102
-0.081464544
-0.05926563
-0.045171425
0.08649742
0.05413199
0.0049960692
-0.057738785
0.010478554
-0.10026353
-0.003709568
-0.023532612
0.16754399
-0.100229405
-0.051623203
-0.14333087
0.121411934
-0.19728535
-0.19355074
0.019425483
-0.014346002
-0.036338817
-0.018628528
-0.22033997
0.030121591
0.09662197
-0.021920485
-0.018775012
-0.12825067
0.021986708
0.014841405
-0.24604063
0.16074426
-0.09046804
0.045447636
0.037008602
0.13874578
-0.13313504
-0.058509856
-0.077841155
0.09728414
0.033057336
0.101874165
0.019861469
-0.059176307
0.17933346
0.0058534425
0.10856934
0.01775591
-0.1664333
0.07244685
-0.16872971
0.17846398
-0.09847653
0.040025514
-0.13102698
0.021423722
0.1007223
0.22270052
-0.1284103
0.04882409
0.15574917
0.028964581
0.1343009
-0.0044853794
-0.2348685
-0.25141913
-0.01165664
0.036492154
0.16717584
-0.0965945
-0.10145433
0.1020294
0.17924836
0.067231014
0.03117266
-0.02082859
0.09711359
-0.09405594
-0.07064113
0.108789496
0.06700624
0.13364112
0.22061883
-0.092568316
-0.1193578
-0.16139117
-0.047697555
0.25181097
0.11525878
-0.030083982
0.04853894
-0.2561347
0.033936985
-0.038870793
-0.052849524
0.17816637
-0.055131283
0.069617115
-0.031739324
-0.028228689
-0.03371208
0.0010630435
-0.20760867
-0.023117574
-0.12510946
0.060414005
0.081824556
-0.04505748
0.027171295
0.09529925
-0.21466124
-0.010803484
0.004731145
0.07636575
0.010472344
-0.21650505
0.18171977
0.097370364
0.13313867
-0.18066959
-0.10764815
0.2239031
-0.1238926
-0.027551422
-0.026951099
-0.1000793
-0.11747039
0.13640378
-0.0029741204
-0.03580431
0.05270465
-0.219861
-0.12894484
0.32624534
0.0988177
-0.27488846
-0.0801038
0.13638774
0.036084477
0.08620263
0.003553389
-0.18041223
-0.0056006643
0.04810329
-0.059505705
-0.16016577
0.084116854
0.09796452
-0.10337399
-0.021023568
-0.009841932
0.15887746
0.028730359
-0.08750501
0.002013499
0.0023485722
-0.048625853
-0.27240586
-0.04365169
-0.16368663
0.010736771
-0.16639537
0.13566275
-0.09077879
-0.034116533
0.090397865
-0.098015286
0.109002285
0.030822184
0.04822819
-0.027070474
0.11490422
-0.0057825036
0.057340838
-0.20895158
-0.10132698
0.11284238
-0.101061195
0.15999919
-0.007529496
0.06962574
-0.120576754
0.0062577105
-0.02745543
0.19133545
0.112450756
0.062100835
0.0038524428
0.19349302
-0.0057535255
0.08480819
-0.07714819
0.046533454
-0.08128112
-0.7255769
-0.13474777
-0.15582563
-0.057085525
0.041914787
0.5217782
0.12273941
-0.26154116
0.06808717
-0.089994565
0.21157488
-0.17029127
-0.009758013
0.10642559
-0.024451522
-0.045697838
-0.023860658
-0.034942474
-0.114222676
-0.09523461
0.22752447
-0.113884404
-0.16006936
0.21750297
-0.06771356
0.14917369
-0.17246456
0.064630136
0.1866372
0.20668459
-0.010448473
0.057014287
-0.023083318
0.014092817
-0.1374669
0.054025475
-0.01490768
-0.06430358
0.1071386
-0.021092303
0.048652653
0.21577428
-0.020987922
-0.084125005
0.045170464
0.052280363
0.14591065
-0.029354943
0.12068386
-0.027044915
0.0048370874
0.12215859
0.20528318
0.11583165
0.0882302
-0.2629232
-0.080899455
0.14588517
-0.016434144
-0.1777381
-0.0019886787
0.015555104
0.039284218
-0.16715515
0.066836804
0.039454453
-0.04894912
0.12492826
-0.005834022
-0.1249738
-0.059351504
-0.05283259
-0.15095244
0.04722782
1.0042924
0.12899584
0.014472029
0.06736629
-0.0036866155
-0.029227206
-0.18269916
0.0993781
0.22905424
-0.079495445
-0.01740578
-0.07397547
0.059315648
0.06926674
-0.16884662
0.07793145
0.13705263
0.06280516
-0.114866264
0.05662288
0.118685864
0.06433907
-0.029865935
-0.10156842
0.09219161
-0.023053803
-0.19702132
-0.19650745
0.11116786
0.0044303956
0.109657414
-0.067003794
0.054794326
-0.010701882
1.1770071
0.08194214
-0.08310264
-0.057698313
0.0984845
0.03632698
-0.11189739
0.07862851
0.07283581
-0.066840105
-0.08576353
-0.1372387
0.13907626
0.10824278
0.07083803
0.031497363
-0.04136773
-0.039497916
0.005162492
-0.07691113
0.015831076
-0.015291307
0.11850962
0.02598699
0.14316997
0.025248978
-0.0008911483
0.08026524
0.040208004
-0.20125198
0.01680161
0.26340315
0.05240555
-0.06126874
0.020780565
-0.034729682
0.021472793
0.14312242
-0.007971193
-0.05223768
-0.04721539
0.11548932
-0.021634655
0.010468067
-0.041432157
-0.1518662
-0.036953557
0.21714695
-0.06540503
0.117318936
-0.019277802
0.016426602
0.0019398214
0.06054235
-0.06380204
-0.019838655
0.04157683
-0.016954217
0.103875116
0.0954655
0.010370165
-0.06314681
-0.08621311
-0.10339323
0.16638047
0.0003558196
0.05356378
-0.16679385
-0.0030653686
-0.029925784
0.12829049
-0.019652158
-0.05679356
-0.20395316
0.0028371818
0.0077850632
0.053322256
0.05094773
-0.04747311
0.011928628
-0.20454785
0.061797887
0.0707057
0.16845673
-0.018662121
0.114488505
-0.06404416
-0.023710838
-0.07756449
0.0005180882
0.012046439
0.14040707
-0.054666
-0.22363348
0.18100518
-0.16158365
0.081802174
-0.060250983
-0.22892502
-0.109484665
0.042708438
0.01217144
0.057156663
0.066306934
-0.032108538
0.055043086
0.11201189
-0.046669725
0.17455433
-0.13833052
-0.004046954
0.09773924
-0.10835657
0.19009638
-0.2619194
0.058159135
-0.20210071
-0.007859921
-0.14982797
-0.022094594
0.024674674
-0.19088455
0.10131372
0.14749244
-0.13585605
0.011356521
-0.11696104
0.083744
-0.036166158
-0.05229142
0.00041928122
-0.22210713
0.034847643
-0.16158184
0.10165854
0.10894353
-0.10098966
-0.06319306
0.041290194
-0.23225766
-0.11412542
-0.0532394
-0.20518546
-0.1018079
-0.07081192
-0.08322053
-0.055984385
0.1470921
0.12506385
-0.06705535
0.2801165
0.07539253
-0.061045963
0.07235584
-0.06372478
-0.18208763
0.07083482
-0.109895386
0.07237023
0.18472975
-0.014140365
-0.009093556
-0.27139995
0.12207591
-0.07056549
0.050476566
-0.017483195
0.10046307
-0.04728993
-0.020750357
0.05417794
-0.06211343
-0.11369331
-0.1846346
0.11827204
-0.19044179
-0.044016954
-0.09903503
0.06540463
0.035566993
0.031320598
-0.050705485
0.1406077
0.11201741
0.12810254
0.038233496
0.026099786
0.1478855
0.01659017
-0.059106827
-0.25921103
-0.07218661
-0.028316246
0.22826391
-0.020627666
0.02924167
0.20332935
0.032172486
0.08144303
-0.00848207
-0.11900877
0.09070872
0.035336472
-0.10246948
-0.00034558403
-0.090201244
-0.015668394
-0.021747531
0.084658146
0.24204426
0.11004144
-0.08927925
0.097306594
-0.17820515
-0.056675054
0.109190136
0.080259725
-0.02531297
-0.035874628
-0.0341896
0.142632
-0.04961988
0.03578272
0.14762485
0.05898579
-0.07357124
0.010342654
0.094591126
-0.019530598
0.012080324
-0.21308805
-0.017584175
-0.06906005
-0.18663274
0.0115776025
-0.35391158
-0.06911976
0.0885033
0.18926102
0.07649204
-0.051600743
-0.05901507
-0.022312418
0.07058321
-0.00994167
-0.021298077
-0.22287384
-0.15558925
0.01788711
0.017464943
-0.11462691
0.04518485
-0.0006167774
0.10179887
0.030466868
-0.13300298
-0.035284095
-0.07885294
-0.20117536
-0.17223148
0.0011932045
0.011563347
-0.12634888
0.051692467
-0.069713004
-0.1203455
-0.1052097
-0.10112111
0.04229931
0.05437502
-0.10424122
0.05082926
0.01187431
0.017275484
0.055570636
-0.0022061816
-0.06263078
0.05051642
0.29738766
-0.11997576
-0.010270718
-0.12610313
-0.14586282
-0.031199012
0.029524548
-0.0121437
-0.016667271
