768,
-0.058768757
-0.015128297
-0.12703998
0.17182615
0.022109818
-0.19016193
0.03357242
0.10733612
0.1492648
0.006173817
-0.15037026
-0.10702076
0.13010089
0.10653955
-0.047799673
0.04299131
-0.034297273
0.21129933
0.07235789
-0.087341994
0.0010162398
0.078566976
-0.059699703
-0.06985926
-0.16281636
0.007498757
-0.16893181
0.03992776
-0.02861514
0.13345705
-0.07931345
-0.07916101
0.012042335
-0.192702
-0.12864745
-0.019764367
0.22606133
-0.06784804
0.036736127
-0.10474915
0.02328875
-0.10269705
0.027894279
0.14309704
-0.10512846
-0.21977575
0.13514453
0.04654655
-0.1417236
0.14713635
0.17423542
0.034675207
-0.13016339
-0.108917505
0.14502418
0.20393752
-0.15733449
0.04223998
-0.11223147
-0.081954636
-0.009832724
-0.1280797
0.03526016
-0.1782798
-0.19591717
0.11301008
-0.2296536
0.025435567
-0.059253555
0.027749874
0.12652057
-0.12887545
0.059776235
-0.051972937
0.12766473
0.07032445
0.014374276
-0.12484255
-0.11273234
0.042301916
0.07720954
0.25128573
0.1001548
-0.14620729
-0.009248717
0.058278598
0.17071217
-0.031801466
-0.12636322
0.018447269
-0.063902736
0.1792751
0.0013434076
-0.094283365
0.027342416
0.010053227
0.018924301
0.028742379
0.1964793
-0.09232501
-0.09988789
-0.038376488
0.21041575
0.11168673
0.018560242
0.021821328
0.21614885
-0.06402963
-0.007731741
0.16264999
-0.10446775
-0.0050986446
0.055824436
0.20224631
0.07422899
0.13155767
0.041933097
0.01926597
0.044231392
-0.079141565
0.23099624
0.1149822
0.16479759
0.11436382
0.14812925
0.13107884
-0.11652174
-0.2051493
0.012129599
0.10260198
-0.1422683
0.030950164
-0.026763273
0.073041365
0.01869439
-0.044567335
0.12339483
-0.067681
-0.28511363
-0.054403096
0.12564744
0.009323165
0.04135142
-0.09509053
-0.23921083
0.07570984
-0.0022278863
0.068767995
-0.21144211
-0.14404795
-0.058354538
0.08730598
0.09157731
0.037639223
-0.009933829
-0.028253576
0.058018785
0.03376673
0.01911597
-0.13631815
0.09982803
-0.0024520268
-0.043157585
0.18607146
0.09883849
0.059011113
-0.16511199
-0.10552552
0.050004527
0.07332008
-0.17801158
0.08121086
0.059751656
-0.045913275
0.0050966903
-0.18041772
0.05329209
-0.040537458
0.005630928
-0.08963158
-0.03979143
-0.0526427
0.048361436
0.031825423
0.0026284975
-0.076143526
0.030124044
-0.1367923
-0.0912542
-0.04973546
0.15186433
-0.06880746
-0.023222419
-0.10224632
0.058104903
-0.120327
-0.28751254
0.0005344484
-0.00041134428
-0.016187834
0.07622323
-0.21537727
-0.04268696
0.15291798
0.024832288
0.08913884
-0.12598841
0.0012807383
0.015907012
-0.15537114
0.013691487
0.005607056
-0.010637517
0.011626227
0.057793137
-0.029137408
-0.022144832
-0.09628949
0.07556753
-0.04529367
0.069269046
-0.017070297
0.024163207
0.08958647
0.0018388483
0.102874324
0.012610271
-0.042420194
0.09791773
-0.15377137
0.12005186
-0.077869564
0.07814652
-0.054496385
-0.036114063
0.09789754
0.08998233
-0.04952812
0.030769046
0.028649574
0.12046349
0.02377987
0.03285534
-0.21651188
-0.20945774
0.06372411
0.01779325
0.17406558
0.0008545651
-0.06126911
-0.024446404
0.1855745
0.07348688
-0.011203479
-0.043420553
0.07532322
-0.14779703
-0.13026214
0.14440067
0.01858793
0.0707877
0.27551854
-0.11580364
-0.14875084
-0.23262501
-0.07981543
0.22365525
0.10122646
-0.089331165
0.06443573
-0.2767606
0.014555601
-0.05389052
-0.091035604
0.13853349
-0.06202394
0.11216965
-0.04525305
0.0024855498
0.015326839
0.060592666
-0.18591128
0.021778995
-0.10553026
0.11847664
0.042642683
-0.0853589
0.107345015
0.06508336
-0.17321506
0.03124606
0.053686824
0.118266955
0.019770969
-0.15053219
0.078056864
0.15817802
0.16075885
-0.1094896
-0.11212259
0.07290469
-0.20690535
0.0052616564
0.10644185
-0.096805476
-0.12887616
0.08456569
-0.00012237513
-0.13739963
0.1980584
-0.1579256
-0.13062325
0.21060666
0.052682843
-0.39564136
-0.12768134
0.12842508
0.074314795
0.035640173
-0.06635498
-0.13406138
-0.041482776
0.09842106
-0.031615462
-0.043812927
0.026275879
0.12735714
0.004879863
-0.047588725
0.07508037
0.20390843
-0.03361733
-0.10929352
0.03333619
-0.011806699
-0.015770871
-0.28418237
-0.011071537
-0.13586287
0.02476508
-0.21580154
0.028944578
-0.06260552
-0.07560015
0.08137223
-0.089529194
0.004048438
-0.0040094745
0.009999879
-0.13425945
0.11105417
-0.0032714983
0.029609354
-0.1970833
-0.09886246
0.057464723
-0.1669864
0.18781902
-0.096659355
0.14386219
-0.08109004
0.16029182
0.03985895
0.21409649
0.16742752
0.05326198
-0.028366912
0.03533529
-0.016813105
0.022281084
-0.053662986
0.042385418
-0.046209
-0.8267791
-0.092653446
-0.22728148
-0.08060174
0.071655154
0.34757924
0.1523169
-0.121621706
0.022558887
-0.100510806
0.17071803
-0.12843053
-0.07712344
0.00023322867
0.039671827
-0.058027875
-0.065995105
-0.054983106
-0.12148873
-0.06073396
0.22568794
-0.037335165
-0.036774866
0.18372795
-0.06458539
0.16862303
-0.17037901
0.066172495
0.080071025
0.2218936
0.016820626
0.0427978
0.034852058
-0.0686251
-0.00991949
0.22144793
0.052885402
-0.08417805
0.069827154
-0.043831382
0.0567385
0.18748605
0.09782408
-0.070214644
-0.028080134
0.0520715
0.14484248
0.009426117
0.15600541
-0.02653398
0.04519701
0.08744011
0.16953138
0.1652868
0.11179763
-0.18141451
-0.07937213
0.16776624
-0.0172789
-0.21423484
-0.015037185
0.085992835
0.003380507
-0.14001197
0.066420555
0.07558605
0.010489505
0.10710399
0.031776365
-0.11602533
-0.09943379
-0.08283273
-0.22400787
0.11395562
1.0329529
0.036246553
0.01648645
0.09757157
-0.014698669
0.06600657
-0.13969886
0.14905372
0.26189855
0.026834536
-0.010718822
-0.08012292
0.02390113
-0.013664212
-0.2445988
0.06066126
0.11665908
-0.020623531
-0.13970463
0.0011907595
0.048882645
-0.012981292
0.04747649
-0.024208928
0.021889633
-0.030174773
-0.13388285
-0.20546845
0.03748352
0.00081211835
0.17459379
-0.09986951
0.049558684
-0.01608348
1.220271
0.16643254
-0.10375692
-0.005993295
0.17346993
-3.6016936e-05
-0.02067058
-0.0074344873
-0.0010151219
-0.0035178505
0.002846628
0.010332611
0.19522172
0.20232
0.06251818
0.12623958
-0.09794866
0.036485262
-0.08669208
-0.009018778
-0.036922224
-0.007378275
0.079041116
-0.05646789
-0.017389415
-0.11945436
-0.055713482
0.060973022
0.11234528
-0.20325929
-0.09585751
0.19016188
0.052981965
-0.083205745
0.07847754
-0.0655132
0.1228664
0.043118704
0.03442638
-0.02316765
0.049700134
0.113557026
-0.07683179
0.0025401728
-0.107665785
-0.11810031
0.01905502
0.1363536
-0.12281913
0.07664193
0.014566803
0.036925092
-0.06502002
-0.066345334
0.06596126
-0.06433842
0.0187722
-0.026439011
-0.001159605
0.11294616
0.016181247
-0.088826895
-0.12511864
-0.14308363
0.19659783
0.05895144
0.07375153
-0.12838207
-0.042147107
-0.09872202
0.16849172
-0.06812027
-0.1334131
-0.15663512
0.0008296423
0.08952358
0.07018755
0.06707112
-0.08707045
0.14737463
-0.105571076
-0.18619342
0.08635156
0.22703277
0.011995965
0.06552172
-0.019073194
-0.038538467
-0.025005449
-0.08596845
0.061669387
0.10925559
-0.07260235
-0.14800449
0.061748486
-0.22960722
0.0031678847
-0.056593396
-0.10660705
-0.03910965
0.021421427
0.06343271
-0.018625867
0.12275411
-0.09100153
0.019430976
0.03332747
-0.046425965
0.19181287
-0.14645755
-0.017365973
0.10545631
-0.06521843
0.18726344
-0.19612053
0.029527195
-0.06829685
-0.0713613
-0.15687452
0.030408338
-0.09051469
-0.13739118
0.21893853
0.18687972
-0.057703346
0.07045674
-0.2559381
0.14261548
0.0077587855
-0.048227698
-0.036001477
-0.14824173
0.036964297
-0.105109274
-0.0019951381
0.15783538
-0.07657674
-0.033760916
0.10470464
-0.18986297
-0.09936888
-0.019493632
-0.23156737
-0.07681079
-0.12868837
-0.064330816
-0.104425296
0.1666736
0.08240447
-0.12333869
0.2604332
0.06506379
-0.08156453
0.08164517
0.052301057
-0.022490012
0.04562742
0.05192379
0.07115208
0.14724855
-0.01525905
-0.018378437
-0.21625642
0.15326048
-0.07222523
-0.056951303
-0.0075823236
0.06524347
-0.061361678
-0.042305764
0.049981862
-0.010693834
-0.22043258
-0.179605
0.11751169
-0.05644606
-0.061906107
0.039602898
-0.016048254
0.0778211
0.06547326
-0.060149577
0.14739816
0.050661005
0.19010201
0.096012175
0.0133138085
0.06365195
0.06609038
-0.022606341
-0.10446922
-0.13061939
0.052568786
0.10363504
-0.032097083
0.22066332
0.20202371
0.05892275
0.09709616
-0.052520785
-0.1675082
0.1075176
-0.034350395
-0.21031946
-0.07970908
-0.061714623
-0.14368562
-0.05039571
0.12140763
0.35349375
0.050782073
-0.10906456
0.17086002
-0.14660938
-0.05995242
0.052228123
0.0976233
-0.0118274875
-0.05326969
0.014883491
0.12638138
-0.020916555
-0.03263205
0.14428928
0.054383352
-0.0498071
-0.018972222
-0.011838722
0.054536145
0.007251079
-0.18759242
-0.016722022
-0.04438128
-0.111770764
-0.006680667
-0.21610759
-0.082290575
0.12723531
0.15376137
0.04642249
-0.11471634
-0.076444566
0.026861522
0.09287164
0.0849514
-0.03247239
-0.20462738
-0.06302861
0.042305585
0.016563786
-0.21403843
0.09836235
-0.11333467
0.050957877
0.09686666
-0.11642755
0.046736617
-0.036432102
-0.1696852
-0.1402927
0.028365579
0.019956924
-0.18195836
0.07695751
-0.059995007
-0.15546745
-0.06574876
-0.08457822
0.020552585
0.11012927
-0.116467245
0.11295654
0.013463418
0.060956303
0.02703397
-0.055513497
-0.07031006
0.06361703
0.2760952
-0.07223882
0.1189332
0.004415986
-0.11407035
-0.03661066
0.03256352
-0.022657031
-0.05987436
