768,
-0.03278391
0.10676195
-0.020738142
0.03296746
-0.015854258
-0.11419514
0.018057847
-0.05837648
0.19097567
0.11427831
-0.063088864
-0.047898006
0.17753616
0.06485943
-0.11543455
0.035528086
-0.056273248
0.12605292
0.03104118
-0.11868118
0.13801095
0.052400626
0.0026396923
-0.021639282
-0.11593217
0.026673025
-0.073807284
0.17244019
0.046936203
0.23367147
-0.023216551
-0.12534577
-0.106103785
-0.139046
-0.016955437
-0.08356799
0.23297085
-0.056266803
0.03161951
0.032333624
0.07596027
-0.01422401
0.055186424
0.13155936
-0.018411063
-0.29344916
0.15854883
-0.109520145
0.017188845
0.16499373
0.15863758
-0.022856602
-0.24583052
-0.01284354
0.043478154
0.1348075
-0.17539813
0.017897777
-0.15009591
0.0143571505
0.01681529
-0.05756165
0.05141858
-0.09905951
-0.11100057
0.18526134
-0.23441793
0.07353816
-0.026419206
-0.017994279
0.14500904
-0.23918256
0.057165556
-0.08012261
0.0042664027
0.1150051
0.10530838
0.03335135
-0.14478183
0.0013484625
0.07826489
0.12065426
0.035275538
-0.22249869
0.03134096
-0.03244238
0.14338666
-0.026781097
-0.015917521
0.0519461
-0.08577512
0.17400354
0.037133627
-0.10279624
0.02747523
0.039382376
0.09747694
-0.07639664
0.24767211
-0.023159398
0.03997247
0.03191705
0.11760435
0.08481986
0.09679963
0.03975253
0.24746846
0.034353547
-0.115659036
0.040042922
-0.0027174146
0.08267094
0.03889666
0.17585352
0.064498454
0.12520991
-0.011077934
0.04705464
0.063674025
-0.08033634
0.16162275
0.17690217
0.08752165
0.22665687
0.08285851
0.10684002
-0.125749
-0.23160696
0.04069402
0.11566339
-0.16589229
0.0900196
0.04378243
-0.10831232
-0.09809591
0.0464652
0.057785876
-0.10042982
-0.28504533
0.019955115
0.04616046
-0.009464396
-0.08927554
-0.11956919
-0.18408464
0.080643065
0.062397156
0.11417878
-0.13015808
-0.048394393
0.004078597
0.22683935
0.16056867
0.06866717
-0.032694317
0.03180093
0.041449003
0.090409055
0.041285045
0.002126914
0.24893464
0.0021208788
-0.018813368
0.18809317
0.17647147
-0.05371982
-0.13437162
-0.22725964
-0.018186267
-0.03970624
-0.033626076
-0.023480415
-0.08724269
-0.0394207
-0.041138303
-0.12788899
0.17283146
-0.075495236
0.02070021
-0.055442978
0.011053982
-0.05235181
0.090838835
-0.03342242
0.11442599
-0.08023531
0.095990986
-0.064529225
0.06866028
-0.117769636
0.0660746
-0.07497017
-0.08212838
-0.10366095
0.08137742
-0.24640529
-0.09298707
-0.00967069
-0.040588148
-0.028648525
0.011456571
-0.23613845
0.034795858
0.1527806
-0.0877066
-0.061267797
-0.10871389
0.021953862
0.052860055
-0.23032497
0.17947184
-0.0106544895
0.010805159
0.077866
0.09038524
-0.1259852
-0.082284994
-0.07902014
0.114958204
0.024065103
0.050944824
0.06823747
-0.08296795
0.16838276
0.024868894
0.14077118
-0.030234229
-0.16522168
0.008359362
-0.20587404
0.1459184
-0.06828513
-0.04166625
-0.04998531
-0.0020772517
0.19870943
0.14457405
-0.15194371
-0.04259072
0.13171765
-0.053589735
0.18950692
0.010274182
-0.13316323
-0.21932101
-0.066890255
-0.003969806
0.18139622
-0.012730137
-0.02673044
0.05034363
0.13086946
0.05079702
0.07515457
-0.051732104
0.16084974
-0.039510306
-0.02785418
0.12985693
0.047858145
0.17292966
0.17447372
-0.10248363
-0.19523653
-0.048278406
0.059695814
0.16755652
0.073314965
0.04883096
-0.0119842095
-0.20217752
0.026937058
-0.063609175
-0.089939885
0.185476
-0.09524272
-0.013851832
-0.05764427
-0.007858659
-0.052661147
-0.03279814
-0.15294951
-0.06110892
-0.13623135
0.11948185
0.13239491
-0.051715616
0.023459123
0.078904815
-0.27740675
-0.039470665
0.027013248
-0.013839015
-0.070802964
-0.13480085
0.21345273
0.14638223
0.13703479
-0.16090743
-0.079629235
0.21241692
-0.13423307
0.03506137
-0.010650119
-0.070993654
-0.15351881
0.06595764
-0.029594244
0.012774015
-0.010925441
-0.18514453
-0.13379732
0.29478177
0.071154736
-0.251737
-0.12281007
0.11315763
0.05497691
0.08379614
-0.04286803
-0.13855147
0.023522481
0.026851213
-0.0064435867
-0.23889042
0.10792651
0.08987897
-0.06795498
-0.075447455
0.061513748
0.0033399488
0.08453473
-0.08123639
-0.01971598
0.06247977
-0.027181352
-0.33774504
-0.047624152
-0.20006943
-0.010161895
-0.07072798
0.01932679
-0.057639405
0.06113056
0.06421704
-0.10540953
0.010193647
0.07258428
0.009557779
-0.099406004
0.12573737
-0.009481843
0.00972721
-0.15788683
-0.024067366
0.1054341
-0.07310619
0.09140754
0.0079567125
0.08004619
-0.079644464
0.006470769
-0.06662074
0.1418911
0.12126078
0.05525517
-0.022197165
0.18335982
0.011107399
0.009663531
-0.10141869
0.06297789
-0.061710954
-0.67573375
-0.18788789
-0.13147855
-0.02233749
0.13991863
0.49121377
0.09746341
-0.15882793
0.12359928
-0.08473511
0.057287533
-0.1447899
0.023914032
0.15532894
-0.011754233
-0.08823585
-0.08158071
-0.006954846
-0.1136007
0.0041840468
0.30557725
-0.08432291
-0.12070221
0.1472531
-0.044243168
0.09542724
-0.13049394
0.056316547
0.18997325
0.1779561
-0.02777792
0.07284684
0.087152034
-0.010347658
-0.12053411
0.026132941
0.08418078
-0.0126122115
0.1360263
-0.019930786
0.051161114
0.16973764
-0.049720544
-0.07732556
0.01226086
0.022705404
0.119371675
-0.009434686
0.04508936
0.006924299
0.05501893
0.045379594
0.056958612
0.14009815
0.07670385
-0.23408657
-0.04908454
0.13321993
-0.04557563
-0.1673226
0.016952043
0.05817617
-0.002326165
-0.21980648
-0.007491706
-0.0401536
-0.09535184
0.0720704
-0.016146978
-0.10273753
-0.004451899
-0.15645295
-0.058845434
-0.11667696
1.0459483
0.11868434
-0.08059679
0.0029838919
-0.0048922016
-0.016814899
-0.028987136
0.14604177
0.22435343
-0.09379842
-0.051099412
0.006089836
0.08002824
0.097555734
-0.14866579
0.1158075
0.086374745
0.028427908
-0.08433753
0.012066483
0.13803713
-0.014931462
-0.012023626
0.046927523
0.06591286
0.06610698
-0.1585511
-0.05825883
0.033274904
-0.035866026
0.060524434
-0.059089884
0.011725817
-0.021423869
0.8744174
0.042589974
-0.07341897
-0.032750223
0.018932384
0.05289054
-0.108080454
0.035667546
0.063609295
-0.012892659
-0.11493935
-0.118403755
0.18674634
0.08588542
0.061083056
0.023712773
-0.008235421
-0.043451823
0.018499307
-0.008547215
0.046070345
-0.016818319
-0.00085743354
0.088934824
0.09820129
0.02661278
0.01098775
0.08219514
0.062313672
-0.13534781
-0.0033137784
0.23075247
0.026228325
-0.011016371
-0.0027865844
-0.06573497
0.032542687
0.0014055318
-0.07497114
-0.07779446
-0.0496335
0.084021926
-0.001886009
-0.023054807
0.11161846
-0.2527301
-0.10443089
0.09021586
-0.062338848
0.09194923
-0.06192752
-0.029622836
-0.05137758
0.044811998
-0.07434167
-0.08280981
0.14228618
-0.0063858293
0.1397111
0.0004307511
0.07249449
0.060918048
-0.06609878
-0.14264463
0.21023116
-0.03313406
-0.0012664775
-0.21597385
0.08352038
0.060793824
0.08619038
-0.07013948
-0.051581874
-0.32034534
-0.08869439
0.07279663
0.065071665
0.041490678
-0.01979778
0.01626904
-0.21225142
0.05509532
-0.007384572
0.26428944
-0.0204539
0.09694318
-0.03205045
-0.07588783
-0.17387329
-0.09376158
-0.03636542
0.09049207
0.06652877
-0.25292113
0.13179517
-0.18225196
0.06063486
-0.014761512
-0.14989719
-0.07552146
0.03921243
0.036789346
0.07241475
0.04319872
0.043113258
0.014830985
0.19951013
-0.09595454
0.17416492
-0.111761875
-0.018640013
0.13218085
-0.11056973
0.09989028
-0.14542438
-0.046742123
-0.17650642
-0.020439502
-0.13457549
0.03560053
0.02330608
-0.15807262
0.109113656
0.20906736
-0.13517445
0.06013696
-0.09475173
0.10970803
-0.07366531
-0.020374626
0.05811394
-0.16942507
8.14263e-05
-0.07075278
0.061789338
0.06277684
-0.047359984
-0.10198824
0.041685227
-0.2163245
-0.17838809
0.016679445
-0.123959005
-0.09307408
-0.00015669933
0.008190899
-0.03725308
0.0731027
0.123042755
-0.14670365
0.28892747
0.057760406
0.0034653684
0.12298038
-0.04040387
-0.05775891
0.04213891
-0.04008848
0.041511357
0.22028786
-0.019014575
-0.00058509345
-0.31816423
0.018441262
0.058503505
0.040888935
-0.064207435
0.15445264
-0.11941922
-0.06596671
0.056644533
-0.10554119
-0.08888858
-0.08292938
0.05006302
-0.13239565
-0.010215063
-0.085233025
0.08106373
-0.03142891
0.04402162
-0.030182615
0.06497323
0.124377266
0.09415454
0.041916348
0.18297721
0.10703193
0.005238183
-0.11383284
-0.19742431
-0.11704354
-0.020603009
0.20154752
-0.088966355
-0.10864266
0.12315806
0.035437815
0.16526215
-0.050464716
-0.09216499
0.04677363
0.033517655
-0.09451776
-0.013245115
-0.037399676
0.014358655
-0.08829117
0.10921854
0.22158735
0.16231781
-0.05780383
0.0834074
-0.13319889
0.046120055
0.121015884
0.041899223
-0.089846924
-0.035254803
-0.06643338
0.18312848
-0.11538008
0.09719939
0.0626401
-0.02697361
-0.020273117
0.007950434
0.025292525
0.0625106
-0.011335878
-0.13733387
-0.046503674
-0.10693379
-0.098211855
0.006983077
-0.26939785
-0.12788714
0.10592489
0.18856804
0.06297118
-0.09497072
-0.094965406
-0.022282025
0.03405193
0.017950064
-0.0024379974
-0.13994877
-0.29268375
0.07633588
0.018512523
-0.120153405
-0.039342377
0.007997533
0.114390105
0.031333793
-0.06275222
0.021140184
0.002913156
-0.22431132
-0.032914776
-0.03843392
-0.026856346
-0.13028343
0.04062382
-0.19005913
-0.16432421
-0.030492123
-0.030551989
0.06703423
-0.008752504
-0.05912275
0.106475264
0.023023073
0.04113733
-0.030932002
0.03976754
-0.034333568
0.07158288
0.20046276
-0.048468508
-0.07508427
-0.15138838
-0.044968694
-0.10530844
0.09097899
0.021226615
0.02740083
