768
0.0049160044
-0.001468558
0.0018402474
0.0014337883
-0.0031779583
-0.0049676863
-0.03431031
0.095334895
-0.0024627098
0.0011383664
-0.0017120297
0.00033122598
0.0013214976
-0.01361935
-0.012221291
-0.0028124577
-0.00245382
0.0078693265
-0.009578083
-0.012465443
-0.0023854016
-0.00033263714
-0.0073274076
-0.012396778
0.0033401758
0.0016353868
0.00036471905
-0.00020162974
-0.0013745576
-0.0026641595
0.0037462842
-0.011075412
-0.008280631
0.0019433645
0.0068320627
0.0036328167
0.007983879
-0.005808663
0.002032265
-0.003966666
-0.003923938
-0.002749458
-0.003749401
0.0030447685
-0.008518163
0.0017392423
-0.0065961196
-0.00494551
0.008438486
-0.017472725
-0.004189967
-0.0024858967
0.001705154
-0.006512827
-0.0035408165
-0.0117997825
0.00023715747
0.0002884677
0.0005988648
-0.01293315
-0.0018075183
-0.0016251828
0.02865021
-0.0038393345
0.7786356
-0.012467448
-0.00085896533
-0.0042043924
0.005085348
0.0049573663
-0.007985314
0.04458981
-0.0004901637
-0.0029421707
-0.0027906436
-0.004547888
-0.015957
-0.010381781
0.005008527
-0.0074184784
-0.0050279875
-0.0056646476
-0.0054057883
0.006337382
0.00022526948
0.012130265
0.027775805
0.17515092
0.0033440322
0.002990026
-0.004464978
-0.012336222
0.0018013231
-0.0022534986
0.00060243113
-0.0068897316
-0.0023350725
-0.0066067646
-0.018899651
-0.02182751
-0.007029503
-0.30149326
-0.0101205995
-0.005866022
-0.002305181
-0.004413289
-0.010187048
0.029968845
0.0005587194
-0.005466024
-0.0023536587
-0.0015250487
-0.00088882685
-0.004597859
-0.012067578
-0.008529012
0.007240981
-0.01397398
0.0030264643
0.0037456185
-0.009507888
-0.0044845054
-0.011223367
-0.0064209257
-0.010129373
-0.0007059934
-0.0028381883
-0.0034880887
0.007442515
-0.0042543975
0.0051821377
-0.0041088373
-0.004140248
0.0015857987
-0.0012731589
-0.0029112583
-0.010072823
-0.0005292533
-0.40584245
-0.0035606916
-0.0065378156
0.0023282508
-0.009176554
0.0059973253
-0.0091935005
0.01989489
0.0035472866
0.00018221309
-0.0035260573
0.006304101
0.009543568
-0.0021760731
-0.024410209
-0.0077821836
-0.008902687
-0.005337691
0.004050821
-0.006039162
-0.0074761393
-0.0063524926
-0.06586172
0.005568438
-0.0032947203
-0.00513089
0.00837361
0.009923116
-0.0027859197
0.06857515
-0.003909504
-0.005479401
0.006646822
-0.008027885
-0.007906078
0.0026689956
-0.008023124
-0.0024586818
-0.0047544823
0.0032972507
-0.083837226
-0.011372136
0.00104998
-0.007900577
0.00029916412
-0.01774598
0.0040322496
-0.00059932854
-0.0066921175
-0.0062655956
0.004094355
0.002653398
-0.002918513
-0.008375441
-0.00035176988
0.009379018
-0.0018595947
0.060016196
0.0051153502
-0.005525937
0.0034017372
-0.0042836205
0.0074607977
0.011664641
0.0010251496
-0.012366544
-0.0029560847
0.005060587
-0.007054579
-0.0013027135
0.0028587182
0.0040603117
-0.004489186
0.0014782525
0.0038795806
-0.021681914
0.002243229
0.0063449764
-0.010690186
0.0022056343
0.03739403
-0.0020159748
0.00025021398
0.0012896636
-0.0012353264
3.4016994e-05
0.002550046
-0.013289455
-0.006644709
0.0027765601
-0.0037625085
6.404842e-05
-9.654876e-05
0.0007460152
0.014749869
-0.0026556472
-0.0034365025
-0.0075944066
-0.010293593
-0.0020113478
-0.0030325344
-0.006577763
-0.0009997962
-0.009782167
0.0025661497
-0.0059988457
0.0031235127
-0.0053551877
-0.007630392
0.0035161048
0.0037979267
0.00020359027
-0.0075954236
0.007079777
-0.0074519305
-0.016579058
0.0049702097
-0.013845415
0.0017776436
-0.007920512
-0.013647048
0.00044365993
-0.0112179695
0.003067954
0.0052571967
-0.006763707
0.002475156
0.0016870217
-0.2047962
-0.01144565
0.012585094
-0.0071063046
0.009753815
0.033879
-0.0058001545
-0.008752512
-0.010581771
-0.0036471914
-0.00407904
-0.0015475646
-0.0047415574
-0.0039033864
-0.005328583
-0.0022001856
0.002933662
0.023240991
-0.022603558
-0.00096310396
-0.011194448
0.0010701983
-0.023394536
0.025135955
-0.011929847
-0.007838963
0.010632271
-0.0017938539
0.011265644
-0.0024476573
-0.007575368
-0.00020659388
-0.0023384718
-0.008595131
-0.04451656
0.0011241756
-0.011631478
-0.0047192047
-0.008049724
-0.008288882
-0.009445406
0.005127966
0.0014611024
0.00331528
-0.0059323413
0.005895886
0.0018784232
-0.0054001636
0.022317175
-0.0010937772
0.004728868
-0.0064145145
-0.0029957856
0.006729365
-0.019712698
0.00029250258
-0.008502038
-0.00086991175
-0.0026334717
-0.010869843
-0.23660468
0.0019294817
-0.006518972
0.00043269395
-0.0088009145
0.00050125294
0.0026403633
-0.0075570764
0.0020619782
-0.007951503
0.0144657185
0.00061757327
0.00011216779
-0.016631145
-0.0044162385
-0.001985459
-0.0017575013
0.0023613425
-0.005087797
-0.005603234
-0.0033385193
-0.0037795266
-0.012617618
0.00036550767
-0.0001493072
0.1289243
-0.00067177205
-0.00138773
-0.016778588
0.004641886
0.032555703
-0.0002596444
0.011118165
0.0048525226
-0.019624678
0.0022836763
0.012056571
-0.0038017856
0.0010446789
0.013229109
0.0026306808
-0.0068069417
-0.009240749
-0.0046121925
0.0024663594
-0.005062291
-0.0016065448
-0.3366329
-0.0022450923
-0.002304366
0.005035395
-0.021901987
0.035100814
-0.00972819
0.008283818
-0.009139129
-0.0007957562
-0.012073408
0.010757246
-0.05206885
-0.015123415
0.00029815416
-0.003998031
-0.004816831
0.0063550035
-0.0011186214
-0.017227316
-0.10478539
-0.00469357
0.009494985
-0.0013521807
-0.0061060167
-0.007396721
0.004690008
0.0015758813
-0.013906707
0.017397378
-0.004503014
-0.0097330855
-0.011218289
-0.004994112
-0.007192755
-0.014992451
-0.002924309
0.008845985
0.0023473003
-0.0056184153
-0.010268102
0.00025149473
-0.008424655
-0.001650224
0.001400961
-0.014521297
-0.0008955572
0.041878752
-0.0011678626
0.008465652
-0.0060964758
0.00044014552
-0.0032274968
0.0029844858
-0.004027564
-0.002707787
-0.0014059235
-0.011461668
0.0035690076
0.0046063703
-0.004209379
0.0015027977
0.010511981
0.0017926238
-0.0046435674
-0.0044650207
0.0032851843
0.0053067734
-0.00634636
0.013026173
-0.0044700815
-0.0037854388
0.0077274763
0.00085633365
-0.56248635
0.002114629
-0.0013239408
-0.0053976453
0.0037701332
-0.0013882439
0.006416868
-0.0051743784
-0.019993061
0.002508926
0.004105017
0.0027856186
-0.18334065
-0.0017064714
0.0044020815
0.0025993406
-0.0058270674
-0.19286627
0.0074583413
0.0012276635
-0.0015892674
0.0021633108
0.0005608721
0.00017698358
-0.016736478
-0.0019049103
0.008826626
0.0024033263
-0.007626692
0.006533407
-0.0020123436
-0.0052352385
0.006973158
0.11596447
-0.055709366
0.0012785837
0.0029554816
-0.004076324
0.0014505758
-0.00026005425
-0.004164061
-0.0225181
-0.002539184
-0.012617578
0.0033274286
-0.008030499
-0.0020177364
-0.005841449
-0.0003229018
0.0024527872
-0.118628755
-0.016709324
0.001859689
0.00018980847
-0.0060702087
0.009590949
0.0071261325
-0.0012351339
-0.0009992245
-0.010650211
-0.00012612135
-0.015177223
-0.0053300057
0.0018542593
-0.004028656
0.0054398063
0.0042632883
0.01226688
0.0006920588
0.004972654
-0.010508274
-0.00018936073
-0.004172842
-0.006287494
0.0074849655
-0.0029337455
-0.0034041943
-0.00401968
-0.0039784126
0.10638598
0.00145364
0.014206947
-0.002642014
0.007823304
-0.0056383098
-0.010619943
-0.0030136374
1.1582526e-05
0.0065225535
0.0010452239
-0.0050765686
-0.000814284
0.004024396
-0.042286593
0.0025599655
-0.0037177978
-0.0071047433
0.0022722392
-0.0047690165
-0.004241802
0.00976411
6.7625544e-05
0.0027185746
0.0025426277
0.008132804
-0.0043956647
-0.007335573
0.46751887
-0.0057513486
-0.008819256
-0.0064939065
0.0006192605
0.001895853
0.004614755
-0.0026379256
0.005915373
-0.015355441
0.0004103997
-0.01051424
-0.012310778
0.0054812036
0.0021937257
-0.005741061
0.012449708
-0.008284003
0.0016484158
0.0056281937
0.0017409025
-0.018295942
0.0063181836
-0.0036972614
-0.00076185336
-0.0003214898
-0.014130636
-0.012982607
0.0014985726
-0.0009246967
-0.00520124
-0.008248294
-0.0028554094
-0.010370089
0.0028069618
-0.017362073
-0.0051069
0.008534743
0.010657722
-0.0025907655
-0.00012399605
0.0023135887
-0.006951489
0.0037146267
0.0029896381
0.0015850418
0.0009686364
0.0018804104
-0.0010758822
0.0036064074
8.310388e-06
-0.0028749437
-0.011008626
-0.0018852913
-0.02667339
-0.0045533245
0.0025986256
-0.0052013835
-0.0056725633
-0.004951707
-0.002759568
-0.006361171
-0.007329535
0.010601022
-0.010358387
-0.006548665
0.024619902
0.0051824325
0.010172664
-0.003549584
-0.005772956
0.008239378
0.0042749057
0.003863979
-0.0031309782
0.005175796
0.013133609
-0.0010625179
-0.0021396205
0.0047991415
-0.0019644697
-0.00051321037
0.0021150715
-0.0048617525
0.0017716289
0.0011540443
-0.09736816
-0.0019083204
0.03262934
0.00026615584
-0.0031378102
0.002472286
0.0034855157
-0.002559403
-0.013920588
0.015846487
-0.009920146
0.00080041366
0.0073168185
-0.0053829025
-0.006716163
0.00061416253
0.0084061725
-0.005211849
0.0094315065
-0.0003856106
0.0009926148
0.000861801
-0.0033323825
0.004216795
-0.010117052
-0.018453952
0.0015596412
0.0093703335
0.020995459
0.003931231
-0.017451966
0.002038401
-0.0024210804
-0.004635784
0.040098663
-0.010674634
-0.010632595
-0.008813304
0.0058071744
-0.07071806
0.0010074658
-0.007544575
-0.007514647
0.0002091227
-0.0038196691
0.027192825
0.009307923
-0.0061509702
0.0069230925
-0.0073778327
-0.011518539
0.004375731
0.010971785
-0.00753328
0.014541636
0.004049924
-0.010689615
0.008594885
-0.00095510104
0.016697796
-0.00390353
-0.00047104948
2.8048813e-05
-0.024616862
-0.0039001335
-0.006032731
-0.012492543
0.0011145457
0.003019929
-0.010186197
-0.015659181
0.0028745655
0.008499224
0.005625954
0.0018790961
0.00037208293
-0.004585478
-0.00047941186
-0.013018673
-0.0043063867
-0.03261652
-0.014296092
-0.007864405
-0.0030116935
-0.039953344
0.0069868495
-0.0009437104
-0.0024329035
0.0036848201
-0.0028647508
-0.002671521
-0.00020600592
0.00830797
0.008846948
-0.009073144
-0.002437634
0.0031660025
-0.0047923895
0.003070362
0.0032336863
-0.0070556807
-0.0007712228
-0.0020344253
0.0025632211
-0.0039463206
1.0935879
0.002427687
-0.0024911766
-0.00050038315
-0.0059066545
0.00093066826
-0.0016790862
-0.01578068
-0.0007533285
0.00362951
-0.0074156797
0.8570054
0.008647455
0.0012596227
-0.003105296
-0.0029665243
-0.0020717345
-0.018041968
0.0074437265
0.0021311436
0.005400639
-0.007431386
0.004499548
