768
0.023561038
0.004005239
0.010817339
0.010145771
0.0030520614
-0.005135095
-0.024907995
0.035782985
-0.004405833
0.0025316747
0.004971623
0.0073907827
0.0068714
-0.0041889753
0.010620538
0.0043904516
0.014043568
0.014085544
0.0016480582
-0.013014824
0.00773939
0.01480671
0.0010485578
0.018455595
0.012735426
0.014548698
-0.0001934105
0.0019152738
0.011458638
-0.00557545
0.0067887087
-0.019069571
-0.010018711
0.0054138717
0.016750973
0.041951098
0.0018060489
-0.005257295
0.00074901566
0.0013619445
0.0025008554
0.0040745074
-0.00546121
0.0068289977
0.0029823452
0.010141388
-0.00024271407
-0.0015014035
0.0058066244
-0.009606498
0.0047158324
-0.0022948754
0.0060637305
-0.0025703048
-0.0024069287
-0.016414417
0.0016576702
0.007820244
-3.1153482e-05
0.011316386
0.009131355
0.0043315385
0.0099875275
-0.00023969154
1.7373356
-0.002221225
0.0029406082
-0.013182087
0.01210039
0.022174519
-0.0037287555
0.009371734
0.0037330585
0.0009764999
0.006580987
0.009065717
-0.017848896
-7.336919e-05
0.016881647
0.0011897398
0.005355907
0.002771278
0.004702345
0.010084141
0.016559716
0.019818757
0.017506015
-0.15869837
0.023915606
0.0138921905
0.004710696
-0.010267912
0.007699383
-0.0014530882
0.0104950145
-0.0014305833
0.0023615677
0.00584668
-0.0019281162
0.051546305
0.0030462828
-0.04429604
-0.03364085
0.007952053
0.0046138023
0.004192848
0.0017840824
0.03387389
0.0049649924
0.0021238523
0.000946513
0.0071172267
0.0031532238
0.0054745236
0.003989682
0.0011103941
0.03429139
0.0036123486
0.010686403
0.008382596
-0.00023562508
0.0079583675
-0.005110299
-0.0004407513
-0.0013535589
0.013844948
-0.0010419458
0.02721142
0.009008145
0.009519622
0.009022793
-0.00090726593
0.0058544166
0.0007275125
0.0029006775
0.0053183227
0.0017447292
0.007156824
-0.13368428
0.0039448882
0.0057414407
-0.005140667
-0.004489152
0.0073675048
0.009498511
0.01398146
-0.002823738
0.008827932
0.0010754854
0.014122282
0.022236224
-0.03563178
-0.009661577
-0.004770586
0.0016686511
-0.0022586393
0.0021456925
0.0037633725
-0.0004946804
-0.014721451
-0.06948339
0.0039191335
-0.00026020332
0.0050747716
0.009760136
0.017512307
0.0048198556
0.08483985
-0.0039822157
0.0024943212
0.017825682
-0.002788641
0.006756539
0.009827966
0.006677132
0.009482451
0.012799872
0.0037152192
-0.017240092
-0.0030916848
0.002205428
-0.0026399114
0.011338151
-0.018292677
0.015786191
0.0012418597
-0.0016404276
0.0035723154
0.004868091
0.0074138516
-0.002857901
0.0038999855
0.009483191
0.00976957
0.013950151
0.07943038
0.0143849505
-0.004009528
0.019813865
0.0024334989
0.009882117
0.0023977824
0.0012464595
0.0077137793
0.0028512178
0.007368071
0.0035336625
0.00011788128
0.0019407524
0.008175682
0.010787346
0.013801043
0.004097968
0.00042532082
0.0010827049
0.0017678511
-0.0073444215
0.0035344337
-0.000890877
-0.00026276018
0.011082696
0.014191906
0.0027373547
-0.0122692315
0.003751198
-0.0013298556
-0.008692824
0.009521263
0.011276101
-0.0029156674
0.01322514
0.011069562
0.0068627466
0.0063306997
-0.009773225
-0.00023418164
-0.00041135662
0.0014809822
-0.011624671
0.00096103386
0.008667646
-0.010023632
0.0099304775
0.0042700935
0.0018668431
-0.00032991735
-0.0043166415
0.0061521563
0.0030526172
0.015816247
-0.0008722291
0.012452003
-0.012477751
-0.00971801
0.012947617
-0.011267727
0.0050208475
0.0062841256
-0.008723542
0.012699066
0.0018627803
0.0075871674
0.009003607
-0.003190129
0.012892926
0.0012501872
0.017926589
-0.008121541
0.013805012
0.00048801885
0.024223989
0.019839924
0.0009105603
-0.0050297035
-0.019546099
0.0036838083
0.019490976
0.005523479
0.0055490923
0.0034438958
-0.002246164
0.008196379
0.002716544
0.05497775
-0.0049526505
-0.0046157264
0.003812142
0.007656584
-0.18592149
0.035315525
0.0031008304
0.002085198
0.016566027
0.0032653522
0.026287459
0.0031753168
0.0007999445
0.006703076
0.004920678
-0.0017387609
-0.01482403
0.011123632
0.00070803997
0.004598103
-0.0063131396
6.718492e-05
0.0027000012
0.009777245
0.012860766
0.005397299
6.440786e-05
0.03936658
0.008779806
0.0016392274
0.03660834
0.0052700695
0.013678982
-0.006194432
0.0054368763
0.007234246
0.014414085
0.003053216
-0.003973159
0.009162274
0.0018381237
-0.011809879
-0.43354884
0.016360682
-0.0040075323
0.011120326
-0.007931331
-0.004799898
0.003911996
-0.0131176235
0.004818101
0.0057437276
0.022486355
0.0066403775
0.0036403409
0.00043822385
0.0030945397
-0.0014829916
0.0108869
4.1271334e-05
-0.0029509002
0.0006794055
-0.0023661721
0.0023334413
-0.010203447
0.005056094
0.0085791135
0.043118976
0.0036145519
-0.0033168627
-0.0023214493
0.0031273842
0.03586672
0.0035086456
0.019223275
0.010146476
-0.015470245
0.011166612
0.012877102
0.00042202813
0.0071241376
0.018774685
0.009495842
-0.00097211596
-0.004353868
0.0017119821
0.016370617
0.0033773987
0.014190673
-0.1294909
0.009650902
0.014964061
0.016473144
-0.003270529
-0.0011833317
0.0014629782
0.017667243
-0.00061402627
0.011979037
-0.026933309
0.014651972
-0.054949783
-0.00070546346
0.007086685
0.0032084945
0.006842509
0.013840234
0.014868292
-0.00019348899
-0.17054854
0.0041246414
0.013050883
0.0021396033
-0.0071693948
0.0074123237
0.0039419313
0.013251358
-0.008370212
0.013560555
0.006453639
-0.0028106656
0.0009595915
-0.0035059112
-0.0013774142
-0.0035608308
0.0041695465
0.010516242
0.010926868
0.0018382448
0.00048319838
-0.0048004068
-0.0015907752
0.0046763434
0.014183043
0.0037424865
0.006322861
0.025562776
0.008291015
0.010033849
-0.00044743947
0.010086735
0.0084237605
0.0016839077
0.007914662
-0.0042911908
-0.0026911364
-0.011114726
0.0077574737
0.018409053
-0.00095618673
0.003109571
0.013168535
0.0016483881
-0.002572784
0.0013005026
0.0038044956
0.009077727
-0.0007823676
0.019908119
0.011331137
0.0020057154
0.009054303
0.009706478
-0.31233263
0.010733332
0.0019029792
-0.009596433
0.007367231
0.012849846
-0.004801863
0.0006204504
-0.0029479202
0.010351468
0.011322375
0.0019338105
-0.026311226
0.014560441
0.0015888031
0.007100828
-0.00058358425
-0.019418435
0.0211717
0.0043284255
0.0038910164
0.00434976
0.0016336942
0.018943058
-0.012360222
0.006843515
0.011260831
0.009646728
0.0037940047
0.006355582
0.002098274
0.008425435
0.0052231187
0.36705303
-0.079549715
0.005071145
0.009657462
-0.00036166707
0.0069454093
0.01177363
-0.0014621647
-0.013112709
0.006624559
-0.0029164567
0.00949308
-0.0015867833
0.00039622653
-0.0013984885
0.012177686
-0.005568486
0.0018885072
-0.0001816165
0.010442511
0.0032834157
0.0035827588
0.010061719
0.004071341
0.01046582
0.009138099
-0.0023175934
0.0055649974
0.0029859967
0.0019232903
0.0061399117
-0.0021532408
0.008349608
0.0029350023
0.010623106
0.007427126
0.009169562
-0.0023496102
0.015547123
-0.003394443
-0.002268866
0.026121905
0.0032949334
0.0008673836
-0.005329922
0.0022072545
0.14011803
0.011340003
0.013826629
0.007364282
0.010404526
-0.0028265573
-0.0015274336
0.011339747
0.01094435
0.011258696
0.007347052
0.0048821582
-0.003993776
0.013031746
-0.016937932
0.0026943833
-0.0015507811
-0.0033454895
0.008104479
0.012153854
0.0019740432
0.015736844
0.01004033
0.012377609
0.017851762
0.0077740178
-0.0020533553
0.005357888
0.11420626
0.00068940397
0.0020980206
0.0070024333
0.011266329
0.0124700125
0.006876698
0.009612183
0.013758212
-0.011055861
0.005141625
0.0039870553
-0.01384322
0.01703772
0.0037988718
-0.0021360435
0.014425815
-0.0007739039
-0.0015733106
0.015038369
0.0125817405
-0.019368332
0.01681877
0.0021044184
0.021660788
0.00097537716
-0.01995549
-0.0046187025
-0.005339031
0.0045919917
-0.0024442612
-9.913715e-05
-0.0005537984
0.014341233
0.0065891175
-0.010618332
0.0014817523
0.01927271
0.0074899253
0.009712541
0.0005882569
0.0058958
0.0100858845
0.0010897473
0.008095519
0.009414864
0.0051386366
0.0081909215
0.002897963
0.000121721896
0.011579
0.003944342
-0.0013169274
0.007089415
-0.038034067
-0.003328058
0.006363964
0.0038259001
0.0055793473
0.00094308576
-0.0020542892
0.003250671
-0.011319861
0.020836022
-0.012219966
0.0040818546
0.03770756
0.007417314
0.016119732
0.012879465
-0.0026249841
0.013683398
0.009915459
0.01597389
-0.0015610502
0.017324256
0.021002501
0.007603537
0.0073941858
0.0063641467
0.0018543104
0.012281506
0.0074568344
-0.008637181
0.008920135
0.007444106
-0.15070648
0.0035887514
-0.0062839864
-0.000998834
0.006068525
0.010175715
0.010220899
0.00749479
-0.0069282087
0.0265978
-0.013294247
0.0035818901
0.008616341
-0.009065607
-0.0032056274
0.0041761007
0.012931405
-0.0039838995
0.0071363496
-0.00017604297
0.008755502
0.00475069
-0.003076903
0.01304639
0.0019563595
-0.025453106
0.009679425
0.017574389
0.028912786
0.007734931
-0.0069217565
0.0003912178
0.0015416994
0.0016256723
0.016897613
-0.01244104
-0.014487843
0.000932567
0.0049800957
-0.11099194
0.0130618075
0.0001362817
0.004530438
0.0025383427
0.013243587
0.009692429
0.015670437
0.002418764
0.0045707193
0.0013499242
0.00038650908
0.001723015
0.01813705
-0.009588399
0.025068209
0.0015262682
-0.011507817
0.010577643
0.006351613
0.014703281
0.00058465166
0.00027580975
0.0027763655
-0.0019282517
0.008188797
0.0020956008
-0.012952957
0.010842866
0.007238147
-0.008254118
-0.0130737
-0.004792766
0.019183302
0.011003967
0.008974705
-0.005911101
-0.0060422774
-0.0004931884
-0.01956418
0.003385489
-0.015152703
0.001788288
-0.0014901313
0.0057236752
-0.010759606
0.011654278
0.0014549593
3.1743144e-05
0.0012414311
0.008240035
-0.002917604
0.015789505
0.01431161
0.015001423
0.004477368
0.007488179
0.010310316
-0.004040649
0.0003386343
0.027781475
0.0055139773
0.009376054
0.00028421506
0.01559993
-0.004229597
0.17818974
0.01834391
0.00041713213
0.012903569
-0.0023841409
0.004326526
-0.0010415807
-0.008098846
0.010255362
0.005233937
0.010693897
0.13084885
0.021767467
0.006327164
0.008678683
0.010240949
-0.009749049
-0.013124787
0.010021959
0.01161977
0.0060501094
0.0003466695
0.013370882
