768
0.047996204
0.031789433
0.034624472
0.047301896
-0.008617739
-0.02318919
-0.035307616
0.018852003
0.036968615
0.04236403
-0.008054054
0.030867506
0.09516754
-0.00516871
-0.050802276
0.019840382
-0.026793705
0.021411879
0.004220318
-0.0356411
0.04376715
0.006678821
-0.02143931
0.029435964
-0.008525711
0.02983124
0.0013416886
0.03881864
0.014069417
0.005287423
0.032901842
-0.00034438452
-0.007169161
-0.004588824
-0.0036124885
-0.051425356
0.015850354
-0.020619806
0.015299799
0.007397788
0.014903166
0.008773249
-0.0029456033
0.02497867
-0.0068541165
-0.025191525
0.056543678
0.004058796
0.041256737
0.014799856
0.03134736
0.004736695
-0.0052780155
-0.0028301587
0.030162342
-0.007999487
-0.012914639
-0.0020178072
-0.008237162
-0.003558202
0.04383024
-0.010911574
0.019109512
-0.031185418
-0.4121859
0.02836875
-0.025227737
0.03494765
0.03356888
0.01037095
-0.0048926855
0.009894104
0.0457756
-0.035087466
-0.007000294
0.016448703
0.04424523
-0.00829551
0.033878487
-0.0033823638
-0.0087749595
0.013313447
-0.002395031
-0.040136125
0.07092941
0.045080137
0.068180814
0.0023604524
0.010009861
0.05372004
-0.01298808
-0.0132172685
-0.042361215
0.020337908
-0.019818325
0.0044323364
0.008632066
-0.0057525015
-0.0043348772
0.051912095
0.022870861
-0.0788938
-0.016259622
0.040399544
0.036340732
-0.011883606
0.01640191
0.07834765
-0.009276681
0.018677091
-0.0069292937
0.004001319
0.01896344
0.07424741
0.030703848
0.008403282
0.029314842
0.024397362
0.06968699
-0.007695603
0.040527128
0.020270592
0.02684198
0.04471063
-0.0022091554
0.04606508
-0.003346166
-0.05291818
0.008540568
0.07841492
0.0069528106
0.02457883
0.02204574
-0.026106535
-0.03498971
0.0011629236
0.007026173
0.007359093
0.6272032
0.017992454
0.0244944
0.0057816934
-0.020775434
-0.017957501
-0.021815876
0.01633599
0.042542066
0.0353755
-0.021520743
0.005998035
0.005409317
0.0015212399
-0.013790792
0.022462353
-0.011083301
0.007373178
0.025983078
-0.026598712
0.01851552
0.005222245
-0.03160296
0.058400244
0.011806565
0.060362663
0.039551787
0.022297323
-0.022998163
0.03549487
-0.025821641
-0.020899419
0.01509868
-0.0009103785
-0.04945331
0.002225768
-0.033362146
0.010007191
0.07530046
-0.03578494
-0.019186538
-0.052304678
-0.0067258165
0.010084167
0.037444197
-0.009479695
0.0393634
-0.0109531935
0.014655843
-0.015531313
0.0397116
0.0002919354
0.006216763
0.01985869
0.0050623175
-0.013303543
0.008342447
0.017671434
0.0056183566
-0.010271019
-0.035794258
-0.024149751
0.031039355
-0.009630276
0.023990968
0.055404354
0.0067596375
0.018145004
-0.0040517305
0.016523411
0.050029486
-0.03607932
0.051850975
0.055364523
0.03951097
0.018112114
0.024953367
-0.0065807872
-0.0019293656
-0.01888434
-0.0093425615
0.033369556
0.035409547
0.02644773
0.015306748
0.027823951
0.027053444
0.010849537
-0.023634866
0.01921031
0.021750527
-0.010581927
0.07454797
-0.035484225
0.05425883
0.018782496
-0.024514996
0.0028887815
0.04699167
0.0036548742
0.020953057
0.029709712
0.0022737794
0.03618828
0.0011622966
-0.043013513
-0.04121114
-0.00859327
0.0017033485
0.046300407
0.013408002
0.0159627
0.010430531
0.017320419
-0.005887405
-0.011503793
0.0010849973
0.058499094
-0.0053814966
0.04573224
-0.0014054392
0.022715105
0.049657863
0.07484704
0.003648918
-0.01347978
-0.025329933
-0.008523278
0.03493058
0.01635525
0.041758366
-0.0097240945
-0.01965166
0.02179935
-0.025899304
-0.0046354076
0.027050126
-0.006058769
0.047707602
-0.013821375
0.035823565
-0.0018836623
0.014350131
-0.0034088069
-0.004086939
0.032087263
0.031920902
0.06270355
0.0030392914
-0.0041528977
-0.0675329
0.03947314
0.027852686
0.004690185
0.032161213
0.013748953
0.04377309
0.024182966
0.033401873
0.05033439
-0.05218281
-0.013094119
0.015089469
-0.025360674
0.00813117
0.010625745
-0.012749973
-0.0157375
0.01013652
0.001277077
0.026878249
0.016984347
-0.08805589
0.031814262
0.07220742
0.0071177795
0.038353104
-0.0061275596
0.042138666
-0.009701857
0.014390759
0.030814301
-0.018228222
0.022989772
0.002166407
-0.0036023196
-0.022674857
0.055146802
-0.46662048
-0.022398239
0.00016382847
0.0030929053
-0.028270422
-0.023268359
-0.043062467
-0.013422006
0.05555855
-0.022811133
0.0253283
0.0031842089
-0.04475679
-0.04747619
-0.027547594
0.018070688
0.0006305882
0.03393591
0.021668144
-0.003362797
0.069668725
-0.015661864
0.01439976
0.04114452
0.045581847
0.008943292
0.007480195
-0.042362113
0.018913928
0.039162323
0.013610487
0.04000265
0.031995006
0.03096191
-0.028903514
-0.00069261313
-0.045814566
0.01950217
0.026482532
0.013687998
0.043100752
0.027222255
0.014997035
0.052509595
0.024095517
0.0035847444
-0.01084215
0.10198037
-0.00040461513
0.0075277253
-0.018790677
-0.020146174
-0.13806969
0.04626041
-0.006387998
0.016176075
0.0015698561
-0.0035422158
0.020537568
-0.013252941
-0.002048108
0.014845676
-0.0046779746
0.023729855
0.08303477
-0.000557326
0.004099807
0.00063551834
-0.021994423
-0.001324836
0.05998097
-0.006723376
0.0239931
0.008699178
0.006705911
0.0074790325
0.045015182
-0.008683539
0.0063796784
-0.0056068227
-0.013624276
-0.014206067
-0.031538066
0.061542183
-0.0032759248
0.011948343
-0.0067946576
-0.024564557
0.032361142
0.0050634374
0.021129718
-0.015927443
-0.046468165
0.04868349
0.014175803
0.026222493
0.08190376
0.010372656
0.006280909
0.021299792
0.059265137
-0.0103813475
-0.03773163
-0.026326943
0.009184772
0.028442532
0.006440229
0.006445554
0.019599069
0.03188454
-0.022325536
-0.007105771
-0.0073838565
-0.0030794255
0.042275216
0.01751037
0.00895066
0.04043794
-0.012690856
0.009187947
-0.00874994
0.033946082
0.045393776
0.016357424
-0.01734221
-0.0042571793
0.01754639
0.014286829
0.021722887
0.051643938
-0.00025178705
0.00813387
0.026081232
0.03082792
0.024735399
0.01771312
0.06557313
0.03418565
-0.02305875
0.03505542
0.031841446
0.042614326
0.013108569
0.06344723
0.049076628
0.007037259
0.03253652
0.028718082
0.03092036
-0.010001325
0.016162159
0.019262338
0.0033710906
0.04760707
-0.04780093
-0.31544343
0.032895558
0.0020844003
0.022765988
0.027967373
0.01847611
0.022559363
0.0116226785
0.01711223
-0.0058023087
-0.035333566
0.0010366354
0.061191753
0.0075418246
0.0506165
-0.018209923
0.053093944
0.0051480816
0.039172694
0.03637249
0.005373769
0.015806997
0.042874478
0.020206835
0.004920571
0.037072208
0.040656812
0.036315057
0.023811148
-0.008462668
-0.020536168
0.04015457
0.017669825
0.008449184
0.010945632
0.012528886
-0.0004894533
-0.015751727
0.009306077
-0.034764387
0.043023936
0.04890295
0.02958103
-0.009857696
0.0109167565
0.037044767
0.036679685
0.011306036
0.013177828
0.06853884
-0.0027957188
-0.020450804
-0.0053611402
0.00019783982
-0.0110184895
-0.020571377
0.06177251
0.052687418
0.041465294
-0.032746296
-0.013167578
-0.018476753
-0.020436395
0.020382974
0.060160358
0.022098877
0.05690378
0.014126744
0.057309855
0.021619068
0.004081391
-0.024314905
-0.016589588
0.06271166
0.0055108094
0.034083124
0.004592713
0.024352795
0.02918422
0.019470274
-0.022769596
0.058428194
0.007923742
0.030378707
-0.0025693907
0.041577466
-0.023903778
0.019737303
-0.04664373
-0.008548854
-0.019596891
0.028858252
0.02246511
-0.02883481
-0.0062596546
0.011308542
0.057642434
0.039708477
0.002886016
-0.008036046
0.012966125
0.07284722
0.03722928
0.019466443
-0.009630532
0.016615793
0.012926385
0.02234343
0.03766273
-0.04977635
0.025916424
0.08921876
-0.0016957085
0.03422873
-0.013499911
-0.019666787
-0.013087175
3.369878e-05
0.00082991493
0.006892459
0.051566653
-0.0059497533
0.014258867
0.103304915
-0.018951796
-0.011200841
-0.01998823
-0.035601355
-0.01692881
0.023269167
0.0019351343
-0.05052116
0.009495672
-0.018563487
0.015794983
0.0014361015
0.03116324
-0.08734495
0.0030111182
0.0102758035
-0.0092288125
0.04856094
0.03315785
-0.051505204
0.0024153367
-0.016847916
0.07282242
0.046751548
0.027792446
-0.014679937
0.05322821
0.036033586
0.0013982741
0.025073444
0.028764997
0.0123015605
0.013587765
-0.02791285
0.018396627
-0.00023528475
-0.021011882
-0.01691318
-0.094411634
-0.00034007317
0.0019254477
-0.0028638814
-0.006493833
0.03398674
0.020183604
-0.058986653
0.028976012
0.0043846043
-0.022287825
-0.03280489
0.033231843
-0.008016063
-0.0062523885
-0.03329935
0.06009874
0.020067135
0.024382696
0.0005435862
0.061142635
-0.0012184973
0.008253622
0.00033758662
0.06601505
0.06495524
0.026327597
-0.0032309433
-0.033474125
-0.008857151
-0.001045909
-0.07740984
-0.0055525457
-0.037996233
0.008301911
0.024368372
-0.09336111
-0.024935044
-0.017071323
-0.014146435
0.01878883
0.029535504
0.036267284
-0.0048131365
-0.020300506
0.020839863
0.041003875
0.01719669
0.05438636
0.035362035
-0.002238011
0.00414763
0.028395995
0.01710266
0.05408667
0.0023208866
0.012702478
-0.033579588
0.046233904
-0.018047797
0.019508062
0.020920664
-0.034122486
-0.01569938
0.012740759
-0.004304685
-0.009201219
-0.023321059
-0.04133032
0.021178601
0.015865348
-0.022491984
0.020904528
-0.053388424
0.019027263
0.0033557368
0.03913867
0.044720277
-0.0072331107
0.0062336475
-0.035255253
0.0148501955
0.034668997
0.025687575
0.010112675
-0.026309112
0.025061866
0.030912388
0.032903977
0.036498748
0.062221944
0.004009254
0.036833633
-0.013920065
0.022287251
0.034836564
-0.045153476
0.0066674333
0.003123041
0.0099214865
0.011304011
0.017234763
0.15681666
0.002897076
0.01622068
0.013195551
0.0061417497
0.024436947
-0.024236947
-0.007853055
0.021903086
-0.019991424
0.014193681
0.1269914
0.040260475
-0.010747969
0.043698926
0.0053469096
-0.018017424
-0.11248762
-0.02193536
0.011506036
-0.024951689
-0.009299658
0.016375922
