768
-0.0019770134
0.020055145
0.038333677
0.00030216447
0.020649098
0.003232627
0.05089338
0.027661948
-0.012057062
-0.011367528
-0.009034202
0.026781913
-0.009741016
0.012046613
0.018907825
0.01876319
0.042725027
0.023067748
-0.010569601
-0.030680478
-0.01096634
0.0026101102
0.010864191
0.026390933
-0.002868325
0.0049588466
0.01669515
0.02048842
-0.0021496206
-0.0338204
0.0061460654
0.0091776
0.009881752
0.045791086
0.009917724
0.004356715
0.029751234
-0.018785764
0.033472564
-0.03149899
0.015753955
0.042623494
-0.007869341
0.01421567
0.018168302
0.0026066692
0.0313089
-0.0010033085
-0.008863755
-0.035221282
0.038618475
0.0037019935
0.032936838
0.018482033
-0.01481502
-0.007780469
0.0052594077
0.0040191896
0.00990073
0.0276387
0.014331601
0.042405594
0.0010204081
0.026424836
0.3937068
0.021459427
0.029601635
-0.00860122
0.05860394
0.021421688
-0.037242714
0.027897999
0.017379908
-0.0058365017
-0.0009136021
0.01391678
-0.03796136
-0.010984742
0.08126745
0.034246564
-0.0009941863
0.0007847052
0.011362929
0.04639445
0.017661596
0.022832034
-0.00687475
0.31664056
0.023673639
-0.00040317563
-0.005416267
0.019662881
-0.0023599814
-0.023344146
-0.0044658994
-0.011295187
0.016962461
0.0138278995
-0.022616845
0.009266982
0.012624071
-0.03052221
-0.00102993
-0.0039345967
-0.002642159
-0.007217276
-0.04916994
0.021837331
0.028134082
0.012504659
-0.0020111338
-0.0085863415
0.037535183
0.0037699384
0.025193706
0.04111674
-0.008127229
-0.041116543
0.0059965355
0.019486057
-0.0011550008
-0.00012193464
-0.03645978
0.0029326344
-0.032782223
-0.011984703
-0.013821319
0.024435159
0.00017244247
-0.0079791695
-0.008318045
0.010637283
0.030221365
0.04373872
0.009432065
-0.007373103
-0.00746333
0.01702043
0.03553951
0.0228171
-0.015387788
0.02444671
-0.011352238
0.0054107145
-0.0006650645
-0.021652738
-0.018482186
0.025980655
0.0014639408
0.01667211
0.021894766
-0.019041706
-0.031043708
-0.0062861764
-0.023008877
0.028816545
0.04095205
0.012867817
0.014307608
0.007970449
-0.016250027
-0.021372193
-0.017181346
-0.030237794
-0.0026149738
0.025429279
0.022133704
0.041402742
0.022500914
-0.026282366
0.039949913
0.045367572
0.03563669
-0.019180298
0.004448103
-0.011992027
0.02578139
0.0035772102
-0.019243585
-0.014045806
0.017488547
0.008966383
-0.011939945
0.0012795768
0.051954422
0.025119916
0.009847805
-0.00485705
0.024748342
-0.036122248
-0.0028339413
-0.021125067
-0.011486628
-0.0013704149
0.014018428
0.06367432
0.030747097
0.0020225192
0.023836395
-0.012391728
-0.029208662
-0.018785244
0.018295255
0.030047363
-0.000438257
0.00929617
0.02889793
0.008781
-0.0073326854
0.021819165
-0.007797795
-0.012292533
0.034295045
0.024645437
-0.009053209
0.0011064635
0.011083753
0.00050187693
0.034106255
-0.008242321
-0.027833512
0.010576801
-0.002052849
0.0008471666
0.015029157
0.020726709
-0.019540487
0.017993616
-0.0077041066
0.014029825
-0.021542963
-0.00024717956
-0.016449526
0.011755076
-0.0056979996
0.033711076
-0.015149883
0.009101356
-0.005649141
0.019424856
0.007949671
0.030759713
0.024050314
0.03625999
0.01976551
-0.046811998
0.014090426
0.027172156
0.0006444847
0.011673779
-0.00010520698
-0.0065294807
-0.061248228
0.007414685
-0.002731338
-0.027356442
0.023763029
-0.01147869
-0.014240331
0.0067913216
-0.028976137
0.021049742
0.04204029
0.026469039
-0.0002903507
0.0041419505
0.34777477
-0.0064896825
0.020932112
0.020470591
-0.022009168
0.026752258
-0.041847207
0.006208151
-0.037312638
-0.00039273102
0.021064207
0.02592549
0.00950419
0.031332612
0.022061288
-0.011282484
0.016810048
0.053057447
-0.009432907
0.0029290724
0.007943815
0.009855861
-0.09294606
0.029761337
-0.0033819675
0.0098083075
0.0060030264
-0.015150353
-0.004356205
0.026455376
0.025353286
0.018849328
-0.00702441
0.0068030315
0.031276707
0.01966711
0.01647766
0.019452397
-0.0009662271
-0.006305883
-0.008154107
0.0039794585
0.042507753
0.0045595123
0.011091321
0.059278313
0.004846519
0.01793795
0.059207294
-0.011141398
0.0083145015
-0.008409744
-0.0016955761
-0.008725053
0.023974288
0.01837841
-0.019590849
-0.008605788
-0.0074060434
-0.0101977475
-0.14200506
0.022460788
0.010419835
0.021096991
-0.009040127
0.030009577
0.018054727
0.025953518
0.0050622076
-0.0051361443
0.0024326856
0.024639677
0.0038845541
0.015082428
0.024333127
0.016992265
0.0046225986
-0.010365582
0.003662398
-0.0012261318
0.018951718
0.04232949
-0.0011133137
0.001985029
0.024931287
-0.044305433
0.018491855
0.014926529
0.044271585
0.032557547
0.021320805
0.0057945237
0.01971369
0.023720805
0.03675706
0.023772325
0.08926717
-0.03440973
-0.01903754
0.012163265
0.02250811
-0.03174221
0.038066614
0.0413356
0.008720826
-0.027213978
-0.016748475
0.4246586
0.048930254
0.04198498
0.033496697
0.008504491
-0.004973751
-0.009173314
0.04333839
-0.010396677
0.026768282
-0.01566948
0.05810108
-0.011132911
-0.03606925
-0.011497034
-0.008874184
0.025798371
0.0128047755
-0.0014207358
-0.010385151
-0.12074655
0.01025357
0.012827371
0.025562689
0.0015510439
-0.00872756
0.012873954
-0.0005486128
0.011237364
0.011656099
0.005566305
0.0005101983
0.0025084496
-0.0017832082
0.019224742
0.0036973632
-0.011153946
0.030565934
0.011319436
0.0140304975
-0.009346081
0.011581175
-0.03245121
0.028497806
0.0040561315
0.03289101
0.004405457
0.01888439
-0.015978562
-0.00035494662
0.021204583
-0.00016529694
0.0055216965
0.030462766
0.012026251
0.01632173
0.0059937662
-0.011808811
0.011143311
-0.0074192123
0.04519876
-0.03748592
0.020995092
0.009870491
0.019443521
0.021259684
0.049169634
0.002377888
0.008534691
0.055772137
0.030697694
0.020777097
0.008127705
-0.0051168795
-0.17181544
0.06131484
0.026297975
0.012815872
0.022402747
0.012225504
0.020091781
-0.01815769
-0.0043574376
0.039565537
0.033679318
-0.010470637
0.0465601
0.007856799
-0.043203857
0.036972072
0.02326398
-0.026250124
0.017061692
-0.02188013
-0.00067740097
0.009396365
0.023374489
0.027627947
-0.010023901
0.046220582
0.028498042
-0.0080936225
-0.0065142293
-0.015308357
-0.004289981
0.032942787
0.040934097
0.32820785
-0.20932515
-0.006111947
0.01412273
0.008805866
0.00174654
0.045657262
-0.023354469
0.026175167
0.017620588
0.03192525
0.00037569995
0.018971706
0.06502393
-0.0109971445
0.019380452
-0.088906966
0.08003924
0.0053406646
-0.014902381
-0.014937155
0.006004691
0.04186504
-0.014388718
0.012932896
0.0013835488
0.04222006
0.0014793982
0.0019084984
-0.006749617
0.017699637
-0.013577493
0.012298593
0.033336557
0.0064962893
0.002934671
0.006875412
-0.0026926536
-0.0019043405
0.03412779
-0.02750231
0.0017843843
0.013118939
0.040507853
-0.0010110476
-0.035488866
0.11592393
0.02325198
0.01370085
0.0014698078
-0.01533122
-0.001712697
0.014999288
-0.010100668
0.010129305
0.030279262
0.012506579
0.015105804
-0.00877858
0.024470285
0.01599095
0.0047043464
-0.000792134
-0.014661247
-0.0064260187
0.034795623
0.030444432
0.038430665
0.0016288082
0.019593706
-0.012042542
0.03048188
-0.011164641
0.02979896
0.050295554
-0.012850222
-0.026388913
0.004311287
0.022689423
0.022986004
0.0024583933
0.02801149
0.022453038
0.017213738
-0.012165214
-0.0065908413
0.008667372
0.024142962
0.03335075
0.028082913
0.053763986
0.026644824
0.0031699243
-0.013450728
-0.010193475
-0.019818574
0.0065050037
-0.008379981
0.01608577
0.022393322
-0.020059992
0.0114796255
-0.008765033
0.029910386
0.003462038
-0.03645004
0.00469787
-0.022661235
0.0066593974
0.0075281016
-0.005602792
0.01791777
0.035254207
-0.0132183265
0.017820515
-0.0053502726
0.029256655
-0.0046762144
-0.008740277
0.012103334
0.026251506
-0.015760522
0.04595013
-0.012852483
-0.038531777
0.035157427
0.006426146
0.03691152
0.021825705
0.01297725
0.01850297
0.017159576
0.014517232
0.04467328
-0.025077151
0.02565887
0.013455184
0.037067283
-0.010419712
0.0013963727
0.046034876
0.025315953
0.03816561
0.0009903134
0.021450495
0.0046284655
0.0068337
0.034752652
-0.0023968494
0.04714296
0.009159277
0.006296877
0.010682761
-0.008528387
0.02284637
0.029957471
0.02981317
0.0082483385
-0.002176118
-0.0101723075
-0.15677553
-0.002795109
0.046727944
0.018013025
-0.031995937
-0.016085584
0.011882133
-0.02028331
-0.014534366
0.0010806835
0.019827342
0.0032595368
-0.047094945
0.013695768
0.012283548
0.030075254
0.0032230152
-0.027214872
0.019512834
-0.027396783
0.0051693143
0.012861522
-0.0006394104
0.0048047616
-0.0038947521
0.016353749
0.0030417738
0.018566838
0.0038866112
0.0411736
0.010866192
-0.0065944106
0.031821724
0.028468532
-0.005751318
0.008162528
0.018507281
0.0039841346
0.0031919933
-0.048270147
0.00589004
0.024513455
-0.04016561
0.014448355
0.0051222043
0.032585513
0.017785788
0.076222435
0.017708458
0.049652193
0.0075001228
-0.009219896
0.0010967089
-0.012194109
0.006448074
0.015109599
-0.0020135846
-0.0040663797
0.018472295
-0.031461727
-0.006737535
0.017863566
0.038918868
-0.05454324
0.010493829
0.025426224
-0.0283777
0.011150238
-0.0019784395
-0.055754166
-0.03457265
0.005603561
0.026608098
0.011461103
-0.012790149
0.033584855
0.021925516
-0.020345489
-0.028080605
0.00388245
-0.013852608
-0.036429066
-0.0043683182
0.06159027
-0.012015475
0.0012267238
-0.02771572
0.0042424644
0.0023444942
0.004892251
-0.006112054
-0.0026611236
0.0018391464
0.014922414
0.026543628
0.0070514316
0.003624004
0.0035178564
0.019159473
0.029217886
0.046322275
-0.0120636
0.0064878943
0.0047134934
0.011389595
0.09574988
-0.007992058
0.025973871
0.023403887
0.03140044
0.0064798566
-0.0051150224
-0.016654376
0.0077214353
0.035865895
0.003976931
0.035814695
0.021074139
-0.0009338098
0.02140267
0.030251523
0.008477078
-0.023993824
-0.014936719
0.009973194
-0.026557386
0.0041840617
0.0052968906
