768
0.021957329
0.035705194
0.04064952
-0.025932105
0.014330855
-0.039580412
-0.115574926
0.028433658
0.030217133
-0.007304289
0.0022631695
0.04896997
0.054602195
0.004443574
-0.07364216
0.02988152
-0.015676904
-0.011194138
0.010527175
-0.014802615
0.005756945
-0.020488296
0.024373554
-0.025028313
0.01904446
0.028836226
0.056766365
0.021289347
0.0036979276
0.030798847
0.03828817
0.011968711
-0.011580652
-0.015300155
-0.000605855
-0.0884143
0.029637111
-0.021849213
0.03480083
0.018230636
0.0031162375
0.0056168605
0.024569161
0.019598935
0.0018222933
-0.02050861
0.050362427
0.046435803
0.14054409
0.004030308
0.048833143
0.06444662
-0.019136285
0.0005330645
0.07353098
0.009799782
-0.005256809
0.05589687
0.0063193836
0.014224864
0.008476916
0.0102311345
0.045965206
-0.010835592
-0.43747565
0.03620592
0.0006462239
0.08263656
0.04207135
0.0058253054
0.023215067
0.026803456
0.02353093
-0.0012687607
0.009829406
-0.015517752
0.076598994
-0.022447536
-0.006233758
-0.013898337
0.03611075
0.0058313035
0.01724774
-0.050050635
-0.0058743516
0.040936902
0.023157515
0.0050134165
0.0023612415
0.03722894
-0.0026236968
-0.03812133
-0.025959885
0.0033798227
-0.0060227565
-0.028627949
-0.017868223
-0.055393383
-0.0010836328
0.04178337
0.016395096
-0.081330776
-0.010184824
0.05012558
-0.010057845
-0.014787224
-0.0103385765
0.08098672
-0.022005254
0.061056916
-0.018808683
0.008579438
-0.0055117314
0.029586399
0.004839353
-0.008182085
0.00825254
0.0054375925
0.08365766
-0.0074530076
0.0072652497
0.010267693
-0.013456095
0.0039349766
0.011460818
0.008704076
-0.027116694
0.0064230138
0.06965686
0.03535877
-0.040744096
0.0008436443
-0.020934869
-0.013331678
-0.013655165
0.019408919
0.032600265
0.0021583287
0.4348987
0.0023964276
0.027202463
-0.0050855065
0.035353027
0.018089568
-0.013254725
0.033705067
0.03806423
0.02654422
-0.02003978
0.015894411
0.013228579
0.07774279
0.0013267576
0.011163035
0.036540933
0.022791682
0.0259827
0.018245913
0.0038361063
0.017151289
-0.030896679
0.0059077134
0.010516022
0.029687144
0.029019058
0.0324543
0.009852165
0.053352155
0.02766385
0.01615332
0.069091745
-0.0025310845
0.0038804838
0.0028798631
-0.04112227
0.024510834
0.052603375
-0.0001330608
-0.03938836
-0.029046575
-0.017560836
-0.003101183
0.017956503
0.005139567
0.0070599103
0.0022901339
0.035132002
-0.015064013
0.041567437
-0.0036876833
-0.0025282921
0.016658634
-0.0028782894
-0.010342729
0.031254664
0.028424097
0.005355011
-0.009894413
-0.009614601
0.024905501
0.03383494
0.06296172
0.05397535
0.039872106
-0.01381392
0.024455743
-0.021742351
0.00015510271
0.07412111
0.01121687
0.004596846
0.020672083
0.03527487
0.0025449307
0.013775033
0.011483117
-0.06251228
0.007365398
0.02738671
-0.008785874
0.02993322
0.046618707
0.010299215
0.04687759
0.0010855501
0.023426306
0.008896817
-0.008114588
0.04529039
-0.035452694
0.040245913
-0.036918037
0.049972784
-0.014776205
0.0051157298
0.036774784
-0.006039161
-0.014062045
0.04485359
0.0039736093
0.0074343123
3.1062795e-05
0.019189658
-0.028866848
0.0060994457
0.003126581
0.0035760212
-0.0032539116
0.011914391
0.03934256
0.014686073
0.017613119
-0.013955136
-0.07183018
0.002103162
0.03843535
0.019693676
0.06569707
0.0100546945
0.02048183
0.014455296
0.02383892
0.020417394
-0.030096656
0.024425402
0.0142223155
-0.00038771806
0.018236738
0.030822175
-0.011602239
-0.021346297
0.027964722
-0.0028492322
-0.010075853
0.020151446
-0.016257681
0.024230648
-0.018460551
0.03663925
-0.027546367
0.013549387
-0.0028555237
0.036715973
-0.07285342
0.030901108
0.09594305
-0.01407778
0.031101871
0.2614574
-0.015054065
-0.00786076
0.041812655
-0.0061324853
0.018293152
-0.029650858
0.023049269
0.013251098
0.045419443
-0.04210931
-0.02574316
0.025122851
0.023792578
0.026676767
0.014887899
-0.0033097253
-0.008754819
-0.008348884
-0.0027628192
-0.013320285
0.0010069596
-0.03754826
-0.039715223
0.017642966
0.0039856667
0.010919354
0.0027485464
0.041200977
-0.011455249
0.010156738
0.016890967
0.009747524
0.023818264
0.0068635587
-0.014945413
-0.001304735
0.032785296
-0.41092342
-0.006342226
-0.022866124
0.017469646
0.01813671
-0.0061570713
0.008365709
-0.0005446046
0.0062717767
0.006188928
-0.055875238
0.00073995604
-0.038614433
-0.043888114
-0.02471048
0.025185723
-0.012839741
0.071907036
0.040556457
0.0036223552
0.03808467
0.0025227852
0.037768617
0.0127330255
0.065268576
0.030606378
0.035899002
-0.0052835774
0.052499443
0.010955341
0.047386985
0.041879524
0.05993353
0.05952811
0.0010086091
0.013006226
0.0175149
0.05473075
0.028256668
0.044366073
0.023784893
0.025097746
0.0002795212
0.014654794
0.014215559
0.010946805
-0.020372603
0.092699625
-0.011035343
-0.011614188
-0.0036063062
-0.016766112
-0.14972122
0.03618071
0.0022684243
0.02000519
0.027292084
0.056264453
0.017939843
-0.039878935
0.042168424
0.018620266
0.021634031
-0.008609526
0.020358952
-0.014905435
0.0034180314
0.3538523
-0.0141002415
0.019567076
0.033525538
-0.026816675
0.039849114
-0.026418954
-0.0051197824
-0.00064691587
0.03714882
0.0073272083
0.0014323437
-0.00061477395
-0.008090082
-0.023171881
0.0015600184
-0.02094087
-0.01533085
0.027335243
0.0016579949
-0.024605162
0.017764747
0.027119538
-0.042412847
-0.025596801
-0.03305123
0.03969748
0.016159452
0.07455128
0.043247648
0.008868566
0.0042157704
0.06562162
0.060051933
0.009171289
-0.047372013
-0.022098873
-0.0038203127
0.020811077
0.022775562
0.022627147
-0.027260637
0.011849829
0.012532506
-0.02353913
-0.007813322
0.011452636
0.047977775
0.036102604
-0.01857744
0.013180795
-0.009204847
0.0220278
9.9160934e-05
-0.031797357
-0.009575411
-0.013509689
0.0075080493
0.0025832623
0.030333808
0.05300877
0.042932298
0.042303473
0.008344772
0.008321027
0.002803001
-0.0060832617
0.028038008
0.048359983
0.05162323
0.018805383
0.0034531197
0.008393079
0.026357759
-0.003795571
0.026394635
0.046911437
0.0018257948
-0.0036069797
0.03360644
0.009777458
0.009568805
-0.012277966
0.024650404
0.030097328
-0.0021683862
0.00816805
-0.009130621
-0.09607413
0.012751084
0.032700237
0.0059930272
-0.000748659
-0.005584302
0.020445827
-0.019214915
-0.01831946
0.023381468
-0.0027721426
-0.03021763
0.041346744
0.08297036
0.0071841623
0.018035417
0.011824039
-0.050597962
0.00613225
0.041353296
0.0039799665
0.024862288
0.027145915
0.015683055
0.034058042
0.016143968
0.023502229
0.014421343
0.023678105
0.015699793
-0.008815722
0.0066696573
-0.026351115
0.02481833
0.017216405
0.010363647
-0.02685292
-0.033014864
0.04195561
-0.027426906
0.020481871
0.03914193
-0.023924664
-0.017877191
0.05165944
-0.00073309353
0.004317039
0.0031424423
0.031411562
0.0511112
0.0061314846
-0.01988834
0.023523916
0.0088717835
0.03845237
-0.014722094
0.113411866
0.084813595
0.025351431
-0.017755717
0.016614554
-0.024225961
0.006387247
0.024682466
0.047063593
0.00923944
0.025330633
0.018123157
0.051056966
0.026941307
0.00042871156
-0.007612723
-0.0282773
0.09919204
0.024993123
0.010200481
-0.020454302
0.032577235
0.020152235
0.02742334
-0.028168812
0.019238591
-0.05053905
-0.0061114817
0.02010551
0.04074737
-0.00950513
0.035562545
0.014527246
0.030460708
0.015901716
0.036172364
0.01226344
-0.01987096
0.12016237
-0.010156258
0.028406937
-0.0022313762
-0.022490619
-0.0008200241
0.01946452
0.0427242
0.010578541
-0.016439108
0.0437791
0.014430827
0.037399266
0.0124694435
0.091695026
-0.013182632
0.008585611
0.0059083477
0.026662372
0.008303614
-0.019175438
0.035736
-0.0072740163
-0.013466598
0.010869981
-0.009124056
0.03988651
-0.0063295653
0.005198537
0.11485452
-0.02055393
0.011963236
-0.009688757
-0.016623724
-0.007147037
-0.0040337523
0.030525316
-0.04855904
0.013791718
-0.026017435
-0.024966398
0.020822749
0.049871013
-0.02371722
-0.017649144
-0.0394506
0.039686084
0.042490873
-0.03531468
-0.04926835
-0.0135522075
-0.003922796
0.015921578
0.041556958
0.028480012
0.012149343
0.059734516
-0.002125401
-0.0011902066
0.01783655
0.034550153
0.018936442
-0.011579339
-0.008530581
0.051446196
0.15472102
0.028249875
-0.027359102
-0.107544996
-0.00728616
2.6108384e-05
0.020164479
-0.032966882
-0.00055070827
-0.112468794
-0.0342151
-0.0026505366
0.0076796263
0.023439698
-0.045718566
0.034975562
-0.01809275
0.02681488
0.0044075497
0.047720335
0.0041748877
0.0067625875
0.031331632
0.016691461
-0.0019276739
0.031820875
0.03536348
0.024207188
0.024471119
0.030045852
0.0048467293
-0.013412164
0.008697791
-0.015112301
-0.03782558
0.0019387162
-0.016256653
0.009120712
0.017590975
-0.0054294523
0.047856633
-0.028448911
-0.02826047
0.021014905
0.0022774125
0.05022191
0.02850317
0.004044513
0.021150196
0.007948155
-0.014336796
0.048359476
0.010293185
0.010370054
-0.0017027832
0.0048815547
0.027148059
-0.0045208293
-0.016266359
0.018716082
-0.011813736
0.03078788
0.02256892
-0.02263637
0.0028609703
-0.02979523
0.015713725
0.0036731693
0.010895568
-0.015541782
-0.041390687
-0.064018585
0.013532018
0.005066876
0.012687434
0.049552042
-0.015616268
0.017211923
0.073000506
0.019364363
-0.009137991
-0.026949614
-0.027375843
-0.008634444
-0.0039945045
0.026449548
0.028387047
-0.008137245
-0.0013734428
0.02375496
0.022727162
-0.008992362
0.016867109
0.028850442
0.02813543
0.060525063
0.022558106
0.017433988
0.025000114
-0.0192854
0.029767834
0.011226146
0.026660599
0.025687436
0.041140217
0.05902479
-0.026057502
-0.029374741
0.0063510807
0.008589533
0.030930633
0.01879203
-0.012914313
0.0073505677
0.008322687
-0.021103354
0.09538
0.047504056
-0.032296438
0.0076462226
0.0073768627
-0.0056699673
-0.011473706
0.000704374
-0.00021335781
-0.0040096287
0.0011324257
0.023018796
