768
0.045025457
0.009542928
0.016986901
0.013239626
0.02216583
-0.02997751
-0.053187918
0.03029137
0.021082193
0.01484751
-1.616992e-07
0.021053009
0.056806933
0.009754392
-0.06860926
0.034235932
-0.029385883
0.015446092
0.010956123
-0.02942277
0.03855721
0.01702086
-0.0050539863
0.017972847
0.014045482
0.021662695
0.023210265
0.040956676
0.0021895734
0.016517585
-0.0042577013
-0.01353942
-0.016181288
-0.0079748295
-0.0049546505
-0.039991997
-0.02632948
-0.018143913
0.004013486
0.0074074124
0.0017181252
0.01952564
0.001458434
0.022858886
0.00052351324
-0.020139981
0.018862901
0.0035852662
0.06909842
0.0054113157
0.02883019
-0.0012823062
-0.015535307
-0.0004785314
0.031885475
-0.02582326
-0.018228494
0.0162519
-0.0024926658
-0.0077144112
0.03229387
-0.00084944145
0.03874356
-0.03078293
0.07248027
0.012008613
-0.03853153
0.03318669
0.029016268
-0.030930124
-0.0006696518
-0.00013671938
0.036580916
-0.011594042
-0.019138554
0.026469557
0.0365534
-0.07383631
-0.001493944
-0.00667115
-0.011289731
0.009284712
0.023001654
-0.01778279
0.040168073
0.015846932
0.010862798
-0.0070547913
-0.02065628
0.025422186
-0.020129288
-0.017934017
-0.04107581
0.0020400987
-0.022229016
-0.017059075
0.008532504
-0.034606084
0.018486425
0.06309822
-0.0005494707
-0.05710672
-0.028678698
0.0196696
0.021905323
-0.0058208625
0.0014029235
0.022984527
-0.005303295
-0.011782361
-0.0053747226
0.006492736
0.0048647053
0.04056281
0.013958374
0.009609221
0.03943846
0.007431823
0.026018757
0.014512943
-0.0016394728
0.03546945
-0.012116077
0.0032874043
0.011064742
0.0050033308
0.0063376953
-0.019615933
0.021922298
0.019178256
-0.0014603132
0.013574215
-0.0030476642
-0.025164282
-0.017716376
-0.009363834
0.002010241
0.0015153068
0.45212308
-0.010038511
0.01715619
0.00486735
-0.015197147
0.009108861
-0.009796253
0.0023104195
0.0029338656
0.026086185
-0.008342873
-0.010946622
0.014714491
-0.016012404
-0.017572422
0.010217049
-0.0046219444
-0.010472679
0.0051949215
0.008581308
0.015878148
0.0073408945
-0.055013835
0.014290921
0.00777885
0.05211056
0.030934699
0.024313215
-0.01911811
0.0113670975
0.0114480695
0.004311069
0.01491616
0.022230333
-0.028287733
0.029247073
-0.029987251
0.008844624
0.085201755
-0.021906786
-0.035336554
-0.035295896
-0.009341276
0.013842928
0.024597814
-0.017044216
0.012143603
-0.021441799
0.015183628
-0.0248019
0.0063669262
-0.011781906
-0.0042454475
0.006721354
0.010119979
0.0013857755
0.025087021
0.024922477
-0.00900019
-0.012962063
-0.0046436246
-0.026309805
0.044683866
0.010121245
0.029741665
0.041730925
-0.006523263
0.024598924
-0.022105856
0.0016577427
0.029644668
-0.037227347
0.021338029
0.019824374
0.017236901
0.023052312
-0.0065827207
-0.004403935
-0.04883732
0.0044489414
0.005405381
0.014105782
0.0551807
0.028871996
-0.006261125
0.052675482
0.018604467
0.02864234
-0.01271368
0.002305248
0.016640741
-0.017826006
0.0661242
-0.007803716
0.0643492
-0.0035243712
-0.014011317
-0.016341798
0.0099646505
-0.002134615
-0.003432807
0.024352022
0.0044110827
0.016038397
-0.008108032
-0.020246692
-0.014339745
-0.000428227
-0.025148237
0.0003551829
0.0033950838
-0.0035050586
-0.008592608
0.0010432263
0.010838598
-0.06631782
-0.01303714
0.021848114
-0.005755978
0.027825993
-0.014186629
0.019596461
0.02173975
0.047484588
-0.0018977104
-0.028831214
-0.0016141512
0.0128348125
-0.02441602
-0.0022695425
0.03194134
-0.03008873
-0.023654688
0.008974824
-0.0023631034
0.0041703186
0.03328136
-0.0021860416
-0.008797169
-0.012041491
0.022625303
-0.0075847805
-0.00636299
-0.011662629
0.0050075976
-0.017594906
0.0039750147
0.07720651
0.024970718
0.016419204
0.03476187
0.026931083
-0.0055412245
0.013856771
0.014778479
-0.0017720938
0.029036496
0.0066688047
0.011265743
0.042828113
-0.041018646
-0.010427157
0.005849542
0.006294254
0.0062912144
0.0057241176
-0.014812837
-0.013397238
0.005361801
-0.014385628
0.018161848
-0.0020545172
-0.04818742
-0.015441961
0.04616396
0.011144085
0.07514133
-0.022246229
0.06114938
-0.004964121
-0.0049012275
-0.0020810103
0.025493871
0.015167878
-0.0066226986
-0.045047484
-0.00026655223
0.029102828
-0.2725638
-0.013949481
0.009399337
0.002695495
0.005415866
-0.020789385
-0.043252565
-0.01007837
0.048118513
-0.039861523
-0.0052777966
0.007590276
-0.028445717
-0.027602484
-0.03773796
0.010715095
-0.023049278
0.03803928
0.03370077
-0.0071073924
0.0734871
-0.026108654
-0.009646057
0.01768165
0.009665289
0.0010502489
0.029808253
-0.009342857
0.010730543
0.001896601
0.03381189
0.02999705
0.019948045
0.037629962
-0.034213573
0.007743192
-0.03501897
0.021112723
0.009358749
0.032886274
0.029800758
0.023067614
-0.009658594
0.0462293
0.014025546
0.0026885404
0.002797999
-0.15582547
0.001206949
-0.0046148584
-0.009723329
0.0098937005
-0.13208424
0.022765616
0.02885349
-0.0014592712
0.0021324449
0.020066503
0.018938215
-0.056144744
0.03266414
0.007866706
-0.0032068084
0.014003717
0.05195523
0.008216398
-0.008387951
-0.059229728
-0.035304036
-0.004933243
0.06638777
-0.036867104
0.05840653
-0.015690053
0.012701603
0.012720763
0.01284776
-0.009424789
0.0005040566
-0.020961156
-0.012797231
-0.03223985
-0.05522402
0.014212238
-0.013507316
0.001606114
0.015035549
-0.02937218
0.06461574
0.024356138
-0.001745797
-0.014681398
-0.034546737
0.029131955
-0.0031275002
0.022323038
0.029509874
-0.0034475126
0.0047610286
0.029264932
0.012191406
0.00554976
-0.022698315
-0.03189166
-0.014322389
0.010568996
0.0075161667
0.006326196
0.010909974
0.035416458
-0.03037177
-0.015410773
-0.00022326753
0.012064302
0.01621417
0.030677633
-0.01911457
0.0029402045
-0.021559905
0.024952224
-0.0042757597
0.07966897
0.0050966
0.019095896
0.01797812
-0.0044029183
0.0054720957
0.034071226
-0.0007503894
0.025734479
0.017145071
0.032591198
0.01811976
-0.015035999
0.0188709
0.00021661689
0.04921209
0.021479378
-0.046463635
-0.005855675
0.013557525
-0.00166448
0.004537918
0.028662369
0.005699959
0.008317534
0.008101275
0.029920667
0.011205227
-0.033817526
0.026371371
0.019594098
0.0049075186
0.021651419
-0.1675807
-0.16487256
0.021787617
0.012912339
-0.00284629
0.020393912
0.00012671236
0.020686202
-0.018880054
0.004541692
0.00071925065
-0.005362253
-0.017613295
0.049480394
-0.0015170391
0.017393082
-0.019545838
0.02679611
-0.019028915
0.020696694
0.021786265
0.014247445
0.017440107
0.028451262
0.013062279
0.038457282
0.0010404808
0.020855691
0.00240605
0.0096347565
-0.030927991
-0.038724653
0.040791325
0.022186968
0.026975378
0.028126797
0.004512362
-0.022168368
-0.013309649
0.021909136
-0.019927794
0.023896564
0.042387646
-0.0028338847
-0.021384032
0.01973496
-0.011175425
-0.00043063398
0.003311772
-0.0021970125
0.045912776
-0.0060045486
-0.03265198
-0.014863027
0.016250357
-0.009326366
-0.034942776
0.024151497
0.028608417
0.019076385
-0.0388111
0.008005846
-0.0028031268
0.002791677
0.0066836546
0.06616301
0.013580817
0.05480867
0.013043706
0.017292954
-0.0031745525
-0.0049214815
-0.0065904832
-0.019617768
0.08339646
-0.0026637984
0.010560177
-0.0057759006
0.0051187715
0.013923397
-0.00866068
-0.020573083
0.027882278
0.0007359323
0.016331874
0.0004487284
0.043762293
-0.01628029
0.018128831
-0.045761354
0.01575584
-0.012834855
-0.0034974162
0.03424598
-0.018968003
0.006889952
-0.0066790977
0.03535655
-0.008661972
-0.00038223137
-0.022520423
-0.013081506
0.02425811
0.019448482
0.011059867
0.0038765292
0.023112923
0.011356565
0.03127472
0.03143331
-0.032833662
0.022162352
0.028994402
-0.024259426
0.018746987
-0.016584244
-0.024190938
-0.022494324
0.014893764
0.0015062838
0.0076446556
0.031811737
-0.033799905
-0.0020347731
0.078507945
-0.008524399
-0.0066698715
-0.028077822
-0.044542823
-0.0047678016
0.03249268
0.009846515
-0.025930084
0.001218998
-0.012456394
0.010658768
0.026302543
0.01345649
-0.06095401
0.015610169
0.0049796975
-0.011834699
0.0353289
0.008716431
-0.035762284
0.009420639
0.013136684
0.03669082
0.03602788
0.03355834
-0.00021213933
0.03151908
0.007896501
8.211357e-05
0.0072066053
0.004320383
-0.012245684
-0.0043719546
0.0035350367
0.04210817
-0.083361745
-0.0057991045
-0.030045396
-0.07501905
0.0023356492
-0.006192575
0.013355179
0.0009138516
0.026024278
-0.01730185
-0.048061088
0.026900372
0.018313289
-0.009701436
-0.039020892
0.030024888
-0.008317834
0.015416902
-0.012549962
0.0366825
0.013409018
0.0057328944
0.015379158
0.028237883
-0.0076453825
-0.016123904
0.016570847
0.053685043
0.04869527
0.0069100074
-0.0011551013
-0.01352014
-0.008119935
-0.0067525855
-0.013743004
0.0074543757
-0.03224755
0.010012923
0.018840449
-0.07995115
0.028135533
-0.014369026
-0.035423245
0.018162673
-0.012132883
0.024793494
0.019626047
0.007068773
0.018526454
-0.00063731155
0.0058773216
0.033363223
0.03351526
0.014850934
0.0029052403
0.0097154295
0.01851568
0.009886054
0.010324781
0.053157814
0.0020214815
0.051066704
-0.0010510351
-0.0077670105
0.012493344
-0.031146387
-0.010852253
0.00025524988
-0.0042608185
0.026195215
-0.018672826
-0.021046907
0.019104108
0.030497994
0.0025282376
0.06321892
-0.053644285
0.03413079
0.041394178
0.051857047
-0.014732647
-0.015381941
-0.010714702
-0.011768046
0.010868049
0.016718404
0.0007358435
0.0118076475
-0.02626786
0.020144958
0.029271381
-0.013248474
0.0331944
0.03127611
-0.019545032
0.035889518
0.017500583
0.004324141
0.018446313
-0.005085933
0.001050326
-0.0070803426
-0.0048972648
0.008694251
-0.0058114957
0.16288051
0.009955549
0.0010045065
0.01548979
0.005534169
0.0046202634
-0.008580808
-0.0042406083
0.029106563
-0.01805853
-0.030575598
0.08767846
0.031787675
-0.009092053
0.02835385
-0.008124668
0.0074871755
-0.0788978
-0.029825477
0.0010630344
-0.011892154
-0.0072591333
-0.0036382251
