768
0.04635948
0.013955972
0.0419688
0.05946374
-0.0032730168
-0.015923854
0.020831307
0.04219834
0.004678998
-0.0022352322
-0.0015116425
0.03883722
0.04235936
0.00043515986
-0.020616254
0.029114481
-0.014773415
0.07237336
0.024279984
-0.025719129
0.02646406
0.00252662
-0.025734877
0.054931454
0.00861979
0.009108257
-0.0097662
0.03260908
0.007619916
-0.0122380685
-0.0035627855
-0.015776314
-0.0087988125
0.008975061
0.00036059067
-0.019238219
-0.016576983
-0.013441667
-0.009973363
0.003346622
0.012651177
-0.0017199345
-0.019708188
0.050741896
-0.029713387
-0.0110552525
0.043423086
-0.0065404815
-0.0060136816
-0.018036721
0.038510136
0.009492655
0.0047669983
-0.0032339434
0.03088369
-0.021922262
-0.026173938
-0.016102698
0.006052382
0.012656413
0.043454755
0.010685919
0.012141611
-0.020498823
-0.21240368
0.03285226
-0.026813852
-0.0008622444
0.019907454
0.0048419973
0.0146501
0.00590696
0.030817352
0.0025065313
0.016111227
0.024625234
-0.01699007
-0.021809002
0.032873843
-0.009561115
-0.03526673
0.02700533
0.019233983
-0.0069227405
0.071712814
0.03730954
0.054099023
-0.020350376
-0.0014197668
0.012336534
-0.025821688
0.023217538
-0.02024767
0.0360987
-0.016097246
-0.0009494716
-0.003088676
0.0052009216
-0.015644033
0.034825534
-0.00021910587
-0.059407298
0.004828665
0.04383716
0.032371752
-0.014632633
0.0076709297
0.029654743
-0.0039968896
0.0033355237
-0.038935404
0.01838965
0.044255264
0.050224602
0.017207636
0.046326645
0.055122316
0.03226923
0.020171527
-0.014916359
0.027308613
0.005054143
-0.010247462
0.020148706
0.025397157
0.025361417
-0.015363533
-0.024827575
-0.01709152
0.0050636367
0.025888214
0.020438053
0.008290832
0.01694823
0.041885793
0.012966136
0.0012469847
0.015098578
0.19377705
0.008282341
-0.0047962125
0.013489074
0.0043566995
0.0064663463
-0.038445383
0.0009732127
0.019273771
0.026010951
-0.02783157
0.013926964
-0.026986012
-0.020381043
-0.008852848
0.046665665
0.01681956
-0.010759236
0.032214172
-0.027835835
-0.007569005
-0.031338368
-0.018617919
0.03866613
-0.023153529
0.03351312
-0.009106754
0.05177107
-0.024427326
0.016266244
-0.0052175713
0.021430908
-0.026429018
-0.0013501819
-0.015156719
0.03378328
-0.0012742009
-0.009166067
0.055032395
-0.020954935
0.043506064
-0.032579705
-0.00518321
0.025456045
0.04834567
0.009886654
0.0151300235
0.02217894
0.0032471595
-0.024789425
0.0013604912
0.030613909
0.02801197
-0.025683692
0.021680476
0.02645965
0.0020087112
0.0061621866
-0.019493258
-0.01389659
0.011776933
-0.028852945
0.034450684
-0.026945695
0.030850854
0.06511607
0.01172196
0.043605175
-0.021370284
0.024930345
0.013708253
-0.037337694
0.019752014
0.053698678
0.027069032
0.033175148
0.006177471
-0.0070276367
-0.009909514
-0.015216262
-0.033901293
0.010711066
0.039820366
-0.034286175
0.024851358
0.026422102
0.04412032
0.01829845
0.0030423258
0.04868287
0.04180017
0.01854341
0.02937986
0.020182043
0.075887926
-0.013803199
0.003729168
0.0078017786
0.024379218
-0.02278105
0.017690869
0.007837983
0.04831049
0.01209918
0.010326637
-0.04346906
-0.047232427
-0.010782212
-0.0043968516
0.035032164
-0.011166386
0.009225632
-0.0067483643
0.023821421
-0.023076685
-0.010305225
0.024357641
0.10538314
-0.012543189
0.023934746
-0.015296855
0.051612318
0.0068339687
0.095482275
0.0044885688
-0.01328037
-0.009401757
-0.019275798
0.012387403
0.040241167
0.010191919
0.008814186
-0.017779939
-0.0082222335
0.010885226
-0.024470031
-0.0067068036
0.017432572
-0.0056698993
0.0076062
0.023800094
0.013672298
0.023268502
-0.014778682
0.010775449
0.046934456
0.008126252
0.021175774
0.011527188
0.02006334
-0.11814529
0.036538295
0.023737041
0.013566881
0.04945909
0.029661125
0.034450125
0.010565758
0.020714292
0.016876863
-0.055296198
0.0054029347
0.0030142614
-0.020686908
0.015220929
0.02257231
-0.000689636
-0.004036274
0.022592152
0.011445303
0.029603632
0.025694164
-0.042649444
0.008332317
0.05144174
-0.035836842
-0.059443634
0.017270487
0.07431424
-0.0065124
0.01651092
0.010761338
0.006795526
-0.006804992
0.030290263
-0.020315163
-0.023744067
0.0044000284
-0.27914914
-0.008383736
-0.006087395
0.0034702031
0.02794061
-0.037527204
-0.04367887
-0.004547745
0.0105397245
-0.019555196
0.027928982
0.0024295023
0.0008808364
0.011128914
-0.0440629
0.018227737
0.026456933
-0.006119946
0.018749632
0.007201782
0.03175693
-0.011687019
0.010005786
0.02896136
0.0383519
0.0022461321
0.03602285
-0.031655267
0.031975903
0.022143412
-0.018266518
0.035433635
-0.029472183
0.036890317
-0.050324135
0.020068051
0.019135427
0.042284053
0.03847924
0.01894297
0.0016804875
0.043019913
0.00043137983
0.06291596
0.014257617
-0.015523848
-0.0043296833
0.51373214
0.00053497864
-0.014394273
-0.036366593
-0.016450567
-0.051972587
0.034127362
-0.020741917
0.010771308
0.011353228
0.016064143
0.019149581
-0.004778259
0.026505763
-0.018527739
0.025602907
0.0088883415
0.048919976
0.017394207
0.0078050606
-0.12286485
0.010117711
0.00041233815
0.027604606
0.0022310284
0.030695617
0.030610578
-0.033814665
0.028695615
0.020535914
-0.002636255
0.0055334736
-0.023167929
0.009291686
-0.006256606
-0.055251632
0.04196891
-0.013231878
0.012184154
-0.014689866
-0.027276527
0.034491014
0.038439665
0.03227796
0.022802414
-0.016364023
0.04955112
0.0073259813
0.004507341
0.03325976
-0.0037165973
0.010038333
0.036013797
0.05555844
0.00037810585
-0.032412574
-0.029892039
-0.051771134
0.032635584
0.03084871
0.009735404
0.010503513
0.05211679
-0.018205488
0.01237916
0.012672406
0.02956019
0.083177656
0.029483868
0.001223066
0.023327049
-0.008836701
-0.049887832
0.013510625
-0.1607309
0.04643689
0.06895491
0.0065771104
0.0065913396
0.0105051
0.0036030887
0.0035611265
0.034305092
0.03487163
0.011346087
-0.0063544493
0.006132558
-0.0033601678
-0.00045979104
0.058058355
0.012235243
-0.027755024
0.028681431
0.035192344
0.04144086
-0.0037633304
0.01817487
0.003505971
0.017460424
0.007981975
0.0325823
0.01851183
0.003293145
0.023816314
0.052061867
0.0014303763
0.061383024
-0.5115477
-0.56100786
0.01173863
-0.0008437722
-0.030972177
0.004341124
0.014292421
0.012944942
0.007965981
0.01628617
0.0048397644
0.006650703
0.011928297
0.035265554
0.002121681
0.04088288
-0.055674996
0.0523913
-0.014916416
0.0023760933
0.0061235805
-0.0019335867
0.004324968
0.0046580937
0.0043953857
0.005309955
0.010386833
0.0075575835
0.030202009
0.020949934
-0.007271911
-0.033015706
0.041409463
0.024662456
0.003662389
0.0024028362
-0.0014736744
0.018639548
-0.01717934
0.020109788
0.005768745
0.041669887
0.03469755
0.0070370683
0.0005482333
-0.032601062
0.003400074
0.059595607
-0.006312719
-0.009370894
0.03978853
-0.00018381381
-0.013318686
0.009923974
-0.0013092351
0.0048257657
-0.029931579
-0.025620593
0.032499388
0.01850658
-0.005569158
-0.015296487
-0.0067538195
-0.01161085
0.004082094
0.047750372
0.025824398
0.07396782
0.010911992
0.0039996407
-0.012010812
0.017073775
-0.0013930565
-0.0029333518
0.03419717
0.003262179
0.036016006
0.025633482
0.042824995
0.004880872
0.0073719127
-0.000510139
0.016190402
0.03183634
0.013149014
-0.005784105
-0.0072478955
-0.022625772
0.027773501
-0.024597634
-0.0077736937
-0.014707803
0.022258574
-0.027018443
0.0012422682
-0.005072874
-0.007255005
0.039392527
-0.016036373
-0.0058189505
0.0077902093
0.0027559672
0.06163718
0.00055939204
0.016814899
-0.0373845
-0.009247379
-0.023086531
0.029744662
0.03551903
-0.07770797
0.012476422
0.035081442
0.00447623
0.042720024
-0.026003843
-0.027662268
-0.010110857
0.03181534
-0.0060335966
0.010362761
0.018858062
0.0052575087
0.035613857
0.029272418
-0.0004382257
0.024111984
-0.07685012
-0.020871574
-0.018476244
-0.006762441
-0.005478196
-0.02290939
-0.007788133
-0.02647126
-0.02717676
-0.007796492
0.017533699
-0.010759442
0.04040936
0.011255174
0.009288439
0.036358938
-0.0059740976
-0.03748125
0.02294459
-0.004838851
0.032999977
0.03637658
0.022266675
0.039005913
0.023545828
0.010589948
-0.0067667924
0.022653863
0.037815608
0.033985235
0.014320288
-0.02026757
0.016213292
-0.07505635
-0.0435797
-0.011980019
-0.030682962
0.041440632
-0.01461751
-0.008941138
0.011535657
0.01978154
0.033239786
0.0051114056
0.0100017
0.019953268
-0.039656702
-0.01119281
0.060911804
-0.024025658
-0.020803666
0.007983035
0.029037513
0.019760812
0.0069238814
0.0056123924
0.061295822
0.004183232
0.025817834
0.0022118546
0.018061817
0.06621489
0.026332032
0.053421378
-0.014267736
-0.026278188
-0.0069821808
-0.0371295
-0.0022895471
-0.012350541
0.0055560335
0.02692691
-0.0011411832
-0.06411717
-0.02356543
0.01458465
0.03218741
0.0011488153
0.020907959
-0.013280074
-0.013429789
0.014151083
0.028580938
0.030495392
0.027602077
0.001043299
0.0052023064
0.0003587319
0.003425023
0.024565207
0.047432803
-0.0018418547
0.02684585
-0.0033162888
0.026491234
-0.01662046
-0.002951423
0.046517067
-0.020177767
-0.037113197
-0.010680483
-0.0025774639
-0.009135993
0.022367
-0.033728775
0.0386033
0.042028435
-0.016116269
0.041367076
-0.050171454
-0.0012311182
-0.014617614
0.035919964
-0.0030467713
-0.004091111
0.016405802
-0.0311694
0.02437231
0.029812025
-0.0035396777
-0.025877498
-0.015602008
-0.0063380394
0.003112012
0.008562479
0.03964007
0.03465309
-0.0020379412
0.015056391
-0.038181007
0.0125427265
0.022661433
-0.0159661
-0.026373949
0.012522698
0.013684292
0.021153724
0.014625606
0.14216964
-0.002098399
0.05239079
0.007081455
0.011418469
0.018309882
-0.027533488
0.0027059582
0.003772154
0.014288549
0.0048818965
0.07897394
0.06229213
0.011452584
0.06454343
-0.0008840241
0.02329129
-0.021248404
-0.034554653
-0.026052197
0.007339461
-0.018713426
0.009100727
