768
-0.003677325
0.027196737
-0.06404091
-0.0049628904
-0.015656918
-0.011468173
0.20192869
0.035788007
-0.0020053345
-0.008166344
-0.0055835457
-0.0023361908
0.00056948216
-0.007219608
-0.03011434
0.0014812617
-0.009413311
-0.0014194394
-0.013057978
-0.052826937
0.0017663251
0.00068145944
-0.0020151017
-0.016197914
-0.018525176
8.221574e-05
-0.013099604
-0.010805849
-0.008077404
-0.0075151175
-0.0037252363
0.016365515
-0.014906253
-0.0033853757
-0.0013886854
-0.037338223
0.047029823
-0.005934114
-0.009156814
0.014841402
-0.006530966
-0.0025589026
-0.008835786
0.009107349
-0.01568463
-0.0007103321
-0.0027751229
-0.00035386125
-0.0044965344
-0.012486315
-0.0087605715
0.0031898404
-0.035223823
-0.0066994727
-0.0003451303
0.0058735847
-0.009637172
-0.017147824
-0.0046663624
-0.015980996
0.0020696064
-0.0067130392
0.023933116
-0.049531464
0.014509955
-0.00455454
-6.394517e-05
0.08028378
-0.055482626
0.0030513296
-0.0060865683
-0.026283026
-0.011199001
-0.015389712
-0.011474566
-0.012512957
-0.008422351
-0.14612141
-0.0035743136
-0.019644847
-0.0044222544
-0.00040006623
-0.0022430532
-0.0129711935
-0.04321576
0.025203953
0.06358387
0.014126963
-0.012670027
-0.003617662
-0.004537611
-0.007549684
-0.062942326
-0.00791837
-0.0064569307
0.0015663245
0.0037779883
0.0014450949
-0.01738539
-0.0087887915
-0.013036094
0.004398568
0.092745125
0.047072478
0.008627094
0.0018022201
-0.0012516183
0.13229924
-0.009922538
-0.0045920922
0.00142862
-0.0072390116
-0.0031391121
-0.009570329
-0.0173183
0.0024567037
-0.07963585
-0.0034129731
-0.004460155
-0.06399767
-0.012518422
0.012737883
-0.0013052871
0.027330175
-0.012173141
-0.014442335
7.2952076e-05
-0.012234836
-0.06500736
-0.013122051
-0.0014403323
-0.006316309
-0.009223945
-0.0029307764
0.005668243
-0.0035424028
-0.008127867
-0.025671218
-0.069512665
0.0076310146
-0.007923529
0.011844614
-0.16357593
-0.010999199
-0.004909587
0.14798062
-0.0024248145
-0.0054344647
-0.005999025
-0.013102786
-0.008852621
0.026270572
0.02359323
0.060558572
0.0072033615
-0.0011687845
0.0062175784
-0.007327203
-0.00818232
0.045025826
0.09440252
-0.003690011
-0.016012931
-0.011480838
-0.001129509
-0.003009093
-0.0041728797
-0.050243083
0.003986925
-0.097168535
-0.029804315
-0.012328159
0.0027406167
-0.005126129
-0.050702646
-0.026703535
-0.07966494
-0.002370522
-0.009887203
-0.04033617
0.002112175
-0.0033592328
-0.0062789763
-0.002997263
-0.0038218664
0.0023753594
-0.009614048
-0.00683571
-0.008277313
0.049587745
-0.0004043501
-0.101442695
-0.0034593495
-0.02446359
-0.011890547
-0.08109103
-0.0071821343
-0.052541893
-0.0029287464
-0.110440955
0.018282294
-0.005090218
-0.0015888313
-0.0034226722
0.006768507
-0.019135129
-0.00630676
-0.012205966
-0.004093826
-0.006183156
-0.0046477094
-0.002222101
-0.009737969
0.004457198
0.0019633595
-0.011089229
-0.013803306
-0.00021262065
-0.020508299
-0.0008253552
-0.0036052987
-0.017394628
-0.01791537
0.008408526
0.061688606
-0.0034030846
-0.008183699
0.0010917637
-0.0072384393
0.0026243124
-0.0024974232
-0.009504939
0.1571628
-0.003033469
0.0018733063
0.0007309691
-0.0015646644
-0.0027493602
0.00885986
-0.0026590135
-0.0049589346
0.048969816
-0.0018768186
-0.0039109825
-0.005417226
-0.003444477
-3.2954427e-05
0.002014883
-0.033228476
-0.021913335
-0.1320071
-0.014809007
-0.0046244888
-0.0053720647
-0.009225148
0.0714838
-0.0853268
0.002277846
-0.018386183
-0.0048179463
-0.011437131
0.060743775
-0.005900385
-0.003986205
-0.01777937
-0.0081095155
0.032419253
0.054025475
-0.025191845
0.018793723
-0.258883
0.031771485
-0.009594209
-0.006625585
0.0050647436
0.0012324966
-0.035340242
-0.0077231457
-0.01198383
-0.008934127
-0.0027098411
-0.006740068
0.064151876
-0.038202673
0.036156554
0.005662189
-0.0035144694
-0.00015465106
0.01408402
-0.006196715
0.004728676
-0.0040232097
-0.0068128975
-0.015175489
-0.0296727
-0.003625999
-0.010304353
0.0007976922
-0.012794319
-0.002927825
-0.1682961
7.398193e-05
-0.0071593844
-0.009502665
-0.0071154633
-0.01469772
-0.007120576
-0.001584067
0.012370453
-0.00491954
-0.011468
-0.037871886
0.00079341006
-0.0027107077
-0.07302408
0.0033317741
0.03529693
-0.0021949343
-0.012639969
-0.008740242
-0.14913116
-0.003669968
-0.010548475
-0.043111186
-0.0067305053
-0.010661888
0.07896666
-0.0026912843
-0.0048925783
0.0017184083
0.010755017
-0.002556413
-0.018290525
0.005852358
-0.004916568
0.0016272287
-0.014119627
-0.0142719885
-0.016417725
0.006601733
-0.011156795
-0.0104042245
-0.009725883
-3.2561584e-05
0.020449042
0.008758619
0.00464994
-0.017600883
-0.010205872
-0.004630463
0.0031139888
0.017260779
-0.009877658
-0.021057768
0.016707703
-0.002206253
0.10548278
0.0053555
-0.011174383
-0.012416064
-0.011395896
-0.022582175
0.09490843
-0.00124745
0.010470401
-0.044811226
-0.0003370189
0.0008844119
-0.016710114
-0.0022230041
-0.008485333
-0.0070801224
-0.007322738
0.008584724
-0.07177263
-0.03814379
-0.026030913
-0.0009333401
0.006052776
-0.002121049
-0.0044518285
-0.0063262177
-0.003548832
0.004411761
-0.017161196
0.02776956
-0.0007368209
-0.018697154
0.005414049
-0.107727595
0.0013785866
-0.0056343367
-0.01191066
0.02922565
-0.049289335
-0.013016584
-0.028866617
-0.007469652
-0.0050646286
-0.0021027303
-0.0090121515
-0.0002809504
0.009162031
0.009985455
-0.005013488
-0.007316126
-0.008362999
-0.013518026
0.0074391044
-0.0035430621
0.00026130019
-0.008234732
-0.0068752193
0.0031539074
0.000592159
-0.0013157377
-0.004282737
-0.0080293985
0.001469818
0.008171402
-0.08335284
-0.0007315766
-0.012440131
-0.041688945
-0.007912914
-0.0071572987
0.0005444567
-0.017097464
-0.027230095
-0.009918479
0.0832484
-0.0049037402
-0.01154343
-0.0148019465
0.0051784897
0.060471
-0.0017101144
-0.0019607076
-0.01763051
0.014341515
0.066077985
-0.0036673585
0.116726026
0.002822619
0.0015695156
0.0011687377
-0.01028673
-0.035414908
0.0057083024
0.030032104
0.0047962633
-0.0046634376
-0.021449257
-0.045465328
0.036475465
-0.02921837
-0.0735973
-0.0022609625
-0.0018534195
-0.04334033
-0.007430005
-0.0010643739
0.00399514
-0.0014563955
-0.007710301
-0.011895242
-0.0022916573
-0.007427664
-0.007002642
0.022262014
-0.023908248
0.0037274768
-0.0039921734
-0.009407765
-0.0068198782
-0.005686194
0.013752405
0.001951811
-0.02973901
-0.05479561
0.025633039
-0.046672393
-0.003433895
-0.0028419585
-0.0060972967
-0.0034847634
-0.00071025564
0.004707729
0.060218513
-0.004348001
-0.01025761
-0.033273473
-0.0058100014
-0.003038349
-0.0036710426
0.0009841662
0.03785654
-0.055641245
-0.0015982235
-0.0025546197
-0.012598656
-0.007829276
0.0044796187
-0.05022989
-0.0003278892
-0.009884353
-0.0010656693
0.017756138
0.024867589
-0.0040598474
-0.02078697
0.0065451516
0.062261853
0.0031842315
-0.0091719255
-0.019613674
0.0004098432
-0.07801982
-0.0034704807
-0.009037355
-0.0075047985
-0.0012317837
-0.00112379
0.002598079
0.00020211632
-0.034492575
-0.10620079
-0.061194044
0.11005775
-0.00821528
0.0582004
-0.0061977827
-0.0029406932
-0.0075818696
-0.013806839
-0.011527058
-0.0058017625
-0.0024699827
0.004052423
-0.00024139948
-0.1557813
0.0036127777
-0.011889434
-0.13798623
-0.020050399
-0.005729449
0.007845046
0.008932937
-0.050449155
-0.07126624
-0.0022219175
0.06895093
-0.0057862233
-0.001927018
-0.052680682
0.015275281
-0.018674055
-0.007031887
-0.005759876
-0.0207922
-0.007485393
-0.000268771
-0.0027503152
-0.009309435
-0.005925796
-0.010378069
0.053032205
-0.013232688
-0.017814402
-0.033404283
-0.0058711977
-0.008020985
0.025364911
-0.008315874
-0.0018517683
-0.0138012
-0.010694187
-0.005635527
-0.044685125
-0.0011601859
-0.005660957
-0.067200474
0.00014490957
-0.0062602106
0.0017705895
-0.0020803597
-0.01445621
-0.010076167
0.06999663
-0.01818077
-0.010316524
-0.018088883
-0.0017820332
-0.014917412
0.0033273662
-0.0025751863
-0.009473377
-0.0016405795
-0.0013726471
-0.005611191
-0.059242375
-0.00015908542
-0.053784627
0.04610382
0.0025990768
-0.0065316316
0.0015706107
-0.0010515539
0.041031063
-0.0017555704
-0.016816879
0.029510422
0.00026294272
-0.008122614
-0.009253166
-0.05734449
0.049300235
-0.0065616327
-0.069714546
-0.021389373
0.0052578095
-0.018514935
0.023492623
-0.035780523
-0.02971699
-0.0060645076
-0.003919386
-0.092964485
0.00034848007
-0.0054765125
-0.0063283825
-0.005393205
0.027150813
-0.010132492
-0.010321
-0.10248525
-0.01161388
-0.00525354
-0.004320753
-0.009091639
0.104301974
0.008735424
-0.028852532
-0.06511243
-0.061869763
-0.015295907
-0.019437075
-0.0025294863
0.01048057
-0.0715968
-0.004662613
-0.0023632213
-0.0039855307
-0.018507566
-0.0076654614
-0.008707574
0.008866775
-0.008942846
0.0015019148
0.08987233
-0.002430461
0.0052957893
-0.0074601774
-0.010843428
-0.0065060183
0.06817787
-0.0008213385
-0.037852004
0.09791947
0.056565695
-0.12836483
-0.013522544
-0.02262306
0.0012211722
0.038976785
-0.011199218
0.008362211
0.003419615
0.08829548
0.08915614
-0.07807777
-0.0037662894
-0.005112447
-0.00051848375
-0.008110667
-0.0031566569
-0.0024654225
-0.01072801
0.0137851285
-0.0034955586
0.004140413
-0.006711674
0.0034516254
0.0032378035
-0.021498444
-0.008079423
-0.011813346
-0.0036988412
0.0015332571
0.06742049
0.0043915235
0.062074184
-0.0013737098
-0.18403284
-0.010362652
-0.0049580415
-0.10243042
-0.049407307
-0.011682316
-0.10989613
-0.0024783032
-0.008402968
-0.004905427
0.0024461483
-0.007084797
0.0005876604
-0.0039786776
-0.008810342
0.042298682
-0.016858952
-0.05058356
-0.1063226
-0.009509507
-0.0023314387
-0.06400959
0.016907617
0.04037652
-0.03526265
-0.03736962
-0.019266916
-0.00404572
-0.029753584
-0.0009732481
-0.008759967
-0.007700835
-0.009010072
-0.009402525
-0.005663686
0.005801431
-0.089497335
-0.012438613
-0.0033595297
-0.013798541
-0.013622331
-0.024765447
0.028372908
-0.047874037
0.0052223587
-0.0035216745
-0.0046295426
-0.0022334263
-0.08138607
0.007286563
-0.005803238
-0.00835578
0.0026068683
0.045455504
0.0041720658
-0.0026532959
0.027678372
-0.0022717144
0.013088483
-0.0009903727
0.0036240136
-0.0063790637
-0.011098729
-0.014191621
-0.015704727
