768
0.020208616
0.02157885
-0.015536383
-0.018125128
-0.004979004
-0.031932153
-0.06374365
0.036993828
0.00245428
0.0033835713
-0.012964015
-0.011138079
-0.001227314
0.006843003
-0.054121725
-0.008273016
-0.04548894
-0.013106316
-0.011870038
-0.025924204
-0.012585356
-0.032672636
-0.013178987
-0.03744548
0.0073624807
0.014066928
0.032930996
0.0021983457
0.0022159216
0.008330118
0.021169396
-0.015690742
-0.0041088206
-0.012358229
0.015810708
-0.049375072
0.028592033
0.002911468
0.005087211
0.0124687
-0.0004239117
0.01900535
0.0067738737
0.0061037815
-0.0041907555
-0.030250609
0.016908897
-0.002612953
0.032412842
-0.03187681
0.008610148
-0.0077964896
-0.045744803
0.0069089932
-0.00031441357
-0.023582442
0.0020372022
0.0151483845
-0.013020721
-0.030831497
-0.008703034
0.013408831
0.005986498
-0.022869207
0.45650283
-0.0074458662
0.0069505097
0.02531125
-0.0029726513
-0.010517001
0.0024202883
-0.012496639
-0.00048086164
-0.025087086
0.017835645
-0.03641509
0.0071180584
-0.03357611
-0.022614798
-0.031543825
-0.00037730578
-0.009023501
0.0009089215
-0.015186488
-0.017158434
0.008479512
0.0070485994
-0.078336835
-0.016871182
-0.0015647067
-0.0006705559
-0.026615055
-0.0044125114
-0.026198113
0.014018084
-0.027887665
-0.015259843
-0.034164354
-0.0053120507
-0.0076170946
0.005170082
-0.07210018
-0.013004154
0.0017473506
-0.0151682105
-0.011299569
-0.014397742
0.05393854
0.0012333491
0.009439997
0.020699598
-0.009006499
-0.024630753
0.010654304
0.007882984
-0.028996099
0.0065172245
-0.003527905
0.008683668
-0.01753235
-0.005567747
-0.007940974
-0.011901807
-0.008813495
-0.010734532
0.0075239255
0.008369169
-0.051478818
0.017401379
0.006921275
-0.02719824
-0.003433857
-0.028914697
-0.015487037
-0.0078159
-0.012596881
-0.0012221218
-0.014187558
-0.0016366646
-0.019400317
0.009900258
-0.033855025
-0.008860822
-0.0014009431
-0.009784179
0.01575342
0.00528009
-0.001855573
-0.018887091
-0.0144694615
0.0104120625
0.14051642
-0.014762772
-0.015729453
0.009712725
0.00027085628
-0.009682443
0.002624702
-0.0131466715
-0.0005686785
-0.024799293
-0.0018639183
-0.0034770684
-0.017522112
0.019058608
-0.010324908
0.0038834854
0.0017560128
0.018659992
-0.016036019
0.029892683
4.3207005e-05
-0.010500965
-0.019328581
-0.0047190217
-0.020047223
-0.01754214
0.010801135
-0.04654729
-0.023760257
-0.016752964
1.1901279e-05
-0.00480626
-0.02475404
-0.013789282
-0.03132037
0.0020498533
-0.026403634
0.007254772
-0.017258529
-0.01044688
-0.011863756
-0.006437552
-0.014480987
0.0009180469
-0.031122392
0.0013780658
-0.0017597222
-0.006654003
0.019330185
0.020364683
0.02648935
-0.0012144352
0.00024924133
-0.0069487197
0.0041424213
-0.012728258
-0.014700122
0.04789399
0.0045870235
0.0005457916
-0.044724785
0.012864187
-0.02611817
-0.0005943391
-0.010105831
-0.055391636
0.005005685
-0.007313774
-0.02422652
0.00096846133
0.016201794
0.0020478487
0.009344598
-0.00572781
0.0031401124
-0.02056501
-0.019986771
0.00989375
-0.034524847
0.022148358
-0.039914
0.046478048
-0.008218435
-0.0052476246
0.0057721417
0.0002585958
-0.019851752
0.008774456
-0.015579832
0.009947146
0.0012728171
0.0008240901
-0.02019852
-0.015918702
-0.007948372
-0.014995913
0.011324409
-0.011251938
0.009823735
-0.013073767
-0.000495448
-0.016812898
-0.041777372
-0.01564655
-0.01599873
-0.007861058
0.013776238
-0.0024774238
-0.026722912
-0.008302088
-0.00811443
-0.010066193
-0.009602229
0.018272521
0.012108482
0.14383705
-0.010680968
-0.0042756125
-0.025830414
-0.07039554
0.034882322
-0.016681604
-0.028000332
-0.006113636
-0.0076703313
0.019633869
-0.021471085
-0.0046864
-0.002775996
-0.019678455
-0.011823281
0.0027939498
-0.06434548
0.008493544
0.017708756
-0.006772937
0.011146596
0.07424556
-0.028842088
-0.038460176
0.007047094
0.021255923
0.0053088814
-0.0154234925
-0.0010448573
0.0017349035
0.02225542
-0.013850503
-0.0063450704
0.0059179766
-0.0053929165
0.018744446
0.0062825135
-0.0053199655
0.0025648486
0.009021274
-0.015719546
-0.005501654
-0.007815183
0.004336475
-0.12175703
-0.018870845
0.017220272
-0.0065471884
-0.008450979
0.023753665
-0.017839296
-0.013990273
-0.012009726
-0.015941538
-0.006052549
-0.02028844
0.0031353992
0.0077855214
0.00786585
-0.2021472
-0.006635179
-0.038763408
-0.0013283745
0.007411366
0.013399092
0.011435063
-0.011235025
0.014667542
-0.0041345423
-0.039573897
0.0048077228
-0.045522366
-0.015581244
-0.022290844
-0.0029292847
-0.012930288
0.024476947
0.016529238
-0.013870508
0.014425566
0.0005790154
0.0045925505
-0.008062971
0.014636693
0.022448376
0.011226273
-0.018629842
-0.004689271
0.012727434
0.023849428
-0.0046692793
0.02508513
0.011566267
-0.021958139
-0.008066237
0.02250241
-0.0070781237
0.020160392
0.014093978
-0.006735708
-0.004232536
0.016381633
-0.02532717
-0.0071733813
-0.0059583723
-0.033473786
0.4294418
-0.008145353
-0.015473385
-0.00731811
-0.002357507
-0.050851572
0.003035617
-0.0072221775
0.0035371429
-0.008939681
0.032098886
-0.033863705
-0.008325116
-0.011703774
0.007940866
-0.012275099
-0.02409329
0.0034218298
-0.028552774
0.0030157107
-0.046641797
-0.0019186132
-0.0014193354
0.0059078042
-0.009201741
-0.009194291
0.00252223
-0.0008683888
-0.0017568697
0.028840072
-0.01225628
-0.011048477
-0.012651801
-0.012811526
-0.022817723
0.007816973
0.0038171192
-0.011920113
0.010424736
0.0053719585
-0.011531136
0.012295841
-0.003626602
-0.03149958
-0.028259562
-0.030005712
-0.004098925
-0.04421762
0.0144956205
0.024721976
-0.0018041602
-0.0063944426
0.013724794
-0.005923443
-0.008184768
-0.04352913
-0.03375102
-0.0035973983
0.015172029
-0.00036605762
0.00586591
-0.020090355
-0.015946949
-0.0032794785
-0.043092143
-0.0042528952
-0.025135355
0.015836746
0.038474876
0.004798656
-0.021554286
-0.005799813
0.009206232
-0.0005014783
-0.58661044
-0.012055804
0.0031145555
0.012528798
-0.008275363
0.004478583
0.02850191
0.008657347
-0.015140401
0.012205574
0.002184803
-0.00021272007
-0.06135561
0.021021178
0.017026406
0.012521298
0.0017775815
-0.047485463
-0.008987792
-0.0140921865
-0.0030882407
0.009293216
0.008037662
0.003534894
-0.04160509
0.0031227844
0.013168133
-0.0076311324
-0.036609158
-0.0062278328
-0.029498328
-0.012698463
0.0020394567
0.097875394
-0.03559636
-0.01268458
0.011007466
-0.0044381497
0.0054847747
-0.01666898
-0.0018600312
-0.025288766
-0.013459176
-0.003142877
-0.009927322
-0.016110193
-0.0063882703
0.021137297
-0.012496717
0.012247058
-0.021274578
-0.03778282
-0.011136312
0.009321146
-0.004232166
0.032984927
-0.015604463
0.004181166
0.003894883
-0.0039949953
0.013574524
-0.021086225
-0.008964725
0.003780009
0.0046374123
-0.0103192795
-0.032289818
0.020086354
0.034860607
0.008489454
-0.024635086
-0.0014322312
0.0052682827
-0.020913584
-0.016807836
0.018649828
-0.010736847
-0.01241157
0.020736217
0.008819579
-0.018941063
-0.0026914903
-0.0054007475
0.013052833
0.007278535
-0.019477982
-0.00064990035
0.017691271
0.009926498
0.002578783
-0.0031626897
0.033485357
0.0122544365
-0.022801803
0.005293096
-0.022717219
-0.0077550206
0.0134485485
-0.002165964
-0.00711494
0.00983906
0.011012841
0.012841891
0.01592739
0.01142451
-0.0080150105
-0.020280927
0.072997816
0.0072832666
0.010542759
-0.0050637093
0.009840806
0.012560472
0.01886416
-0.015330005
-0.012111994
-0.030760746
0.003074104
0.006129736
-0.0016822192
-0.0007505805
0.012114814
-0.007175835
-0.016229685
-0.0013502932
0.0036354333
0.017610593
-0.012078045
0.018907743
0.0046912446
0.016106045
-0.023680829
0.0010536616
-0.031119244
-0.014361101
-0.0078074415
-0.0029513198
-0.02560059
0.012938664
-0.0009367007
0.033804186
0.010891112
0.010902712
0.0055787363
-0.012569003
0.01647078
-0.01818946
-0.053299002
-0.003637065
-0.0012588936
-0.009643477
-0.026692433
0.003422392
-1.129813e-05
0.0044726026
-0.019760983
-0.020194542
0.00941477
-0.019636387
-0.0073761814
0.0046561416
0.0134746935
-0.008089772
-0.024023684
0.010078219
0.0037317157
0.016019246
-0.021602852
-0.015975336
-0.004294856
-0.00040975813
-0.011780276
-0.020513648
-0.02571481
0.0059604417
0.023522442
-0.033855923
-0.05288829
-0.01733478
-0.044225924
-0.0033011916
-0.00084371265
-0.009207856
-0.009248556
0.0027780856
-0.0027621328
-0.00014407541
-0.003278666
-0.028689107
-0.01911229
-0.012355044
-0.021728015
0.027395409
0.04808798
0.029387517
-0.02744857
-0.045762073
-0.01354995
-0.019367328
0.011991632
-0.042519964
-0.010040416
-0.059834182
-0.01554362
0.030750263
-0.011049363
-0.0019904808
-0.016933123
-0.0029066042
-0.016012054
0.00961878
-0.027733665
0.014998919
-0.0043205633
-0.025760662
0.0031778887
0.00031605465
-0.015028847
0.004806313
0.0036440669
0.005447225
0.039257452
-0.01864676
-0.009955217
-0.01728153
-0.0014508006
-0.019428214
0.0051421607
0.0032404407
-0.03923537
-0.010572715
0.019276552
0.074207366
0.0040443307
0.0026233296
-0.018080624
0.0015481833
-0.00029920752
-0.0029303771
0.007129414
-0.0074450737
0.024808666
0.011031812
-0.02312766
0.03235313
-0.0010573834
-0.0014373716
0.00034787625
-0.010274999
-0.02640211
0.0016061318
-0.028874297
0.03259049
-0.038869612
0.007590391
0.018022751
-0.047219
-0.025108606
0.0013871441
-0.012243005
-0.011240692
0.010289297
-0.0022933474
-0.02868317
-0.023127064
-0.017024454
0.0023129538
-0.004595582
0.00040671803
0.004977549
0.017948534
0.035802502
0.011124338
-0.008624857
-0.026337583
-0.014400712
-0.0128585845
-0.007861901
0.00073790946
-4.595527e-05
-0.0018614231
-0.010585834
0.007376518
0.012962283
-0.046869922
-0.015051402
-0.011361285
-0.0075192633
0.011818923
0.005180267
0.015014635
0.00813004
-0.026504809
-0.009819724
-0.008635124
0.007803065
-0.009080712
0.02278156
0.01645414
-0.038600635
-0.01276794
-0.0133967055
0.004591626
-0.009817213
-0.001727148
-0.027326036
-0.009340739
-0.017140001
-0.016385652
0.24002849
-0.003681622
-0.026747214
0.008998842
-0.021235317
-0.012366789
-0.008025785
-0.005462952
-0.008607474
0.00083495234
-0.014202339
0.017353198
