768
0.04247827
0.032626733
0.0044880672
0.015759379
0.005960179
-0.026806578
0.011713857
0.051371273
0.01321796
-0.0042403475
-0.011667933
0.0021937862
-0.01336753
-0.0020640767
-0.02650215
0.01191623
-0.0042303526
-0.01787187
0.047936045
-0.0035566683
0.00010501824
-0.01226931
0.010864039
-0.005958349
0.006319049
0.005824989
0.06205072
0.00076979597
-0.0024521416
0.00379307
0.0041393307
0.03867583
0.007119062
-0.01974835
-0.008742482
0.0105323
0.13305694
0.0064183027
0.008878175
0.03261066
0.012174576
-0.006073783
0.014178819
-0.0066816104
0.031225767
-0.022691384
0.03405657
-0.012724998
0.08468711
0.035608422
0.0041042897
-0.0040983325
-0.07214761
0.0063665276
0.036645114
0.056634102
-0.0028777085
0.0726091
0.0033851878
-0.018735694
0.04367297
-0.008981568
0.0017241731
0.004875806
0.64717776
0.022479538
-0.0016124056
0.47358415
-0.02370004
-0.010298939
0.048788663
0.04194753
-0.0124897035
-0.02538717
-0.016537877
-0.033809215
0.2124049
-0.034009546
-0.02143947
-0.018616112
-0.0023077205
0.00458108
0.011482624
-0.04304003
-0.042544357
0.0044665737
0.026602926
-0.10502457
-0.035717502
0.008182987
0.0053292997
-0.004401502
-0.070108265
-0.027427776
-0.014038792
-0.008053948
-0.010025153
0.012428858
-0.0047286516
0.034481466
0.025232494
-0.02674234
0.05232626
0.0015546251
0.007196363
-0.010027316
-0.006589678
0.09710056
0.0019899982
-0.0074415673
0.04712085
0.0042296415
-0.010027554
0.032297723
0.02851686
-0.005632354
0.015921129
-0.0054897834
-0.002414523
-0.022274815
0.0019797198
0.015177472
-0.00023981291
0.02192018
0.0074726343
0.0034762947
-0.0019019638
-0.049628448
0.054937325
-0.0070871883
-0.020004988
-0.0010335967
-0.024779048
-0.021097595
-0.01192326
-0.008205825
0.0013884665
-0.0012817745
0.30536363
-0.015931204
0.005264792
-0.0033977288
-0.057402875
-0.008347343
-0.008720418
0.062504105
0.040744737
0.0007137568
0.0055947825
-0.010004074
0.00057509745
0.19242142
0.02057257
-0.004906874
0.016400397
0.004547464
-0.013410955
0.017490838
0.039034564
0.029461289
0.12505528
0.013489487
0.004608908
0.012956309
0.006286812
-0.010885292
-0.004934387
0.048944432
0.0049658315
-0.0484151
-0.002394895
-0.006045379
-0.0024293428
0.009857129
-0.0049077333
0.007427795
0.018142896
-0.022341928
0.051949948
-0.020951074
-0.017980348
0.04168625
-0.007635909
0.058008283
-0.012839098
-0.015384056
0.014466187
0.006311291
0.001498177
0.022040747
0.012190146
-0.10416922
0.0110868905
-0.018435314
0.0073730955
-0.024373572
-0.0047435113
-0.019731872
-0.0007919486
0.00015782095
0.0021106533
0.019065375
0.00044185988
0.004191159
0.017322533
-0.0023979133
0.0011804133
-0.009531516
0.08200306
-0.0013102937
0.010593555
-0.08254721
0.011436679
0.03760122
0.0042946334
0.00041773927
-0.03964297
0.0030071158
0.07233024
-0.008455146
-0.0037927658
-0.019018585
-0.013049812
0.028875208
0.040290013
0.0018881774
-0.003950893
-0.0032491153
0.008233324
-0.0022418424
0.0022962731
-0.036275014
0.14586452
-0.037790813
-0.013220764
-0.0062711863
0.0009994301
0.003784677
0.0632934
0.006959187
0.030836195
0.072291866
0.0019839336
-0.0091950055
-0.0009172717
0.014988389
0.0021265282
0.0075790184
-0.014619987
0.05302326
-0.093298696
0.009295047
0.009216005
-0.0060666427
-0.0024239987
0.021698508
-0.06931421
0.11602392
-0.0014612492
0.0034866561
0.0009143096
0.014332904
-0.00911931
-0.00048454627
-0.008107447
0.008473262
0.56343484
0.018359488
0.005682372
-0.02421512
-0.0163463
0.019876432
-0.006551333
0.021135606
0.06030127
-0.020530177
0.011196923
-0.033055905
0.013040718
-0.012229874
0.011640443
-0.009030164
0.028127495
-0.051115725
0.13717367
0.01704937
0.0049823327
0.008783511
-0.18132389
-0.008136466
-0.0062690233
-0.0021488345
-0.01378538
0.028274264
-0.00060487766
-0.0019635241
0.00735348
0.026658617
-0.012660622
0.0006730776
-0.020269899
-0.043084122
0.10279274
-0.014682302
-0.01573651
0.0065343073
0.014536893
-0.021776859
0.04367423
-0.01031781
0.000115596806
-0.06963141
-0.010364854
0.028244756
-0.03300051
-0.014142617
0.009653427
0.015115485
-0.0023083258
-0.0097282
0.050345674
0.008991679
0.0011559739
0.02856373
-0.0068202615
0.017349923
-0.66476005
-0.012704437
-0.007094447
-0.011199231
0.024733668
0.010937212
-0.0066116652
-0.001365644
0.0161585
-0.017454082
-0.055555835
-0.023550918
-0.026262965
0.020475166
-0.013111297
0.0004984705
-0.014345465
0.053199884
0.027437974
0.007951344
0.02741539
0.009872284
0.012610288
0.011473886
0.0037494935
0.047410283
0.017437648
-0.010084916
0.021025397
0.0109689655
0.033696976
0.004784714
-0.02127386
0.0139400065
0.044720523
-0.025978468
0.119969875
-0.0005612619
0.01689351
0.018316688
-0.015733408
-0.0043801083
-0.000266973
-0.0034894552
0.020749843
0.009460568
-0.03938798
0.7393817
-0.055474434
0.009604978
0.004384371
0.011748275
-0.101921715
0.041082148
-0.011030234
0.001243002
0.0021022884
0.104353376
-0.0030707514
0.085317865
0.044731002
0.004497653
-0.0015167192
-0.050066683
-0.0025202464
-0.014849749
0.01306614
-0.17333865
-0.00040456103
-0.01134246
0.055355314
-0.0017507289
-0.006827928
-0.016098872
-0.026758727
-0.004049633
0.023568273
-0.005983322
-0.010244586
0.00011992426
-0.01629453
-0.010356567
0.034625355
-0.008968911
-0.023549598
-0.005184489
-0.0020974765
0.010997408
0.06424851
0.017178897
-0.0043000174
-0.0168828
-0.0349504
0.012481672
0.08449782
0.01640727
0.0051100138
-0.023396699
-0.014567498
0.024564035
0.0049121794
-0.0029652065
-0.022759762
-0.013693032
0.066996306
-0.023249933
-0.0025882192
-0.006484394
-0.008263892
-0.0034206533
-0.0035850587
-0.022390628
0.01805961
0.0429788
0.05938038
0.033772554
-0.0023431508
0.009616567
0.005501107
0.0038740435
-0.03646503
-0.50264204
-0.0126151135
0.015290241
0.050576754
-0.02287765
-0.0030032485
0.010094528
0.04271079
0.059171956
0.036997534
0.008963125
0.00095094484
0.013758968
0.023279386
0.012986116
0.023581628
0.023613375
-0.041437127
0.0028698165
0.009270494
0.0013278495
0.000679848
0.0115460735
-0.011227223
0.005789119
0.02475668
0.004119633
-0.004309177
-0.0017880808
-0.0048966007
-0.0063974797
-0.03993677
-0.045725483
0.5652536
0.07758591
-0.005301153
0.016219392
0.037167076
0.012500881
-0.0039625615
0.0025013222
0.017982678
-0.021284886
0.023036826
-0.027336618
-0.001525519
0.010102119
0.027606746
0.008378088
0.06687628
0.044647854
-0.015155167
-0.0040632873
-0.007538754
0.00457856
0.04868266
0.02250583
0.07109667
-0.0017554746
0.013040454
0.03919311
-0.017982172
0.014462228
0.0075895023
0.053976007
0.0752285
-0.024235321
-0.001396885
0.08053819
0.018746702
-0.06404871
0.0066817016
0.045965843
0.0045729643
-0.0036124547
0.016046595
-0.023065295
0.0076621263
0.029946186
0.083311915
0.0044789724
-0.03167678
-0.0068358914
0.047097612
0.019238504
0.005204984
0.0009740699
-0.015715783
-0.010584152
-0.010161695
0.0024878243
0.0861287
-0.0014743536
0.013994312
-0.01949531
0.0024462063
-0.06766004
4.6931753e-05
0.0066121337
-0.0032824997
-0.012422308
-0.012837301
0.03472886
0.006461779
0.020962358
0.012551726
-0.01850515
0.15657565
0.020562056
0.07192132
-0.008778569
-0.008817369
-0.019801067
0.040586382
-0.0101116765
-0.045500796
-0.01097255
0.011436163
0.049421605
0.047576904
-0.037513945
0.06191987
0.026516695
-0.022287657
0.01449034
0.018569833
0.0048705884
-0.015280574
0.19890285
-0.007775631
-0.016369285
-0.017428285
0.01000082
-0.021125542
-0.017975902
0.0009235179
-0.006809366
0.010797343
0.01926905
0.024365416
0.039437577
0.050204117
0.06909328
-0.008317352
-0.021195846
-0.0047674896
-0.0012509986
0.010414365
-0.013323662
0.006539625
-0.010879026
-0.01941272
-0.011362182
-0.05772854
0.008563014
-0.043483935
0.03069105
0.03415286
0.01436196
0.012211694
2.5668423e-05
0.096168175
0.014687867
-0.032630607
0.03483594
0.00817697
-0.0056369496
-0.013392811
0.024180334
0.05544614
0.013878144
-0.04908343
0.008667215
-0.11202973
0.018945778
-0.0028631159
-0.06726249
-0.05635894
-0.055326506
0.000908537
-0.009076467
-0.0010496082
-0.010980264
-0.020466825
-0.00056790025
0.017790645
-0.0029358747
-0.005430256
-0.0013692455
-0.040059295
0.001229324
0.0019133528
0.017031733
0.11882736
0.007784673
0.048493437
-0.08886733
-0.0012061482
-0.020186419
-0.017665729
0.025481982
0.033768643
-0.040951043
-0.0037504754
0.0854912
0.0069689737
0.06923917
-0.0021685155
0.04606512
-0.07184807
0.03206069
-0.024740383
0.04415863
0.013438104
-0.021038815
0.0067204535
0.004794584
-0.012853457
0.043970063
-0.010083033
0.028207159
0.07571389
0.028432481
-0.012717205
0.012283239
-0.009954918
-0.023406938
0.0048153
0.0022107535
0.0012725409
-0.016073557
0.07724073
0.042355362
-0.03843069
-0.019785075
-0.00035607477
0.023727858
-0.0039369264
0.0075741387
0.008391896
-0.011943577
0.056071788
0.01771815
-0.0021001343
0.02466164
-0.0041748877
0.020369474
-0.0161758
-0.014338174
0.0075334343
-0.0045668283
-0.0021421446
0.058641214
0.012810546
0.024672322
0.0066942354
-0.037820555
-0.0059976247
-0.0018232251
0.016359475
-0.0053482447
0.008784
-0.00017452355
0.0055695237
-0.018790858
-0.0046472987
-0.0039086076
-0.021244146
0.011881166
0.010626926
0.101960815
0.0872011
0.019641284
0.08422028
-0.03659823
-0.0048832297
0.0007889873
0.026366796
0.010176496
0.007906384
0.006133299
0.017751858
0.006493123
0.0034751382
-0.040624917
-0.018806243
-0.033520974
0.014881311
0.019940943
-0.023270508
0.010157566
0.014241078
-0.20424873
-0.0113013955
-0.009926354
0.021097157
-0.02008741
0.14243004
0.35326207
-0.02465298
0.013350657
-0.009832661
0.030864554
-0.010742279
-0.04501863
0.0010537007
0.014887307
-0.015597636
0.011328553
0.2536028
0.021629356
-0.013195481
0.03839578
0.0070117703
-0.00014644212
-0.003339067
-0.001838319
0.012020255
-0.017873116
0.006348018
-0.0016446564
