768
0.041954834
0.018820677
0.03654532
0.023058804
0.010761498
-0.017297478
-0.0430216
0.03899577
0.043829083
0.014677218
-0.012495838
0.028799951
0.07437045
-0.022287399
-0.063776895
0.0249013
-0.03070951
0.021028906
-0.016492067
-0.031796966
0.020671891
0.00337362
0.007142881
0.011210415
0.016904991
0.016920427
0.04904621
0.03563822
0.013267338
0.017653853
0.040410277
0.00062065374
-0.009780714
0.003289462
-0.0041900654
-0.045104977
-0.022559963
-0.0170362
0.01801868
-0.00080637156
0.009452873
0.015357356
0.031886403
0.016801614
-0.008048008
-0.003684478
0.020783424
-0.0021818415
0.062211543
0.020460494
0.036467396
-0.01119306
0.021564757
-0.010425267
0.039477825
-0.020954339
-0.012689085
0.016297113
0.0051064943
0.031455826
0.023097714
0.00612047
0.05595718
-0.026194254
-0.10108756
-0.0011755378
-0.036024213
0.058458522
0.05513612
-0.00089105364
-0.011513503
0.028598718
0.0402803
-0.02471211
-0.002317834
-0.002919241
0.03075389
-0.05926755
0.0011336161
-0.007614886
-0.009835816
-0.010226806
-0.00044380833
-0.01219877
0.019583873
0.041143913
0.03986013
0.007345254
0.004069421
0.029539168
-0.0014630009
-0.020604653
-0.0506763
0.014530922
-0.009556972
-0.0018655708
-0.0074731987
-0.07950572
-0.020561477
-0.0024191786
0.030323386
-0.090742275
0.0034800577
0.017744958
0.012839723
-0.008710495
0.005767913
0.057739604
-0.002900441
0.011226375
-0.024344908
0.0014464615
0.011902617
0.040724613
0.012342277
0.011634333
0.032111973
0.021621553
0.06341219
0.008364736
0.01593832
0.0063940124
-0.003319844
0.0003768443
-0.0019457779
0.02972177
-0.024271894
0.013649342
0.0125474
0.023062065
0.028142858
0.004203568
-0.024559883
0.0032579578
0.0050757257
0.000412674
0.0011453785
0.020523403
0.31781995
-0.0038867425
0.03376997
0.00030008805
0.005271197
-0.0011808656
-0.029370014
0.03712046
0.030600041
0.017051231
-0.029624728
0.013823366
0.0160003
0.033941444
-0.012528101
0.0049138763
0.009674339
0.0004490998
0.032306384
-0.015334086
0.0077438666
0.0052379626
-0.05526332
0.033665136
0.0039566653
0.014257672
0.03876561
0.030896574
-0.005884415
0.04521038
-0.019953186
-0.007534673
0.023108935
-0.0033495168
-0.018717906
0.0082306955
-0.03841014
0.013180247
0.05965731
-0.010955915
-0.022779817
-0.04430774
-0.010658969
-0.007983635
0.008728418
-0.005891942
0.02629478
-0.0061009103
-0.00013860424
-0.018467199
0.021963008
0.009992964
-0.0046038083
0.022706568
0.0021712796
0.021427117
0.025871297
0.04602109
0.021979086
-0.008608106
-0.00036502897
-0.0018313238
0.045550667
0.024001677
0.021055238
0.030518612
-0.0056919362
0.0023238463
-0.007851044
0.0073724105
0.041657913
-0.020705655
0.038686518
0.031054167
0.017881945
0.008725332
0.018895254
0.012734595
-0.024272025
0.0035695469
-0.00965951
0.019725485
0.06076571
0.042116154
0.0047604693
0.03896959
0.036887072
0.01919394
-0.02112671
0.017498244
0.03983582
-0.012396703
0.0450013
-0.03803782
0.094008125
-0.004973879
-0.024953675
-0.016559485
0.009403421
-0.004461866
0.00918166
0.02842138
-0.0101198135
0.076420814
0.023017786
-0.015320125
-0.013117982
0.0012892364
-0.021625001
0.0052436474
-0.00483595
0.024619602
0.0014004654
0.016918132
-0.011867616
-0.039334454
-0.00092976185
0.07248811
0.006330545
0.03677896
0.0132917315
0.020201765
0.027146352
0.029869823
0.008072946
-0.010163897
0.014914458
-0.0076073413
0.057254333
0.020800898
0.026811913
-0.031560108
-0.0070453053
0.027388133
-0.031242156
-0.022315653
0.028624317
0.003068863
0.05022282
-0.0128616495
0.036750738
-0.010713874
0.001039921
-0.024711596
-0.0022734264
0.021886142
-0.0077043073
0.047738183
0.03290785
0.015200325
0.17123924
0.026954425
-0.002678438
0.015651928
0.03529764
0.0016004634
0.024660885
0.017838102
0.021069525
0.059411798
-0.030402428
-0.016790824
0.018019063
0.008538555
0.0071970187
0.0033255762
-0.018643383
-0.008809948
-0.007999584
0.004154981
0.010039283
0.014487941
-0.030983172
-0.005596088
0.019764932
0.0036801298
0.02155887
-0.011921159
0.058068234
-0.008160956
0.009093093
0.01665731
0.031944443
0.013771639
-0.000994197
-0.03880249
-0.01198914
0.024079107
-0.30453858
0.011017908
-0.005570021
0.012899351
0.018507292
-0.013221755
-0.029576173
-0.010212607
0.02035238
-0.02106185
0.011108483
0.0066396864
-0.0061164373
-0.025802236
-0.040121812
0.036706347
0.0019472104
0.040070206
0.012100624
-0.008065752
0.08609538
-0.01874138
0.022744345
0.0215923
0.041259974
0.052022655
0.015427997
-0.012763251
0.008149604
0.02134827
0.038693566
0.019740472
0.03709161
0.047557358
-0.020533055
0.004879585
-0.009647986
0.014181728
0.011833053
0.032447245
0.036143415
0.019744342
-0.0052660145
0.011324493
0.022647534
0.004428671
-0.0077433703
-0.15811649
0.009972331
0.022355705
-0.00842895
-0.005561834
-0.11544896
0.038945377
0.02747877
0.014663431
-0.0022207736
0.01531582
-0.010678813
-0.06323866
0.00038037225
0.010449721
-0.0024323186
-0.005307091
0.06716093
0.012735574
-0.0128230285
0.0852602
-0.010591873
0.012237912
0.04702763
-0.012740974
0.0238273
-0.0058383066
0.017767182
0.01261338
0.016272409
-0.010803619
-0.0054544094
-0.0046507525
-0.008734777
-0.021548457
0.0012430486
0.017564947
-0.0005006605
-0.012042014
0.02312905
-0.02272945
0.018006006
0.004948624
-0.008087741
-0.008951755
-0.040484086
0.038235676
0.0315256
0.04208048
0.056148987
-0.009460712
0.013539251
0.025143916
0.015670348
-0.0017887241
0.0013818411
-0.021133844
0.00419301
-0.0027431932
0.006582072
-0.006603112
0.015782584
0.030643355
-0.014639506
-0.0015573113
0.00720309
-0.005115303
0.06829493
0.020634258
0.015784893
0.027348986
-0.020260517
0.03161574
-0.006660986
0.009505378
0.023471585
0.017244354
0.013516243
0.018781902
0.007818628
0.0069713606
0.008708262
0.00784205
0.0044944263
-0.0033969958
0.021095503
-0.023278542
0.006109721
0.036314774
0.07236748
0.03391163
-0.015635746
0.008773557
0.0018321989
-0.0002749417
0.016022608
0.03967197
0.028645327
0.004151373
0.03291754
0.020550163
0.01787952
-0.019584736
0.03769983
0.02951573
0.016485652
0.04030253
-0.18561865
-0.12428705
0.015249241
0.025935696
0.026086817
0.033547167
0.0013854293
0.033194147
-0.0048212702
0.0112609025
-0.014655588
0.0009249385
-0.037686907
0.01546949
0.009660709
0.034526195
-0.014277061
0.028249461
-0.024719976
0.018886704
0.042673185
-0.0002878212
0.023615325
-0.008933263
0.0155223645
0.010238795
0.015526765
0.041448638
0.008584918
0.0073610186
-0.008415776
-0.046699345
0.051211726
0.02454608
0.0069641415
0.0046124314
0.021743674
-0.022486674
-0.031386804
0.025017442
-0.020414727
0.02267491
0.036831856
0.0054290053
0.009871923
0.012887317
-0.0069379564
-0.0036163004
0.0012797385
0.020393098
0.051649336
-0.024558844
-0.017183233
-0.012894844
0.0025779512
0.011415654
-0.023850275
0.04085884
0.06622465
0.02081376
-0.025663054
0.005942353
0.00058709737
-0.012815881
0.024106782
0.032187656
0.01697282
0.037737705
-0.001444334
0.04216759
0.010497966
0.011874782
0.004837972
-0.029736802
0.09541992
-0.004892415
0.02416481
-0.012956915
0.0071362476
0.025975259
0.031063994
-0.025884457
0.045511834
-0.013701891
0.0028986204
-0.00019291964
0.047439214
-0.010599294
-0.0052800956
-0.0092327325
-0.00952046
0.013900379
0.020247882
0.015355355
-0.0130465375
0.037364725
0.001406821
0.024910793
0.023109581
0.005067344
0.0033987863
0.0009336241
0.037754413
0.034747187
-0.0056701046
0.0033372175
0.018220037
0.00086648157
0.014223283
0.02478113
-0.029593462
0.018418467
0.044415284
-0.014243888
0.013339185
-0.01662898
-0.02523338
-0.018821247
0.028077163
0.007215897
0.006300795
0.03069857
-0.0049336907
0.020052006
0.08160443
0.0011452128
-0.005738866
-0.0037658869
-0.033121463
0.002836296
0.005379726
0.006971588
-0.03639558
0.004403334
0.007632797
0.0046914998
0.0048439847
0.031875145
-0.046587106
-0.0017509335
0.014584726
0.0077356338
0.015358808
0.0028759434
-0.027883802
0.01492738
-0.009001978
0.020906866
0.043906536
0.023488054
0.02540146
0.018972123
0.030464917
-0.014313164
0.02483538
0.017087448
-0.0012261814
-0.010304079
-0.02142397
0.012607966
0.060265675
0.014582439
-0.011356748
-0.054095425
-0.018464793
0.0035553526
0.017976658
0.0063470625
0.008699191
0.008456062
-0.040309694
0.0028115502
0.025726322
-0.013201096
-0.044967905
0.02129299
0.015208781
0.010102808
0.0009651092
0.040642455
0.02576133
0.039432883
0.025808187
0.024246968
-0.010849471
-0.0024064642
0.021115927
0.04546642
0.050054017
0.016766561
-0.0085441815
-0.014380865
0.0031781804
-0.023704559
-0.017380526
-0.014988987
-0.058329917
-0.011376002
-0.0014650472
0.024010174
0.003968632
-0.02001108
-0.008055041
0.022025028
0.007173117
0.03854438
0.018431239
-0.014516681
0.0262601
-0.0036296418
0.002456921
0.06889244
0.025394883
0.015790973
0.0036397835
0.02775279
0.026730847
0.021091757
-0.003698472
0.03470479
-0.015660534
0.025151063
-0.010550443
0.0018051534
0.013469413
-0.023836743
-0.0098932525
0.02898436
0.0060590776
-0.010784644
-0.011962189
-0.027153524
0.008841151
0.04118476
-0.028581873
0.06524838
-0.0416262
-0.0019034769
0.05027649
0.03552033
0.020375209
-0.0010801553
-0.025967687
-0.012188361
-0.015424808
0.024828235
0.021854546
0.047274187
-0.024356764
0.0038687694
0.010310161
0.035024866
0.0112561565
0.04239369
0.0024520967
0.03245564
0.017152458
-0.01741962
0.040783226
-0.0075440225
0.014722351
0.008588021
0.01036913
0.035790477
0.0088368105
0.19565071
-0.0026910764
0.004809147
0.01947422
0.008549642
0.046588518
-0.0063455557
-0.015466735
0.013459888
-0.0126333395
0.015100177
0.092975095
0.056056272
-0.017793398
0.008598579
-0.0022048703
0.005356132
-0.041779067
-0.022725573
0.009475155
-0.006060935
-0.0070721353
0.014432402
