768
0.043191005
0.024578394
0.004377962
-0.02795151
0.022012923
-0.06287944
-0.07565538
0.038996693
0.022937333
-1.14791565e-05
-0.014939102
0.022962643
0.04668588
0.041915566
-0.0690524
0.02086922
-0.020632003
-0.009314121
2.1398768e-05
-0.023227049
-0.0050529325
-0.039688602
0.0019187425
0.0083078565
0.021443384
0.016976899
0.054850075
0.007043475
-0.0011623492
0.04480181
0.03539623
-0.0003962702
-0.018501628
-0.025609413
0.014129816
-0.058305785
0.020882158
-0.013141427
0.01451754
0.015379652
0.010079507
0.01331852
0.009758265
0.01049278
0.0053792736
-0.012251084
0.055054378
0.007351398
0.07253306
-0.034146886
0.026792886
0.021818964
-0.035296936
0.007972066
0.03542644
-0.019208785
0.0012171171
0.05044584
-0.002993873
0.0020274029
0.0009156962
0.0074699963
0.040422168
-0.019278018
0.3117382
0.011757761
-0.014486875
0.05982824
0.018001879
-0.0050537298
0.024739143
0.013680858
0.002749987
0.0033452853
-0.010790558
-0.016436445
0.013964389
-0.032924034
-0.009296764
-0.016747702
0.013409497
0.00026654248
0.018941345
-0.039841082
0.009888492
0.020928543
0.027221814
1.24828775e-05
0.0030577218
0.020834692
0.0032223796
-0.03449306
-0.023184687
-0.009906063
-0.011923379
-0.04364457
-0.009579513
-0.056174405
0.013947578
0.023817563
0.021992777
-0.061874207
-0.012400672
0.048663136
0.0068494617
0.0013677042
0.017359545
0.09408389
-0.02014853
0.032345004
0.012823491
-0.001837923
-0.014649402
0.009211983
0.0019322513
-0.021204345
0.015628446
0.01170462
0.034126576
-0.014154199
0.0004397569
0.021379659
-0.005216174
-0.011744582
0.007332762
0.040700216
0.0005569026
-0.028954519
0.04385797
0.016963497
-0.014766777
-0.015158966
-0.0116422335
-0.022832174
0.0041537476
0.03450906
0.02715762
-0.00489408
0.35845733
-0.01921537
0.016381284
-0.019487387
-0.001615194
0.0308413
-0.008509796
-0.008345203
0.017403528
0.0071638045
-0.012614923
-0.0045227516
0.016193913
0.07588694
-0.028838824
-0.011539627
0.025043208
-0.00085550855
0.0017142943
0.04504254
0.0042899037
-0.007731727
-0.052143317
-0.008241552
0.018283924
0.009336027
0.034577787
0.02923366
0.01204693
0.01658883
0.030886035
-0.03000672
0.10971861
0.012784153
0.0038129664
-0.011631513
0.0065284097
0.0051993434
0.050725963
0.014933695
-0.039527595
-0.035321444
-0.021478921
0.0041784826
-0.0069060046
-0.009769768
-0.011863107
-0.011599159
0.036301263
-0.007316431
0.0006516119
-0.024443671
-0.008913693
-0.006473393
0.020034833
-0.009110618
0.036739364
0.01709783
0.052965246
0.008136615
-0.019843334
0.029649675
0.044240803
0.04639079
0.030128637
0.0054360162
0.00050500286
0.020769054
-0.021224307
0.0016945488
0.108467475
-0.006686087
-0.01983164
-0.016355712
0.014144811
-0.007459179
0.012968087
-0.0041233236
-0.050212357
0.004957978
0.0055550397
-0.010416158
0.008839368
0.011753531
-0.012179692
0.05732406
-0.006033316
-0.006104283
-0.02471503
-0.0046383315
0.048296314
-0.048453435
0.02552812
-0.026773144
0.039046425
-0.019988073
-0.011394598
0.013900413
-0.012851148
-0.002497044
0.026428703
-0.0152605325
0.017149374
-0.0035584145
0.026638621
-0.028332576
0.00036881928
-0.008796547
-0.004790261
0.017063797
0.010068002
0.06517973
-0.0152619835
0.02964367
-0.013729375
-0.044986174
0.0063649104
-0.0034917935
0.005046446
0.051317196
0.009486553
-0.011296693
0.017508728
0.010654751
-0.0011513949
-0.027359992
0.014667134
0.005113739
0.07327284
-0.019873044
0.009754448
-0.03718351
0.002083062
0.04943033
-0.002046682
-0.014763599
0.038484238
-0.017888041
0.026629657
-0.045383725
0.03708218
-0.025937539
-0.0017627868
-0.012598712
0.04966258
-0.07188737
0.028478252
0.058061667
-0.004444207
0.02116832
0.14653547
-0.008496391
-0.018418925
0.047041073
0.009548713
0.010365009
-0.013329786
-0.00021236988
-0.0008796763
0.021318315
-0.024140779
-0.0028098184
0.024656383
0.017197993
0.047431104
0.021488441
-0.005779163
-0.0024491653
0.012145096
0.010474398
-0.022909982
-0.010326756
-0.023745993
-0.07398868
-0.01416796
0.014183968
0.035849746
0.0040377397
0.067623466
-0.0107149
0.002228507
-0.00041107822
0.016974082
0.034004673
0.027898336
0.0053430228
-0.008111281
0.03813481
-0.18005607
-0.008898207
-0.0463428
0.018597309
0.014055987
0.0016594209
0.014062679
-0.010722758
0.013373035
-0.0062683523
-0.08892854
0.02353253
-0.033261176
-0.029881159
-0.014751129
-0.0014200006
-0.010268774
0.06449219
0.033222634
-0.026932258
0.050461885
0.0041332194
0.022525484
-8.289929e-05
0.031335447
0.025903955
0.022554172
-0.028181346
0.0069474615
-0.003888347
0.03922866
0.010443417
0.021345919
0.046808884
-0.024446342
0.0068673273
0.036232952
0.03367685
0.055370755
0.023976292
0.011890394
0.031961888
-0.01110675
0.011683516
-0.00020627382
0.002284529
-0.03931575
0.36999652
0.009351421
-0.013800612
0.005496808
-0.023864364
-0.16850457
0.022168221
-0.0024369443
0.01085185
0.007085018
0.023099804
0.007830018
-0.03639108
-0.0033988864
-0.004478053
-0.008081684
-0.009120033
0.017435817
-0.02709108
0.00708714
0.22622551
0.0049245865
-0.019111505
0.010880714
-0.011591871
0.039941266
0.005961836
0.021727743
0.015549189
0.021352276
-0.019622397
-0.011910201
0.008559029
-0.013740067
-0.029653512
-0.018005934
0.0062063206
0.0062879864
0.0013656191
0.027319271
0.0063533545
0.029126586
0.001730682
-0.034070384
-0.010572773
-0.04602195
0.03680869
0.021911861
0.051063213
0.045537975
0.007144338
-0.006297758
0.026969342
0.006414784
0.009219106
-0.019903108
-0.03798188
-0.0059962803
0.031781614
0.020003567
0.018485937
-0.025449721
0.0037858237
0.0004885448
-0.053883027
0.009624784
0.00145752
0.07061917
0.040074192
-0.015433382
-0.0060741943
-0.01333537
0.045628317
-0.0055385428
-0.64698666
0.0067399545
-0.0031259253
-0.0030235045
-0.006726457
0.020067299
0.06212055
0.043318443
0.024376327
0.036219474
0.026965184
-0.010570607
-0.034776777
0.05035955
0.01630636
0.044719055
0.027307827
-0.021963516
0.002162442
0.01096243
0.009236893
0.012127946
0.049945664
0.02723075
-0.012336254
0.039125096
0.01888407
-0.01777928
-0.013316352
0.011825421
0.010933141
-0.0032820716
0.018371567
-0.021477988
-0.055140182
0.01743173
0.022651065
0.0047330833
0.0016752251
-0.00036163657
-0.018959653
-0.011418325
-0.0022407062
-0.004283169
-0.007959741
-0.010930286
0.034911048
0.043789282
-0.0074594263
0.025863646
-0.0053525884
-0.025567206
-0.002776098
0.046214953
-0.010574394
0.029116128
0.02185566
0.016882358
0.02274917
0.0035438274
0.025907766
0.009833138
0.011051161
0.011952044
-0.013165389
0.01838733
-0.037728503
0.0536085
0.028115433
0.012218044
-0.02177955
-0.02457589
0.021295736
-0.011893265
0.015126078
0.041574545
-0.012535728
-0.0154028265
0.04161999
0.05042941
-0.014909104
-0.013601978
0.009007252
0.053264968
0.018729595
-0.014319966
0.017562732
0.039439324
0.028858677
-0.010595375
0.042803753
0.05725517
0.046984464
-0.0051644645
0.0072126267
-0.020492865
-0.008890527
0.036713056
0.048321024
0.013940075
0.00617556
0.024930034
0.013379415
0.04174086
0.01487634
0.010265545
-0.0027079456
0.08269104
0.022320658
0.0044030743
-0.0047737304
-0.010461754
0.01760816
0.060724188
-0.008888357
-0.041063815
-0.035092305
0.0055399276
0.014143252
0.020589916
-0.0039039867
0.07448673
-0.0064711436
-0.0015359658
0.01760008
0.029571086
0.05179921
-0.009127839
0.06510461
0.024352223
0.01865449
-0.038480293
0.011988289
-0.04611433
-0.0035580655
0.01637623
0.01260145
-0.009808444
0.02236083
0.011159998
0.039371736
0.04628673
0.038564406
0.0067752195
0.016049594
0.011506359
0.008571467
-0.03753598
-0.0104304515
0.011541526
0.006234118
0.00870612
0.0033273622
-0.004716782
0.018983848
-0.0044461284
-0.0017895455
0.07037659
-0.0071861944
-0.0014240433
0.0011807417
-0.010648779
-0.0037285825
-0.017890416
0.028492153
-0.009133008
0.004474539
-0.013046286
-0.010140899
0.0012629727
0.026888488
-0.012506569
-0.010138445
-0.040227726
0.03291694
0.043952428
-0.039068453
-0.07012529
-0.04703571
0.012852841
-0.002045491
0.018972825
0.024161076
-0.021435559
0.03678258
0.0026587672
0.0074285227
0.0076539284
0.004906169
0.0003799346
-0.020384368
-0.003367949
0.05733494
0.078413546
0.00919282
-0.025212731
-0.08567432
0.016625252
0.0026374627
0.028169101
-0.011421372
0.0004371375
-0.07458031
-0.022064853
0.06103048
0.00079654594
0.020874579
-0.0155154355
0.038994495
0.006462433
0.05499887
-0.0135181025
0.04317897
-0.029988242
-0.005105378
0.021070814
0.025045473
-0.0063545234
0.052851126
0.024355954
0.02338294
0.0036708235
0.01730141
0.014052493
-0.00079140865
-0.0071184095
-0.0037273841
-0.027436363
0.007954628
-0.029054709
0.009388584
-0.011477399
0.015740385
0.011221579
0.0011316488
-0.031443927
0.014078917
0.0022424143
0.013936216
0.025088353
0.0138227185
0.0055540022
0.00441621
0.000115497794
0.058317956
-0.0055731405
-0.001192223
0.012190894
0.015932389
0.017539352
0.018531851
-0.010863343
0.026279539
-0.013341029
0.02109057
0.0331496
0.0013785753
-0.024621453
-0.006939016
0.0034808156
0.016339187
0.031111633
-0.009984541
-0.04258398
-0.03281645
0.008293969
-0.018632917
-0.0021117493
0.01661262
-0.021136623
0.035261113
0.037889946
0.024223182
-0.019219838
-0.021570321
-0.011885126
-0.0023336445
-0.0049463813
6.839474e-05
0.020386789
0.034733456
0.015257368
0.014042392
0.034501437
-0.05035807
0.008093795
-0.007408995
0.014103268
0.034797847
0.020175323
0.03806121
0.008775607
-0.033053298
0.0054657445
0.0030439338
0.019673685
0.004069547
0.03173236
-0.15271653
-0.03541292
-0.020904517
-0.013323903
0.025682565
0.01633092
0.0011980777
-0.009988673
0.019718384
0.019645821
-0.044600487
0.091283634
0.04707795
-0.03989558
0.005356737
-0.0075860564
0.004237278
-0.008536065
-0.0063140495
0.010902953
0.0008109064
0.025270037
0.033719916
