768
-0.003629319
-0.006226979
-0.003627739
-0.001109105
-0.010397826
-0.006347916
-0.027038042
0.04477038
-0.01744087
-0.0030508242
-0.0031742097
-0.004489125
-0.00828817
-0.014252655
-0.0113962265
-0.012045762
-0.011667786
0.0009058345
-0.01808267
-0.016575595
0.0005509312
0.0075048176
-0.013829028
0.0024707858
-0.0024160664
-0.008410617
-0.008286742
0.0030761198
0.0019151322
-0.011884096
-0.0043955557
-0.009956911
-0.005026002
0.0029763433
-0.0009470173
0.0052558808
0.0026456027
-0.0060517634
-0.0055906516
-0.010406106
-0.004485541
-0.006765874
-0.0038974928
-0.0074211247
-0.015944848
0.0012241856
-0.017558474
-0.011625509
4.357114e-05
-0.031502705
-0.010394744
-0.009154211
0.0043756743
-0.009979978
-0.006871569
-0.007687928
-0.0017197796
-0.011375739
-0.008817575
-0.006785504
-0.009019382
-0.01315148
0.022890879
-0.012565179
0.5223822
-0.012904732
-0.0012289884
-0.019512221
0.0004288664
-0.001064265
-0.016071549
-0.041301712
-0.010275862
-0.006840365
-0.0054495954
-0.0012114985
-0.014441105
-0.010341987
-0.0018783484
-0.0021731537
-0.004643508
-0.0053829527
0.0027373857
0.009248307
-0.012106038
0.028460093
0.03781798
-0.12795842
-0.002730914
-0.011018836
-0.0013250884
-0.012713967
-0.0032261964
-0.0040131486
-0.0030564102
-0.0047470075
-0.002655786
-0.008655168
-0.011299174
0.0062881876
-0.00463448
-0.24782108
-0.010403248
-0.0022055828
-0.0067192
-0.0008758575
-0.0073597333
0.04825424
0.0027946942
-0.0060638078
-0.010303925
-0.0101659475
-0.00024685106
-0.005594692
-0.01474873
-0.008133572
0.0017562336
-0.017581958
-0.00026248905
-0.016507702
-0.009638134
-0.007988204
-0.008670017
-0.001924851
-0.0100238165
-0.009563694
0.00079049164
0.0085883355
-0.0066727344
-0.002935161
0.0047444194
-0.0023927926
-0.0051317625
0.0005654123
-0.0071270335
-0.0042081745
-0.010898873
-0.004168537
-0.3583081
-0.00658513
-0.007562815
-0.004771089
-0.032003775
-0.0036803612
-0.0029338873
0.032169286
-0.010588825
-0.0028168163
-0.003129505
0.00613919
0.003853389
-0.029748354
-0.02785658
-0.011500394
-0.0053126304
-0.0118828975
0.0003015198
-0.0098333275
-0.016426714
-0.0077792415
-0.09330668
0.0027682008
0.0013370526
-0.010003306
-0.005768864
0.004903491
-0.0007470567
0.08403883
-0.0141840335
-0.01921765
-0.008124327
-0.00725874
-0.0015867176
-0.0036753397
-0.014426026
-0.013025146
-0.054988354
0.0025608132
-0.0998763
-0.017565936
-0.0032402175
-0.009126153
-0.0059195464
-0.02727261
-0.0019934524
-0.005961797
-0.0076410533
-0.011794908
-0.0046892143
0.0028700547
-0.0072556417
-0.010173539
-0.006099031
-0.0003105303
-0.0066200634
0.08816004
-0.0030255634
-0.011537375
-0.00201607
-0.012934341
0.0014229428
0.0040085856
-0.010622649
-0.0065417103
-0.0016328972
-0.00015427194
-0.00046415968
0.000701636
-0.015966045
0.0043287748
-0.0023636457
0.007620651
-0.008575901
-0.021667559
-0.0053914273
-0.0025602668
-0.007417758
0.0012468363
-0.017253842
-0.0027454018
-0.0043850914
-0.0004537034
-0.0036656028
-0.0034615914
-0.0022168504
-0.005673681
-0.006043033
0.00052900007
-0.0077222898
0.002178499
-0.0023887695
-0.0018574896
0.019571032
-0.0044900095
-0.008898159
-0.014758404
-0.0064882594
-0.004331139
-0.010616851
-0.0041966713
0.0017562471
-0.015864307
-0.0012078121
-0.00017803883
-0.0034360993
-0.0014595225
-0.008148401
-0.009515978
-0.0057541076
-0.007152996
-0.0178619
-0.004288645
-0.008877642
-0.02088773
-0.0065420885
-0.013094352
-0.008289275
-0.016776945
-0.019108554
-0.0074086986
-0.00579198
0.0006959951
-0.0006967811
-0.004497553
0.00675865
-0.007737582
0.06990741
-0.01657494
0.0026923553
0.0029348305
0.0059158453
0.042314094
-0.0040567005
-0.010411954
-0.028356282
0.0062498543
-0.0300766
0.0039466172
-0.010587822
0.00035618732
-0.008299208
0.010436568
-0.0006557612
0.05473625
-0.025160672
-0.004755262
-0.0011027959
-0.008064232
-0.28614724
0.02614619
-0.011506591
-0.0072508436
0.00015989851
-0.006444826
0.0050433204
-0.00024114116
-0.0074407454
-0.007968205
-0.010133333
-0.0035438205
-0.09301497
-0.0013494419
-0.016227104
-0.0035636853
-0.011249649
-0.010346474
-0.008791997
0.007778577
0.007379097
-0.0057453546
-0.0069935657
0.03970849
-0.00094185397
-0.0015158659
0.00026193532
-0.0037764604
-0.00074221636
-0.0041458653
-0.002994514
-0.003384248
-0.04989596
-0.0061221463
-0.007589373
-0.00535493
0.003197149
-0.009086462
-0.2984818
0.0017218802
-0.0083689615
0.00025347198
-0.006742397
-0.0038191173
-0.003204887
-0.008492354
0.0013386705
-0.001427504
0.02207244
-0.00047452614
-0.00050056557
-0.0141046485
-0.0049977954
-0.0046044565
0.0009969748
-0.006538121
-0.013656175
-0.0054024556
-0.005761524
-0.0022620088
-0.01257345
-0.0059362734
-0.004281639
0.09107765
-0.008322996
-0.0071534207
-0.012634722
-0.0066924295
0.051252123
-0.009953534
0.006665824
-0.004784477
-0.021083642
-0.00024586372
0.017813697
-0.006568089
-0.0012075373
0.006809099
0.00027953353
-0.011333029
-0.010098617
-0.014158828
0.00017615983
-0.009179796
0.00117901
0.5331735
-0.0108138565
-0.0002813516
0.0072302492
-0.011171698
0.10423063
-0.0145359235
0.0015409476
-0.017673772
-0.0038365098
-0.030640434
-0.00060774223
-0.05970866
-0.016883101
0.0025119837
-0.0068996376
-0.011987753
-0.0025453458
-0.003182074
-0.021417849
-0.1969411
-0.010247553
0.0027674127
0.0029126476
-0.00443057
-0.007962033
0.0025163987
0.0031254638
-0.01154284
0.031516295
-0.0028908069
-0.0055460897
-0.0024607612
-0.0026442627
-0.0023601637
-0.007463863
-0.00245965
0.0033482087
-0.0026327735
-0.00857555
-0.012118683
-0.017140111
-0.015937664
-0.0036512415
-0.0022310163
-0.01445069
-0.0093228305
-0.035336636
-0.011702617
-0.0011525521
-0.01628633
0.00048447866
-0.0039686817
-0.006195529
0.0004304371
-0.0006670434
-0.0057967603
0.0011993767
0.000761854
-0.00044368225
-0.0067702862
-0.004854994
0.0076374174
-0.0011438209
-0.000593658
-0.0059710084
0.0024067375
0.0037561904
-0.008973426
0.02292373
-0.0033603802
-0.004195762
0.0032707546
0.002562091
-0.6645174
0.003333193
-0.0022775077
-0.007758751
0.0033270018
-0.0035828457
0.0005415796
-0.0064384323
-0.029350707
-0.010787296
-0.00086614146
-0.008806615
-0.11224164
-0.0061383094
-0.0074695353
-0.007290415
-0.007278194
-0.16660643
0.0032424545
-0.0102381185
-0.0023091438
0.0046299957
-0.0070584468
-0.0006243683
-0.007196257
-0.008636369
0.0005738472
-0.0010951583
-0.003069216
-0.0014740651
-0.0043537244
-0.009759003
-0.0062256567
0.08986214
-0.06484499
-0.0036057704
-0.003977122
-0.00918224
-0.005358542
0.002394207
-0.003257244
-0.030050486
-0.0042089825
-0.011231623
-0.00022803078
-0.014549153
-0.0061624683
-0.009017714
-0.0009098735
-0.0027104972
-0.051672064
-0.0071563763
0.0004924065
-0.00066793716
-0.002564984
0.00939698
0.0024753516
-0.01411898
-0.007039335
-0.006875779
-0.009548201
-0.0045390865
-0.0047203437
0.00029703788
0.0035616236
0.0033589392
0.0015504295
0.0055771023
-0.009303622
-0.0071694124
-0.015553984
-0.0004598019
-0.013644575
-0.0056091123
0.0051392987
-0.0073502525
-0.0030697559
-0.01298743
-0.012724176
0.16386269
-0.012894303
0.04336402
-0.0045859767
-0.0038403273
-0.004520463
-0.0027498761
-0.0015464434
-0.00014638319
-0.0023988145
-0.0069903657
-0.0012030446
-0.0044302084
0.0025783745
-0.07148744
0.000578413
-0.0029053537
-0.0069498317
-0.0055960626
-0.0027042509
-0.0031338953
0.007669784
-0.012887418
0.0010079059
-0.0061043985
0.0040295245
-0.0059494614
-0.0006706482
0.30371174
-0.0039107217
-0.014684849
-0.01627903
0.00041483337
0.0053719245
-0.0056856303
-0.0044055562
0.0078080446
-0.015428265
-0.0034384609
-0.015288473
-0.01255026
-0.009381635
-0.012188545
-0.017393207
0.010812438
-0.015175879
0.004871445
-0.0035647294
-0.0022057076
-0.036802027
-0.0015875809
-0.0034880629
0.010734525
-0.0011480135
-0.0067773787
-0.014313928
-0.0036950125
-0.0021276015
0.0031653396
-0.010066307
-0.0037209569
-0.018537682
-0.0045181788
-0.020521665
-0.002886772
0.0030517243
0.00066778855
-0.010310075
-0.0019886035
-0.004026812
-0.004552506
-1.8567647e-05
-0.0046413033
0.00051867374
-0.0015476644
-0.003782328
-0.0062626596
0.005171819
-0.005826772
-0.0029028468
-0.012263232
-0.0029792322
-0.027163034
-0.006985705
0.00447789
-0.016291887
-0.007067345
-0.0065679853
-0.006026882
-0.003425415
-0.009049466
0.007913838
-0.014622512
-0.00425852
0.019796059
0.00082620693
0.011340587
-0.008136258
0.0005298995
0.009609856
0.0056486093
-0.040412284
-0.0031444097
0.0003474351
0.0061309724
-0.002598758
-0.005256164
-0.007223283
-0.0010634862
-0.006768899
-0.0068746256
-0.003065821
-0.0061914856
-0.009512417
-0.22311576
-0.0018454118
-0.004900882
0.0062147332
-0.0012087892
-0.006921323
0.0018814261
-0.004731229
-0.013602405
0.018221766
-0.014526462
-0.009924793
0.0014317015
-0.012526304
-0.007029796
-0.0065938123
0.008267081
-0.004550513
0.0014506569
-0.00053425686
-0.001764268
0.002547736
-0.0056738565
-2.8862227e-05
-0.007856867
-0.02516038
-0.00047091796
-0.0036379218
0.017761122
0.003427493
-0.045813706
-0.002620315
-0.004461059
-0.005251977
0.13043477
-0.004171114
-0.010637352
-0.006785484
0.0057291
-0.10714606
-0.002793326
-0.0027772246
-0.006090031
-0.0029788325
-0.0040648133
0.016070789
0.00090736966
-0.006173653
0.005939107
-0.015303979
-0.006099091
-0.008096434
0.006451627
-0.0054585407
0.010073579
7.336026e-05
-0.017242122
0.0012464845
0.0021183512
0.020911295
-0.004291727
-0.0073172892
0.00773066
-0.048279535
-0.006264497
-0.0006240821
-0.026300622
-0.0069080815
-0.005709698
-0.036215715
-0.011218737
-0.0019770015
0.0033120522
0.004145578
-0.0016536316
-0.0061449767
-0.0016869288
-0.007231372
-0.03496428
-0.008988136
0.30229628
-0.020456493
-0.008480893
0.0010920797
-0.025796227
-0.0015022075
-0.013291601
-0.0028334563
-0.0028729849
-0.00629698
-0.0053679454
-0.0012562866
0.0037613153
0.009221599
-0.01826503
-0.010399388
0.0027340949
-0.0093345195
-0.005106909
0.007385316
-0.004150686
-0.0043139085
-0.0020737727
0.002173819
-0.01657408
-0.055990405
0.008483569
-0.0023562894
-0.003666606
-0.0018952581
-0.0039542518
-0.010954466
-0.008352462
-0.0047441055
0.003926456
-0.00803442
0.44128755
0.00090922124
-0.0007123873
-0.002385523
-0.0076600835
-0.0030032292
-0.0072515383
0.0026556654
0.0005013266
-0.0074672606
-0.0014139245
-0.0038104127
