768
0.0010871647
0.036529385
-0.06729616
0.00016416052
-0.06744395
-0.07135112
0.50393414
0.09172336
-0.04933988
0.0032621801
0.045722805
-0.0068674036
0.024039075
-0.023480732
-0.016724013
-0.017144172
-0.00837185
-0.03151337
-0.06860111
-0.23766473
0.03623731
0.016345778
-0.09850651
-0.0021232364
0.011982483
0.02897876
-0.12851958
-0.01594772
-0.019886054
-0.053668264
0.006940345
-0.0076807374
-0.10903716
-0.019977307
0.009608357
0.10890763
4.504311
-0.026319921
-0.03556282
0.06863368
-0.026732745
0.0045380597
-0.07649426
-0.018626753
0.0002778573
0.017048756
0.015448447
-0.02006934
-0.094106235
0.1293537
-0.028601939
0.017971307
-0.12255253
-0.060039874
-0.027151635
0.20867604
-0.07331365
-0.018848898
0.032550056
-0.10381733
0.033462957
-0.057885665
0.027034018
-0.16744712
-1.0471648
-0.016541574
-0.05101845
-0.0068652947
-0.21248631
-0.031209443
-0.060667012
0.0008767537
0.028659338
-0.024279539
-0.007433377
-0.010984395
-0.09656653
-0.40274706
0.035208628
0.0045582284
-0.0074472288
-0.014675254
0.010423406
-0.0764231
0.015722184
0.022594312
0.3484728
-0.99236965
-0.014573267
0.041846864
-0.056548618
-0.064194836
-0.07883745
-0.08606256
-0.011810463
0.011616566
-0.0043865596
0.047045138
0.014878257
0.154242
-0.019613218
-0.10770034
0.112701245
-0.0064522526
0.040445004
-0.027771145
-0.017303992
0.7376151
-0.0259598
-0.027388787
-0.031063952
0.01573432
-0.052280616
0.041252214
-0.013316344
-0.04504876
-0.0018180497
0.0072320397
0.013693421
-0.039412454
-0.03472442
0.05105894
-0.020569831
-0.021605879
-0.13500331
0.054560356
-0.036671683
0.02263041
-0.10953568
-0.013664126
0.055158485
0.028813222
0.027307564
-0.056942437
-0.07865359
0.0023579719
0.02000671
-0.057115946
0.6476367
0.10184858
-0.061623923
-0.03763366
-0.39837873
0.021429557
-0.018643597
0.19692576
0.022676747
-0.06598906
-0.04363241
0.0099599585
0.024031986
-0.10095447
-0.04658035
0.02913686
-0.059029352
-0.032612126
-0.0019737503
0.0024191665
-0.03744716
-0.03010822
-0.063761
0.03363158
-0.01852992
0.022146132
-0.06410633
0.07483235
-0.095604934
-0.36251163
-0.030068165
-0.114445284
-0.041705288
-0.07918081
0.0004708472
0.08249278
-0.05660724
-0.03380671
-0.28626955
-0.047230322
-0.11380389
-0.040840264
0.005711229
-0.025452528
0.06461172
0.034492005
0.020565672
-0.04526677
-0.034678254
-0.007261151
-0.018907923
0.057890218
-0.04216648
-0.06755658
0.05652256
-0.028467396
0.03545427
0.01528972
0.012768393
-0.028542075
0.023153545
-0.20937377
0.044650868
-0.009433156
-0.016041659
0.013285305
-0.013078655
0.0005238165
0.013041454
-0.027097508
0.044548906
-0.008779027
-0.014646603
0.09176416
-0.031279676
0.2319773
0.044123106
0.014304329
-0.057297997
0.007861809
-0.001023735
0.028485497
0.013267668
-0.009545524
-0.00023109294
-0.020369334
0.08339387
-0.07113518
-0.06480657
-0.0061180503
0.04679118
-0.009208846
0.034883678
-0.04502863
0.2787864
-0.03781833
-0.054033983
-0.06178988
-0.03877757
0.0049348674
0.0243782
0.008902522
-0.0035052462
0.16580889
0.058663704
-0.0031298543
0.027988566
0.025871526
-0.011118531
0.07609739
-0.022228194
-0.019689037
-0.13784187
-0.06643656
-0.005291313
0.0017009658
-0.026449485
0.117172316
-0.11522801
0.07009721
-0.08228342
0.061099976
-0.012160414
0.09095161
0.00755621
0.03881956
0.019466056
-0.06448775
-0.97398704
0.0010670796
-0.007218619
0.08749271
-0.11546891
0.43737575
0.0054697
-0.015715202
0.02892469
-0.033469774
-0.042124923
0.012895208
-0.029776856
-0.017015392
-0.0227351
0.017061125
0.049545478
0.11103576
-0.0058313543
0.05740732
-0.022805335
0.020941226
-0.35016018
-0.021634277
-0.05814507
-0.02187346
-0.013668329
0.01286183
0.036718447
0.0051901955
0.010906852
-0.007823215
-0.045907583
-0.017366122
-0.028400388
0.041859165
-0.10366975
0.029875418
-0.043200076
-0.027472414
0.0076172785
-0.00789049
-0.4423467
-0.0245629
-0.01763351
0.12441919
0.037981298
-0.007637732
-4.1917653
-0.050515622
0.02936939
-0.009717367
7.485626e-05
0.03832181
-0.21775202
-0.0013927983
-0.043412805
-0.047811706
0.0106232045
-0.0546387
-0.5318724
-0.02252818
0.010734746
0.0077140764
-0.0011821
-0.07192274
-0.06689825
-0.09457001
0.018274954
-0.005680164
0.03392489
-0.0068035154
-0.0211909
-0.03366761
-0.045746654
-0.017164374
-0.06412596
-0.059321567
0.006630785
-0.057391774
-0.02922351
-0.10237312
-0.021006102
0.037681926
-0.008323767
0.18629307
-0.03028893
-0.08610826
-0.03398107
-0.0016380462
9.5645046e-05
0.01839098
0.0066154203
-0.025786793
-0.054965384
0.033531707
0.07641382
-0.035418134
0.00015757444
-0.49215135
-0.017934904
-0.04247411
-0.036654394
0.0037186658
0.08372133
-0.07390487
0.013348916
-0.812511
-2.2963588
-0.023671798
-0.08133448
0.15086429
-0.076905094
-0.031052468
0.02142467
-0.048389073
-0.014151925
-0.04393453
-0.037509568
-0.11541006
0.062883236
-0.017672084
0.010962255
-0.26148286
0.05885958
0.04117135
-0.05276932
-0.53263634
-0.07306998
-0.030272014
-0.033502895
-0.02334848
0.016839147
0.013834778
-0.031535376
-0.12930028
0.08203372
-0.017668616
-0.037011676
-0.05355937
-0.08079299
-0.045029685
0.58326244
-0.028018551
-0.022854108
-0.029491022
-0.012646236
-0.019084511
0.07277763
-0.029987562
-0.0043034977
-0.023171343
-0.029115137
0.002831825
-0.19056289
-0.03660362
0.014933982
-0.07277248
0.01738248
0.013184263
0.033193927
0.012089945
-0.06782594
-0.042046234
4.576496
0.038094383
-0.005847533
-0.033059847
-0.0024419664
0.07057213
-0.008518372
-0.047140002
-0.035491504
0.13905643
0.009680606
0.0037759163
1.5214179
0.015772073
-0.0020146316
0.00019806442
-0.02591603
0.74552983
0.022555497
0.039150346
-0.04061231
-0.06648775
-0.014694083
-0.18813948
-0.025680263
0.27539417
-0.086698174
-0.05406824
-0.037796084
0.17496097
0.10015898
0.018287674
0.019015174
-0.049247254
-0.113439135
0.0032417066
0.015068869
-0.02399073
0.011168727
0.055201095
0.06881296
0.015436708
0.014456692
0.036381744
0.0330061
0.0016601286
0.03584057
0.023049403
-0.037832726
-0.88916916
-0.8562581
0.76500636
-0.016650284
0.0053424966
-0.020974588
-0.020985296
-0.025421258
0.0011607206
-0.025668787
0.000116133735
-0.02644343
-0.01282112
-0.01106046
-0.06458563
-0.0016700331
0.060491327
7.368324
-0.06022995
-0.029137174
-0.012580457
-0.053059936
-0.018582167
-0.01788665
-0.29616567
0.08008504
0.054053012
-0.028138788
-0.00878575
0.010940471
-0.019957896
-0.039982595
-0.25001997
0.09080773
-0.0023753666
0.0046434463
-0.06045289
0.0069979327
-0.038279586
-0.058416035
-0.018324321
-0.026309991
0.08235368
0.008087819
-0.061616
-0.04636834
-0.112056546
0.22739042
-0.19156809
-0.028905991
0.0039452454
0.015285233
-0.008968496
-0.041765247
0.026315939
-0.041365687
-0.0061208247
-0.010725909
-0.053723928
-0.011063939
0.054608364
0.120256595
-0.059790827
-0.011439364
-0.30206183
-0.006608215
0.07502064
0.03346966
0.031955168
-0.008965586
-0.024130544
0.02009926
0.17901662
-0.04712797
0.035336383
-0.05996454
-0.010729042
0.025534596
-0.03259825
-0.011571317
0.0039278697
-0.04609712
-0.010125136
-0.025467707
-0.053132076
0.0010429882
-0.057896532
0.115620784
0.016695201
-0.009385842
-0.10966528
0.113851644
-0.012586587
-0.029855294
0.006651519
0.0011276725
-0.088445365
0.035600435
-0.04769864
-0.0065988502
-0.025376432
-0.059169415
-0.026124552
0.035664152
0.04233037
-0.028364986
-0.11422368
-0.012717036
-0.054890987
0.026613742
-0.020510038
-0.040455222
0.025846813
0.018912228
0.003987328
0.012472492
-0.015778461
-0.04394462
-0.03980744
0.049368095
-0.034811158
-0.036738485
0.06044432
-0.03198264
0.021002308
0.05978739
-0.059417725
-0.056518365
-0.01956234
-0.10191638
-0.07326618
0.006025263
-0.0012702598
-0.017658459
-0.00017046007
-0.022048553
-0.04482206
-0.030319747
0.006133308
-0.073982865
-0.039071202
0.07112668
-0.019382514
0.0813722
-0.03765564
-0.039240785
0.011307053
0.019239508
-0.5213373
-0.057101775
0.012872177
0.02643688
-0.024695573
-0.0009575162
-0.0029517098
-0.04003059
-0.26402915
-0.018459216
-0.043772087
-0.06426351
0.00062168855
-0.42976138
-0.052110042
-0.027671766
-0.13234615
-0.020824127
-0.026674569
-0.029727701
0.041734766
0.010056551
0.05225963
-0.074458964
-0.021855747
-0.014216697
-0.06523967
-0.022235228
0.16940683
-0.009014475
0.02415982
-0.02978722
0.14447856
0.019556748
-0.00558327
-0.05050799
0.038701136
-0.02966796
0.03168973
-0.0068744505
-0.01921438
0.26902542
-0.0076018707
-0.15625113
-0.026516713
-0.004490761
-0.037796136
-0.20303875
-0.040343158
-0.029757876
0.0326392
0.06786722
0.029189944
-0.08356255
-0.07644805
-0.070671976
0.009857259
0.035905473
0.044131454
-0.0051119355
-0.010302073
0.014177148
0.012776864
0.04402602
0.026884448
0.054662835
-0.059549887
0.002138646
-0.063400865
-0.04615908
0.017755022
0.009301651
-0.013974256
-0.025990771
0.06990185
-0.020447457
-0.80995756
-0.0073992484
-0.06902796
-0.23947026
-0.10159163
-0.035832025
-0.19235885
-0.047393635
-0.0016716669
0.05398284
0.010543541
0.014303618
-0.048561357
-0.042476196
-0.0008771683
0.14123806
0.0009468652
-0.04815727
-0.11012683
-0.044087905
-0.040713247
-0.0597846
-0.016111413
0.08907794
-0.04975395
-0.06376852
0.0146076325
-0.044699766
0.010338588
0.038343713
0.055821236
-0.043954413
0.0406824
0.012428517
0.0011264737
-0.09795506
-0.03316933
-0.0541586
-0.065161705
-0.06455372
0.034367356
-0.0553163
0.16239046
-0.009132741
0.021941863
0.0017756633
-0.07425648
0.022888942
-0.09641389
-0.02942635
0.021862749
-0.024523111
0.059059743
0.2935982
0.062493667
0.00038486693
0.09153949
0.031130781
0.0033019115
0.4576007
-0.05759911
0.034123976
-0.0100945365
-0.025537562
0.034450006
