768
0.026478445
0.030584764
0.032777388
0.027175818
-0.034205746
-0.042915482
-0.02005288
0.060331725
0.04235759
0.015196949
-0.006372882
0.014285472
0.029852856
0.0064897584
-0.036999214
0.02677823
-0.019786898
0.02989532
0.0011179349
-0.034888003
0.03796651
-0.028332463
-0.0134043405
0.014422249
-0.010553746
0.0023452896
-0.028298324
0.018150106
0.030002374
-0.003478813
0.011421364
-0.01292667
-0.0271696
-0.0013481025
0.017440198
-0.03534673
-0.017698145
-0.016800648
-0.014953058
0.022643251
0.0026129493
0.025572807
-0.020616625
0.062171455
-0.036434226
-0.007428663
0.034833234
-0.004534881
0.013216684
-0.014357668
0.029689815
-0.004125535
-0.028465457
0.010159137
0.033688243
0.019211773
-0.016113961
-0.023346767
0.0027468973
-0.027308296
0.03492996
-0.025164882
0.022445416
-0.034613125
0.047825597
0.0356428
-0.045948956
0.0054399264
0.040781584
-0.0006739761
0.018596133
0.0059870332
0.030412078
-0.009419864
-0.004495916
0.032907058
-0.0010076197
-0.03406503
-0.0072621806
-0.03571663
-0.0054206783
0.039467998
-0.0091751125
-0.048992973
0.048037756
0.034694776
0.052339397
-0.045986414
-0.007039807
0.035980143
-0.024495099
-0.013951492
-0.030854985
0.0060264724
-0.027543226
0.010868065
0.0016843865
0.008907637
-0.010728962
0.03109608
0.02139929
-0.10464728
-0.012146672
0.031819046
0.033683524
-0.03292006
0.012205953
0.077254534
-0.012894168
-3.086357e-05
-0.042121526
0.0070795515
0.024665315
0.05487747
0.012038977
0.012345234
0.050840545
0.015533564
0.021138377
-0.04682468
0.050164413
0.009796074
0.018023238
0.031238196
0.029158888
0.025714144
-0.0034610445
-0.03463816
-0.026315173
0.047528256
0.03004897
0.020544346
0.0030496086
-0.010251567
0.0009681049
-0.014989796
0.00511931
-0.008811402
0.45218828
0.00867169
-0.0018551556
-0.0038975966
-0.024661759
-0.005743108
-0.05057904
0.029672557
0.055983648
-0.0012593026
-0.03064492
-0.00465736
-0.030979369
-0.01985394
-0.021999685
0.018652705
0.0048946557
-0.0219549
0.027510604
-0.01207273
-0.0047010076
-0.02405531
-0.040574364
0.061667763
0.004647625
0.033852123
0.008476504
0.024032747
-0.03923019
0.017877681
-0.04214609
-0.00817546
-0.0531931
0.015102487
-0.026755976
0.049623467
-0.028573615
0.00406254
0.09789513
-0.040357977
-0.008861558
-0.06156156
-0.025317451
0.018551424
0.0356717
-0.006424392
0.0014313156
0.0044668317
-0.0063882465
-0.02616688
0.020744443
0.042760417
0.007463564
-0.039477915
0.00021299218
-0.024206346
0.024973696
0.0005495423
-0.022468574
-0.016988812
-0.0057906574
-0.056575954
0.027622446
-0.015149275
0.004155954
0.026446177
-0.004253786
0.022894172
-0.028244326
0.007435046
0.017897084
-0.03353055
0.03920851
0.04983775
0.02194656
0.04900067
0.006409439
-0.020794934
-0.03623588
-0.0034210214
-0.018499205
0.033769585
0.03589944
-0.021886313
0.010052152
0.017054548
0.023989031
0.023983391
-0.025619315
0.0011575341
0.040354393
-0.009419709
0.04162856
-0.02240047
0.052352894
-0.019220104
0.004412792
-0.0043812036
0.026684184
-0.013386877
0.0072681806
0.01817033
0.022029795
0.0010827259
-0.025339741
-0.057615947
-0.050695986
-0.0034206714
0.0013499394
0.042573918
-0.03521988
-0.029424272
0.00871168
-0.0031974849
-0.0036837643
-0.024050457
-0.0040899487
0.06067364
-0.0095441025
0.012484406
-0.00941625
0.019469893
0.0043708542
0.0654199
-0.0046554236
0.008089892
-0.04663821
-0.021597823
0.036852732
0.0140258
0.025408732
-0.001470938
-0.0024802117
-0.009032321
-0.017928377
-0.022731861
0.03092677
-0.011157269
0.024637884
0.0011641941
0.02216777
-0.015932504
0.006384956
-0.008911526
0.02530739
0.021112371
0.00046676715
0.04885161
0.0029182106
0.004108087
-0.10602174
0.005217783
-0.008004565
-0.01618107
0.0151217375
0.009908878
0.015506799
0.007372428
-0.00419003
0.026255336
-0.072510384
-0.005357947
0.028530782
-0.025426324
-0.013222149
0.005893048
-0.0046638544
-0.02734801
-0.0038872669
-0.019541433
-0.027991127
0.011216025
-0.08901515
0.010472818
0.07873481
-0.022984823
0.073499456
-0.019845814
0.04923706
-0.008774203
0.017556008
0.032439027
-0.040942412
0.009496455
-0.013443178
-0.03699791
-0.01836662
0.025454996
-0.40071484
-0.03330457
0.01710228
-0.008581207
-0.0068692816
-0.036140215
-0.03784243
-0.0054083923
0.031927053
-0.023988664
0.0353666
-0.010244799
-0.023247615
-0.013540046
-0.039762177
0.03371601
-0.0017413145
0.015218846
0.052488852
-0.011822609
0.057909064
-0.04654691
0.010604744
0.013153198
0.03211856
-0.004815398
0.0068328315
-0.036602963
-0.00584046
0.040285148
0.034897983
0.030428959
-0.0030728087
0.028865866
-0.051552635
-0.007375912
-0.055774286
0.010585834
0.009233522
-0.0038635454
0.008747621
0.014364796
0.00082952966
0.047968592
0.031112561
-0.013910496
-0.030348327
0.41582838
0.0058143022
-0.034938663
-0.060234424
-0.023778113
-0.10260591
0.03436242
-0.016665483
0.026821267
-0.020510672
0.010244994
0.02523206
0.010946392
0.024442928
-0.014124128
0.010383872
0.023721652
0.074866734
-0.013775639
0.025214462
-0.03580291
-0.014412722
-0.012519853
0.028365856
-0.03579491
0.04889099
-0.008263844
-0.01379983
0.011748838
0.016219733
-0.023760838
0.02198766
-0.08299632
-0.0043186476
-0.032244645
-0.045719747
0.005409417
-0.00022110435
-0.0086876005
-0.032090638
-0.028389981
0.026408572
0.03577847
0.008281959
-0.011748318
-0.023989493
0.033180825
0.005165834
0.009283866
0.03718519
-0.03261668
0.012319363
0.031638645
0.06218712
-0.0032030162
-0.042847075
-0.03626996
-0.007685773
0.033883106
0.0074884333
-0.0054457933
0.0063336496
0.023341453
-0.023365876
0.011994575
-0.007003589
0.027742557
0.036588877
0.035580263
-0.0056410264
0.0071878755
-0.01447474
-0.0064191404
-0.015155056
-0.078564145
0.021278197
0.047437947
-0.010364213
-0.018650807
-0.006376968
0.0039768703
-0.0027708735
-0.005319504
0.0005585156
0.021555867
0.0053188275
-0.03254951
-0.006896849
0.023130756
0.042151455
-0.0029488818
-0.030575281
0.0029257599
0.0220612
0.02206076
0.010908317
0.023786671
-0.0075411056
0.014621202
0.01717784
-0.0035052632
-0.0060136723
-0.0128042
0.047823943
0.05958463
-0.004286689
0.005345473
-0.69495386
-0.44140786
0.010146569
-0.0073215677
0.0010061502
0.018042238
0.012280616
0.0033030529
0.016147148
0.0109551
-0.027604302
-0.008428613
-0.030134667
0.039723918
-0.009200714
0.028487042
-0.014494947
0.0024517633
-0.03130922
0.00096478016
-0.015662534
0.03053527
0.02943569
0.036315173
-0.017755426
-0.014135624
-0.001168037
0.030944193
0.017214784
0.014684272
-0.03206974
-0.006926209
0.04832899
0.03366746
-0.0005546569
-0.0144873625
0.022241712
-0.0002028634
0.00036442326
-0.0002577264
-0.048614442
0.023933178
0.026617862
0.013609705
-0.011849704
-0.006375522
0.00399407
0.01927181
0.008240357
-0.0016151461
0.05429585
0.0004790429
-0.017659584
0.001320007
-0.005149551
-0.006880779
-0.027984446
0.008428831
0.028957948
0.018348845
-0.018069986
-0.018421387
-0.01444713
-0.0067561404
-0.009384169
0.03902498
0.029423323
0.059985746
0.012429996
0.04910685
0.0040056035
0.0031787497
-0.026059069
-0.0063709263
0.05840924
-0.0044276468
0.041400112
-0.006105981
0.0021165947
0.012337462
-0.0064241183
-0.026313057
0.02883547
-0.004444895
-0.0046057235
8.383026e-05
0.017103687
-0.038356785
-0.008305192
-0.08193731
-0.0061491365
-0.03948338
0.026463741
-0.018746924
-0.039205644
0.031510003
-0.07680305
0.04052912
-0.014858863
-0.013125562
-0.020993475
0.002613863
0.037019238
-0.0016942356
0.017866649
-0.021538144
-0.0015515203
0.0058094985
0.020779043
0.024920287
-0.060106117
-0.011614145
0.07011866
-0.01599009
0.04209924
-0.041734733
-0.028842691
-0.029700514
0.031861663
-0.004592386
0.00639682
0.05252421
-0.021446027
0.018811516
0.05234027
-0.026480393
-0.015496596
-0.04629349
-0.0014036315
-0.026629977
0.0013491435
-0.0075126044
-0.053390257
0.008308451
-0.048684433
0.012242377
0.0071334234
-0.0033239443
-0.04729307
0.016627375
0.00452125
-0.011604071
0.017307738
0.000763182
-0.028180942
-0.009069181
-0.003308173
0.0042084586
0.04626698
0.031447817
0.017239857
0.023030264
0.010939852
-0.02170628
0.03243147
0.018626837
-0.03408562
0.026431575
-0.01714566
0.009405803
-0.022624929
-0.042310424
-0.029477475
-0.07262211
0.025474435
-0.008567377
-0.0049727065
0.014591508
0.0114478255
0.0443188
-0.049736205
0.008567678
-0.0042548426
-0.037088603
-0.031667154
0.021685116
-0.027025782
-0.014946561
-0.027641905
0.06523428
0.0004763942
0.015490751
-0.013304987
0.05171603
-0.010176203
0.0463674
0.004765248
0.020638498
0.05517713
0.025875593
0.019006716
-0.061532434
-0.039439503
-0.030327234
-0.048695654
-0.0072056106
-0.010795736
0.016328514
0.0051942975
-0.043063514
-0.026979055
-0.04079771
-0.010055587
0.038400415
-0.00096935243
0.029651945
-0.010217186
-0.01523183
0.00866703
0.027060596
0.017362414
0.03579884
0.008280133
-0.0035403157
-0.01941788
0.0043363622
0.0098714875
0.03177854
0.018808817
-0.0015516055
-0.018924559
0.036063354
-0.035308264
-0.02545347
0.014540298
-0.029805625
-0.026846197
-0.025882935
-0.0076067927
-0.02224031
-0.012147812
-0.0259148
0.008485269
0.04319383
-0.008216283
0.0120240105
-0.07124997
0.0075326674
-0.020870617
0.03418868
-0.0015268823
-0.0043928735
0.015440081
-0.020983068
0.06416567
0.016795442
0.028378088
-0.024274323
-0.0292951
0.01487372
0.010736672
0.012083295
0.010022988
0.042408314
-0.008356654
0.014969096
-0.011969524
0.008734463
-0.00020407842
-0.028194688
-0.025042353
0.009957933
0.010586569
0.0020817262
-0.011069007
0.15899214
0.014882231
0.023922842
0.008190133
0.009737804
-0.009965918
-0.028683126
-0.01585734
0.006720705
0.002875178
-0.013765826
0.06925057
0.02969179
-0.012528768
0.054446205
-0.0018632873
0.0026954971
-0.07127542
-0.062459283
0.0010610932
-0.02398468
-0.026812147
0.0034084495
