768
0.035818
0.0013955077
0.02834336
0.008547329
0.0017066917
-0.015421941
-0.10036948
0.0076985112
0.023249598
0.009619422
-0.0076695937
0.025091585
0.04427342
-0.020369692
-0.059642173
0.0193313
-0.012237539
-0.017706057
-0.008222681
-0.004713433
0.019971339
-0.015976412
-0.0019242539
-0.0056600533
0.012957478
0.008843354
0.042508382
0.014098157
-0.016843602
0.033320684
0.020831121
-0.028168086
-0.026246496
-0.008762688
-0.009857099
-0.049937844
-0.016611973
-0.011650195
0.011871356
0.0023226384
-0.011858423
0.01365761
0.0065246504
0.009090568
0.0017500228
-0.025932664
0.008296876
-0.005456151
0.068152994
-0.017608566
0.02719784
0.00056997593
-0.0024493658
-0.004292562
0.053586915
2.6195656e-05
-0.0064612124
0.027965568
0.024389183
-0.025890756
0.015027393
0.006231257
0.06026879
-0.018518735
0.086697295
0.035467736
-0.020946437
0.024054106
0.013839753
-0.017837431
-0.02048135
0.009664325
0.013825807
0.00023767415
-0.037104055
-0.017652621
0.04061506
-0.035267547
-0.014706148
-0.012186543
0.01264768
-0.0045284065
0.0070801442
-0.018651929
0.0039429376
0.017741272
-0.0014515967
-0.041613642
-0.026420599
0.019692333
-0.02850166
-0.018015757
-0.027563142
0.011320069
-0.002205212
-0.011601197
-0.011402345
-0.08656638
-0.013887923
0.009015466
0.0001078955
-0.067627534
0.0051286146
0.0013656768
-0.01583339
-0.036633138
0.0009880223
0.049415417
-0.010774407
0.002638802
-0.0034152493
0.0014143954
-0.0014727333
0.023405025
-0.008222728
-0.018031266
0.0362655
0.003975863
0.02759132
-0.0053029903
-0.0139084235
-0.0031461285
-0.014729031
-0.019356942
-0.009159276
-0.0056983265
-0.019034272
-0.030924782
0.042785067
-0.0009775795
-0.017631032
-0.0099871075
-0.02820674
-0.019766597
-0.024092278
0.01633127
-0.0017269846
0.0014236014
0.14294086
-0.023433596
0.004404202
-0.0077116326
0.020011654
0.0062055686
-0.033078063
0.03587873
0.027449766
0.014353353
-0.03093264
0.016637774
0.01715898
0.027276915
0.029634653
0.004675685
0.0065911063
0.024929797
-0.0072592543
-0.016387584
0.0005278277
-0.0003274172
-0.05273884
-0.003825892
0.017067837
0.009733155
0.020491417
0.03236111
-0.00084598374
0.056740064
-0.012342704
0.0050715357
0.02881748
0.0019451841
0.0029689802
0.026558543
-0.057083923
0.017815745
0.0774735
0.0038079312
-0.06377186
-0.029490432
-0.017836012
0.012045712
-0.0074748346
-0.030431917
0.023413558
0.0025825086
0.022695065
-0.033904508
0.00847958
-0.0104165
-0.0052392054
0.0023625246
0.025564564
-0.009380061
0.020307742
0.033305734
-0.015152905
-0.010857691
-0.002303389
0.00081754336
0.028335935
0.034811344
0.025138471
0.015087816
-0.02571437
0.00032436047
-0.015215341
0.0061957724
0.03649696
-0.020384276
-0.013318615
0.010708563
0.019281717
0.014841033
0.0029373155
0.03568074
-0.040883087
0.017727422
-0.004215683
0.023484308
0.014524003
0.028151877
-0.009524118
0.084150165
-0.0046563447
0.0066789854
-0.017378971
0.016110074
0.030529747
-0.030000206
0.04079367
-0.03101685
0.041143782
-0.018431256
-0.0048637576
-0.011727503
-0.0013032127
-0.001357259
0.018502204
-0.02482141
-0.0044780974
0.026554089
0.019923855
-0.033226497
-0.02043561
0.0020921421
-0.013572849
-0.01569829
0.0062861596
0.019103624
-0.014038793
-0.0026525503
-0.009601161
-0.05853995
-0.0028938546
0.024136985
0.013324495
0.027971331
-0.008677104
-0.0066710566
0.017459543
0.0055124853
0.00021937516
-0.02441034
0.003955572
0.020050671
0.011808123
0.00031532405
0.0067539182
-0.017886246
-0.005355592
0.060437277
-0.011453189
-0.009463071
0.0005490525
-0.03275222
0.0017859032
-0.040186606
0.019271124
-0.014829405
0.0076909396
-0.019549834
0.0007299537
0.0044519356
0.007702977
0.05979277
0.0070918933
0.017419834
0.08482328
0.020520914
-0.016308794
0.03615308
0.030651098
-0.027674783
-0.02415698
0.029960608
0.016181555
0.01076824
-0.031362277
-0.011681642
0.0010985315
0.019797541
0.009614259
0.016120654
-0.020426212
-0.023020338
-0.031132722
-0.039265912
0.0044410434
-0.0010885085
-0.046776764
-0.035902932
0.0073731993
-0.0058223517
0.027772311
-0.009305548
0.03091121
-0.020050302
0.00360251
0.012855844
0.023874307
0.022440078
-0.013450753
-0.03408063
-0.018610032
0.022667458
-0.12939546
0.007676864
-0.0053836484
0.0052312957
0.019583654
0.005149066
-0.01576732
-0.019001909
0.021023044
0.0004598779
-0.036136232
0.00648901
-0.008022526
-0.019171178
-0.02428097
0.01097601
-0.0029220628
0.050023634
0.03295459
-0.02903284
0.037518986
0.017288633
-0.004864843
0.0070709866
0.025052486
0.030501725
0.008076841
-0.015247155
-0.00047499622
0.0046036732
0.029304871
0.0054504233
0.02313718
0.05393303
-0.049782027
0.0077427216
-0.016837848
0.011333685
-0.006460796
0.031931303
-0.012352865
-0.006630083
-0.037863508
0.009697871
-0.012406618
0.014512169
-0.020094378
0.11825994
-0.023306359
-0.008090863
0.0037730124
0.001188074
-0.11243974
0.01740349
0.019232085
-0.013482096
0.008512214
0.002136742
-0.002810311
-0.03570798
0.012443598
-0.011335507
-0.01441532
-0.009291655
0.030292036
-0.012752015
-0.008501274
0.010326018
-0.010545878
-0.00039295384
0.038107418
-0.026256789
0.023109557
-0.010775487
0.03125381
-0.005832744
0.007321985
-0.039154176
-0.014591511
-0.012575813
-0.005922744
-0.044310436
-0.044310033
-0.02948108
0.0041196225
-0.0038483574
-0.0005278594
-0.026719319
0.0072931335
-0.011298103
-0.040091462
-0.018783525
-0.022522343
0.02344476
-0.0010942133
0.029174998
0.027273731
-0.02058133
-0.015775803
0.031801403
0.028628914
0.040681005
-0.012134116
-0.033142935
-0.004258785
-0.01999313
0.020017581
0.0058285887
-0.0036708931
0.0035306853
-0.0005740197
-0.0017598447
-0.015967669
-0.0023677782
0.018409109
0.006433702
-0.03663699
0.0053240284
-0.033781093
0.01315469
-0.008807565
-0.102761656
0.017834017
-0.005760776
0.0061654216
0.005554955
-0.0019943113
0.05158791
0.014727042
0.005556705
0.001530703
0.024348697
0.014546345
-0.02240691
-0.008853339
0.015785633
0.023706798
0.02009284
-0.052192926
0.0046891766
0.010218755
-0.013062894
0.0037051283
0.03875317
0.0053054984
-0.0044711013
0.023301741
0.022809932
0.020175604
-0.014348434
0.015809199
0.010522087
0.020875238
0.014010308
-0.14209075
-0.117432915
-0.0106733395
0.007072644
-0.008749009
0.030233383
-0.020816414
-0.0061250017
-0.029917894
0.0073917774
0.016001297
-0.00032129453
-0.022077085
0.030610537
0.0077627213
0.02039744
0.0023323516
0.01612075
-0.039922353
0.0071154637
0.019689567
0.0073155197
0.033510257
-0.0083324015
0.01129806
0.0296338
-0.021718936
0.02428001
-0.011428907
-0.0010519082
0.006402712
-0.021356625
0.017360413
-0.01109414
0.027464405
0.0033105758
0.0083966805
-0.016508348
-0.027833207
-0.008758985
-0.008900741
-0.0036984587
0.0246689
-0.022194622
-0.017614132
0.036859546
-0.0001505264
-0.01259403
0.0069031925
0.0063808714
0.01676065
-0.004197487
-0.015159574
0.013540441
0.0011015432
-0.00020689482
-0.012151607
0.028263086
0.04033357
0.023687065
-0.0398555
0.004070524
-0.013875195
0.008861334
0.004653246
0.032045867
-0.00077100605
0.01714625
-0.0017925648
0.042521257
0.00592317
-0.028065972
0.013042474
-0.0010942385
0.101985045
-0.00022739882
-0.0049066804
-0.024149848
-0.017256051
0.008837314
0.013830924
-0.014805368
0.044973295
-0.0029973895
-0.0060614236
-0.008877854
0.029045528
-0.011791149
0.008695849
-0.021095233
0.012013332
0.005431039
0.028145745
0.0042956034
-0.029364113
0.04889663
0.011673573
0.01239785
0.010864275
-0.02806137
-0.02050161
0.004611487
0.024559319
-0.0011678446
-0.005471751
-0.005393067
0.038743354
0.006158489
0.01388796
0.027577093
-0.01025525
0.0004869704
0.0013669637
-0.034622923
-0.009494696
0.0007138825
-0.022634963
-0.017043825
-0.009189384
0.010268236
0.02791836
0.040256828
-0.0096311495
0.0125661325
0.0746352
-0.028055374
-0.002537569
-0.009767901
-0.039437786
0.009932505
-0.02029112
0.0030701132
-0.023684137
-0.0068602576
-0.013092296
-0.011297601
0.0012568461
0.02880444
-0.0340463
0.008404798
-0.020134186
8.123446e-05
0.028105728
-0.006286696
-0.040402845
-0.0075648837
0.009368066
0.04549496
0.021934852
0.021354754
-0.0010513532
0.015152207
0.00035058628
-0.0052154665
-0.0073078284
-0.0024848122
0.016374994
0.00931598
-0.03036403
0.02695193
-0.050403975
0.024032073
-0.03745919
-0.055105355
-0.0043526255
0.021723347
0.039086375
-0.00998478
-0.022621833
-0.032040678
-0.041289844
0.0038784496
0.006362379
0.010871422
-0.06780521
0.021680202
0.008597015
0.010719379
-0.020837761
0.024216374
-0.016682023
0.018248014
0.013721154
0.025765004
-0.008247386
0.013970996
0.003429006
0.024080334
0.031851552
0.018514434
-0.0044700224
0.005068028
0.0033649516
-0.030325526
-0.03527476
-0.009159664
-0.017922578
-0.002462342
-0.0003140591
-0.063181356
0.024415376
0.00867622
-0.034725152
0.020439219
0.0096653355
0.016112035
0.006378273
-0.0075096143
0.018973636
0.012463148
-0.03069026
0.06381774
0.033596877
-0.01675116
0.00078878703
0.004738194
0.0040751193
-0.010864216
-0.012680228
0.026421685
-0.020294473
0.016334591
-0.005116673
-0.014711106
0.015044696
-0.0477296
0.022219762
-0.0001900029
0.006748881
-0.010501485
-0.043035123
-0.024497706
0.008095903
0.013490159
0.0065019806
0.028374024
-0.022612987
0.010801277
0.013637568
0.0051418436
0.00810786
-0.002308212
-0.032243606
-0.013337437
-0.027484704
0.0007749767
0.004668532
0.03581512
-0.008156947
-0.016882313
-0.008466677
-0.0031635317
0.0027605458
0.029571483
-0.008666617
0.04427849
0.026651766
-0.014149947
0.010768123
-0.013814969
0.02923893
-0.04617282
0.008713739
0.010121629
0.034998287
0.12361327
-0.02673758
-0.007815857
0.014612237
-0.005177712
0.0059118154
0.0053515863
0.005738806
0.015826676
0.0061879796
-0.032922994
0.105803
0.043443017
-0.013771282
-0.0138215
-0.00830363
-0.0039271936
-0.036650214
-0.006211312
0.0091983285
-0.006325849
-0.0005883385
0.01589774
